{"learner":{"attributes":{"best_iteration":"8","best_score":"0.6869864757241463","scikit_learn":"{\"_estimator_type\": \"classifier\"}"},"feature_names":["log_return_1h","log_return_3h","log_return_6h","log_return_12h","log_return_24h","vol_6h","vol_24h","rsi_14","macd_line","macd_signal","bbp_20","atr_14","adx_14","stoch_k","hour_sin","hour_cos","london_session","ny_session"],"feature_types":["float","float","float","float","float","float","float","float","float","float","float","float","float","float","float","float","int","int"],"gradient_booster":{"model":{"cats":{"enc":[],"feature_segments":[],"sorted_idx":[]},"gbtree_model_param":{"num_parallel_tree":"1","num_trees":"39"},"iteration_indptr":[0,1,2,3,4,5,6,7,8,9,10,11,12,13,14,15,16,17,18,19,20,21,22,23,24,25,26,27,28,29,30,31,32,33,34,35,36,37,38,39],"tree_info":[0,0,0,0,0,0,0,0,0,0,0,0,0,0,0,0,0,0,0,0,0,0,0,0,0,0,0,0,0,0,0,0,0,0,0,0,0,0,0],"trees":[{"base_weights":[-1.2683521E-2,-5.56574E-1,8.52446E-2,-4.2888293E-1,-1.3047682E0,3.080858E-1,-1.15033254E-1,-2.2578712E-1,-7.544151E-1,-1.4304168E0,-5.953442E-1,4.90485E-1,1.08910285E-1,1.495959E-1,-2.3074687E-1,-1.488248E-2,2.6169503E-2,2.7823687E-2,-4.376482E-2,-7.7213675E-2,-3.17982E-2,2.2507256E-3,-6.237134E-2,2.6544804E-2,-3.15867E-2,-6.406159E-3,1.1779866E-2,1.373263E-2,-1.0901416E-2,-1.5877401E-2,1.8455947E-2],"categories":[],"categories_nodes":[],"categories_segments":[],"categories_sizes":[],"default_left":[0,0,0,0,0,0,0,0,0,0,0,0,0,0,0,0,0,0,0,0,0,0,0,0,0,0,0,0,0,0,0],"id":0,"left_children":[1,3,5,7,9,11,13,15,17,19,21,23,25,27,29,-1,-1,-1,-1,-1,-1,-1,-1,-1,-1,-1,-1,-1,-1,-1,-1],"loss_changes":[7.6369255E1,2.0341232E1,5.4268913E1,1.2283379E1,1.9476852E0,2.0852703E1,1.9654015E1,6.4776483E0,1.1887184E1,1.3666E0,2.7444818E0,1.394471E1,8.329161E0,9.049384E0,2.3349438E1,0E0,0E0,0E0,0E0,0E0,0E0,0E0,0E0,0E0,0E0,0E0,0E0,0E0,0E0,0E0,0E0],"parents":[2147483647,0,0,1,1,2,2,3,3,4,4,5,5,6,6,7,7,8,8,9,9,10,10,11,11,12,12,13,13,14,14],"right_children":[2,4,6,8,10,12,14,16,18,20,22,24,26,28,30,-1,-1,-1,-1,-1,-1,-1,-1,-1,-1,-1,-1,-1,-1,-1,-1],"split_conditions":[-7.0710677E-1,1.9059399E-4,1E0,5.6531996E-2,6.951978E-2,2.8935394E-5,2.5746277E-1,3.3802E-4,1.4113175E1,6.1600346E1,3.5915928E-4,6.998118E1,5E-1,7.0710677E-1,9.659258E-1,-1.488248E-2,2.6169503E-2,2.7823687E-2,-4.376482E-2,-7.7213675E-2,-3.17982E-2,2.2507256E-3,-6.237134E-2,2.6544804E-2,-3.15867E-2,-6.406159E-3,1.1779866E-2,1.373263E-2,-1.0901416E-2,-1.5877401E-2,1.8455947E-2],"split_indices":[14,0,16,11,11,0,10,5,12,7,0,7,14,14,14,0,0,0,0,0,0,0,0,0,0,0,0,0,0,0,0],"split_type":[0,0,0,0,0,0,0,0,0,0,0,0,0,0,0,0,0,0,0,0,0,0,0,0,0,0,0,0,0,0,0],"sum_hessian":[1.4319459E3,2.1777048E2,1.2141754E3,1.8736665E2,3.0403824E1,5.744592E2,6.3971625E2,1.164244E2,7.094225E1,2.4965742E1,5.438082E0,2.990945E2,2.7536472E2,1.9453503E2,4.4518118E2,1.06784164E2,9.640237E0,5.685268E0,6.525699E1,2.1010773E1,3.954969E0,3.2134123E0,2.22467E0,2.892071E2,9.887423E0,9.5908E1,1.7945671E2,1.4534511E2,4.9189926E1,3.8931726E2,5.5863937E1],"tree_param":{"num_deleted":"0","num_feature":"18","num_nodes":"31","size_leaf_vector":"1"}},{"base_weights":[1.1263174E-2,-2.0251995E-1,2.6480713E-1,-7.0369554E-1,-8.781001E-2,-1.3194424E-1,3.7382227E-1,-6.3809115E-1,-7.846608E-2,1.7198943E-1,-1.997845E-1,8.866161E-2,-5.243405E-1,5.8058655E-1,1.6445547E-1,-2.7688483E-2,-6.554513E-2,-1.57749E-2,1.8427903E-2,-1.4551616E-2,2.0834863E-2,1.8672168E-2,-1.6883021E-2,-2.9719377E-2,4.1009653E-2,3.0781806E-2,-3.270632E-2,9.078407E-3,-4.5575675E-2],"categories":[],"categories_nodes":[],"categories_segments":[],"categories_sizes":[],"default_left":[0,0,0,0,0,0,0,0,0,0,0,0,0,0,0,0,0,0,0,0,0,0,0,0,0,0,0,0,0],"id":1,"left_children":[1,3,5,7,9,11,13,15,-1,17,19,21,23,25,27,-1,-1,-1,-1,-1,-1,-1,-1,-1,-1,-1,-1,-1,-1],"loss_changes":[7.819442E1,4.4935757E1,2.859196E1,7.269249E0,1.8596308E1,1.2423571E1,2.2325752E1,7.0499763E0,0E0,1.8583298E1,2.5229645E1,1.1341868E1,5.3472385E0,1.1662827E1,4.9296684E0,0E0,0E0,0E0,0E0,0E0,0E0,0E0,0E0,0E0,0E0,0E0,0E0,0E0,0E0],"parents":[2147483647,0,0,1,1,2,2,3,3,4,4,5,5,6,6,7,7,9,9,10,10,11,11,12,12,13,13,14,14],"right_children":[2,4,6,8,10,12,14,16,-1,18,20,22,24,26,28,-1,-1,-1,-1,-1,-1,-1,-1,-1,-1,-1,-1,-1,-1],"split_conditions":[6.123234E-17,-7.0710677E-1,-2.5881904E-1,3.693365E-4,2.5746277E-1,2.0282541E-4,2.8935394E-5,5.3071953E-2,-7.846608E-2,-2.590361E-2,9.659258E-1,4.8487663E-2,2.3033677E-3,2.5157635E-3,5.007504E-3,-2.7688483E-2,-6.554513E-2,-1.57749E-2,1.8427903E-2,-1.4551616E-2,2.0834863E-2,1.8672168E-2,-1.6883021E-2,-2.9719377E-2,4.1009653E-2,3.0781806E-2,-3.270632E-2,9.078407E-3,-4.5575675E-2],"split_indices":[15,14,14,0,10,2,0,9,0,9,14,11,3,3,3,0,0,0,0,0,0,0,0,0,0,0,0,0,0],"split_type":[0,0,0,0,0,0,0,0,0,0,0,0,0,0,0,0,0,0,0,0,0,0,0,0,0,0,0,0,0],"sum_hessian":[1.440621E3,7.817047E2,6.5891626E2,1.4463779E2,6.3706696E2,1.4198036E2,5.169359E2,1.3606293E2,8.57485E0,1.9171661E2,4.4535034E2,9.1380264E1,5.060009E1,2.5919235E2,2.5774356E2,1.2252971E2,1.3533222E1,5.4917347E1,1.3679927E2,3.8839102E2,5.695932E1,5.48588E1,3.6521465E1,4.862478E1,1.9753127E0,2.5252536E2,6.667001E0,2.5452672E2,3.21685E0],"tree_param":{"num_deleted":"0","num_feature":"18","num_nodes":"29","size_leaf_vector":"1"}},{"base_weights":[-6.313327E-3,-2.0436543E-1,2.2691087E-1,-6.86166E-1,-9.668457E-2,2.765868E-1,-1.7858867E-1,-5.1759386E-1,-8.8753426E-1,8.992462E-2,-2.5123614E-1,6.6141796E-1,2.2106259E-1,1.3103317E-1,-7.74836E-1,-3.0700997E-2,7.712118E-3,-7.552733E-2,-3.9431464E-2,-9.962834E-3,1.3151663E-2,-1.91534E-2,3.7002792E-3,2.8255587E-2,7.377826E-2,1.2336199E-2,-2.8407803E-2,-4.484323E-2,1.7521609E-2,-4.6955403E-2,9.911942E-3],"categories":[],"categories_nodes":[],"categories_segments":[],"categories_sizes":[],"default_left":[0,0,0,0,0,0,0,0,0,0,0,0,0,0,0,0,0,0,0,0,0,0,0,0,0,0,0,0,0,0,0],"id":2,"left_children":[1,3,5,7,9,11,13,15,17,19,21,23,25,27,29,-1,-1,-1,-1,-1,-1,-1,-1,-1,-1,-1,-1,-1,-1,-1,-1],"loss_changes":[6.659849E1,4.0384327E1,1.3387062E1,4.369705E0,1.8435232E1,1.2466152E1,1.3554104E1,5.266678E0,2.7169724E0,1.4567423E1,1.5012703E1,4.962307E0,1.0617519E1,1.1323842E1,4.1905766E0,0E0,0E0,0E0,0E0,0E0,0E0,0E0,0E0,0E0,0E0,0E0,0E0,0E0,0E0,0E0,0E0],"parents":[2147483647,0,0,1,1,2,2,3,3,4,4,5,5,6,6,7,7,8,8,9,9,10,10,11,11,12,12,13,13,14,14],"right_children":[2,4,6,8,10,12,14,16,18,20,22,24,26,28,30,-1,-1,-1,-1,-1,-1,-1,-1,-1,-1,-1,-1,-1,-1,-1,-1],"split_conditions":[6.123234E-17,1E0,1E0,4.9846222E1,4.8552956E1,-9.720073E-4,1.4411507E-4,9.594162E-3,-5.327461E-4,-1.6331365E-2,-5E-1,5.214296E1,8.125963E-2,-4.0028244E-2,1.9923504E-3,-3.0700997E-2,7.712118E-3,-7.552733E-2,-3.9431464E-2,-9.962834E-3,1.3151663E-2,-1.91534E-2,3.7002792E-3,2.8255587E-2,7.377826E-2,1.2336199E-2,-2.8407803E-2,-4.484323E-2,1.7521609E-2,-4.6955403E-2,9.911942E-3],"split_indices":[15,16,17,7,7,3,2,9,2,9,15,7,9,9,4,0,0,0,0,0,0,0,0,0,0,0,0,0,0,0,0],"split_type":[0,0,0,0,0,0,0,0,0,0,0,0,0,0,0,0,0,0,0,0,0,0,0,0,0,0,0,0,0,0,0],"sum_hessian":[1.4398167E3,7.7868634E2,6.611304E2,1.4126167E2,6.374247E2,5.892606E2,7.186977E1,7.883589E1,6.2425777E1,2.8895352E2,3.4847113E2,7.2923706E1,5.163369E2,4.7818573E1,2.4051195E1,6.9016304E1,9.8195915E0,6.5971227E0,5.5828655E1,1.081447E2,1.8080884E2,2.478365E2,1.0063462E2,6.672488E1,6.1988316E0,5.0074268E2,1.5594236E1,7.8681207E0,3.9950455E1,2.0607239E1,3.443957E0],"tree_param":{"num_deleted":"0","num_feature":"18","num_nodes":"31","size_leaf_vector":"1"}},{"base_weights":[-4.4073403E-4,-1.9952126E-1,2.3453337E-1,-6.720381E-1,-9.357914E-2,-9.2111826E-2,3.196167E-1,-5.7209873E-1,-1.2612823E0,-1.5227023E-1,3.621801E-1,1.3130094E-1,-4.5998493E-1,3.9294264E-1,-9.4180934E-2,-6.018548E-2,-2.4770712E-2,-6.691286E-2,-2.227065E-3,-6.8042584E-4,-1.9037498E-2,-1.7791774E-2,2.3860568E-2,1.7978456E-2,-4.3693103E-2,-2.628092E-2,3.99364E-2,3.474761E-2,1.4780425E-2,5.3889927E-2,-1.0837126E-2],"categories":[],"categories_nodes":[],"categories_segments":[],"categories_sizes":[],"default_left":[0,0,0,0,0,0,0,0,0,0,0,0,0,0,0,0,0,0,0,0,0,0,0,0,0,0,0,0,0,0,0],"id":3,"left_children":[1,3,5,7,9,11,13,15,17,19,21,23,25,27,29,-1,-1,-1,-1,-1,-1,-1,-1,-1,-1,-1,-1,-1,-1,-1,-1],"loss_changes":[6.744292E1,3.9007565E1,1.8407227E1,7.6865387E0,1.713978E1,1.1355031E1,1.5961609E1,5.404991E0,1.8018112E0,1.794357E1,6.2125893E0,2.0110428E1,4.727888E0,1.2905876E1,1.1697381E1,0E0,0E0,0E0,0E0,0E0,0E0,0E0,0E0,0E0,0E0,0E0,0E0,0E0,0E0,0E0,0E0],"parents":[2147483647,0,0,1,1,2,2,3,3,4,4,5,5,6,6,7,7,8,8,9,9,10,10,11,11,12,12,13,13,14,14],"right_children":[2,4,6,8,10,12,14,16,18,20,22,24,26,28,30,-1,-1,-1,-1,-1,-1,-1,-1,-1,-1,-1,-1,-1,-1,-1,-1],"split_conditions":[6.123234E-17,-7.0710677E-1,-2.5881904E-1,2.0658746E-4,9.659258E-1,4.999721E-2,2.099001E-3,-2.3294915E-3,7.779426E-2,5.9145755E-1,3.4130458E-2,7.120981E-1,2.362914E-3,-1.5476679E-4,-9.488465E-4,-6.018548E-2,-2.4770712E-2,-6.691286E-2,-2.227065E-3,-6.8042584E-4,-1.9037498E-2,-1.7791774E-2,2.3860568E-2,1.7978456E-2,-4.3693103E-2,-2.628092E-2,3.99364E-2,3.474761E-2,1.4780425E-2,5.3889927E-2,-1.0837126E-2],"split_indices":[15,14,14,0,14,11,4,4,11,10,11,10,3,0,3,0,0,0,0,0,0,0,0,0,0,0,0,0,0,0,0],"split_type":[0,0,0,0,0,0,0,0,0,0,0,0,0,0,0,0,0,0,0,0,0,0,0,0,0,0,0,0,0,0,0],"sum_hessian":[1.4397417E3,7.794813E2,6.602604E2,1.4177982E2,6.377015E2,1.3642513E2,5.2383527E2,1.2290525E2,1.8874565E1,5.6553925E2,7.216227E1,8.527805E1,5.1147076E1,4.4502597E2,7.880929E1,1.1715314E1,1.1118993E2,1.765762E1,1.2169465E0,3.5260614E2,2.1293307E2,9.675459E0,6.2486813E1,7.0019264E1,1.5258794E1,4.9165825E1,1.9812527E0,1.0697202E2,3.3805396E2,6.7234282E0,7.208586E1],"tree_param":{"num_deleted":"0","num_feature":"18","num_nodes":"31","size_leaf_vector":"1"}},{"base_weights":[-2.2152396E-2,-3.7048575E-1,7.895938E-2,-1.0245334E0,-3.008523E-1,1.9811276E-1,-6.9591574E-2,-1.1797749E0,-6.2473917E-1,-1.7742926E-1,-7.137533E-1,3.0116755E-1,-4.7596384E-2,-1.289273E-1,5.288113E-1,7.1510556E-4,-6.606153E-2,1.3870413E-2,-5.8895566E-2,-3.9633918E-3,-4.038709E-2,1.732984E-2,-3.9011E-2,2.2311196E-2,5.200637E-3,-4.7870222E-3,2.46851E-2,-4.5434316E-3,-2.4631038E-2,3.1930704E-2,-2.7564099E-2],"categories":[],"categories_nodes":[],"categories_segments":[],"categories_sizes":[],"default_left":[0,0,0,0,0,0,0,0,0,0,0,0,0,0,0,0,0,0,0,0,0,0,0,0,0,0,0,0,0,0,0],"id":4,"left_children":[1,3,5,7,9,11,13,15,17,19,21,23,25,27,29,-1,-1,-1,-1,-1,-1,-1,-1,-1,-1,-1,-1,-1,-1,-1,-1],"loss_changes":[5.0669804E1,1.4431503E1,1.9752686E1,1.1699066E0,1.48517E1,1.5690256E1,1.7718351E1,3.5669918E0,5.6761737E0,1.4018604E1,5.0140953E0,1.24306755E1,4.836931E0,6.22628E0,5.6936493E0,0E0,0E0,0E0,0E0,0E0,0E0,0E0,0E0,0E0,0E0,0E0,0E0,0E0,0E0,0E0,0E0],"parents":[2147483647,0,0,1,1,2,2,3,3,4,4,5,5,6,6,7,7,8,8,9,9,10,10,11,11,12,12,13,13,14,14],"right_children":[2,4,6,8,10,12,14,16,18,20,22,24,26,28,30,-1,-1,-1,-1,-1,-1,-1,-1,-1,-1,-1,-1,-1,-1,-1,-1],"split_conditions":[-5E-1,-4.3429952E-2,2.3959885E-5,2.9799697E-1,4.586458E-4,5.479768E1,1.0873724E0,-2.6855126E-4,3.366305E1,2.5010385E-4,-8.413242E-3,5.457467E-2,1E0,6.805792E1,5.007504E-3,7.1510556E-4,-6.606153E-2,1.3870413E-2,-5.8895566E-2,-3.9633918E-3,-4.038709E-2,1.732984E-2,-3.9011E-2,2.2311196E-2,5.200637E-3,-4.7870222E-3,2.46851E-2,-4.5434316E-3,-2.4631038E-2,3.1930704E-2,-2.7564099E-2],"split_indices":[14,9,0,10,3,7,10,0,13,0,8,11,14,7,3,0,0,0,0,0,0,0,0,0,0,0,0,0,0,0,0],"split_type":[0,0,0,0,0,0,0,0,0,0,0,0,0,0,0,0,0,0,0,0,0,0,0,0,0,0,0,0,0,0,0],"sum_hessian":[1.4368103E3,3.226402E2,1.11417E3,2.9725315E1,2.929149E2,6.1807544E2,4.9609464E2,2.0005976E1,9.71934E0,2.2660773E2,6.630715E1,4.352839E2,1.8279156E2,4.5205484E2,4.4039772E1,2.2141812E0,1.7791794E1,3.8838425E0,5.8354974E0,1.9704654E2,2.9561188E1,3.6626089E0,6.2644543E1,2.5004807E2,1.8523582E2,1.6861754E2,1.4174022E1,4.1036237E2,4.1692482E1,4.0346836E1,3.6929352E0],"tree_param":{"num_deleted":"0","num_feature":"18","num_nodes":"31","size_leaf_vector":"1"}},{"base_weights":[-6.8835593E-3,-4.650564E-1,7.462049E-2,-3.1353205E-1,-7.9068166E-1,2.5315234E-1,-8.860289E-2,-1.682618E-1,-7.332272E-1,-9.502218E-1,-2.6629594E-1,-6.2612903E-1,2.8240427E-1,6.862401E-2,-2.030123E-1,-4.6282854E-2,-2.3001751E-3,-5.8245964E-2,-1.9936487E-2,-5.645333E-2,-2.46616E-2,5.9281955E-3,-4.2751055E-2,4.3136936E-2,-4.0053144E-2,3.5842445E-2,1.1936496E-2,8.078506E-3,-9.511191E-3,-1.44243585E-2,1.778054E-2],"categories":[],"categories_nodes":[],"categories_segments":[],"categories_sizes":[],"default_left":[0,0,0,0,0,0,0,0,0,0,0,0,0,0,0,0,0,0,0,0,0,0,0,0,0,0,0,0,0,0,0],"id":5,"left_children":[1,3,5,7,9,11,13,15,17,19,21,23,25,27,29,-1,-1,-1,-1,-1,-1,-1,-1,-1,-1,-1,-1,-1,-1,-1,-1],"loss_changes":[5.3879627E1,1.0503319E1,3.5719738E1,9.043987E0,5.4810143E0,1.5231781E1,1.1538612E1,1.0420598E1,5.075348E0,3.706314E0,4.038748E0,5.680476E0,1.0590374E1,6.540887E0,1.7821318E1,0E0,0E0,0E0,0E0,0E0,0E0,0E0,0E0,0E0,0E0,0E0,0E0,0E0,0E0,0E0,0E0],"parents":[2147483647,0,0,1,1,2,2,3,3,4,4,5,5,6,6,7,7,8,8,9,9,10,10,11,11,12,12,13,13,14,14],"right_children":[2,4,6,8,10,12,14,16,18,20,22,24,26,28,30,-1,-1,-1,-1,-1,-1,-1,-1,-1,-1,-1,-1,-1,-1,-1,-1],"split_conditions":[-7.0710677E-1,1.7754434E-4,1E0,1.3585656E-2,3.2891962E-4,1.216095E1,-2.1603338E-4,-4.3429952E-2,-4.4361467E-4,3.055776E-4,6.2859734E-4,-9.241659E-4,-1.325714E-3,7.0710677E-1,9.659258E-1,-4.6282854E-2,-2.3001751E-3,-5.8245964E-2,-1.9936487E-2,-5.645333E-2,-2.46616E-2,5.9281955E-3,-4.2751055E-2,4.3136936E-2,-4.0053144E-2,3.5842445E-2,1.1936496E-2,8.078506E-3,-9.511191E-3,-1.44243585E-2,1.778054E-2],"split_indices":[14,2,16,8,5,12,1,9,2,3,6,3,3,14,14,0,0,0,0,0,0,0,0,0,0,0,0,0,0,0,0],"split_type":[0,0,0,0,0,0,0,0,0,0,0,0,0,0,0,0,0,0,0,0,0,0,0,0,0,0,0,0,0,0,0],"sum_hessian":[1.4409036E3,2.1690002E2,1.2240035E3,1.4936046E2,6.7539566E1,5.843249E2,6.396787E2,1.1199592E2,3.7364544E1,5.1161903E1,1.6377663E1,1.8156473E1,5.661684E2,2.695923E2,3.7008646E2,1.4652393E1,9.734352E1,1.5228508E1,2.2136036E1,3.5714302E1,1.5447602E1,1.0386462E1,5.9912014E0,1.4955968E0,1.6660875E1,5.030939E1,5.15859E2,1.9864087E2,7.095141E1,3.2139362E2,4.8692833E1],"tree_param":{"num_deleted":"0","num_feature":"18","num_nodes":"31","size_leaf_vector":"1"}},{"base_weights":[7.686006E-3,-4.722574E-1,9.421917E-2,-3.228462E-1,-7.73097E-1,-1.1480289E-1,2.731461E-1,-5.674879E-2,-6.0997534E-1,-1.3989129E0,-6.6535085E-1,3.0007204E-2,-3.3237055E-1,-8.162984E-1,2.9209217E-1,-1.8611249E-2,2.4109239E-2,7.412189E-3,-3.4651134E-2,-7.398298E-2,-2.2619708E-2,8.929552E-3,-3.9067086E-2,3.49953E-3,-2.5824724E-2,-1.9738315E-2,1.0167821E-2,2.1275742E-2,-5.614983E-2,-3.170319E-3,1.6715486E-2],"categories":[],"categories_nodes":[],"categories_segments":[],"categories_sizes":[],"default_left":[0,0,0,0,0,0,0,0,0,0,0,0,0,0,0,0,0,0,0,0,0,0,0,0,0,0,0,0,0,0,0],"id":6,"left_children":[1,3,5,7,9,11,13,15,17,19,21,23,25,27,29,-1,-1,-1,-1,-1,-1,-1,-1,-1,-1,-1,-1,-1,-1,-1,-1],"loss_changes":[5.9396976E1,9.570507E0,4.534626E1,1.1249684E1,3.9093704E0,1.7638433E1,1.3719131E1,1.3399594E1,4.569439E0,6.708908E-2,6.320755E0,7.3966813E0,7.55711E0,4.830106E0,9.666767E0,0E0,0E0,0E0,0E0,0E0,0E0,0E0,0E0,0E0,0E0,0E0,0E0,0E0,0E0,0E0,0E0],"parents":[2147483647,0,0,1,1,2,2,3,3,4,4,5,5,6,6,7,7,8,8,9,9,10,10,11,11,12,12,13,13,14,14],"right_children":[2,4,6,8,10,12,14,16,18,20,22,24,26,28,30,-1,-1,-1,-1,-1,-1,-1,-1,-1,-1,-1,-1,-1,-1,-1,-1],"split_conditions":[-7.0710677E-1,5.3759323E1,-2.5881904E-1,4.8723463E-2,3.1888E-2,5.7632545E1,1.13698E1,6.123234E-17,1.4113175E1,2.350442E-4,2.3187538E-4,4.5604244E-4,4.60869E1,2.8323881E1,-2.5881904E-1,-1.8611249E-2,2.4109239E-2,7.412189E-3,-3.4651134E-2,-7.398298E-2,-2.2619708E-2,8.929552E-3,-3.9067086E-2,3.49953E-3,-2.5824724E-2,-1.9738315E-2,1.0167821E-2,2.1275742E-2,-5.614983E-2,-3.170319E-3,1.6715486E-2],"split_indices":[14,7,15,11,11,13,12,15,12,6,6,1,12,13,14,0,0,0,0,0,0,0,0,0,0,0,0,0,0,0,0],"split_type":[0,0,0,0,0,0,0,0,0,0,0,0,0,0,0,0,0,0,0,0,0,0,0,0,0,0,0,0,0,0,0],"sum_hessian":[1.4281119E3,2.1747293E2,1.210639E3,1.4669191E2,7.078102E1,5.5852716E2,6.521119E2,7.67559E1,6.993601E1,8.636233E0,6.2144787E1,3.358512E2,2.2267593E2,1.0427384E1,6.416845E2,4.8610214E1,2.8145687E1,6.8263764E0,6.310964E1,7.4384055E0,1.1978273E0,7.443884E0,5.47009E1,3.1376715E2,2.208404E1,1.9968222E2,2.2993715E1,1.9885181E0,8.438867E0,6.806145E1,5.7362305E2],"tree_param":{"num_deleted":"0","num_feature":"18","num_nodes":"31","size_leaf_vector":"1"}},{"base_weights":[9.310127E-3,-3.9525566E-1,8.075137E-2,-3.0601835E-1,-9.9099636E-1,2.3778214E-1,-6.298449E-2,-8.6243576E-1,-2.3717932E-1,-3.422424E-1,-1.1979474E0,5.954973E-1,1.4490962E-1,1.8626834E-1,-1.6943714E-1,-1.1193978E-2,-5.988124E-2,6.722947E-3,-1.7096289E-2,-3.0830694E-2,2.246677E-2,-6.365095E-2,9.224318E-4,4.5489315E-2,1.1084344E-2,-4.348168E-2,8.490582E-3,-5.742428E-3,1.7481182E-2,-1.3707791E-2,6.305605E-3],"categories":[],"categories_nodes":[],"categories_segments":[],"categories_sizes":[],"default_left":[0,0,0,0,0,0,0,0,0,0,0,0,0,0,0,0,0,0,0,0,0,0,0,0,0,0,0,0,0,0,0],"id":7,"left_children":[1,3,5,7,9,11,13,15,17,19,21,23,25,27,29,-1,-1,-1,-1,-1,-1,-1,-1,-1,-1,-1,-1,-1,-1,-1,-1],"loss_changes":[4.1866405E1,1.125452E1,2.7800268E1,7.093338E0,3.3326988E0,1.9465195E1,1.7106167E1,4.1404915E0,6.699978E0,2.045356E0,1.9168949E0,1.4011475E1,1.198477E1,9.536601E0,1.4006679E1,0E0,0E0,0E0,0E0,0E0,0E0,0E0,0E0,0E0,0E0,0E0,0E0,0E0,0E0,0E0,0E0],"parents":[2147483647,0,0,1,1,2,2,3,3,4,4,5,5,6,6,7,7,8,8,9,9,10,10,11,11,12,12,13,13,14,14],"right_children":[2,4,6,8,10,12,14,16,18,20,22,24,26,28,30,-1,-1,-1,-1,-1,-1,-1,-1,-1,-1,-1,-1,-1,-1,-1,-1],"split_conditions":[-7.0710677E-1,1.9059399E-4,1E0,-4.3429952E-2,2.802152E1,-1.9202603E-4,2.5746277E-1,2.962893E1,-3.4722238E-5,2.3668034E1,3.35234E-3,5.6531996E-2,1.1824059E1,-1.7618492E-2,8.660254E-1,-1.1193978E-2,-5.988124E-2,6.722947E-3,-1.7096289E-2,-3.0830694E-2,2.246677E-2,-6.365095E-2,9.224318E-4,4.5489315E-2,1.1084344E-2,-4.348168E-2,8.490582E-3,-5.742428E-3,1.7481182E-2,-1.3707791E-2,6.305605E-3],"split_indices":[14,0,16,9,13,0,10,12,0,13,4,11,12,9,14,0,0,0,0,0,0,0,0,0,0,0,0,0,0,0,0],"split_type":[0,0,0,0,0,0,0,0,0,0,0,0,0,0,0,0,0,0,0,0,0,0,0,0,0,0,0,0,0,0,0],"sum_hessian":[1.4464258E3,2.1640572E2,1.2300201E3,1.8952937E2,2.6876343E1,5.8751184E2,6.425083E2,1.9597437E1,1.6993193E2,7.1418076E0,1.9734535E1,1.19979034E2,4.675328E2,1.9206027E2,4.50448E2,7.3201013E0,1.2277335E1,3.73019E1,1.3263004E2,5.4676714E0,1.6741362E0,1.8543545E1,1.1909897E0,6.439976E1,5.5579273E1,1.0388022E1,4.5714478E2,6.765221E1,1.24408066E2,3.3265457E2,1.1779342E2],"tree_param":{"num_deleted":"0","num_feature":"18","num_nodes":"31","size_leaf_vector":"1"}},{"base_weights":[-1.1764927E-2,-1.2585387E-1,2.2336486E-1,4.025907E-2,-2.1788768E-1,4.852486E-1,1.01986155E-1,2.364956E-1,-1.837245E-1,-5.23511E-1,-1.2524492E-1,6.422652E-1,2.4218595E-1,1.7434232E-1,-2.753665E-1,5.8131415E-2,9.225687E-3,-1.2565988E-2,1.858784E-2,-4.5634466E-3,-3.573911E-2,-1.1662661E-2,1.4419836E-2,2.7031232E-2,5.6758594E-2,-1.7201614E-2,2.3704836E-2,3.0006746E-2,6.1138095E-3,-3.000713E-2,4.403013E-3],"categories":[],"categories_nodes":[],"categories_segments":[],"categories_sizes":[],"default_left":[0,0,0,0,0,0,0,0,0,0,0,0,0,0,0,0,0,0,0,0,0,0,0,0,0,0,0,0,0,0,0],"id":8,"left_children":[1,3,5,7,9,11,13,15,17,19,21,23,25,27,29,-1,-1,-1,-1,-1,-1,-1,-1,-1,-1,-1,-1,-1,-1,-1,-1],"loss_changes":[3.8665234E1,1.4844229E1,1.4919176E1,1.5286963E1,1.7618954E1,5.525997E0,8.8680935E0,8.705781E0,6.195604E0,1.1920612E1,2.15396E1,3.887104E0,8.324314E0,5.9494295E0,6.23333E0,0E0,0E0,0E0,0E0,0E0,0E0,0E0,0E0,0E0,0E0,0E0,0E0,0E0,0E0,0E0,0E0],"parents":[2147483647,0,0,1,1,2,2,3,3,4,4,5,5,6,6,7,7,8,8,9,9,10,10,11,11,12,12,13,13,14,14],"right_children":[2,4,6,8,10,12,14,16,18,20,22,24,26,28,30,-1,-1,-1,-1,-1,-1,-1,-1,-1,-1,-1,-1,-1,-1,-1,-1],"split_conditions":[5E-1,-7.0710677E-1,4.0797025E-1,-3.0348028E-4,-5E-1,5.457467E-2,5.732986E-4,-2.8314965E-3,8.91707E1,-5.8370456E-4,9.1198046E-4,3.695166E-1,6.1298784E-2,2.5098627E-2,4.4145496E-4,5.8131415E-2,9.225687E-3,-1.2565988E-2,1.858784E-2,-4.5634466E-3,-3.573911E-2,-1.1662661E-2,1.4419836E-2,2.7031232E-2,5.6758594E-2,-1.7201614E-2,2.3704836E-2,3.0006746E-2,6.1138095E-3,-3.000713E-2,4.403013E-3],"split_indices":[15,15,10,2,15,11,6,2,13,3,2,10,11,11,5,0,0,0,0,0,0,0,0,0,0,0,0,0,0,0,0],"split_type":[0,0,0,0,0,0,0,0,0,0,0,0,0,0,0,0,0,0,0,0,0,0,0,0,0,0,0,0,0,0,0],"sum_hessian":[1.439302E3,9.693983E2,4.6990366E2,3.4580795E2,6.2359033E2,1.4786847E2,3.220352E2,1.8429102E2,1.6151695E2,1.4397478E2,4.7961557E2,8.883764E1,5.9030827E1,2.7067258E2,5.1362617E1,8.658644E0,1.7563237E2,1.4448273E2,1.7034222E1,4.4619366E1,9.935541E1,3.8065634E2,9.895922E1,7.5388794E1,1.344885E1,1.6596115E1,4.243471E1,2.834479E1,2.4232777E2,2.6779654E1,2.4582964E1],"tree_param":{"num_deleted":"0","num_feature":"18","num_nodes":"31","size_leaf_vector":"1"}},{"base_weights":[-5.4195873E-3,-1.5657645E-1,1.7635933E-1,-5.499685E-1,-7.07026E-2,2.9705116E-1,2.8056433E-2,-3.9889938E-1,-9.1489065E-1,5.3362437E-2,-2.408252E-1,4.0472627E-1,7.169933E-2,3.1078193E-1,-5.1964622E-2,-2.4009174E-2,5.096621E-2,-6.448624E-2,-2.5938544E-2,-1.2993033E-2,5.7176673E-3,-1.8444305E-2,2.6317374E-3,2.9876111E-2,6.585207E-3,8.477155E-3,-3.625003E-2,9.383816E-3,4.7775224E-2,-3.082557E-2,6.9264194E-4],"categories":[],"categories_nodes":[],"categories_segments":[],"categories_sizes":[],"default_left":[0,0,0,0,0,0,0,0,0,0,0,0,0,0,0,0,0,0,0,0,0,0,0,0,0,0,0,0,0,0,0],"id":9,"left_children":[1,3,5,7,9,11,13,15,17,19,21,23,25,27,29,-1,-1,-1,-1,-1,-1,-1,-1,-1,-1,-1,-1,-1,-1,-1,-1],"loss_changes":[3.9557644E1,2.6514393E1,1.169105E1,7.3910294E0,1.3654405E1,8.712612E0,6.676105E0,1.2164007E1,5.332035E0,7.185529E0,1.0269597E1,1.2741943E1,9.297528E0,4.9861546E0,8.565578E0,0E0,0E0,0E0,0E0,0E0,0E0,0E0,0E0,0E0,0E0,0E0,0E0,0E0,0E0,0E0,0E0],"parents":[2147483647,0,0,1,1,2,2,3,3,4,4,5,5,6,6,7,7,8,8,9,9,10,10,11,11,12,12,13,13,14,14],"right_children":[2,4,6,8,10,12,14,16,18,20,22,24,26,28,30,-1,-1,-1,-1,-1,-1,-1,-1,-1,-1,-1,-1,-1,-1,-1,-1],"split_conditions":[6.123234E-17,1E0,2.8935394E-5,1.5183706E-2,-1.1963094E-5,6.227093E1,3.3333332E1,6.973679E1,-1.1534275E-5,-2.590361E-2,-5E-1,5.0918017E-2,1E0,6.5871055E-4,4.8973225E1,-2.4009174E-2,5.096621E-2,-6.448624E-2,-2.5938544E-2,-1.2993033E-2,5.7176673E-3,-1.8444305E-2,2.6317374E-3,2.9876111E-2,6.585207E-3,8.477155E-3,-3.625003E-2,9.383816E-3,4.7775224E-2,-3.082557E-2,6.9264194E-4],"split_indices":[15,16,0,8,1,13,13,13,1,9,15,11,17,0,7,0,0,0,0,0,0,0,0,0,0,0,0,0,0,0,0],"split_type":[0,0,0,0,0,0,0,0,0,0,0,0,0,0,0,0,0,0,0,0,0,0,0,0,0,0,0,0,0,0,0],"sum_hessian":[1.437652E3,7.850163E2,6.526356E2,1.3968922E2,6.453271E2,3.592599E2,2.9337576E2,1.0027207E2,3.9417156E1,3.7357614E2,2.7175092E2,2.4256445E2,1.16695435E2,6.408187E1,2.292939E2,9.5462166E1,4.809901E0,1.909363E1,2.0323526E1,6.035551E1,3.1322064E2,1.8901222E2,8.273871E1,1.414736E2,1.01090836E2,1.0463257E2,1.206287E1,5.4891743E1,9.190127E0,2.3067375E1,2.0622652E2],"tree_param":{"num_deleted":"0","num_feature":"18","num_nodes":"31","size_leaf_vector":"1"}},{"base_weights":[3.7541697E-3,-3.992175E-1,7.161518E-2,-3.099706E-1,-9.5513475E-1,-9.2747286E-2,2.123559E-1,-1.0334315E0,-2.3800944E-1,-1.1143392E0,-2.1289384E-1,4.1489206E-2,-3.0688155E-1,5.0096285E-1,1.21019445E-1,-2.0950498E-2,-5.946486E-2,8.480982E-4,-2.120859E-2,-6.422407E-2,-1.1952635E-2,4.3525055E-2,-4.0168334E-2,8.274107E-3,-7.7982913E-3,-1.8791484E-2,1.6487991E-2,3.836842E-2,-6.046086E-5,3.1908774E-3,2.0295927E-2],"categories":[],"categories_nodes":[],"categories_segments":[],"categories_sizes":[],"default_left":[0,0,0,0,0,0,0,0,0,0,0,0,0,0,0,0,0,0,0,0,0,0,0,0,0,0,0,0,0,0,0],"id":10,"left_children":[1,3,5,7,9,11,13,15,17,19,21,23,25,27,29,-1,-1,-1,-1,-1,-1,-1,-1,-1,-1,-1,-1,-1,-1,-1,-1],"loss_changes":[3.8907658E1,9.878136E0,2.8187553E1,9.030306E0,3.058117E0,1.6178596E1,1.7239109E1,1.0167713E0,7.7612505E0,3.0773182E0,4.6408057E0,8.510912E0,9.641523E0,2.1064499E1,8.119732E0,0E0,0E0,0E0,0E0,0E0,0E0,0E0,0E0,0E0,0E0,0E0,0E0,0E0,0E0,0E0,0E0],"parents":[2147483647,0,0,1,1,2,2,3,3,4,4,5,5,6,6,7,7,8,8,9,9,10,10,11,11,12,12,13,13,14,14],"right_children":[2,4,6,8,10,12,14,16,18,20,22,24,26,28,30,-1,-1,-1,-1,-1,-1,-1,-1,-1,-1,-1,-1,-1,-1,-1,-1],"split_conditions":[-7.0710677E-1,1.9059399E-4,-2.5881904E-1,-5.8386415E-2,5.732986E-4,5.9145755E-1,-1.5476679E-4,2.962893E1,3.395841E1,6.076515E1,4.57963E1,-1.1552807E-5,4.60869E1,5.186874E-4,7.7958254E-4,-2.0950498E-2,-5.946486E-2,8.480982E-4,-2.120859E-2,-6.422407E-2,-1.1952635E-2,4.3525055E-2,-4.0168334E-2,8.274107E-3,-7.7982913E-3,-1.8791484E-2,1.6487991E-2,3.836842E-2,-6.046086E-5,3.1908774E-3,2.0295927E-2],"split_indices":[14,0,15,8,6,10,0,12,13,7,7,0,12,6,1,0,0,0,0,0,0,0,0,0,0,0,0,0,0,0,0],"split_type":[0,0,0,0,0,0,0,0,0,0,0,0,0,0,0,0,0,0,0,0,0,0,0,0,0,0,0,0,0,0,0],"sum_hessian":[1.4207427E3,2.0406757E2,1.216675E3,1.771806E2,2.6886974E1,5.61396E2,6.5527905E2,1.48206215E1,1.6235997E2,2.1725677E1,5.1612954E0,3.4557083E2,2.1582521E2,1.5644763E2,4.9883142E2,3.7452295E0,1.1075392E1,6.89009E1,9.3459076E1,1.7798439E1,3.92724E0,1.6534021E0,3.5078936E0,2.1237239E2,1.3319844E2,1.9510504E2,2.0720161E1,1.0187446E2,5.4573166E1,4.1644235E2,8.2389084E1],"tree_param":{"num_deleted":"0","num_feature":"18","num_nodes":"31","size_leaf_vector":"1"}},{"base_weights":[7.591368E-3,-4.0092158E-1,7.729225E-2,-3.3350226E-1,-1.1826891E0,2.0787139E-1,-4.518789E-2,-1.0911399E0,-2.5361413E-1,-1.2864085E0,4.1451547E-3,3.9252576E-1,9.3506366E-2,1.142785E-1,-1.4219105E-1,-2.078234E-2,-5.987779E-2,-6.831491E-3,-3.31198E-2,-6.69826E-2,-1.6762141E-2,2.7545223E-2,-1.4333952E-3,5.6176223E-3,-3.3352006E-2,1.8938646E-2,-9.107755E-5,7.359322E-3,-1.1767147E-2],"categories":[],"categories_nodes":[],"categories_segments":[],"categories_sizes":[],"default_left":[0,0,0,0,0,0,0,0,0,0,0,0,0,0,0,0,0,0,0,0,0,0,0,0,0,0,0,0,0],"id":11,"left_children":[1,3,5,7,9,11,13,15,17,19,-1,21,23,25,27,-1,-1,-1,-1,-1,-1,-1,-1,-1,-1,-1,-1,-1,-1],"loss_changes":[4.0503532E1,1.0533386E1,1.9442371E1,1.1360426E1,2.2158527E0,1.2386339E1,9.727498E0,7.987747E-1,8.289164E0,3.060627E-1,0E0,1.5003792E1,5.300694E0,7.309251E0,1.056893E1,0E0,0E0,0E0,0E0,0E0,0E0,0E0,0E0,0E0,0E0,0E0,0E0,0E0,0E0],"parents":[2147483647,0,0,1,1,2,2,3,3,4,4,5,5,6,6,7,7,8,8,9,9,11,11,12,12,13,13,14,14],"right_children":[2,4,6,8,10,12,14,16,18,20,-1,22,24,26,28,-1,-1,-1,-1,-1,-1,-1,-1,-1,-1,-1,-1,-1,-1],"split_conditions":[-7.0710677E-1,3.3617739E-4,1E0,-4.3429952E-2,7.318245E1,-1.1838256E-5,-1.1906018E-4,6.3456416E0,4.586458E-4,7.2502455E-4,4.1451547E-3,4.90711E-4,1.3021483E-3,4.9500186E-2,-2.5881904E-1,-2.078234E-2,-5.987779E-2,-6.831491E-3,-3.31198E-2,-6.69826E-2,-1.6762141E-2,2.7545223E-2,-1.4333952E-3,5.6176223E-3,-3.3352006E-2,1.8938646E-2,-9.107755E-5,7.359322E-3,-1.1767147E-2],"split_indices":[14,0,16,9,13,0,0,13,3,0,0,6,5,11,14,0,0,0,0,0,0,0,0,0,0,0,0,0,0],"split_type":[0,0,0,0,0,0,0,0,0,0,0,0,0,0,0,0,0,0,0,0,0,0,0,0,0,0,0,0,0],"sum_hessian":[1.4204004E3,2.0633435E2,1.214066E3,1.9126624E2,1.5068124E1,5.872679E2,6.2679816E2,1.7036667E1,1.7422957E2,1.3911577E1,1.1565467E0,2.236803E2,3.635876E2,2.3700328E2,3.897949E2,2.986326E0,1.4050341E1,1.3650041E2,3.7729156E1,1.2787348E1,1.1242294E0,1.6233177E2,6.134853E1,3.5562753E2,7.960056E0,7.160751E1,1.6539577E2,9.47799E1,2.9501498E2],"tree_param":{"num_deleted":"0","num_feature":"18","num_nodes":"29","size_leaf_vector":"1"}},{"base_weights":[-4.1554323E-3,-1.4964071E-1,1.6151237E-1,6.8850696E-2,-2.5635657E-1,4.4468173E-1,8.4015675E-2,-2.0900582E-1,2.2556853E-1,-1.0381299E-1,-3.657282E-1,6.7816824E-1,5.55265E-2,9.394746E-2,-5.5842306E-2,1.1231162E-2,-1.9334612E-2,1.8422034E-2,-2.2489078E-2,-1.2299748E-2,8.604007E-3,-3.4192417E-2,-1.0699313E-2,-2.7409628E-2,3.6339E-2,3.5968803E-2,-9.670744E-3,-3.7845883E-3,7.821076E-3],"categories":[],"categories_nodes":[],"categories_segments":[],"categories_sizes":[],"default_left":[0,0,0,0,0,0,0,0,0,0,0,0,0,0,0,0,0,0,0,0,0,0,0,0,0,0,0,0,0],"id":12,"left_children":[1,3,5,7,9,11,13,15,17,19,21,23,25,27,-1,-1,-1,-1,-1,-1,-1,-1,-1,-1,-1,-1,-1,-1,-1],"loss_changes":[3.455135E1,1.7813828E1,1.4671875E1,1.0987613E1,8.520882E0,1.3027666E1,6.3961954E0,7.1079535E0,1.5712058E1,8.500336E0,1.42572365E1,5.75082E0,9.230123E0,5.5661707E0,0E0,0E0,0E0,0E0,0E0,0E0,0E0,0E0,0E0,0E0,0E0,0E0,0E0,0E0,0E0],"parents":[2147483647,0,0,1,1,2,2,3,3,4,4,5,5,6,6,7,7,8,8,9,9,10,10,11,11,12,12,13,13],"right_children":[2,4,6,8,10,12,14,16,18,20,22,24,26,28,-1,-1,-1,-1,-1,-1,-1,-1,-1,-1,-1,-1,-1,-1,-1],"split_conditions":[6.123234E-17,2.7955985E-1,-1.5476679E-4,-1.5718687E-2,-7.0710677E-1,4.9524626E-4,1.518489E-1,-2.9789077E-4,3.571316E-5,1.1144631E-3,-5E-1,1.6821695E-4,-1.5727471E-3,5E-1,-5.5842306E-2,1.1231162E-2,-1.9334612E-2,1.8422034E-2,-2.2489078E-2,-1.2299748E-2,8.604007E-3,-3.4192417E-2,-1.0699313E-2,-2.7409628E-2,3.6339E-2,3.5968803E-2,-9.670744E-3,-3.7845883E-3,7.821076E-3],"split_indices":[15,10,0,9,15,6,9,0,4,4,15,6,3,15,0,0,0,0,0,0,0,0,0,0,0,0,0,0,0],"split_type":[0,0,0,0,0,0,0,0,0,0,0,0,0,0,0,0,0,0,0,0,0,0,0,0,0,0,0,0,0],"sum_hessian":[1.4315308E3,7.622441E2,6.692867E2,2.5024469E2,5.1199936E2,1.4279227E2,5.2649445E2,9.012386E1,1.6012083E2,2.1461676E2,2.973826E2,8.878195E1,5.4010315E1,5.2308997E2,3.404476E0,2.6118835E1,6.400503E1,1.3253676E2,2.7584066E1,1.4169987E2,7.291689E1,9.490723E1,2.0247539E2,2.9932141E0,8.5788734E1,1.421461E1,3.9795704E1,1.4073442E2,3.8235553E2],"tree_param":{"num_deleted":"0","num_feature":"18","num_nodes":"29","size_leaf_vector":"1"}},{"base_weights":[2.2977967E-2,-1.2214159E-1,1.958815E-1,2.810257E-2,-2.4353147E-1,-1.03361145E-1,2.7504435E-1,2.0207402E-1,-1.8807371E-1,-4.4028702E-1,1.20293915E-1,2.6987785E-2,-6.8358785E-1,4.3281966E-1,1.0885119E-1,-7.1943575E-3,1.49205355E-2,-1.1960986E-2,1.5879108E-2,-1.3992088E-2,-3.609366E-2,-1.9212294E-2,1.2037911E-2,1.0470918E-2,-1.45617025E-2,-4.3971162E-2,-1.37739135E-2,2.3407413E-2,-2.8784906E-2,-6.3796537E-3,1.0101437E-2],"categories":[],"categories_nodes":[],"categories_segments":[],"categories_sizes":[],"default_left":[0,0,0,0,0,0,0,0,0,0,0,0,0,0,0,0,0,0,0,0,0,0,0,0,0,0,0,0,0,0,0],"id":13,"left_children":[1,3,5,7,9,11,13,15,17,19,21,23,25,27,29,-1,-1,-1,-1,-1,-1,-1,-1,-1,-1,-1,-1,-1,-1,-1,-1],"loss_changes":[3.594978E1,1.4215274E1,1.5514624E1,1.3165058E1,3.0906414E1,1.0416959E1,1.3515629E1,6.50484E0,4.114654E0,1.2445625E1,9.334705E0,6.634336E0,1.7764969E0,9.711533E0,5.604938E0,0E0,0E0,0E0,0E0,0E0,0E0,0E0,0E0,0E0,0E0,0E0,0E0,0E0,0E0,0E0,0E0],"parents":[2147483647,0,0,1,1,2,2,3,3,4,4,5,5,6,6,7,7,8,8,9,9,10,10,11,11,12,12,13,13,14,14],"right_children":[2,4,6,8,10,12,14,16,18,20,22,24,26,28,30,-1,-1,-1,-1,-1,-1,-1,-1,-1,-1,-1,-1,-1,-1,-1,-1],"split_conditions":[6.123234E-17,-7.0710677E-1,-2.5881904E-1,-2.60482E-4,8.660254E-1,4.838354E-4,2.9617759E-5,-1.6331365E-2,5.211945E-4,2.0225586E-4,3.6053192E1,1.3866818E-4,1.232779E-3,2.362914E-3,5E-1,-7.1943575E-3,1.49205355E-2,-1.1960986E-2,1.5879108E-2,-1.3992088E-2,-3.609366E-2,-1.9212294E-2,1.2037911E-2,1.0470918E-2,-1.45617025E-2,-4.3971162E-2,-1.37739135E-2,2.3407413E-2,-2.8784906E-2,-6.3796537E-3,1.0101437E-2],"split_indices":[15,15,14,2,14,3,0,9,0,3,13,2,3,3,14,0,0,0,0,0,0,0,0,0,0,0,0,0,0,0,0],"split_type":[0,0,0,0,0,0,0,0,0,0,0,0,0,0,0,0,0,0,0,0,0,0,0,0,0,0,0,0,0,0,0],"sum_hessian":[1.4307833E3,7.7805115E2,6.527321E2,3.4804483E2,4.3000635E2,1.3648834E2,5.162438E2,1.928837E2,1.5516112E2,2.7894412E2,1.5106223E2,1.12229324E2,2.4259024E1,2.640058E2,2.5223796E2,4.19044E1,1.509793E2,1.4138704E2,1.3774084E1,1.7896518E2,9.997895E1,2.8693932E1,1.2236829E2,7.155189E1,4.0677437E1,1.5612394E1,8.646629E0,2.5558832E2,8.417501E0,7.119826E1,1.810397E2],"tree_param":{"num_deleted":"0","num_feature":"18","num_nodes":"31","size_leaf_vector":"1"}},{"base_weights":[-3.404152E-3,-1.2899084E-1,1.432824E-1,-4.483898E-1,-5.9800778E-2,4.680298E-1,6.518555E-2,5.61365E-1,-4.8141026E-1,6.1106853E-2,-1.6044018E-1,7.596936E-1,3.7153732E-2,-1.4526528E-1,1.3567775E-1,-2.1635534E-2,5.029161E-2,-2.1672867E-2,-5.781428E-2,1.0251864E-3,4.9686823E-2,1.698467E-3,-1.27443345E-2,2.9099643E-2,6.013244E-2,-1.6601022E-2,2.1643778E-2,3.3551823E-2,-1.0096432E-2,4.9173553E-2,5.714764E-3],"categories":[],"categories_nodes":[],"categories_segments":[],"categories_sizes":[],"default_left":[0,0,0,0,0,0,0,0,0,0,0,0,0,0,0,0,0,0,0,0,0,0,0,0,0,0,0,0,0,0,0],"id":14,"left_children":[1,3,5,7,9,11,13,15,17,19,21,23,25,27,29,-1,-1,-1,-1,-1,-1,-1,-1,-1,-1,-1,-1,-1,-1,-1,-1],"loss_changes":[2.6443018E1,1.7062778E1,1.676148E1,4.8561096E0,7.758111E0,1.6082176E1,7.9550858E0,2.5635157E0,3.8263035E0,1.0960624E1,6.3945417E0,5.3134537E0,7.8571825E0,6.365838E0,7.1606383E0,0E0,0E0,0E0,0E0,0E0,0E0,0E0,0E0,0E0,0E0,0E0,0E0,0E0,0E0,0E0,0E0],"parents":[2147483647,0,0,1,1,2,2,3,3,4,4,5,5,6,6,7,7,8,8,9,9,10,10,11,11,12,12,13,13,14,14],"right_children":[2,4,6,8,10,12,14,16,18,20,22,24,26,28,30,-1,-1,-1,-1,-1,-1,-1,-1,-1,-1,-1,-1,-1,-1,-1,-1],"split_conditions":[6.123234E-17,-7.0710677E-1,-1.9202603E-4,4.9792303E-5,-1.6073025E-4,4.9524626E-4,-2.5881904E-1,2.702935E-2,3.693365E-4,-2.144952E-4,5.7081366E-1,6.913804E1,7.6426774E-2,-3.401661E-4,1.0044554E1,-2.1635534E-2,5.029161E-2,-2.1672867E-2,-5.781428E-2,1.0251864E-3,4.9686823E-2,1.698467E-3,-1.27443345E-2,2.9099643E-2,6.013244E-2,-1.6601022E-2,2.1643778E-2,3.3551823E-2,-1.0096432E-2,4.9173553E-2,5.714764E-3],"split_indices":[15,14,0,5,4,6,14,11,0,4,10,13,11,1,13,0,0,0,0,0,0,0,0,0,0,0,0,0,0,0,0],"split_type":[0,0,0,0,0,0,0,0,0,0,0,0,0,0,0,0,0,0,0,0,0,0,0,0,0,0,0,0,0,0,0],"sum_hessian":[1.4334105E3,7.7231146E2,6.6109906E2,1.3653777E2,6.3577374E2,1.2719513E2,5.3390393E2,3.8169253E0,1.3272084E2,2.8898343E2,3.467903E2,7.539587E1,5.1799263E1,1.3369719E2,4.0020676E2,1.1874895E0,2.6294358E0,1.2544938E2,7.2714615E0,2.779064E2,1.1076997E1,1.1359851E2,2.331918E2,5.5460575E1,1.9935287E1,2.6881824E1,2.4917439E1,7.9743814E0,1.257228E2,8.738537E0,3.9146823E2],"tree_param":{"num_deleted":"0","num_feature":"18","num_nodes":"31","size_leaf_vector":"1"}},{"base_weights":[-2.5016745E-3,-3.8456628E-1,6.1531015E-2,-2.9820246E-1,-9.583433E-1,-7.817506E-2,1.8130977E-1,-4.823668E-1,-1.4314495E-1,3.727818E-2,-1.0836762E0,5.3876776E-2,-3.0352628E-1,3.635154E-1,8.3294965E-2,-2.7382046E-2,2.492515E-2,-3.4625195E-3,-6.008057E-2,-5.731979E-2,6.1128493E-3,6.665016E-3,-2.2258207E-2,8.391226E-4,-1.994174E-2,2.428865E-2,4.8367972E-3,-1.2393142E-3,1.7553164E-2],"categories":[],"categories_nodes":[],"categories_segments":[],"categories_sizes":[],"default_left":[0,0,0,0,0,0,0,0,0,0,0,0,0,0,0,0,0,0,0,0,0,0,0,0,0,0,0,0,0],"id":15,"left_children":[1,3,5,7,9,11,13,15,17,-1,19,21,23,25,27,-1,-1,-1,-1,-1,-1,-1,-1,-1,-1,-1,-1,-1,-1],"loss_changes":[3.4788128E1,9.828564E0,2.0394299E1,5.038434E0,6.4140224E0,1.6766682E1,1.1685417E1,5.480425E0,7.622871E0,0E0,2.020464E0,1.4160148E1,6.3603E0,7.4273243E0,1.23911E1,0E0,0E0,0E0,0E0,0E0,0E0,0E0,0E0,0E0,0E0,0E0,0E0,0E0,0E0],"parents":[2147483647,0,0,1,1,2,2,3,3,4,4,5,5,6,6,7,7,8,8,10,10,11,11,12,12,13,13,14,14],"right_children":[2,4,6,8,10,12,14,16,18,-1,20,22,24,26,28,-1,-1,-1,-1,-1,-1,-1,-1,-1,-1,-1,-1,-1,-1],"split_conditions":[-7.0710677E-1,1.9059399E-4,-2.5881904E-1,-1.8369701E-16,-1.4632007E-3,6.088251E-1,-3.5806992E-5,7.3524535E-4,4.93655E1,3.727818E-2,3.1796515E-3,1.9059399E-4,-1.9232255E-4,4.8314538E-4,5.212055E-4,-2.7382046E-2,2.492515E-2,-3.4625195E-3,-6.008057E-2,-5.731979E-2,6.1128493E-3,6.665016E-3,-2.2258207E-2,8.391226E-4,-1.994174E-2,2.428865E-2,4.8367972E-3,-1.2393142E-3,1.7553164E-2],"split_indices":[14,0,15,15,2,10,0,2,12,0,4,0,1,6,1,0,0,0,0,0,0,0,0,0,0,0,0,0,0],"split_type":[0,0,0,0,0,0,0,0,0,0,0,0,0,0,0,0,0,0,0,0,0,0,0,0,0,0,0,0,0],"sum_hessian":[1.4200095E3,2.0310928E2,1.2169003E3,1.7785814E2,2.5251139E1,5.618841E2,6.550162E2,8.0333664E1,9.752448E1,1.3910517E0,2.3860088E1,3.547612E2,2.0712291E2,2.2816246E2,4.268537E2,7.573537E1,4.598297E0,9.215622E1,5.3682637E0,2.2727425E1,1.1326637E0,3.0668454E2,4.807668E1,4.7685947E1,1.5943695E2,1.5589792E2,7.2264534E1,3.0475192E2,1.2210179E2],"tree_param":{"num_deleted":"0","num_feature":"18","num_nodes":"29","size_leaf_vector":"1"}},{"base_weights":[-1.688874E-3,-8.727214E-2,1.7061956E-1,7.439689E-2,-2.071983E-1,2.9512352E-1,-9.256396E-2,-1.5329265E-2,3.0708462E-1,-2.765285E-1,8.234513E-2,4.2004934E-1,1.0029837E-2,-2.8844357E-1,1.7765908E-1,5.8338153E-3,-1.25944605E-2,1.3353176E-3,2.6540225E-2,3.6529934E-3,-1.6664026E-2,-1.0672578E-2,1.6343607E-2,5.2171923E-2,1.8681057E-2,-2.192793E-2,1.2723125E-2,-9.0659065E-3,-4.9882703E-2,5.0163604E-2,3.2052852E-3],"categories":[],"categories_nodes":[],"categories_segments":[],"categories_sizes":[],"default_left":[0,0,0,0,0,0,0,0,0,0,0,0,0,0,0,0,0,0,0,0,0,0,0,0,0,0,0,0,0,0,0],"id":16,"left_children":[1,3,5,7,9,11,13,15,17,19,21,23,25,27,29,-1,-1,-1,-1,-1,-1,-1,-1,-1,-1,-1,-1,-1,-1,-1,-1],"loss_changes":[2.0967081E1,1.843359E1,1.5488365E1,8.466769E0,1.0976299E1,1.1412409E1,8.112198E0,9.193465E0,7.0639935E0,8.763203E0,7.750136E0,6.06036E0,1.0933022E1,6.555916E0,5.9938083E0,0E0,0E0,0E0,0E0,0E0,0E0,0E0,0E0,0E0,0E0,0E0,0E0,0E0,0E0,0E0,0E0],"parents":[2147483647,0,0,1,1,2,2,3,3,4,4,5,5,6,6,7,7,8,8,9,9,10,10,11,11,12,12,13,13,14,14],"right_children":[2,4,6,8,10,12,14,16,18,20,22,24,26,28,30,-1,-1,-1,-1,-1,-1,-1,-1,-1,-1,-1,-1,-1,-1,-1,-1],"split_conditions":[5E-1,-3.4722238E-5,1.430375E-4,-2.5881904E-1,5.679793E-4,6.2890457E1,7.0710677E-1,-7.0710677E-1,-9.602653E-5,1.741288E-1,8.660254E-1,1.0044554E1,1.2246469E-16,1.0139158E-3,2.7776499E1,5.8338153E-3,-1.25944605E-2,1.3353176E-3,2.6540225E-2,3.6529934E-3,-1.6664026E-2,-1.0672578E-2,1.6343607E-2,5.2171923E-2,1.8681057E-2,-2.192793E-2,1.2723125E-2,-9.0659065E-3,-4.9882703E-2,5.0163604E-2,3.2052852E-3],"split_indices":[15,0,0,15,1,13,14,15,3,10,14,13,14,3,13,0,0,0,0,0,0,0,0,0,0,0,0,0,0,0,0],"split_type":[0,0,0,0,0,0,0,0,0,0,0,0,0,0,0,0,0,0,0,0,0,0,0,0,0,0,0,0,0,0,0],"sum_hessian":[1.4198037E3,9.489611E2,4.708426E2,4.043066E2,5.4465454E2,3.195514E2,1.512912E2,2.9246426E2,1.1184234E2,4.3946985E2,1.05184654E2,2.2186049E2,9.76909E1,8.767199E1,6.361921E1,1.8804042E2,1.0442385E2,5.0132664E1,6.170967E1,6.133895E1,3.7813092E2,4.7659508E1,5.7525143E1,1.3889714E1,2.0797078E2,3.4176044E1,6.351486E1,7.725793E1,1.04140625E1,6.7447658E0,5.6874443E1],"tree_param":{"num_deleted":"0","num_feature":"18","num_nodes":"31","size_leaf_vector":"1"}},{"base_weights":[-2.1470128E-2,1.456617E-1,-9.1292635E-2,4.1675296E-1,-1.4513046E-2,-1.8666235E-1,7.246648E-2,5.260017E-1,8.6509E-2,1.8597189E-1,-2.3015456E-1,-2.5832614E-1,1.6299552E-1,5.067461E-1,1.8125173E-2,-1.1792411E-2,3.0163452E-2,-1.5255763E-2,2.6025167E-2,3.395341E-3,3.661971E-2,-2.2197638E-2,1.3177743E-4,-2.6239546E-3,-1.8233543E-2,2.204534E-2,-3.4190286E-3,4.486741E-2,-5.730686E-3,2.4701166E-3,-2.9430393E-2],"categories":[],"categories_nodes":[],"categories_segments":[],"categories_sizes":[],"default_left":[0,0,0,0,0,0,0,0,0,0,0,0,0,0,0,0,0,0,0,0,0,0,0,0,0,0,0,0,0,0,0],"id":17,"left_children":[1,3,5,7,9,11,13,15,17,19,21,23,25,27,29,-1,-1,-1,-1,-1,-1,-1,-1,-1,-1,-1,-1,-1,-1,-1,-1],"loss_changes":[1.6479588E1,1.807711E1,1.5566725E1,5.5323734E0,1.1394473E1,1.581929E1,8.657454E0,6.9692726E0,6.8940763E0,8.76409E0,6.319499E0,1.1428024E1,6.9560533E0,1.0006433E1,6.2427917E0,0E0,0E0,0E0,0E0,0E0,0E0,0E0,0E0,0E0,0E0,0E0,0E0,0E0,0E0,0E0,0E0],"parents":[2147483647,0,0,1,1,2,2,3,3,4,4,5,5,6,6,7,7,8,8,9,9,10,10,11,11,12,12,13,13,14,14],"right_children":[2,4,6,8,10,12,14,16,18,20,22,24,26,28,30,-1,-1,-1,-1,-1,-1,-1,-1,-1,-1,-1,-1,-1,-1,-1,-1],"split_conditions":[-1.1705113E-4,4.9500186E-2,5E-1,3.0905447E1,-2.144952E-4,9.469132E-4,8.80424E-5,-1.715827E-2,-1.3749728E-4,8.052765E-4,1.772678E-3,-7.0710677E-1,1.6236315E-3,1.6767197E-4,8.9932434E1,-1.1792411E-2,3.0163452E-2,-1.5255763E-2,2.6025167E-2,3.395341E-3,3.661971E-2,-2.2197638E-2,1.3177743E-4,-2.6239546E-3,-1.8233543E-2,2.204534E-2,-3.4190286E-3,4.486741E-2,-5.730686E-3,2.4701166E-3,-2.9430393E-2],"split_indices":[0,11,15,12,4,2,5,8,2,5,4,15,4,2,13,0,0,0,0,0,0,0,0,0,0,0,0,0,0,0,0],"split_type":[0,0,0,0,0,0,0,0,0,0,0,0,0,0,0,0,0,0,0,0,0,0,0,0,0,0,0,0,0,0,0],"sum_hessian":[1.4100457E3,4.151732E2,9.948725E2,1.5360284E2,2.6157034E2,6.286315E2,3.66241E2,1.1497495E2,3.8627888E1,1.3562007E2,1.2595029E2,5.2192255E2,1.0670897E2,3.980511E1,3.2643588E2,1.0398103E1,1.0457685E2,2.046122E1,1.8166668E1,1.1244782E2,2.3172245E1,6.5180435E1,6.076985E1,1.782959E2,3.4362665E2,4.8067898E1,5.8641068E1,2.416821E1,1.5636902E1,3.1130658E2,1.51293125E1],"tree_param":{"num_deleted":"0","num_feature":"18","num_nodes":"31","size_leaf_vector":"1"}},{"base_weights":[4.948155E-3,-2.7899727E-1,5.353545E-2,-1.90575E-1,-8.2903963E-1,1.483332E-1,-3.5352293E-2,-9.104529E-1,-1.13098614E-1,-8.97233E-1,6.8422253E-3,-1.8942806E-1,1.9367218E-1,8.329139E-2,-2.0171627E-1,1.9803757E-2,-5.223114E-2,-3.8244312E-3,-6.0840555E-2,6.2192106E-3,-4.7337618E-2,4.322035E-2,-1.1835674E-2,2.9058648E-2,6.9795935E-3,3.4003404E-3,4.760466E-2,-1.3800003E-2,9.730168E-3],"categories":[],"categories_nodes":[],"categories_segments":[],"categories_sizes":[],"default_left":[0,0,0,0,0,0,0,0,0,0,0,0,0,0,0,0,0,0,0,0,0,0,0,0,0,0,0,0,0],"id":18,"left_children":[1,3,5,7,9,11,13,15,17,19,-1,21,23,25,27,-1,-1,-1,-1,-1,-1,-1,-1,-1,-1,-1,-1,-1,-1],"loss_changes":[1.9714117E1,9.996815E0,1.0286112E1,1.000177E1,2.0077286E0,9.081083E0,1.2461189E1,3.4748344E0,6.562437E0,1.4767399E0,0E0,3.7128377E0,1.0841314E1,4.8316984E0,7.789072E0,0E0,0E0,0E0,0E0,0E0,0E0,0E0,0E0,0E0,0E0,0E0,0E0,0E0,0E0],"parents":[2147483647,0,0,1,1,2,2,3,3,4,4,5,5,6,6,7,7,8,8,9,9,11,11,12,12,13,13,14,14],"right_children":[2,4,6,8,10,12,14,16,18,20,-1,22,24,26,28,-1,-1,-1,-1,-1,-1,-1,-1,-1,-1,-1,-1,-1,-1],"split_conditions":[-7.0710677E-1,1.9059399E-4,1E0,-4.3429952E-2,5.0633013E-2,-2.5881904E-1,0E0,2.0081038E1,5.917877E1,-1.4632007E-3,6.8422253E-3,-7.94182E-2,-9.720073E-4,8.698754E-1,9.659258E-1,1.9803757E-2,-5.223114E-2,-3.8244312E-3,-6.0840555E-2,6.2192106E-3,-4.7337618E-2,4.322035E-2,-1.1835674E-2,2.9058648E-2,6.9795935E-3,3.4003404E-3,4.760466E-2,-1.3800003E-2,9.730168E-3],"split_indices":[14,0,16,9,8,14,1,12,12,2,0,8,3,10,14,0,0,0,0,0,0,0,0,0,0,0,0,0,0],"split_type":[0,0,0,0,0,0,0,0,0,0,0,0,0,0,0,0,0,0,0,0,0,0,0,0,0,0,0,0,0],"sum_hessian":[1.4268762E3,2.0779202E2,1.2190841E3,1.8017448E2,2.761754E1,5.896066E2,6.294775E2,1.6462307E1,1.6371217E2,2.5862661E1,1.754879E0,6.940237E1,5.202043E2,3.6772855E2,2.6174893E2,1.3513179E0,1.5110989E1,1.5949118E2,4.2209997E0,1.1257542E0,2.4736906E1,2.2382631E0,6.716411E1,6.2515617E1,4.5768866E2,3.624307E2,5.297863E0,2.2068808E2,4.1060863E1],"tree_param":{"num_deleted":"0","num_feature":"18","num_nodes":"29","size_leaf_vector":"1"}},{"base_weights":[-1.5778325E-2,-2.8909445E-1,2.9709434E-2,-2.4008563E-1,-1.0426016E0,2.9332322E-1,-2.5262234E-3,-8.0212164E-1,-1.7652608E-1,-1.1855165E0,1.1067355E-2,3.64868E-1,-2.752519E-1,1.5669473E-1,-5.4692872E-2,-5.586785E-2,-1.5760554E-2,2.0970781E-3,-1.8063715E-2,-6.303915E-2,-1.2018087E-2,1.4755874E-2,3.898957E-2,-3.700287E-2,3.0083641E-2,1.4501432E-2,-2.356053E-3,-3.93813E-2,-1.8856473E-3],"categories":[],"categories_nodes":[],"categories_segments":[],"categories_sizes":[],"default_left":[0,0,0,0,0,0,0,0,0,0,0,0,0,0,0,0,0,0,0,0,0,0,0,0,0,0,0,0,0],"id":19,"left_children":[1,3,5,7,9,11,13,15,17,19,-1,21,23,25,27,-1,-1,-1,-1,-1,-1,-1,-1,-1,-1,-1,-1,-1,-1],"loss_changes":[1.7584703E1,7.2020893E0,1.0307786E1,6.6736393E0,2.4345608E0,5.476801E0,8.993574E0,2.5796223E0,6.9847956E0,4.7668552E-1,0E0,3.179861E0,6.6986723E0,7.275357E0,1.0119706E1,0E0,0E0,0E0,0E0,0E0,0E0,0E0,0E0,0E0,0E0,0E0,0E0,0E0,0E0],"parents":[2147483647,0,0,1,1,2,2,3,3,4,4,5,5,6,6,7,7,8,8,9,9,11,11,12,12,13,13,14,14],"right_children":[2,4,6,8,10,12,14,16,18,20,-1,22,24,26,28,-1,-1,-1,-1,-1,-1,-1,-1,-1,-1,-1,-1,-1,-1],"split_conditions":[-7.0710677E-1,3.693365E-4,-4.786001E-4,-2.3294915E-3,8.060353E-4,2.0237474E-3,3.2142193E1,2.1096518E1,3.7388596E1,1.0108138E0,1.1067355E-2,1.0178415E-1,7.244065E-2,5.9523E-5,1.13698E1,-5.586785E-2,-1.5760554E-2,2.0970781E-3,-1.8063715E-2,-6.303915E-2,-1.2018087E-2,1.4755874E-2,3.898957E-2,-3.700287E-2,3.0083641E-2,1.4501432E-2,-2.356053E-3,-3.93813E-2,-1.8856473E-3],"split_indices":[14,0,0,4,1,3,13,13,13,10,0,11,9,0,12,0,0,0,0,0,0,0,0,0,0,0,0,0,0],"split_type":[0,0,0,0,0,0,0,0,0,0,0,0,0,0,0,0,0,0,0,0,0,0,0,0,0,0,0,0,0],"sum_hessian":[1.412719E3,2.0080624E2,1.2119127E3,1.8978131E2,1.1024936E1,1.3116711E2,1.0807456E3,1.8100914E1,1.716804E2,9.960728E0,1.0642084E0,1.1682509E2,1.4342023E1,2.6621405E2,8.1453156E2,1.0201487E1,7.8994284E0,7.9015884E1,9.266452E1,8.916712E0,1.0440156E0,1.0147751E2,1.5347576E1,9.475633E0,4.8663907E0,1.6067763E2,1.05536415E2,1.7415403E1,7.9711615E2],"tree_param":{"num_deleted":"0","num_feature":"18","num_nodes":"29","size_leaf_vector":"1"}},{"base_weights":[-7.912235E-3,-1.0894104E-1,1.0788811E-1,3.5221238E-2,-2.2066732E-1,2.211184E-1,-3.1854447E-2,2.8355807E-1,-9.4914466E-2,-4.5877868E-1,-1.3903567E-1,2.4841982E-1,-7.702191E-1,-7.90429E-3,-9.316601E-1,1.059795E-2,4.7810487E-2,5.339708E-3,-1.01430155E-2,-1.930895E-2,-5.3318925E-2,9.551558E-3,-1.1645486E-2,-1.7673504E-2,1.3607116E-2,6.959151E-3,-4.8934426E-2,-1.8747795E-2,3.3030286E-3,-1.4899525E-2,-6.909101E-2],"categories":[],"categories_nodes":[],"categories_segments":[],"categories_sizes":[],"default_left":[0,0,0,0,0,0,0,0,0,0,0,0,0,0,0,0,0,0,0,0,0,0,0,0,0,0,0,0,0,0,0],"id":20,"left_children":[1,3,5,7,9,11,13,15,17,19,21,23,25,27,29,-1,-1,-1,-1,-1,-1,-1,-1,-1,-1,-1,-1,-1,-1,-1,-1],"loss_changes":[1.6562656E1,1.2185091E1,1.0445023E1,1.0722876E1,8.218008E0,1.0057232E1,6.374604E0,5.2901764E0,4.7664337E0,4.3673954E0,9.920279E0,5.172333E0,2.0346727E0,7.883592E0,1.7759638E0,0E0,0E0,0E0,0E0,0E0,0E0,0E0,0E0,0E0,0E0,0E0,0E0,0E0,0E0,0E0,0E0],"parents":[2147483647,0,0,1,1,2,2,3,3,4,4,5,5,6,6,7,7,8,8,9,9,10,10,11,11,12,12,13,13,14,14],"right_children":[2,4,6,8,10,12,14,16,18,20,22,24,26,28,30,-1,-1,-1,-1,-1,-1,-1,-1,-1,-1,-1,-1,-1,-1,-1,-1],"split_conditions":[6.123234E-17,-3.4722238E-5,2.8935394E-5,3.059895E-4,-7.0710677E-1,5.46291E1,6.472903E-3,1.0585884E-3,-6.8624335E-4,5.3071953E-2,-2.5881904E-1,1.610204E-4,-1.2014232E-3,0E0,7.9963316E-4,1.059795E-2,4.7810487E-2,5.339708E-3,-1.01430155E-2,-1.930895E-2,-5.3318925E-2,9.551558E-3,-1.1645486E-2,-1.7673504E-2,1.3607116E-2,6.959151E-3,-4.8934426E-2,-1.8747795E-2,3.3030286E-3,-1.4899525E-2,-6.909101E-2],"split_indices":[15,0,0,6,14,12,4,4,1,9,14,6,1,14,6,0,0,0,0,0,0,0,0,0,0,0,0,0,0,0,0],"split_type":[0,0,0,0,0,0,0,0,0,0,0,0,0,0,0,0,0,0,0,0,0,0,0,0,0,0,0,0,0,0,0],"sum_hessian":[1.4137074E3,7.5503986E2,6.586675E2,3.2996512E2,4.2507477E2,3.6352716E2,2.9514032E2,1.13051315E2,2.169138E2,1.0734373E2,3.1773102E2,3.5451328E2,9.013877E0,2.884709E2,6.669454E0,1.03364044E2,9.687274E0,7.562008E1,1.4129372E2,9.734763E1,9.996096E0,7.012662E1,2.4760442E2,1.2915657E1,3.4159763E2,1.7429593E0,7.270918E0,4.769826E1,2.4077261E2,3.4603887E0,3.2090654E0],"tree_param":{"num_deleted":"0","num_feature":"18","num_nodes":"31","size_leaf_vector":"1"}},{"base_weights":[4.0824726E-2,-1.9141504E-1,1.0415868E-1,-8.557988E-1,-1.230287E-1,4.5507482E-1,7.358239E-2,3.4672474E-3,-9.2194307E-1,1.7836541E-2,-3.973724E-1,8.2915556E-1,2.4737133E-1,1.3955201E-1,-5.1798258E-2,-6.604382E-2,-2.8314857E-2,-1.5964102E-3,3.9827444E-2,-5.1203992E-2,-1.4530583E-2,-1.9020839E-3,5.337898E-2,-4.0203743E-2,1.6428059E-2,8.203467E-3,-1.580229E-2,-1.0893532E-2,7.83827E-3],"categories":[],"categories_nodes":[],"categories_segments":[],"categories_sizes":[],"default_left":[0,0,0,0,0,0,0,0,0,0,0,0,0,0,0,0,0,0,0,0,0,0,0,0,0,0,0,0,0],"id":21,"left_children":[1,3,5,7,9,11,13,-1,15,17,19,21,23,25,27,-1,-1,-1,-1,-1,-1,-1,-1,-1,-1,-1,-1,-1,-1],"loss_changes":[2.0744705E1,1.36282425E1,1.185234E1,1.7798824E0,1.0643394E1,6.678316E0,8.445263E0,0E0,2.9749641E0,7.1097608E0,5.952754E0,6.4922123E0,5.248667E0,7.5214796E0,1.2241389E1,0E0,0E0,0E0,0E0,0E0,0E0,0E0,0E0,0E0,0E0,0E0,0E0,0E0,0E0],"parents":[2147483647,0,0,1,1,2,2,3,3,4,4,5,5,6,6,8,8,9,9,10,10,11,11,12,12,13,13,14,14],"right_children":[2,4,6,8,10,12,14,-1,16,18,20,22,24,26,28,-1,-1,-1,-1,-1,-1,-1,-1,-1,-1,-1,-1,-1,-1],"split_conditions":[-5E-1,-4.3429952E-2,1.7812502E1,2.5331127E1,5.3759323E1,-2.0181173E-3,9.572595E-5,3.4672474E-3,1.8183455E1,4.2041644E-4,3.1888E-2,-5.819314E-4,-1.8728296E-3,9.1244675E1,5.908507E-4,-6.604382E-2,-2.8314857E-2,-1.5964102E-3,3.9827444E-2,-5.1203992E-2,-1.4530583E-2,-1.9020839E-3,5.337898E-2,-4.0203743E-2,1.6428059E-2,8.203467E-3,-1.580229E-2,-1.0893532E-2,7.83827E-3],"split_indices":[14,9,13,7,7,4,0,0,13,2,11,0,4,13,2,0,0,0,0,0,0,0,0,0,0,0,0,0,0],"split_type":[0,0,0,0,0,0,0,0,0,0,0,0,0,0,0,0,0,0,0,0,0,0,0,0,0,0,0,0,0],"sum_hessian":[1.4080178E3,3.012692E2,1.1067487E3,2.704161E1,2.742276E2,8.759222E1,1.01915643E3,1.8011385E0,2.5240473E1,1.8180995E2,9.241763E1,3.0203217E1,5.7389E1,6.677196E2,3.5143683E2,1.06171E1,1.4623373E1,1.7179044E2,1.001952E1,1.2201289E1,8.021635E1,6.694475E0,2.3508741E1,3.4755378E0,5.391346E1,6.342294E2,3.3490246E1,1.9562358E2,1.5581325E2],"tree_param":{"num_deleted":"0","num_feature":"18","num_nodes":"29","size_leaf_vector":"1"}},{"base_weights":[-8.8824896E-4,-6.637168E-2,1.3154598E-1,7.165818E-2,-1.4659591E-1,-2.3246178E-2,3.107836E-1,1.8582948E-1,-1.976717E-1,-3.3826548E-1,4.877747E-2,2.6909265E-1,-2.6080847E-1,8.2987803E-1,2.3303513E-1,1.45267695E-2,4.3449114E-4,2.6792685E-2,-1.553044E-2,-1.1229002E-2,-3.4558337E-2,-1.9623904E-2,7.060408E-3,2.9027397E-2,-2.6230097E-3,-8.77815E-3,-5.9614327E-2,-1.5705584E-2,4.7062293E-2,1.7340524E-2,-1.2776432E-2],"categories":[],"categories_nodes":[],"categories_segments":[],"categories_sizes":[],"default_left":[0,0,0,0,0,0,0,0,0,0,0,0,0,0,0,0,0,0,0,0,0,0,0,0,0,0,0,0,0,0,0],"id":22,"left_children":[1,3,5,7,9,11,13,15,17,19,21,23,25,27,29,-1,-1,-1,-1,-1,-1,-1,-1,-1,-1,-1,-1,-1,-1,-1,-1],"loss_changes":[1.2230792E1,1.0460428E1,1.2953652E1,1.0723817E1,2.2378082E1,1.7524008E1,8.536594E0,4.5341625E0,8.778141E0,1.194323E1,1.2152094E1,1.1363601E1,1.0840366E1,3.8358707E0,1.0623494E1,0E0,0E0,0E0,0E0,0E0,0E0,0E0,0E0,0E0,0E0,0E0,0E0,0E0,0E0,0E0,0E0],"parents":[2147483647,0,0,1,1,2,2,3,3,4,4,5,5,6,6,7,7,8,8,9,9,10,10,11,11,12,12,13,13,14,14],"right_children":[2,4,6,8,10,12,14,16,18,20,22,24,26,28,30,-1,-1,-1,-1,-1,-1,-1,-1,-1,-1,-1,-1,-1,-1,-1,-1],"split_conditions":[5E-1,-7.0710677E-1,5E-1,4.1743482E-5,8.660254E-1,4.679892E-1,-9.488465E-4,2.8740614E1,1.6682718E1,-5E-1,2.1878695E-4,3.552297E-4,6.732919E1,3.2415162E-4,5.9837085E-4,1.45267695E-2,4.3449114E-4,2.6792685E-2,-1.553044E-2,-1.1229002E-2,-3.4558337E-2,-1.9623904E-2,7.060408E-3,2.9027397E-2,-2.6230097E-3,-8.77815E-3,-5.9614327E-2,-1.5705584E-2,4.7062293E-2,1.7340524E-2,-1.2776432E-2],"split_indices":[15,15,14,1,14,10,3,12,12,14,6,6,7,6,6,0,0,0,0,0,0,0,0,0,0,0,0,0,0,0,0],"split_type":[0,0,0,0,0,0,0,0,0,0,0,0,0,0,0,0,0,0,0,0,0,0,0,0,0,0,0,0,0,0,0],"sum_hessian":[1.4083303E3,9.427011E2,4.656292E2,3.4655038E2,5.9615076E2,2.5031978E2,2.1530943E2,2.4359737E2,1.02953026E2,3.0055862E2,2.955921E2,1.1216245E2,1.3815733E2,2.6787361E1,1.8852206E2,1.5269836E2,9.089901E1,1.3236617E1,8.971641E1,2.2856418E2,7.199446E1,5.0632256E1,2.4495985E2,5.656667E1,5.5595783E1,1.2766259E2,1.0494738E1,2.2149122E0,2.4572449E1,1.5314761E2,3.5374447E1],"tree_param":{"num_deleted":"0","num_feature":"18","num_nodes":"31","size_leaf_vector":"1"}},{"base_weights":[-1.222221E-2,-3.1736967E-1,3.9031427E-2,2.2117732E-1,-4.1966152E-1,-8.722476E-2,1.23460375E-1,-3.7143193E-2,3.1933677E-1,-2.3007512E-1,-6.3543904E-1,-5.776697E-3,-5.7868975E-1,3.505699E-1,3.9564215E-2,5.64004E-2,6.0184435E-3,-5.5190227E-3,-4.9024243E-2,-3.8682394E-2,-2.2898858E-2,4.783449E-2,-1.4238397E-3,8.933128E-3,-3.943793E-2,2.8833756E-2,3.9574327E-3,-1.0015356E-2,5.0272853E-3],"categories":[],"categories_nodes":[],"categories_segments":[],"categories_sizes":[],"default_left":[0,0,0,0,0,0,0,0,0,0,0,0,0,0,0,0,0,0,0,0,0,0,0,0,0,0,0,0,0],"id":23,"left_children":[1,3,5,7,9,11,13,-1,15,17,19,21,23,25,27,-1,-1,-1,-1,-1,-1,-1,-1,-1,-1,-1,-1,-1,-1],"loss_changes":[2.2231188E1,1.1353619E1,1.2986109E1,3.3868172E0,6.8952847E0,1.9545765E1,1.3892613E1,0E0,4.837137E0,8.262299E0,1.6062546E0,9.202466E0,1.1185318E1,1.2029362E1,7.832834E0,0E0,0E0,0E0,0E0,0E0,0E0,0E0,0E0,0E0,0E0,0E0,0E0,0E0,0E0],"parents":[2147483647,0,0,1,1,2,2,3,3,4,4,5,5,6,6,8,8,9,9,10,10,11,11,12,12,13,13,14,14],"right_children":[2,4,6,8,10,12,14,-1,16,18,20,22,24,26,28,-1,-1,-1,-1,-1,-1,-1,-1,-1,-1,-1,-1,-1,-1],"split_conditions":[-7.0710677E-1,-7.1790164E-5,-5E-1,-5.5238046E-2,3.6007847E-4,7.0710677E-1,-1.1705113E-4,-3.7143193E-2,-1.4491465E-3,2.0658746E-4,4.374116E1,-2.8314965E-3,-5.8370456E-4,4.3225498E-4,2.2211179E-4,5.64004E-2,6.0184435E-3,-5.5190227E-3,-4.9024243E-2,-3.8682394E-2,-2.2898858E-2,4.783449E-2,-1.4238397E-3,8.933128E-3,-3.943793E-2,2.8833756E-2,3.9574327E-3,-1.0015356E-2,5.0272853E-3],"split_indices":[14,0,15,8,6,14,0,0,3,0,13,2,3,6,6,0,0,0,0,0,0,0,0,0,0,0,0,0,0],"split_type":[0,0,0,0,0,0,0,0,0,0,0,0,0,0,0,0,0,0,0,0,0,0,0,0,0,0,0,0,0],"sum_hessian":[1.419647E3,2.0341113E2,1.2162358E3,3.2283333E1,1.7112779E2,4.873752E2,7.288606E2,2.3763967E0,2.9906939E1,9.2192184E1,7.8935616E1,4.1895554E2,6.841968E1,1.9575826E2,5.3310236E2,4.9834123E0,2.4923527E1,8.049919E1,1.169299E1,4.248693E1,3.6448685E1,8.705473E0,4.1025006E2,1.4889323E1,5.3530354E1,1.0618068E2,8.957757E1,1.0759431E2,4.2550803E2],"tree_param":{"num_deleted":"0","num_feature":"18","num_nodes":"29","size_leaf_vector":"1"}},{"base_weights":[5.087059E-3,-2.5183916E-1,4.7001436E-2,-1.0424931E-1,-5.338955E-1,-4.7854587E-2,1.2919551E-1,1.1843553E-1,-3.6225733E-1,9.894412E-1,-6.135233E-1,3.7706245E-2,-2.998515E-1,2.29217E-1,2.2447823E-2,-1.1873157E-3,4.3788183E-2,-2.1086741E-2,2.8521156E-2,8.3845435E-3,7.676395E-2,-4.180705E-2,-1.8038115E-2,1.679284E-2,-1.2863415E-3,-3.0387787E-2,-3.3647777E-4,1.4438025E-2,-1.1596312E-2,-1.4396642E-2,5.46314E-3],"categories":[],"categories_nodes":[],"categories_segments":[],"categories_sizes":[],"default_left":[0,0,0,0,0,0,0,0,0,0,0,0,0,0,0,0,0,0,0,0,0,0,0,0,0,0,0,0,0,0,0],"id":24,"left_children":[1,3,5,7,9,11,13,15,17,19,21,23,25,27,29,-1,-1,-1,-1,-1,-1,-1,-1,-1,-1,-1,-1,-1,-1,-1,-1],"loss_changes":[1.5201454E1,8.18641E0,9.467494E0,7.5821E0,8.827539E0,1.21738E1,6.9394493E0,7.6858854E0,3.6264067E0,1.4242406E0,3.357008E0,7.9898005E0,1.2910557E1,9.284138E0,8.539303E0,0E0,0E0,0E0,0E0,0E0,0E0,0E0,0E0,0E0,0E0,0E0,0E0,0E0,0E0,0E0,0E0],"parents":[2147483647,0,0,1,1,2,2,3,3,4,4,5,5,6,6,7,7,8,8,9,9,10,10,11,11,12,12,13,13,14,14],"right_children":[2,4,6,8,10,12,14,16,18,20,22,24,26,28,30,-1,-1,-1,-1,-1,-1,-1,-1,-1,-1,-1,-1,-1,-1,-1,-1],"split_conditions":[-7.0710677E-1,5.242104E1,-2.5881904E-1,3.408304E-4,-1.5919334E-4,7.0710677E-1,2.8935394E-5,5E-1,5.679793E-4,4.1426983E-2,1.4089132E-3,2.0174774E1,8.660254E-1,8.361271E1,2.3866858E-4,-1.1873157E-3,4.3788183E-2,-2.1086741E-2,2.8521156E-2,8.3845435E-3,7.676395E-2,-4.180705E-2,-1.8038115E-2,1.679284E-2,-1.2863415E-3,-3.0387787E-2,-3.3647777E-4,1.4438025E-2,-1.1596312E-2,-1.4396642E-2,5.46314E-3],"split_indices":[14,7,15,6,0,14,0,15,1,8,4,13,14,13,6,0,0,0,0,0,0,0,0,0,0,0,0,0,0,0,0],"split_type":[0,0,0,0,0,0,0,0,0,0,0,0,0,0,0,0,0,0,0,0,0,0,0,0,0,0,0,0,0,0,0],"sum_hessian":[1.4095074E3,1.9699031E2,1.2125171E3,1.3022034E2,6.676997E1,5.630952E2,6.4942194E2,7.0185074E1,6.0035267E1,2.749239E0,6.402074E1,4.210022E2,1.4209303E2,3.3468152E2,3.147404E2,5.9906742E1,1.0278331E1,5.695128E1,3.0839858E0,1.6190307E0,1.1302083E0,3.281292E1,3.1207817E1,7.310354E1,3.4789865E2,6.877563E1,7.3317406E1,2.9673987E2,3.7941666E1,6.828641E1,2.4645398E2],"tree_param":{"num_deleted":"0","num_feature":"18","num_nodes":"31","size_leaf_vector":"1"}},{"base_weights":[-9.831432E-3,-1.1275481E-1,1.1033007E-1,1.5502411E-2,-2.2537297E-1,2.161253E-1,-6.790648E-2,1.9150957E-1,-1.2723875E-1,-3.7206513E-1,4.322453E-2,2.778495E-1,6.2210124E-2,-3.5048306E-1,1.0425609E-1,2.8846163E-2,3.833166E-3,3.512387E-2,-7.6432377E-3,-1.4214398E-2,-3.9151054E-2,-7.542106E-4,4.0711198E-2,4.0131833E-2,1.1959868E-2,1.2903768E-3,5.8504995E-2,-6.519166E-2,-1.3240895E-2,-5.8182776E-3,1.6868623E-2],"categories":[],"categories_nodes":[],"categories_segments":[],"categories_sizes":[],"default_left":[0,0,0,0,0,0,0,0,0,0,0,0,0,0,0,0,0,0,0,0,0,0,0,0,0,0,0,0,0,0,0],"id":25,"left_children":[1,3,5,7,9,11,13,15,17,19,21,23,25,27,29,-1,-1,-1,-1,-1,-1,-1,-1,-1,-1,-1,-1,-1,-1,-1,-1],"loss_changes":[1.7440838E1,1.0974499E1,1.2284048E1,8.969659E0,1.5953701E1,3.8640423E0,1.1864095E1,7.0310917E0,4.3004622E0,9.218334E0,6.4758577E0,5.717144E0,4.738049E0,7.190592E0,7.848785E0,0E0,0E0,0E0,0E0,0E0,0E0,0E0,0E0,0E0,0E0,0E0,0E0,0E0,0E0,0E0,0E0],"parents":[2147483647,0,0,1,1,2,2,3,3,4,4,5,5,6,6,7,7,8,8,9,9,10,10,11,11,12,12,13,13,14,14],"right_children":[2,4,6,8,10,12,14,16,18,20,22,24,26,28,30,-1,-1,-1,-1,-1,-1,-1,-1,-1,-1,-1,-1,-1,-1,-1,-1],"split_conditions":[6.123234E-17,-7.0710677E-1,8.830833E-5,-4.3777088E-4,8.660254E-1,5.6531996E-2,5E-1,4.1943453E-2,-7.885839E-2,7.933775E-2,6.758846E-2,-4.6535296E-4,1.3125984E-1,-1.0758918E-4,3.5168714E-4,2.8846163E-2,3.833166E-3,3.512387E-2,-7.6432377E-3,-1.4214398E-2,-3.9151054E-2,-7.542106E-4,4.0711198E-2,4.0131833E-2,1.1959868E-2,1.2903768E-3,5.8504995E-2,-6.519166E-2,-1.3240895E-2,-5.8182776E-3,1.6868623E-2],"split_indices":[15,15,0,2,14,11,14,11,9,11,9,0,11,1,0,0,0,0,0,0,0,0,0,0,0,0,0,0,0,0,0],"split_type":[0,0,0,0,0,0,0,0,0,0,0,0,0,0,0,0,0,0,0,0,0,0,0,0,0,0,0,0,0,0,0],"sum_hessian":[1.4082177E3,7.585496E2,6.49668E2,3.5505322E2,4.034964E2,4.075484E2,2.4211963E2,1.5884615E2,1.9620709E2,2.6072083E2,1.4277559E2,2.903178E2,1.172306E2,9.127346E1,1.5084616E2,3.5543137E1,1.23303E2,5.087032E0,1.9112006E2,2.162279E2,4.449292E1,1.3364853E2,9.127066E0,1.855998E1,2.717578E2,1.1449197E2,2.738636E0,6.3529267E0,8.492053E1,7.775734E1,7.308883E1],"tree_param":{"num_deleted":"0","num_feature":"18","num_nodes":"31","size_leaf_vector":"1"}},{"base_weights":[-1.5100512E-2,3.8092187E-1,-2.9971166E-2,1.1177484E0,1.7169619E-1,-5.601399E-1,-1.7511616E-2,7.7360205E-2,3.3612603E-1,-5.031123E-2,6.9994617E-1,4.7007777E-2,-9.6111304E-1,-2.1362124E-1,1.3207348E-2,4.8969332E-2,-3.8032915E-2,2.7997568E-2,-1.3705187E-2,6.0679495E-2,-2.9655308E-2,-5.7697337E-2,2.4888352E-2,-1.166785E-2,-5.4684192E-2,-6.6101067E-3,-3.541338E-2,9.999282E-4,-5.1962357E-2],"categories":[],"categories_nodes":[],"categories_segments":[],"categories_sizes":[],"default_left":[0,0,0,0,0,0,0,0,0,0,0,0,0,0,0,0,0,0,0,0,0,0,0,0,0,0,0,0,0],"id":26,"left_children":[1,3,5,7,9,11,13,-1,15,17,19,21,23,25,27,-1,-1,-1,-1,-1,-1,-1,-1,-1,-1,-1,-1,-1,-1],"loss_changes":[8.292909E0,7.6651855E0,8.9492655E0,3.2025566E0,4.8289833E0,7.618842E0,7.9919977E0,0E0,4.4208217E0,4.2115226E0,8.797836E0,7.788882E0,1.5569172E0,7.141843E0,8.222505E0,0E0,0E0,0E0,0E0,0E0,0E0,0E0,0E0,0E0,0E0,0E0,0E0,0E0,0E0],"parents":[2147483647,0,0,1,1,2,2,3,3,4,4,5,5,6,6,8,8,9,9,10,10,11,11,12,12,13,13,14,14],"right_children":[2,4,6,8,10,12,14,-1,16,18,20,22,24,26,28,-1,-1,-1,-1,-1,-1,-1,-1,-1,-1,-1,-1,-1,-1],"split_conditions":[7.338379E-5,-5.8370456E-4,1.1612652E1,4.5306258E-2,3.5296533E-2,-1.9159599E-4,-7.0710677E-1,7.7360205E-2,5.510604E-5,-1.6828257E-3,4.7317997E-5,1.0016883E1,-7.0710677E-1,1.9059399E-4,2.5634472E-3,4.8969332E-2,-3.8032915E-2,2.7997568E-2,-1.3705187E-2,6.0679495E-2,-2.9655308E-2,-5.7697337E-2,2.4888352E-2,-1.166785E-2,-5.4684192E-2,-6.6101067E-3,-3.541338E-2,9.999282E-4,-5.1962357E-2],"split_indices":[5,3,12,11,11,2,14,0,5,9,1,12,14,0,0,0,0,0,0,0,0,0,0,0,0,0,0,0,0],"split_type":[0,0,0,0,0,0,0,0,0,0,0,0,0,0,0,0,0,0,0,0,0,0,0,0,0,0,0,0,0],"sum_hessian":[1.4052377E3,4.996617E1,1.3552715E3,1.0090018E1,3.9876152E1,3.0109732E1,1.3251617E3,5.8798866E0,4.210132E0,2.87135E1,1.1162653E1,1.2327053E1,1.7782679E1,1.7865779E2,1.1465039E3,2.721197E0,1.4889354E0,7.301325E0,2.1412174E1,8.0330925E0,3.1295605E0,2.9383698E0,9.388683E0,3.1655307E0,1.4617147E1,1.5449506E2,2.4162724E1,1.140128E3,6.375952E0],"tree_param":{"num_deleted":"0","num_feature":"18","num_nodes":"29","size_leaf_vector":"1"}},{"base_weights":[-4.515643E-3,-2.2463231E-1,3.063702E-2,-1.3180517E-1,-6.022278E-1,-6.315485E-2,1.0933266E-1,-2.7874982E-1,1.2403379E-1,-7.4775326E-1,1.0908576E-1,1.9961346E-2,-3.1595284E-1,-1.8301721E-1,1.439117E-1,3.5603486E-2,-1.7059097E-2,2.0813396E-2,-9.306799E-3,1.0541575E-2,-4.463279E-2,4.9319874E-2,-4.195926E-2,3.014381E-3,-2.875482E-2,-3.2684065E-2,5.3347246E-4,4.3233796E-3,-2.189652E-2,4.4652794E-2,6.5130712E-3],"categories":[],"categories_nodes":[],"categories_segments":[],"categories_sizes":[],"default_left":[0,0,0,0,0,0,0,0,0,0,0,0,0,0,0,0,0,0,0,0,0,0,0,0,0,0,0,0,0,0,0],"id":27,"left_children":[1,3,5,7,9,11,13,15,17,19,21,23,25,27,29,-1,-1,-1,-1,-1,-1,-1,-1,-1,-1,-1,-1,-1,-1,-1,-1],"loss_changes":[1.1068435E1,6.825102E0,9.11201E0,6.026831E0,4.0761795E0,1.1845177E1,6.81102E0,6.5247784E0,5.4110823E0,4.6557007E0,7.0063434E0,1.0232453E1,1.5392302E1,4.944512E0,6.0265913E0,0E0,0E0,0E0,0E0,0E0,0E0,0E0,0E0,0E0,0E0,0E0,0E0,0E0,0E0,0E0,0E0],"parents":[2147483647,0,0,1,1,2,2,3,3,4,4,5,5,6,6,7,7,8,8,9,9,10,10,11,11,12,12,13,13,14,14],"right_children":[2,4,6,8,10,12,14,16,18,20,22,24,26,28,30,-1,-1,-1,-1,-1,-1,-1,-1,-1,-1,-1,-1,-1,-1,-1,-1],"split_conditions":[-7.0710677E-1,5.9907972E-5,-2.5881904E-1,6.123234E-17,6.076515E1,7.0710677E-1,-2.5881904E-1,1.7276075E-4,3.408304E-4,-5.9130194E-4,6.527525E1,8.8344175E-1,8.660254E-1,-5E-1,1.0044554E1,3.5603486E-2,-1.7059097E-2,2.0813396E-2,-9.306799E-3,1.0541575E-2,-4.463279E-2,4.9319874E-2,-4.195926E-2,3.014381E-3,-2.875482E-2,-3.2684065E-2,5.3347246E-4,4.3233796E-3,-2.189652E-2,4.4652794E-2,6.5130712E-3],"split_indices":[14,0,15,15,7,14,14,6,6,2,7,10,14,14,13,0,0,0,0,0,0,0,0,0,0,0,0,0,0,0,0],"split_type":[0,0,0,0,0,0,0,0,0,0,0,0,0,0,0,0,0,0,0,0,0,0,0,0,0,0,0,0,0,0,0],"sum_hessian":[1.4285682E3,1.959832E2,1.2325851E3,1.5839325E2,3.7589943E1,5.624443E2,6.701408E2,1.005509E2,5.7842354E1,3.1163141E1,6.426801E0,4.2397025E2,1.3847403E2,7.042628E1,5.9971454E2,5.3434224E0,9.520748E1,2.9606134E1,2.823622E1,4.032387E0,2.7130754E1,3.3174186E0,3.1093826E0,3.9790353E2,2.606671E1,6.7587265E1,7.088677E1,3.4555878E1,3.58704E1,9.57907E0,5.9013544E2],"tree_param":{"num_deleted":"0","num_feature":"18","num_nodes":"31","size_leaf_vector":"1"}},{"base_weights":[-8.96509E-3,1.441998E-1,-7.334392E-2,3.1723377E-1,5.20149E-2,8.722877E-2,-1.3662131E-1,-1.6539702E-2,4.3072754E-1,4.094657E-1,-4.5754593E-2,-1.6439918E-1,2.2688125E-1,-1.6750982E-1,3.2019612E-1,1.9795125E-2,-2.0607783E-2,2.8334484E-2,1.8113621E-3,-4.476097E-3,3.3689946E-2,-8.577651E-3,9.289371E-3,4.1469958E-2,-1.1060489E-2,-3.5074513E-2,1.3184902E-2,-1.2299642E-2,-1.9718762E-3,2.1146754E-2,-5.9257437E-2],"categories":[],"categories_nodes":[],"categories_segments":[],"categories_sizes":[],"default_left":[0,0,0,0,0,0,0,0,0,0,0,0,0,0,0,0,0,0,0,0,0,0,0,0,0,0,0,0,0,0,0],"id":28,"left_children":[1,3,5,7,9,11,13,15,17,19,21,23,25,27,29,-1,-1,-1,-1,-1,-1,-1,-1,-1,-1,-1,-1,-1,-1,-1,-1],"loss_changes":[1.3908951E1,6.6423664E0,1.0101767E1,5.4962206E0,9.578758E0,9.922979E0,1.0110346E1,6.319861E0,5.7814445E0,7.822875E0,6.314681E0,5.8849564E0,6.382886E0,6.7070427E0,7.535499E0,0E0,0E0,0E0,0E0,0E0,0E0,0E0,0E0,0E0,0E0,0E0,0E0,0E0,0E0,0E0,0E0],"parents":[2147483647,0,0,1,1,2,2,3,3,4,4,5,5,6,6,7,7,8,8,9,9,10,10,11,11,12,12,13,13,14,14],"right_children":[2,4,6,8,10,12,14,16,18,20,22,24,26,28,30,-1,-1,-1,-1,-1,-1,-1,-1,-1,-1,-1,-1,-1,-1,-1,-1],"split_conditions":[-1.1705113E-4,4.782159E-2,3.2142193E1,1.9227935E-1,-1.3664814E-3,-2.611469E-2,1.0873724E0,-5.990183E-4,3.1903854E1,2.1882471E1,8.0288085E-4,9.1414746E-5,-9.526176E-5,5E-1,5.4175006E-3,1.9795125E-2,-2.0607783E-2,2.8334484E-2,1.8113621E-3,-4.476097E-3,3.3689946E-2,-8.577651E-3,9.289371E-3,4.1469958E-2,-1.1060489E-2,-3.5074513E-2,1.3184902E-2,-1.2299642E-2,-1.9718762E-3,2.1146754E-2,-5.9257437E-2],"split_indices":[0,11,13,10,2,8,10,3,12,12,3,5,0,15,2,0,0,0,0,0,0,0,0,0,0,0,0,0,0,0,0],"split_type":[0,0,0,0,0,0,0,0,0,0,0,0,0,0,0,0,0,0,0,0,0,0,0,0,0,0,0,0,0,0,0],"sum_hessian":[1.4084893E3,4.1645453E2,9.920347E2,1.4390291E2,2.725516E2,2.8031897E2,7.1171576E2,3.6732033E1,1.07170876E2,5.7852287E1,2.1469933E2,9.998582E1,1.8033316E2,6.672329E2,4.44828E1,1.7983223E1,1.8748808E1,7.937744E1,2.7793432E1,2.0262896E1,3.7589394E1,1.3928426E2,7.541506E1,4.6712584E0,9.531456E1,6.1901007E0,1.7414305E2,4.1313937E2,2.5409357E2,4.2313942E1,2.1688583E0],"tree_param":{"num_deleted":"0","num_feature":"18","num_nodes":"31","size_leaf_vector":"1"}},{"base_weights":[-1.8388838E-2,-7.943864E-2,1.0161914E-1,3.3175416E-2,-1.6454092E-1,1.3368231E-1,-5.760499E-1,-1.16273895E-1,9.741862E-2,-1.9187486E-1,3.2942945E-1,2.4726644E-2,2.7215698E-1,-1.2099276E0,-1.5563498E-1,-4.1293134E-3,-6.648316E-2,2.7437568E-2,6.8332365E-4,-4.299818E-2,-8.894964E-3,-6.4867088E-3,4.1663803E-2,2.2710955E-2,-3.8818873E-3,-5.1679797E-3,1.8572358E-2,-7.231366E-2,-3.0429585E-2,9.42698E-3,-4.7459226E-2],"categories":[],"categories_nodes":[],"categories_segments":[],"categories_sizes":[],"default_left":[0,0,0,0,0,0,0,0,0,0,0,0,0,0,0,0,0,0,0,0,0,0,0,0,0,0,0,0,0,0,0],"id":29,"left_children":[1,3,5,7,9,11,13,15,17,19,21,23,25,27,29,-1,-1,-1,-1,-1,-1,-1,-1,-1,-1,-1,-1,-1,-1,-1,-1],"loss_changes":[1.0311387E1,8.944084E0,1.0389779E1,3.8737166E0,7.2383003E0,6.8429747E0,5.5759764E0,4.8524237E0,1.064794E1,4.55443E0,6.639413E0,1.1254144E1,7.488572E0,3.246975E-1,4.0442815E0,0E0,0E0,0E0,0E0,0E0,0E0,0E0,0E0,0E0,0E0,0E0,0E0,0E0,0E0,0E0,0E0],"parents":[2147483647,0,0,1,1,2,2,3,3,4,4,5,5,6,6,7,7,8,8,9,9,10,10,11,11,12,12,13,13,14,14],"right_children":[2,4,6,8,10,12,14,16,18,20,22,24,26,28,30,-1,-1,-1,-1,-1,-1,-1,-1,-1,-1,-1,-1,-1,-1,-1,-1],"split_conditions":[5E-1,-3.4722238E-5,7.0355644E1,4.206448E1,3.5258762E-3,5E-1,2.9806315E-4,2.8580808E-4,-6.127757E-4,-2.912416E-5,8.660254E-1,4.322374E1,-9.588124E-4,1.0656327E-3,1.0925193E-3,-4.1293134E-3,-6.648316E-2,2.7437568E-2,6.8332365E-4,-4.299818E-2,-8.894964E-3,-6.4867088E-3,4.1663803E-2,2.2710955E-2,-3.8818873E-3,-5.1679797E-3,1.8572358E-2,-7.231366E-2,-3.0429585E-2,9.42698E-3,-4.7459226E-2],"split_indices":[15,0,7,7,3,14,5,4,4,0,14,7,4,3,5,0,0,0,0,0,0,0,0,0,0,0,0,0,0,0,0],"split_type":[0,0,0,0,0,0,0,0,0,0,0,0,0,0,0,0,0,0,0,0,0,0,0,0,0,0,0,0,0,0,0],"sum_hessian":[1.405315E3,9.3168915E2,4.736258E2,4.0128598E2,5.304032E2,4.5299554E2,2.0630257E1,1.2039667E2,2.808893E2,5.0317163E2,2.7231531E1,2.5417908E2,1.9881647E2,7.477767E0,1.3152489E1,1.1818357E2,2.2130969E0,4.3096127E1,2.377932E2,9.069721E0,4.9410193E2,1.4636009E1,1.2595523E1,4.825929E1,2.0591978E2,4.1567337E1,1.5724913E2,4.359309E0,3.1184578E0,9.7054825E0,3.4470065E0],"tree_param":{"num_deleted":"0","num_feature":"18","num_nodes":"31","size_leaf_vector":"1"}},{"base_weights":[-1.2025911E-2,4.120695E-1,-2.777298E-2,5.8350176E-1,-3.321796E-1,1.0081003E-1,-8.223123E-2,9.999748E-1,3.091738E-1,-6.312711E-2,2.27893E-1,2.1355624E-1,-6.411341E-2,6.18838E-1,-9.329761E-2,-6.854959E-3,5.731784E-2,-2.4968745E-2,2.590364E-2,3.5220597E-2,-2.4223303E-2,2.5439719E-2,5.3279493E-3,1.7469237E-2,-9.090459E-3,4.183325E-2,-3.5214618E-2,-3.1472456E-2,-4.014812E-3],"categories":[],"categories_nodes":[],"categories_segments":[],"categories_sizes":[],"default_left":[0,0,0,0,0,0,0,0,0,0,0,0,0,0,0,0,0,0,0,0,0,0,0,0,0,0,0,0,0],"id":30,"left_children":[1,3,5,7,9,11,13,15,17,-1,19,21,23,25,27,-1,-1,-1,-1,-1,-1,-1,-1,-1,-1,-1,-1,-1,-1],"loss_changes":[9.510508E0,6.699152E0,9.618385E0,4.466943E0,5.593734E0,7.6144524E0,7.541661E0,2.8458633E0,4.7601156E0,0E0,2.786506E0,7.6226625E0,8.178519E0,4.947378E0,6.575205E0,0E0,0E0,0E0,0E0,0E0,0E0,0E0,0E0,0E0,0E0,0E0,0E0,0E0,0E0],"parents":[2147483647,0,0,1,1,2,2,3,3,4,4,5,5,6,6,7,7,8,8,10,10,11,11,12,12,13,13,14,14],"right_children":[2,4,6,8,10,12,14,16,18,-1,20,22,24,26,28,-1,-1,-1,-1,-1,-1,-1,-1,-1,-1,-1,-1,-1,-1],"split_conditions":[2.5417741E-2,8.660254E-1,-1.1906018E-4,4.9991642E1,5.569269E1,6.6407114E-2,4.9792303E-5,-7.350052E-4,-2.5881904E-1,-6.312711E-2,8.677998E1,1.8624447E1,-2.0809537E-3,7.6681755E1,1.1612652E1,-6.854959E-3,5.731784E-2,-2.4968745E-2,2.590364E-2,3.5220597E-2,-2.4223303E-2,2.5439719E-2,5.3279493E-3,1.7469237E-2,-9.090459E-3,4.183325E-2,-3.5214618E-2,-3.1472456E-2,-4.014812E-3],"split_indices":[11,14,0,7,13,11,5,4,14,0,13,12,3,13,12,0,0,0,0,0,0,0,0,0,0,0,0,0,0],"split_type":[0,0,0,0,0,0,0,0,0,0,0,0,0,0,0,0,0,0,0,0,0,0,0,0,0,0,0,0,0],"sum_hessian":[1.421386E3,4.998685E1,1.3713992E3,4.080395E1,9.1829E0,4.0776404E2,9.6363513E2,1.5153449E1,2.5650501E1,2.9794126E0,6.2034874E0,2.4201859E2,1.6574547E2,1.4121155E1,9.49514E2,1.7355303E0,1.3417919E1,4.980982E0,2.066952E1,3.7237275E0,2.47976E0,6.3379616E1,1.7863898E2,3.6287785E1,1.2945767E2,1.2440703E1,1.6804512E0,2.1357489E1,9.281565E2],"tree_param":{"num_deleted":"0","num_feature":"18","num_nodes":"29","size_leaf_vector":"1"}},{"base_weights":[8.236231E-3,4.3080118E-1,-6.3075954E-3,9.3848914E-1,2.4449772E-1,-3.2395354E-1,1.893686E-2,-1.0268011E-2,1.206632E0,-6.0364217E-1,5.420805E-1,-4.4762892E-1,1.1956929E-1,4.4566482E-1,4.1505406E-3,2.658608E-2,7.978587E-2,4.9325816E-2,-4.7334407E-2,-3.651921E-2,3.157503E-2,-1.4803964E-3,-3.858961E-2,-8.902594E-3,6.595235E-2,5.175786E-2,1.2295612E-2,-6.628214E-3,1.9169993E-3],"categories":[],"categories_nodes":[],"categories_segments":[],"categories_sizes":[],"default_left":[0,0,0,0,0,0,0,0,0,0,0,0,0,0,0,0,0,0,0,0,0,0,0,0,0,0,0,0,0],"id":31,"left_children":[1,3,5,7,9,11,13,-1,15,17,19,21,23,25,27,-1,-1,-1,-1,-1,-1,-1,-1,-1,-1,-1,-1,-1,-1],"loss_changes":[8.715991E0,4.2337685E0,1.1004665E1,4.025111E0,9.381165E0,5.5956E0,8.021344E0,0E0,1.8095627E0,6.2745867E0,3.542747E0,1.07114525E1,8.381215E0,4.75877E0,5.7542734E0,0E0,0E0,0E0,0E0,0E0,0E0,0E0,0E0,0E0,0E0,0E0,0E0,0E0,0E0],"parents":[2147483647,0,0,1,1,2,2,3,3,4,4,5,5,6,6,8,8,9,9,10,10,11,11,12,12,13,13,14,14],"right_children":[2,4,6,8,10,12,14,-1,16,18,20,22,24,26,28,-1,-1,-1,-1,-1,-1,-1,-1,-1,-1,-1,-1,-1,-1],"split_conditions":[2.5098627E-2,3.6342552E-1,3.0143835E-2,-2.99355E-4,7.0710677E-1,2.547438E-4,8.80424E-5,-1.0268011E-2,2.1814066E-1,-9.526176E-5,-3.285478E-4,5.1359703E1,9.765127E-4,-6.0160393E-5,-2.2292756E-2,2.658608E-2,7.978587E-2,4.9325816E-2,-4.7334407E-2,-3.651921E-2,3.157503E-2,-1.4803964E-3,-3.858961E-2,-8.902594E-3,6.595235E-2,5.175786E-2,1.2295612E-2,-6.628214E-3,1.9169993E-3],"split_indices":[11,10,11,1,15,6,5,0,10,0,4,7,4,1,9,0,0,0,0,0,0,0,0,0,0,0,0,0,0],"split_type":[0,0,0,0,0,0,0,0,0,0,0,0,0,0,0,0,0,0,0,0,0,0,0,0,0,0,0,0,0],"sum_hessian":[1.4167812E3,4.618796E1,1.3705933E3,1.13154E1,3.487256E1,1.0003538E2,1.2705579E3,2.1933026E0,9.122098E0,8.790447E0,2.6082113E1,7.821581E1,2.1819569E1,4.157509E1,1.2289828E3,4.201221E0,4.9208765E0,1.2270079E0,7.5634394E0,1.2418822E0,2.484023E1,3.4638927E1,4.357688E1,1.8164139E1,3.6554296E0,9.46389E0,3.21112E1,2.4528273E2,9.837001E2],"tree_param":{"num_deleted":"0","num_feature":"18","num_nodes":"29","size_leaf_vector":"1"}},{"base_weights":[-2.0084633E-3,-9.004157E-2,9.933928E-2,1.8614562E-2,-1.8107931E-1,1.3804264E-1,-3.0047083E-1,9.3347734E-1,-9.43723E-3,-2.6308212E-1,1.7807995E-1,-5.854783E-1,1.5177868E-1,-6.9103944E-1,-8.864638E-3,6.505498E-2,-3.647648E-2,2.316436E-2,-3.231989E-3,-9.407145E-3,-4.066144E-2,3.7178025E-3,4.1284945E-2,2.1083856E-2,-5.9158977E-2,5.95433E-3,2.1620499E-2,-4.95204E-2,7.61436E-4,9.218115E-3,-5.017935E-2],"categories":[],"categories_nodes":[],"categories_segments":[],"categories_sizes":[],"default_left":[0,0,0,0,0,0,0,0,0,0,0,0,0,0,0,0,0,0,0,0,0,0,0,0,0,0,0,0,0,0,0],"id":32,"left_children":[1,3,5,7,9,11,13,15,17,19,21,23,25,27,29,-1,-1,-1,-1,-1,-1,-1,-1,-1,-1,-1,-1,-1,-1,-1,-1],"loss_changes":[1.2511938E1,7.4269147E0,1.0128969E1,8.812371E0,1.20761385E1,6.00264E0,6.5827317E0,7.1944666E0,8.741237E0,1.3572485E1,5.078462E0,7.2966833E0,5.313301E0,5.241027E0,6.7460318E0,0E0,0E0,0E0,0E0,0E0,0E0,0E0,0E0,0E0,0E0,0E0,0E0,0E0,0E0,0E0,0E0],"parents":[2147483647,0,0,1,1,2,2,3,3,4,4,5,5,6,6,7,7,8,8,9,9,10,10,11,11,12,12,13,13,14,14],"right_children":[2,4,6,8,10,12,14,16,18,20,22,24,26,28,30,-1,-1,-1,-1,-1,-1,-1,-1,-1,-1,-1,-1,-1,-1,-1,-1],"split_conditions":[6.123234E-17,-7.0710677E-1,8.7134865E1,-2.8314965E-3,9.659258E-1,1.13698E1,1.0656327E-3,4.186265E1,1.5311828E1,8.976597E-2,9.523975E-2,3.1875765E1,1E0,3.2490578E1,7.422789E-4,6.505498E-2,-3.647648E-2,2.316436E-2,-3.231989E-3,-9.407145E-3,-4.066144E-2,3.7178025E-3,4.1284945E-2,2.1083856E-2,-5.9158977E-2,5.95433E-3,2.1620499E-2,-4.95204E-2,7.61436E-4,9.218115E-3,-5.017935E-2],"split_indices":[15,15,13,2,14,12,3,12,12,11,11,13,14,12,6,0,0,0,0,0,0,0,0,0,0,0,0,0,0,0,0],"split_type":[0,0,0,0,0,0,0,0,0,0,0,0,0,0,0,0,0,0,0,0,0,0,0,0,0,0,0,0,0,0,0],"sum_hessian":[1.4003734E3,7.494738E2,6.508996E2,3.420377E2,4.0743616E2,5.940479E2,5.6851696E1,9.215409E0,3.3282227E2,3.3192007E2,7.551608E1,1.029238E1,5.8375555E2,2.3716612E1,3.3135086E1,7.725289E0,1.4901206E0,3.4028477E1,2.987938E2,2.933085E2,3.861156E1,6.6051895E1,9.464184E0,3.9429014E0,6.3494782E0,5.241224E2,5.9633186E1,1.6373852E1,7.342759E0,2.842762E1,4.7074656E0],"tree_param":{"num_deleted":"0","num_feature":"18","num_nodes":"31","size_leaf_vector":"1"}},{"base_weights":[-1.5879266E-3,-6.469116E-2,1.22801155E-1,-2.1680911E-1,1.5016552E-2,1.7142768E-1,-3.3040917E-1,-1.5064256E-1,-5.499466E-1,-2.121343E-1,6.254671E-2,8.8745254E-1,1.4266592E-1,-7.737796E-1,6.1541027E-3,-6.3856984E-3,-4.8710447E-2,3.3914868E-2,-2.9851973E-2,-5.399862E-3,-4.9394425E-2,2.5394365E-2,1.3427215E-3,2.1695066E-2,7.254245E-2,4.5079002E-4,1.5252515E-2,3.874015E-4,-5.91678E-2,1.0010848E-2,-4.8766598E-2],"categories":[],"categories_nodes":[],"categories_segments":[],"categories_sizes":[],"default_left":[0,0,0,0,0,0,0,0,0,0,0,0,0,0,0,0,0,0,0,0,0,0,0,0,0,0,0,0,0,0,0],"id":33,"left_children":[1,3,5,7,9,11,13,15,17,19,21,23,25,27,29,-1,-1,-1,-1,-1,-1,-1,-1,-1,-1,-1,-1,-1,-1,-1,-1],"loss_changes":[1.1060344E1,1.1337868E1,1.0508174E1,7.0033712E0,6.645964E0,8.70734E0,6.913004E0,4.966221E0,3.4643927E0,8.499399E0,8.073938E0,3.5544024E0,8.973069E0,6.4064264E0,5.396921E0,0E0,0E0,0E0,0E0,0E0,0E0,0E0,0E0,0E0,0E0,0E0,0E0,0E0,0E0,0E0,0E0],"parents":[2147483647,0,0,1,1,2,2,3,3,4,4,5,5,6,6,7,7,8,8,9,9,10,10,11,11,12,12,13,13,14,14],"right_children":[2,4,6,8,10,12,14,16,18,20,22,24,26,28,30,-1,-1,-1,-1,-1,-1,-1,-1,-1,-1,-1,-1,-1,-1,-1,-1],"split_conditions":[5E-1,2.4330987E-4,2.744026E-3,8.1121814E-1,-5E-1,1.0044554E1,5E-1,2.4057746E-4,6.0615996E-5,9.1227055E-2,-3.3680918E-3,-1.4149409E-3,5E-1,5.7201744E1,6.472903E-3,-6.3856984E-3,-4.8710447E-2,3.3914868E-2,-2.9851973E-2,-5.399862E-3,-4.9394425E-2,2.5394365E-2,1.3427215E-3,2.1695066E-2,7.254245E-2,4.5079002E-4,1.5252515E-2,3.874015E-4,-5.91678E-2,1.0010848E-2,-4.8766598E-2],"split_indices":[15,5,4,10,14,13,14,5,5,11,4,4,14,13,4,0,0,0,0,0,0,0,0,0,0,0,0,0,0,0,0],"split_type":[0,0,0,0,0,0,0,0,0,0,0,0,0,0,0,0,0,0,0,0,0,0,0,0,0,0,0,0,0,0,0],"sum_hessian":[1.407065E3,9.338154E2,4.7324954E2,3.2047873E2,6.133367E2,4.2795456E2,4.5295E1,2.6858545E2,5.1893265E1,1.0553109E2,5.078056E2,1.537358E1,4.1258096E2,1.8985481E1,2.6309517E1,2.624342E2,6.151255E0,1.4212673E0,5.0471996E1,9.404564E1,1.1485451E1,3.669717E1,4.7110843E2,9.497753E0,5.8758264E0,2.268928E2,1.8568816E2,6.86576E0,1.2119722E1,2.2630869E1,3.678648E0],"tree_param":{"num_deleted":"0","num_feature":"18","num_nodes":"31","size_leaf_vector":"1"}},{"base_weights":[-1.0409519E-2,-1.109342E-1,4.5196116E-2,1.1716254E-1,-2.4284942E-1,-1.4583512E-1,1.06143996E-1,3.0226788E-1,-3.3426976E-1,3.7848714E-1,-2.9805467E-1,4.1727368E-2,-3.3857736E-1,1.973074E-1,1.6138144E-2,1.080619E-2,5.6536634E-2,-2.479931E-2,4.0042017E-2,6.4314306E-2,9.2441505E-3,3.5199404E-2,-1.6015878E-2,-7.143855E-3,1.7827194E-2,-3.2649808E-2,1.980541E-3,1.6047796E-2,8.53342E-4,1.04415305E-2,-2.8559477E-3],"categories":[],"categories_nodes":[],"categories_segments":[],"categories_sizes":[],"default_left":[0,0,0,0,0,0,0,0,0,0,0,0,0,0,0,0,0,0,0,0,0,0,0,0,0,0,0,0,0,0,0],"id":34,"left_children":[1,3,5,7,9,11,13,15,17,19,21,23,25,27,29,-1,-1,-1,-1,-1,-1,-1,-1,-1,-1,-1,-1,-1,-1,-1,-1],"loss_changes":[7.7935734E0,1.4968931E1,1.0468888E1,1.5360782E1,1.0914927E1,7.8801208E0,5.5866017E0,9.035905E0,1.02325325E1,4.3560076E0,6.6900864E0,6.511465E0,1.2799226E1,7.535322E0,4.866287E0,0E0,0E0,0E0,0E0,0E0,0E0,0E0,0E0,0E0,0E0,0E0,0E0,0E0,0E0,0E0,0E0],"parents":[2147483647,0,0,1,1,2,2,3,3,4,4,5,5,6,6,7,7,8,8,9,9,10,10,11,11,12,12,13,13,14,14],"right_children":[2,4,6,8,10,12,14,16,18,20,22,24,26,28,30,-1,-1,-1,-1,-1,-1,-1,-1,-1,-1,-1,-1,-1,-1,-1,-1],"split_conditions":[0E0,2.87405E-4,2.4945318E-4,1.5125377E-4,1.4214026E1,5.8772993E-1,5.931477E-2,9.53663E-5,3.0141807E-4,-7.263204E-4,5.510604E-5,2.1459455E-4,2.556549E1,2.8097454E1,-8.3240314E-4,1.080619E-2,5.6536634E-2,-2.479931E-2,4.0042017E-2,6.4314306E-2,9.2441505E-3,3.5199404E-2,-1.6015878E-2,-7.143855E-3,1.7827194E-2,-3.2649808E-2,1.980541E-3,1.6047796E-2,8.53342E-4,1.04415305E-2,-2.8559477E-3],"split_indices":[14,6,6,1,12,10,11,1,5,2,5,5,12,12,2,0,0,0,0,0,0,0,0,0,0,0,0,0,0,0,0],"split_type":[0,0,0,0,0,0,0,0,0,0,0,0,0,0,0,0,0,0,0,0,0,0,0,0,0,0,0,0,0,0,0],"sum_hessian":[1.3923674E3,4.955357E2,8.968318E2,1.8161467E2,3.1392105E2,2.1658586E2,6.802459E2,1.2903542E2,5.2579266E1,2.5137848E1,2.887832E2,1.1016497E2,1.0642088E2,3.3735754E2,3.4288837E2,1.1802409E2,1.1011317E1,4.651538E1,6.063885E0,3.4266372E0,2.171121E1,5.611038E0,2.8317215E2,6.97882E1,4.037677E1,5.7712837E1,4.8708046E1,1.9962807E2,1.3772946E2,9.39405E1,2.4894788E2],"tree_param":{"num_deleted":"0","num_feature":"18","num_nodes":"31","size_leaf_vector":"1"}},{"base_weights":[8.5944375E-3,-1.7695121E-1,3.7948024E-2,-6.4980227E-1,-1.0846793E-1,-5.017208E-1,4.9560424E-2,-3.6233358E-2,-8.0286384E-1,1.0990527E-1,-2.4399081E-1,1.5942489E-1,-1.0281671E0,5.4794855E-2,-5.0859835E-2,5.8736958E-2,-2.736446E-2,-4.3863792E-2,1.3518984E-2,-3.1201765E-2,8.3708605E-3,-1.8605277E-2,4.5054713E-3,-3.5314523E-2,2.6880462E-2,-6.088939E-2,-6.004269E-3,1.9990694E-2,2.107722E-3],"categories":[],"categories_nodes":[],"categories_segments":[],"categories_sizes":[],"default_left":[0,0,0,0,0,0,0,0,0,0,0,0,0,0,0,0,0,0,0,0,0,0,0,0,0,0,0,0,0],"id":35,"left_children":[1,3,5,7,9,11,13,15,17,19,21,23,25,27,-1,-1,-1,-1,-1,-1,-1,-1,-1,-1,-1,-1,-1,-1,-1],"loss_changes":[7.726724E0,6.204854E0,7.699601E0,2.2544699E0,5.0718927E0,9.173919E0,6.755088E0,4.295501E0,1.7876034E0,2.8891463E0,4.549337E0,4.4201403E0,2.3583755E0,5.1941495E0,0E0,0E0,0E0,0E0,0E0,0E0,0E0,0E0,0E0,0E0,0E0,0E0,0E0,0E0,0E0],"parents":[2147483647,0,0,1,1,2,2,3,3,4,4,5,5,6,6,7,7,8,8,9,9,10,10,11,11,12,12,13,13],"right_children":[2,4,6,8,10,12,14,16,18,20,22,24,26,28,-1,-1,-1,-1,-1,-1,-1,-1,-1,-1,-1,-1,-1,-1,-1],"split_conditions":[-7.0710677E-1,-4.013735E-2,1.13698E1,1.3859755E-1,3.5153198E-1,-1.9159599E-4,6.617046E-3,2.962893E1,5.0838806E1,-6.3960167E-4,3.34392E-2,1.0016883E1,1E0,2.5098627E-2,-5.0859835E-2,5.8736958E-2,-2.736446E-2,-4.3863792E-2,1.3518984E-2,-3.1201765E-2,8.3708605E-3,-1.8605277E-2,4.5054713E-3,-3.5314523E-2,2.6880462E-2,-6.088939E-2,-6.004269E-3,1.9990694E-2,2.107722E-3],"split_indices":[14,8,12,10,10,2,3,12,12,1,8,12,17,11,0,0,0,0,0,0,0,0,0,0,0,0,0,0,0],"split_type":[0,0,0,0,0,0,0,0,0,0,0,0,0,0,0,0,0,0,0,0,0,0,0,0,0,0,0,0,0],"sum_hessian":[1.416444E3,1.9278854E2,1.2236555E3,2.3315487E1,1.6947307E2,2.4886522E1,1.1987689E3,4.9019704E0,1.8413517E1,6.497132E1,1.0450174E2,1.1340965E1,1.3545557E1,1.1938595E3,4.909471E0,1.069377E0,3.8325934E0,1.7390371E1,1.0231447E0,4.005424E0,6.0965897E1,7.5454185E1,2.9047558E1,3.1842356E0,8.15673E0,1.0923513E1,2.622043E0,4.1110924E1,1.1527485E3],"tree_param":{"num_deleted":"0","num_feature":"18","num_nodes":"29","size_leaf_vector":"1"}},{"base_weights":[-6.626944E-3,4.2535216E-1,-2.0857116E-2,5.7163215E-1,-4.5685044E-1,-2.125117E-1,9.367064E-3,-1.303219E-1,7.1472216E-1,4.5876626E-2,-6.450706E-2,-3.356253E-1,1.4045749E-2,-1.3730623E-1,4.3580018E-2,3.399897E-2,-5.014198E-2,3.898635E-2,-1.8838821E-2,-1.3150081E-2,-4.7614813E-2,1.9253757E-2,-1.5710758E-2,5.396361E-3,-2.4116857E-2,-3.4061072E-3,5.8949874E-3],"categories":[],"categories_nodes":[],"categories_segments":[],"categories_sizes":[],"default_left":[0,0,0,0,0,0,0,0,0,0,0,0,0,0,0,0,0,0,0,0,0,0,0,0,0,0,0],"id":36,"left_children":[1,3,5,7,9,11,13,15,17,-1,-1,19,21,23,25,-1,-1,-1,-1,-1,-1,-1,-1,-1,-1,-1,-1],"loss_changes":[8.612238E0,6.027153E0,7.8561354E0,3.9873219E0,9.098314E0,5.157564E0,5.887986E0,5.921273E0,2.589777E0,0E0,0E0,5.111945E0,8.159937E0,1.8831295E1,7.904656E0,0E0,0E0,0E0,0E0,0E0,0E0,0E0,0E0,0E0,0E0,0E0,0E0],"parents":[2147483647,0,0,1,1,2,2,3,3,4,4,5,5,6,6,7,7,8,8,11,11,12,12,13,13,14,14],"right_children":[2,4,6,8,10,12,14,16,18,-1,-1,20,22,24,26,-1,-1,-1,-1,-1,-1,-1,-1,-1,-1,-1,-1],"split_conditions":[2.5098627E-2,8.660254E-1,-7.0710677E-1,4.9792303E-5,-9.526176E-5,6.123234E-17,2.3722026E-4,5.2875614E1,6.417575E1,4.5876626E-2,-6.450706E-2,5.3425606E-2,4.7997404E-2,6.088251E-1,-5E-1,3.399897E-2,-5.014198E-2,3.898635E-2,-1.8838821E-2,-1.3150081E-2,-4.7614813E-2,1.9253757E-2,-1.5710758E-2,5.396361E-3,-2.4116857E-2,-3.4061072E-3,5.8949874E-3],"split_indices":[11,14,14,5,0,15,6,7,7,0,0,8,11,10,15,0,0,0,0,0,0,0,0,0,0,0,0],"split_type":[0,0,0,0,0,0,0,0,0,0,0,0,0,0,0,0,0,0,0,0,0,0,0,0,0,0,0],"sum_hessian":[1.3985729E3,4.3680874E1,1.3548921E3,3.777016E1,5.910714E0,1.8374094E2,1.1711511E3,6.4106736E0,3.1359486E1,2.1928518E0,3.7178621E0,1.1873678E2,6.5004166E1,2.2094243E2,9.502087E2,3.438257E0,2.9724164E0,2.986641E1,1.4930764E0,1.0750293E2,1.1233843E1,3.0433018E1,3.457115E1,1.2955055E2,9.1391884E1,3.7966202E2,5.7054663E2],"tree_param":{"num_deleted":"0","num_feature":"18","num_nodes":"27","size_leaf_vector":"1"}},{"base_weights":[-6.809972E-3,4.2630237E-1,-1.9706462E-2,1.1133271E0,1.9387947E-1,-5.835917E-2,1.0328197E-1,2.1915112E-1,7.502839E-2,-6.0838544E-1,3.310555E-1,-1.2844756E-2,-2.4650247E-1,1.7907958E-1,-3.001589E-1,4.314753E-2,-3.6735617E-2,3.9994907E-2,-7.189866E-2,2.9304465E-2,-1.8291077E-2,-1.3130495E-2,1.4529993E-3,-3.671262E-2,-8.198959E-3,6.475936E-2,7.4291783E-3,-4.3741304E-2,1.2574358E-3],"categories":[],"categories_nodes":[],"categories_segments":[],"categories_sizes":[],"default_left":[0,0,0,0,0,0,0,0,0,0,0,0,0,0,0,0,0,0,0,0,0,0,0,0,0,0,0,0,0],"id":37,"left_children":[1,3,5,7,9,11,13,15,-1,17,19,21,23,25,27,-1,-1,-1,-1,-1,-1,-1,-1,-1,-1,-1,-1,-1,-1],"loss_changes":[7.8054543E0,6.2364244E0,6.454634E0,3.1349907E0,3.6574578E0,8.840667E0,9.984186E0,3.2095842E0,0E0,6.9192214E0,5.095853E0,8.722423E0,7.974781E0,9.133744E0,9.693539E0,0E0,0E0,0E0,0E0,0E0,0E0,0E0,0E0,0E0,0E0,0E0,0E0,0E0,0E0],"parents":[2147483647,0,0,1,1,2,2,3,3,4,4,5,5,6,6,7,7,9,9,10,10,11,11,12,12,13,13,14,14],"right_children":[2,4,6,8,10,12,14,16,-1,18,20,22,24,26,28,-1,-1,-1,-1,-1,-1,-1,-1,-1,-1,-1,-1,-1,-1],"split_conditions":[2.4748396E-2,1.7906557E1,5.5579835E-4,1.3955709E1,-2.4984198E-4,5.4228405E-4,9.1244675E1,4.808245E1,7.502839E-2,8.130319E-2,3.759307E-4,3.155993E-2,5.176787E1,3.0341187E-2,1.781261E-3,4.314753E-2,-3.6735617E-2,3.9994907E-2,-7.189866E-2,2.9304465E-2,-1.8291077E-2,-1.3130495E-2,1.4529993E-3,-3.671262E-2,-8.198959E-3,6.475936E-2,7.4291783E-3,-4.3741304E-2,1.2574358E-3],"split_indices":[11,12,2,12,2,3,13,13,0,10,2,11,13,11,3,0,0,0,0,0,0,0,0,0,0,0,0,0,0],"split_type":[0,0,0,0,0,0,0,0,0,0,0,0,0,0,0,0,0,0,0,0,0,0,0,0,0,0,0,0,0],"sum_hessian":[1.3949133E3,3.9407467E1,1.3555059E3,9.003551E0,3.0403917E1,1.0317681E3,3.237378E2,3.1940687E0,5.809482E0,3.9379575E0,2.646596E1,8.316492E2,2.0011893E2,2.7300275E2,5.0735058E1,1.9638798E0,1.2301887E0,1.4730831E0,2.4648743E0,1.9491642E1,6.974317E0,1.1872785E2,7.129213E2,2.7816044E1,1.7230287E2,6.158019E0,2.6684473E2,1.7728254E1,3.3006805E1],"tree_param":{"num_deleted":"0","num_feature":"18","num_nodes":"29","size_leaf_vector":"1"}},{"base_weights":[-3.179911E-3,9.91015E-2,-6.855069E-2,2.548576E-1,-2.3497196E-2,-1.2534934E-1,1.498102E-1,6.6580725E-1,1.9518971E-1,-3.089638E-1,5.025887E-2,-9.1488016E-1,-1.12282336E-1,-1.010579E0,2.0577337E-1,3.748096E-2,-3.652155E-2,2.9049179E-2,6.510465E-3,4.7091845E-2,-1.9290613E-2,1.2208719E-2,-4.371269E-3,-5.744451E-2,-2.0836908E-3,-1.9047359E-3,-1.2406405E-2,-1.1882117E-3,-6.306518E-2,1.4500585E-2,-8.953185E-3],"categories":[],"categories_nodes":[],"categories_segments":[],"categories_sizes":[],"default_left":[0,0,0,0,0,0,0,0,0,0,0,0,0,0,0,0,0,0,0,0,0,0,0,0,0,0,0,0,0,0,0],"id":38,"left_children":[1,3,5,7,9,11,13,15,17,19,21,23,25,27,29,-1,-1,-1,-1,-1,-1,-1,-1,-1,-1,-1,-1,-1,-1,-1,-1],"loss_changes":[9.334008E0,1.0400484E1,1.0581445E1,5.7509127E0,6.4479628E0,6.875513E0,1.1653696E1,4.057376E0,5.209955E0,6.4062967E0,6.5263343E0,2.1737795E0,6.707816E0,2.0182648E0,5.5297728E0,0E0,0E0,0E0,0E0,0E0,0E0,0E0,0E0,0E0,0E0,0E0,0E0,0E0,0E0,0E0,0E0],"parents":[2147483647,0,0,1,1,2,2,3,3,4,4,5,5,6,6,7,7,8,8,9,9,10,10,11,11,12,12,13,13,14,14],"right_children":[2,4,6,8,10,12,14,16,18,20,22,24,26,28,30,-1,-1,-1,-1,-1,-1,-1,-1,-1,-1,-1,-1,-1,-1,-1,-1],"split_conditions":[-3.4722238E-5,4.9500186E-2,5.679793E-4,-4.6535296E-4,3.760901E-4,-2.912416E-5,-3.973078E-4,1.4392384E-3,2.1909765E1,-3.0136125E-3,-6.127757E-4,9.765127E-4,1.4727633E-4,-2.4310139E-3,8.9932434E1,3.748096E-2,-3.652155E-2,2.9049179E-2,6.510465E-3,4.7091845E-2,-1.9290613E-2,1.2208719E-2,-4.371269E-3,-5.744451E-2,-2.0836908E-3,-1.9047359E-3,-1.2406405E-2,-1.1882117E-3,-6.306518E-2,1.4500585E-2,-8.953185E-3],"split_indices":[0,11,1,0,6,0,2,4,13,4,4,4,1,2,13,0,0,0,0,0,0,0,0,0,0,0,0,0,0,0,0],"split_type":[0,0,0,0,0,0,0,0,0,0,0,0,0,0,0,0,0,0,0,0,0,0,0,0,0,0,0,0,0,0,0],"sum_hessian":[1.3939917E3,5.433427E2,8.5064905E2,2.3883492E2,3.045078E2,6.753954E2,1.7525363E2,2.8993048E1,2.0984187E2,6.186717E1,2.4264062E2,9.872419E0,6.65523E2,7.2784286E0,1.6797519E2,2.7788126E1,1.2049223E0,2.9104607E1,1.8073726E2,2.9295454E0,5.8937622E1,1.004262E2,1.4221443E2,7.5368977E0,2.335522E0,4.3127628E2,2.3424669E2,1.6964064E0,5.582022E0,1.3801173E2,2.9963463E1],"tree_param":{"num_deleted":"0","num_feature":"18","num_nodes":"31","size_leaf_vector":"1"}}]},"name":"gbtree"},"learner_model_param":{"base_score":"[4.469489E-1]","boost_from_average":"1","num_class":"0","num_feature":"18","num_target":"1"},"objective":{"name":"binary:logistic","reg_loss_param":{"scale_pos_weight":"1"}}},"version":[3,2,0]}