{"learner":{"attributes":{"best_iteration":"8","best_score":"0.6867210562024099","scikit_learn":"{\"_estimator_type\": \"classifier\"}"},"feature_names":["log_return_1h","log_return_3h","log_return_6h","log_return_12h","log_return_24h","vol_6h","vol_24h","rsi_14","macd_line","macd_signal","bbp_20","atr_14","adx_14","stoch_k","hour_sin","hour_cos","london_session","ny_session"],"feature_types":["float","float","float","float","float","float","float","float","float","float","float","float","float","float","float","float","int","int"],"gradient_booster":{"model":{"cats":{"enc":[],"feature_segments":[],"sorted_idx":[]},"gbtree_model_param":{"num_parallel_tree":"1","num_trees":"39"},"iteration_indptr":[0,1,2,3,4,5,6,7,8,9,10,11,12,13,14,15,16,17,18,19,20,21,22,23,24,25,26,27,28,29,30,31,32,33,34,35,36,37,38,39],"tree_info":[0,0,0,0,0,0,0,0,0,0,0,0,0,0,0,0,0,0,0,0,0,0,0,0,0,0,0,0,0,0,0,0,0,0,0,0,0,0,0],"trees":[{"base_weights":[-7.984312E-3,-4.5240113E-1,1.192698E-1,-1.0735902E0,-3.8089702E-1,3.3270112E-1,-8.8864185E-2,-1.190189E0,2.3902325E-2,-1.8733123E-1,-7.557762E-1,7.646227E-1,2.1820295E-1,1.21156074E-1,-2.8925157E-1,-3.6504798E-2,-7.04466E-2,2.7904311E-2,-1.2889916E-2,-4.4829536E-2,-1.9298518E-2,4.3671455E-2,-1.3861625E-2,4.110749E-2,9.170343E-3,1.3160658E-2,-9.187505E-3,1.5777327E-2,-1.8202161E-2],"categories":[],"categories_nodes":[],"categories_segments":[],"categories_sizes":[],"default_left":[0,0,0,0,0,0,0,0,0,0,0,0,0,0,0,0,0,0,0,0,0,0,0,0,0,0,0,0,0],"id":0,"left_children":[1,3,5,7,9,11,13,15,-1,17,19,21,23,25,27,-1,-1,-1,-1,-1,-1,-1,-1,-1,-1,-1,-1,-1,-1],"loss_changes":[8.1082886E1,1.3766693E1,4.9543987E1,6.429695E0,2.0738678E1,2.7058823E1,2.3817812E1,2.0325394E0,0E0,1.0181635E1,4.739216E0,1.3273918E1,9.0236E0,1.2030184E1,1.3209196E1,0E0,0E0,0E0,0E0,0E0,0E0,0E0,0E0,0E0,0E0,0E0,0E0,0E0,0E0],"parents":[2147483647,0,0,1,1,2,2,3,3,4,4,5,5,6,6,7,7,9,9,10,10,11,11,12,12,13,13,14,14],"right_children":[2,4,6,8,10,12,14,16,-1,18,20,22,24,26,28,-1,-1,-1,-1,-1,-1,-1,-1,-1,-1,-1,-1,-1,-1],"split_conditions":[-5E-1,-4.9784027E-2,1E0,5.0838806E1,5.3997726E1,-1.9178203E-4,-3.5551406E-5,2.9707285E1,2.3902325E-2,7.670592E-5,-7.0710677E-1,6.1938324E1,7.338379E-5,5.918759E-1,-2.5881904E-1,-3.6504798E-2,-7.04466E-2,2.7904311E-2,-1.2889916E-2,-4.4829536E-2,-1.9298518E-2,4.3671455E-2,-1.3861625E-2,4.110749E-2,9.170343E-3,1.3160658E-2,-9.187505E-3,1.5777327E-2,-1.8202161E-2],"split_indices":[14,8,16,12,7,0,0,12,0,5,14,7,5,10,14,0,0,0,0,0,0,0,0,0,0,0,0,0,0],"split_type":[0,0,0,0,0,0,0,0,0,0,0,0,0,0,0,0,0,0,0,0,0,0,0,0,0,0,0,0,0],"sum_hessian":[1.4317742E3,3.1814456E2,1.1136296E3,3.139422E1,2.8675037E2,5.4952246E2,5.641072E2,2.9416632E1,1.9775887E0,1.900957E2,9.665465E1,1.1395855E2,4.355639E2,2.756264E2,2.8848074E2,1.0876738E1,1.8539894E1,1.5820709E1,1.74275E2,6.896841E1,2.7686241E1,1.0332901E2,1.06295395E1,2.2495071E1,4.1306882E2,1.8811812E2,8.75083E1,3.139422E1,2.5708652E2],"tree_param":{"num_deleted":"0","num_feature":"18","num_nodes":"29","size_leaf_vector":"1"}},{"base_weights":[-8.7674055E-3,-6.1000407E-1,9.867922E-2,-7.8009945E-1,-2.5436968E-1,-1.4595932E-1,3.0843413E-1,-7.0395E-1,-1.4406536E0,2.5391904E-1,-8.102494E-1,-1.1176594E-2,-5.280234E-1,4.868717E-1,1.2270773E-1,-3.1444725E-2,-7.595742E-2,-7.771572E-2,-1.9331006E-2,2.2553127E-2,-3.7828177E-2,-6.2109124E-2,-2.0389384E-2,1.1511407E-2,-6.7302817E-3,-4.665585E-2,-6.255845E-3,3.0466745E-2,1.0596217E-2,-5.4106276E-2,7.095997E-3],"categories":[],"categories_nodes":[],"categories_segments":[],"categories_sizes":[],"default_left":[0,0,0,0,0,0,0,0,0,0,0,0,0,0,0,0,0,0,0,0,0,0,0,0,0,0,0,0,0,0,0],"id":1,"left_children":[1,3,5,7,9,11,13,15,17,19,21,23,25,27,29,-1,-1,-1,-1,-1,-1,-1,-1,-1,-1,-1,-1,-1,-1,-1,-1],"loss_changes":[9.3163284E1,1.3027893E1,6.283086E1,6.401291E0,2.0612766E1,2.911447E1,2.1782093E1,7.2519226E0,1.1101723E0,8.008649E0,5.53187E0,1.2517011E1,2.3948742E1,1.1177284E1,7.659721E0,0E0,0E0,0E0,0E0,0E0,0E0,0E0,0E0,0E0,0E0,0E0,0E0,0E0,0E0,0E0,0E0],"parents":[2147483647,0,0,1,1,2,2,3,3,4,4,5,5,6,6,7,7,8,8,9,9,10,10,11,11,12,12,13,13,14,14],"right_children":[2,4,6,8,10,12,14,16,18,20,22,24,26,28,30,-1,-1,-1,-1,-1,-1,-1,-1,-1,-1,-1,-1,-1,-1,-1,-1],"split_conditions":[-7.0710677E-1,6.123234E-17,-2.5881904E-1,5.3071953E-2,5.106593E-2,7.0710677E-1,2.3949551E-5,3.6940255E-4,1.0563439E-3,7.12401E-1,5.060588E-4,2.5752002E-1,8.660254E-1,5.8034357E-2,1.13698E1,-3.1444725E-2,-7.595742E-2,-7.771572E-2,-1.9331006E-2,2.2553127E-2,-3.7828177E-2,-6.2109124E-2,-2.0389384E-2,1.1511407E-2,-6.7302817E-3,-4.665585E-2,-6.255845E-3,3.0466745E-2,1.0596217E-2,-5.4106276E-2,7.095997E-3],"split_indices":[14,15,15,9,11,14,0,0,2,10,6,10,14,11,12,0,0,0,0,0,0,0,0,0,0,0,0,0,0,0,0],"split_type":[0,0,0,0,0,0,0,0,0,0,0,0,0,0,0,0,0,0,0,0,0,0,0,0,0,0,0,0,0,0,0],"sum_hessian":[1.4402052E3,2.1764677E2,1.2225583E3,1.4642163E2,7.122515E1,5.6449194E2,6.5806647E2,1.331389E2,1.32827215E1,3.748897E1,3.373618E1,4.1804523E2,1.464467E2,3.34792E2,3.2327448E2,1.2353635E2,9.602562E0,1.1561377E1,1.7213441E0,3.183218E1,5.6567903E0,1.5265915E1,1.8470266E1,1.4113858E2,2.7690665E2,7.236896E1,7.407774E1,2.307835E2,1.0400851E2,4.2056475E0,3.1906885E2],"tree_param":{"num_deleted":"0","num_feature":"18","num_nodes":"31","size_leaf_vector":"1"}},{"base_weights":[1.6149461E-2,-1.9596271E-1,2.6098508E-1,-6.4568394E-1,-9.723885E-2,3.1446812E-1,-1.6483687E-1,-5.750117E-1,-1.2393692E0,6.0670447E-2,-3.0029237E-1,6.874251E-1,2.5673872E-1,2.2409324E-1,-5.5246687E-1,-3.0908331E-2,2.0383788E-2,-6.9776945E-2,-1.7944343E-2,8.681681E-3,-6.9218623E-3,-1.9337803E-2,1.1328237E-2,5.385963E-2,2.6127804E-2,1.5512642E-2,-8.3998935E-3,3.854034E-2,-6.7971298E-3,1.900147E-2,-3.7615627E-2],"categories":[],"categories_nodes":[],"categories_segments":[],"categories_sizes":[],"default_left":[0,0,0,0,0,0,0,0,0,0,0,0,0,0,0,0,0,0,0,0,0,0,0,0,0,0,0,0,0,0,0],"id":2,"left_children":[1,3,5,7,9,11,13,15,17,19,21,23,25,27,29,-1,-1,-1,-1,-1,-1,-1,-1,-1,-1,-1,-1,-1,-1,-1,-1],"loss_changes":[7.485686E1,3.4228935E1,1.5289413E1,5.113262E0,2.036327E1,1.2628967E1,1.1478222E1,5.5932274E0,1.411211E0,8.070864E0,1.2740103E1,4.5217476E0,1.1794846E1,7.6446853E0,7.369012E0,0E0,0E0,0E0,0E0,0E0,0E0,0E0,0E0,0E0,0E0,0E0,0E0,0E0,0E0,0E0,0E0],"parents":[2147483647,0,0,1,1,2,2,3,3,4,4,5,5,6,6,7,7,8,8,9,9,10,10,11,11,12,12,13,13,14,14],"right_children":[2,4,6,8,10,12,14,16,18,20,22,24,26,28,30,-1,-1,-1,-1,-1,-1,-1,-1,-1,-1,-1,-1,-1,-1,-1,-1],"split_conditions":[6.123234E-17,1E0,1E0,5.3071953E-2,-2.3949266E-5,-9.720073E-4,4.9277663E-2,4.6959788E-2,1.8976207E-4,-7.0710677E-1,-2.5881904E-1,-2.6603148E-3,2.744026E-3,4.6415913E1,-2.4499113E-4,-3.0908331E-2,2.0383788E-2,-6.9776945E-2,-1.7944343E-2,8.681681E-3,-6.9218623E-3,-1.9337803E-2,1.1328237E-2,5.385963E-2,2.6127804E-2,1.5512642E-2,-8.3998935E-3,3.854034E-2,-6.7971298E-3,1.900147E-2,-3.7615627E-2],"split_indices":[15,16,17,9,1,3,11,9,1,15,15,4,4,7,1,0,0,0,0,0,0,0,0,0,0,0,0,0,0,0,0],"split_type":[0,0,0,0,0,0,0,0,0,0,0,0,0,0,0,0,0,0,0,0,0,0,0,0,0,0,0,0,0,0,0],"sum_hessian":[1.4394379E3,7.713672E2,6.680707E2,1.3785406E2,6.335131E2,5.9375665E2,7.431403E1,1.24948715E2,1.2905352E1,3.567665E2,2.767466E2,7.8125336E1,5.156313E2,3.73054E1,3.7008633E1,1.2004772E2,4.9009867E0,1.0464338E1,2.4410138E0,2.2770607E2,1.2906046E2,2.3796031E2,3.8786285E1,2.1578316E1,5.654702E1,4.5817383E2,5.745748E1,1.4359547E1,2.2945852E1,6.3724833E0,3.0636148E1],"tree_param":{"num_deleted":"0","num_feature":"18","num_nodes":"31","size_leaf_vector":"1"}},{"base_weights":[1.1999438E-2,-1.8990295E-1,2.5097516E-1,-5.41772E-1,-5.727062E-2,-1.2653442E-1,3.5487685E-1,-3.710055E-1,-8.54872E-1,1.4411059E-1,-1.905098E-1,-5.908159E-2,-1.0810493E0,5.347961E-1,1.6020912E-1,-4.2025916E-2,-1.358183E-2,-3.7436783E-2,-6.685904E-2,1.0810338E-2,-1.586497E-2,-1.8379064E-2,9.790995E-3,8.5217E-3,-1.8302754E-2,-7.0381925E-2,-5.750259E-3,2.8586179E-2,-2.3062559E-2,9.899969E-3,-6.2235605E-2],"categories":[],"categories_nodes":[],"categories_segments":[],"categories_sizes":[],"default_left":[0,0,0,0,0,0,0,0,0,0,0,0,0,0,0,0,0,0,0,0,0,0,0,0,0,0,0,0,0,0,0],"id":3,"left_children":[1,3,5,7,9,11,13,15,17,19,21,23,25,27,29,-1,-1,-1,-1,-1,-1,-1,-1,-1,-1,-1,-1,-1,-1,-1,-1],"loss_changes":[6.954758E1,3.643357E1,2.5935738E1,1.1112694E1,1.5283174E1,9.156027E0,1.8052734E1,6.3078384E0,2.8216324E0,7.618679E0,2.3508947E1,9.560192E0,2.801856E0,1.0147133E1,1.3528654E1,0E0,0E0,0E0,0E0,0E0,0E0,0E0,0E0,0E0,0E0,0E0,0E0,0E0,0E0,0E0,0E0],"parents":[2147483647,0,0,1,1,2,2,3,3,4,4,5,5,6,6,7,7,8,8,9,9,10,10,11,11,12,12,13,13,14,14],"right_children":[2,4,6,8,10,12,14,16,18,20,22,24,26,28,30,-1,-1,-1,-1,-1,-1,-1,-1,-1,-1,-1,-1,-1,-1,-1,-1],"split_conditions":[6.123234E-17,-5E-1,-2.5881904E-1,5.258649E1,4.711709E1,8.557528E-1,2.9617759E-5,-2.1354943E-3,3.365538E-4,1.9059399E-4,8.660254E-1,4.678065E-2,4.553989E-4,2.364923E-3,6.472903E-3,-4.2025916E-2,-1.358183E-2,-3.7436783E-2,-6.685904E-2,1.0810338E-2,-1.586497E-2,-1.8379064E-2,9.790995E-3,8.5217E-3,-1.8302754E-2,-7.0381925E-2,-5.750259E-3,2.8586179E-2,-2.3062559E-2,9.899969E-3,-6.2235605E-2],"split_indices":[15,14,14,7,7,10,0,4,0,0,14,11,0,3,4,0,0,0,0,0,0,0,0,0,0,0,0,0,0,0,0],"split_type":[0,0,0,0,0,0,0,0,0,0,0,0,0,0,0,0,0,0,0,0,0,0,0,0,0,0,0,0,0,0,0],"sum_hessian":[1.4394197E3,7.803414E2,6.590783E2,2.127741E2,5.6756726E2,1.4220009E2,5.1687823E2,1.3909554E2,7.3678566E1,2.2596149E2,3.4160577E2,1.3380627E2,8.393807E0,2.677065E2,2.4917172E2,2.2993567E1,1.1610197E2,6.248138E1,1.1197185E1,1.9588544E2,3.0076044E1,2.3427568E2,1.07330086E2,7.681707E1,5.698921E1,5.931453E0,2.4623537E0,2.5854715E2,9.159369E0,2.4348149E2,5.690217E0],"tree_param":{"num_deleted":"0","num_feature":"18","num_nodes":"31","size_leaf_vector":"1"}},{"base_weights":[8.148442E-3,-4.8819783E-1,9.5914744E-2,-3.5688275E-1,-1.0053735E0,1.9865602E-1,-2.8908197E-2,-9.646725E-1,-2.5986984E-1,-1.1942718E0,-1.2118672E-1,3.0469283E-1,6.1489223E-3,-1.5351877E-1,1.6076602E-1,7.7493857E-3,-5.3691443E-2,1.8224244E-3,-2.4989067E-2,1.9364877E-2,-6.310005E-2,3.2601934E-2,-3.3600725E-2,-1.9592321E-3,2.0011056E-2,1.8140676E-2,-2.5725164E-3,4.3685768E-2,-1.0169503E-2,2.954317E-2,5.307365E-4],"categories":[],"categories_nodes":[],"categories_segments":[],"categories_sizes":[],"default_left":[0,0,0,0,0,0,0,0,0,0,0,0,0,0,0,0,0,0,0,0,0,0,0,0,0,0,0,0,0,0,0],"id":4,"left_children":[1,3,5,7,9,11,13,15,17,19,21,23,25,27,29,-1,-1,-1,-1,-1,-1,-1,-1,-1,-1,-1,-1,-1,-1,-1,-1],"loss_changes":[6.270245E1,1.4329155E1,1.56902895E1,1.0010836E1,7.0779724E0,1.3694597E1,1.3096104E1,3.0490627E0,1.0784535E1,4.2934914E0,4.1544194E0,1.4227798E1,4.9355106E0,1.7302677E1,1.4186051E1,0E0,0E0,0E0,0E0,0E0,0E0,0E0,0E0,0E0,0E0,0E0,0E0,0E0,0E0,0E0,0E0],"parents":[2147483647,0,0,1,1,2,2,3,3,4,4,5,5,6,6,7,7,8,8,9,9,10,10,11,11,12,12,13,13,14,14],"right_children":[2,4,6,8,10,12,14,16,18,20,22,24,26,28,30,-1,-1,-1,-1,-1,-1,-1,-1,-1,-1,-1,-1,-1,-1,-1,-1],"split_conditions":[-7.0710677E-1,9.4714465E-5,2.2801806E-4,-4.013735E-2,6.0538303E1,2.3949551E-5,8.660254E-1,4.2848296E-2,3.0673468E-3,1.740644E-1,8.010194E-1,-2.5881904E-1,1.7440275E1,2.5417741E-2,-5.956237E-5,7.7493857E-3,-5.3691443E-2,1.8224244E-3,-2.4989067E-2,1.9364877E-2,-6.310005E-2,3.2601934E-2,-3.3600725E-2,-1.9592321E-3,2.0011056E-2,1.8140676E-2,-2.5725164E-3,4.3685768E-2,-1.0169503E-2,2.954317E-2,5.307365E-4],"split_indices":[14,0,3,8,7,0,14,11,9,10,10,14,13,11,0,0,0,0,0,0,0,0,0,0,0,0,0,0,0,0,0],"split_type":[0,0,0,0,0,0,0,0,0,0,0,0,0,0,0,0,0,0,0,0,0,0,0,0,0,0,0,0,0,0,0],"sum_hessian":[1.4372935E3,2.1527614E2,1.2220173E3,1.7303198E2,4.2244164E1,6.699733E2,5.52044E2,2.2586002E1,1.5044597E2,3.4518833E1,7.7253284E0,4.3163647E2,2.3833687E2,3.3327948E2,2.1876453E2,1.969027E0,2.0616974E1,6.76896E1,8.275638E1,1.2237715E0,3.3295063E1,3.1374228E0,4.587906E0,9.396743E1,3.3766907E2,3.24016E1,2.0593527E2,1.4666379E1,3.186131E2,5.58503E1,1.6291422E2],"tree_param":{"num_deleted":"0","num_feature":"18","num_nodes":"31","size_leaf_vector":"1"}},{"base_weights":[2.6817493E-2,-3.1875616E-1,1.252456E-1,-2.583335E-1,-1.1920273E0,2.6915446E-1,-1.7263258E-2,-8.582098E-1,-2.0348981E-1,-1.1848419E-2,-1.2536427E0,6.7988175E-1,2.082278E-1,1.6462694E-1,-1.6596554E-1,-5.0954908E-2,6.1299622E-2,-2.4966465E-3,-2.5309479E-2,-3.163068E-2,-6.740933E-2,7.305848E-2,2.7607074E-2,-4.4615444E-2,1.1677119E-2,-3.3323062E-3,1.3926524E-2,-1.3474278E-2,1.8853433E-2],"categories":[],"categories_nodes":[],"categories_segments":[],"categories_sizes":[],"default_left":[0,0,0,0,0,0,0,0,0,0,0,0,0,0,0,0,0,0,0,0,0,0,0,0,0,0,0,0,0],"id":5,"left_children":[1,3,5,7,9,11,13,15,17,-1,19,21,23,25,27,-1,-1,-1,-1,-1,-1,-1,-1,-1,-1,-1,-1,-1,-1],"loss_changes":[4.9094284E1,1.6576397E1,2.3039257E1,9.71356E0,9.052143E-1,1.3844681E1,1.5316659E1,9.587555E0,1.2835835E1,0E0,2.603283E-1,6.3546486E0,1.3808117E1,6.729841E0,1.7613155E1,0E0,0E0,0E0,0E0,0E0,0E0,0E0,0E0,0E0,0E0,0E0,0E0,0E0,0E0],"parents":[2147483647,0,0,1,1,2,2,3,3,4,4,5,5,6,6,7,7,8,8,10,10,11,11,12,12,13,13,14,14],"right_children":[2,4,6,8,10,12,14,16,18,-1,20,22,24,26,28,-1,-1,-1,-1,-1,-1,-1,-1,-1,-1,-1,-1,-1,-1],"split_conditions":[-5E-1,8.976786E-2,1E0,-4.9784027E-2,6.2290137E-4,-9.488873E-4,4.8589897E1,5.0838806E1,5.3997726E1,-1.1848419E-2,2.894481E-4,4.6394866E-2,1.1613411E1,-2.1687241E-2,9.659258E-1,-5.0954908E-2,6.1299622E-2,-2.4966465E-3,-2.5309479E-2,-3.163068E-2,-6.740933E-2,7.305848E-2,2.7607074E-2,-4.4615444E-2,1.1677119E-2,-3.3323062E-3,1.3926524E-2,-1.3474278E-2,1.8853433E-2],"split_indices":[14,11,16,8,6,3,7,12,7,0,5,11,12,9,14,0,0,0,0,0,0,0,0,0,0,0,0,0,0],"split_type":[0,0,0,0,0,0,0,0,0,0,0,0,0,0,0,0,0,0,0,0,0,0,0,0,0,0,0,0,0],"sum_hessian":[1.4411747E3,3.189892E2,1.1221854E3,2.9955826E2,1.9430962E1,5.5790796E2,5.6427747E2,2.3865952E1,2.756923E2,1.4712985E0,1.7959661E1,7.075635E1,4.871516E2,2.5376689E2,3.105106E2,2.2630077E1,1.2358748E0,1.836787E2,9.2013596E1,3.3890798E0,1.4570582E1,8.476096E0,6.2280254E1,1.018345E1,4.7696817E2,8.387649E1,1.698904E2,2.612177E2,4.929287E1],"tree_param":{"num_deleted":"0","num_feature":"18","num_nodes":"29","size_leaf_vector":"1"}},{"base_weights":[-2.4431743E-2,-4.9981663E-1,5.817627E-2,-3.1660533E-1,-7.6277226E-1,-1.2209969E-1,2.1052963E-1,-8.52612E-1,-1.6119702E-1,-9.6570325E-1,-3.8286537E-1,2.3899153E-1,-2.3004606E-1,-4.7227412E-1,2.3487021E-1,-5.197254E-2,-8.079152E-3,-1.4457925E-2,2.4911521E-2,-5.8893453E-2,-2.2445254E-2,2.7403733E-2,-3.0087704E-2,1.7294211E-2,-2.9798126E-2,-4.3608607E-3,-2.1937348E-2,3.8768392E-2,-3.1320404E-2,1.721292E-2,4.240624E-3],"categories":[],"categories_nodes":[],"categories_segments":[],"categories_sizes":[],"default_left":[0,0,0,0,0,0,0,0,0,0,0,0,0,0,0,0,0,0,0,0,0,0,0,0,0,0,0,0,0,0,0],"id":6,"left_children":[1,3,5,7,9,11,13,15,17,19,21,23,25,27,29,-1,-1,-1,-1,-1,-1,-1,-1,-1,-1,-1,-1,-1,-1,-1,-1],"loss_changes":[5.616859E1,9.959515E0,3.3501198E1,1.0400297E1,6.278866E0,2.1839386E1,1.1095482E1,3.4730873E0,8.523362E0,5.562767E0,6.7860093E0,1.1729639E1,1.2802303E1,4.9244566E0,1.0457207E1,0E0,0E0,0E0,0E0,0E0,0E0,0E0,0E0,0E0,0E0,0E0,0E0,0E0,0E0,0E0,0E0],"parents":[2147483647,0,0,1,1,2,2,3,3,4,4,5,5,6,6,7,7,8,8,9,9,10,10,11,11,12,12,13,13,14,14],"right_children":[2,4,6,8,10,12,14,16,18,20,22,24,26,28,30,-1,-1,-1,-1,-1,-1,-1,-1,-1,-1,-1,-1,-1,-1,-1,-1],"split_conditions":[-7.0710677E-1,5.1046677E1,-2.5881904E-1,-3.8905382E-2,7.015172E1,2.5985437E1,1.216095E1,2.8016808E1,5E-1,6.123234E-17,1.3616357E-2,1.3770555E-4,-7.0710677E-1,2.0696997E1,5.5512093E1,-5.197254E-2,-8.079152E-3,-1.4457925E-2,2.4911521E-2,-5.8893453E-2,-2.2445254E-2,2.7403733E-2,-3.0087704E-2,1.7294211E-2,-2.9798126E-2,-4.3608607E-3,-2.1937348E-2,3.8768392E-2,-3.1320404E-2,1.721292E-2,4.240624E-3],"split_indices":[14,7,15,8,13,13,12,13,15,15,8,1,15,13,7,0,0,0,0,0,0,0,0,0,0,0,0,0,0,0,0],"split_type":[0,0,0,0,0,0,0,0,0,0,0,0,0,0,0,0,0,0,0,0,0,0,0,0,0,0,0,0,0,0,0],"sum_hessian":[1.4285559E3,2.1074275E2,1.2178131E3,1.255036E2,8.523915E1,5.578828E2,6.5993036E2,2.7200884E1,9.830272E1,5.4555725E1,3.0683424E1,1.2811421E2,4.297686E2,2.2081997E1,6.378484E2,2.1014757E1,6.1861267E0,8.2797424E1,1.5505289E1,3.7770355E1,1.678537E1,5.5548E0,2.5128624E1,1.1409345E2,1.4020754E1,2.5599258E2,1.73776E2,1.984876E0,2.0097122E1,3.6816876E2,2.696796E2],"tree_param":{"num_deleted":"0","num_feature":"18","num_nodes":"31","size_leaf_vector":"1"}},{"base_weights":[-1.1925738E-2,-3.871531E-1,5.3982046E-2,-2.7934265E-1,-1.0354363E0,2.1372846E-1,-9.4386205E-2,-8.607375E-1,-2.0220695E-1,6.4871353E-3,-1.14555E0,2.6592547E-1,-2.0078295E-1,3.8590003E-2,-2.7470684E-1,-1.0871432E-2,-5.81772E-2,2.266241E-3,-2.003093E-2,-3.5674617E-2,4.416057E-2,-5.9908707E-2,4.5348305E-4,2.883617E-2,9.326269E-3,-4.956088E-2,5.3157615E-3,2.5888056E-2,-4.06837E-4,-1.5914042E-2,2.4661394E-2],"categories":[],"categories_nodes":[],"categories_segments":[],"categories_sizes":[],"default_left":[0,0,0,0,0,0,0,0,0,0,0,0,0,0,0,0,0,0,0,0,0,0,0,0,0,0,0,0,0,0,0],"id":7,"left_children":[1,3,5,7,9,11,13,15,17,19,21,23,25,27,29,-1,-1,-1,-1,-1,-1,-1,-1,-1,-1,-1,-1,-1,-1,-1,-1],"loss_changes":[3.5815273E1,1.483313E1,2.9220518E1,8.207115E0,3.5046654E0,1.2895927E1,1.5343535E1,3.951438E0,8.185821E0,3.0969343E0,1.686306E0,1.2912483E1,1.6358007E1,8.264306E0,9.242983E0,0E0,0E0,0E0,0E0,0E0,0E0,0E0,0E0,0E0,0E0,0E0,0E0,0E0,0E0,0E0,0E0],"parents":[2147483647,0,0,1,1,2,2,3,3,4,4,5,5,6,6,7,7,8,8,9,9,10,10,11,11,12,12,13,13,14,14],"right_children":[2,4,6,8,10,12,14,16,18,20,22,24,26,28,30,-1,-1,-1,-1,-1,-1,-1,-1,-1,-1,-1,-1,-1,-1,-1,-1],"split_conditions":[-7.0710677E-1,1.9059399E-4,1E0,-2.1354943E-3,2.7207455E-1,2.744026E-3,-1.1964239E-5,2.9707285E1,3.7803932E1,-8.370066E-4,3.1796515E-3,-1.9178203E-4,5E-1,-4.2731624E-2,9.881823E-4,-1.0871432E-2,-5.81772E-2,2.266241E-3,-2.003093E-2,-3.5674617E-2,4.416057E-2,-5.9908707E-2,4.5348305E-4,2.883617E-2,9.326269E-3,-4.956088E-2,5.3157615E-3,2.5888056E-2,-4.06837E-4,-1.5914042E-2,2.4661394E-2],"split_indices":[14,0,16,4,10,4,1,12,13,4,4,0,14,10,0,0,0,0,0,0,0,0,0,0,0,0,0,0,0,0,0],"split_type":[0,0,0,0,0,0,0,0,0,0,0,0,0,0,0,0,0,0,0,0,0,0,0,0,0,0,0,0,0,0,0],"sum_hessian":[1.4463833E3,2.1536864E2,1.2310146E3,1.8588635E2,2.9482279E1,5.9256555E2,6.384491E2,2.0583513E1,1.6530284E2,2.9079185E0,2.657436E1,5.2661096E2,6.595459E1,3.6791714E2,2.7053198E2,7.1376677E0,1.3445847E1,7.3890755E1,9.141208E1,1.6989217E0,1.2089969E0,2.5379898E1,1.194463E0,1.0588375E2,4.2072723E2,1.7831282E1,4.812331E1,3.1794262E1,3.3612286E2,2.5655984E2,1.3972126E1],"tree_param":{"num_deleted":"0","num_feature":"18","num_nodes":"31","size_leaf_vector":"1"}},{"base_weights":[3.053791E-2,-1.2612109E-1,2.1522547E-1,5.366003E-2,-2.7267963E-1,5.340933E-1,1.5971197E-1,3.3717707E-1,-1.0096015E-1,-3.4447944E-1,1.5221795E-1,4.6917206E-1,7.7037655E-2,1.9235444E-1,-2.0973226E-1,3.2145243E-2,3.4470893E-3,-9.893505E-3,5.793233E-3,-9.701707E-3,-2.5572658E-2,3.1467725E-2,-3.4927742E-3,3.0793965E-2,-3.7828595E-3,1.25507265E-2,-1.2313534E-3,-3.8688965E-2,6.1974535E-3],"categories":[],"categories_nodes":[],"categories_segments":[],"categories_sizes":[],"default_left":[0,0,0,0,0,0,0,0,0,0,0,0,0,0,0,0,0,0,0,0,0,0,0,0,0,0,0,0,0],"id":8,"left_children":[1,3,5,7,9,11,13,15,17,19,21,23,-1,25,27,-1,-1,-1,-1,-1,-1,-1,-1,-1,-1,-1,-1,-1,-1],"loss_changes":[4.1704105E1,2.0566513E1,1.1623562E1,1.5426844E1,1.3166714E1,5.6592655E0,6.8516808E0,1.0136575E1,4.8134947E0,9.145985E0,6.7017198E0,7.4942684E0,0E0,6.6181564E0,8.81595E0,0E0,0E0,0E0,0E0,0E0,0E0,0E0,0E0,0E0,0E0,0E0,0E0,0E0,0E0],"parents":[2147483647,0,0,1,1,2,2,3,3,4,4,5,5,6,6,7,7,8,8,9,9,10,10,11,11,13,13,14,14],"right_children":[2,4,6,8,10,12,14,16,18,20,22,24,-1,26,28,-1,-1,-1,-1,-1,-1,-1,-1,-1,-1,-1,-1,-1,-1],"split_conditions":[6.123234E-17,-7.0710677E-1,-9.488873E-4,2.600203E-1,1.0316296E-3,5.220823E-2,8.91707E1,5.4541666E-2,1.205605E-3,4.783454E-1,8.674666E-4,-2.7886534E-3,7.7037655E-2,4.8717894E-4,1.0846575E-3,3.2145243E-2,3.4470893E-3,-9.893505E-3,5.793233E-3,-9.701707E-3,-2.5572658E-2,3.1467725E-2,-3.4927742E-3,3.0793965E-2,-3.7828595E-3,1.25507265E-2,-1.2313534E-3,-3.8688965E-2,6.1974535E-3],"split_indices":[15,15,3,10,2,8,13,11,4,10,4,8,0,6,3,0,0,0,0,0,0,0,0,0,0,0,0,0,0],"split_type":[0,0,0,0,0,0,0,0,0,0,0,0,0,0,0,0,0,0,0,0,0,0,0,0,0,0,0,0,0],"sum_hessian":[1.4394661E3,7.790031E2,6.604629E2,3.5013354E2,4.288696E2,9.665555E1,5.638074E2,1.23146706E2,2.2698683E2,3.670365E2,6.1833115E1,9.217696E1,4.4785843E0,5.184764E2,4.5330963E1,5.6898468E1,6.624824E1,1.56933E2,7.005384E1,1.9421156E2,1.7282492E2,1.9056093E1,4.277702E1,7.251917E1,1.9657787E1,4.0801443E2,1.10461945E2,1.6359066E1,2.8971895E1],"tree_param":{"num_deleted":"0","num_feature":"18","num_nodes":"29","size_leaf_vector":"1"}},{"base_weights":[8.697884E-3,-1.6021113E-1,2.0778765E-1,-5.377787E-1,-7.622566E-2,5.169015E-1,1.3527457E-1,-4.8116657E-1,-6.8247996E-2,3.4757808E-2,-2.6638237E-1,8.8269293E-1,1.0231401E-1,1.8084013E-1,-1.939721E-1,-1.8115424E-2,-3.7912797E-2,6.72741E-3,-6.382722E-3,-2.039501E-2,3.2361657E-3,6.482794E-2,3.6427762E-2,5.9674203E-2,-2.3404048E-3,1.0660383E-2,-1.2101453E-2,1.0864569E-2,-2.8265944E-2],"categories":[],"categories_nodes":[],"categories_segments":[],"categories_sizes":[],"default_left":[0,0,0,0,0,0,0,0,0,0,0,0,0,0,0,0,0,0,0,0,0,0,0,0,0,0,0,0,0],"id":9,"left_children":[1,3,5,7,9,11,13,15,-1,17,19,21,23,25,27,-1,-1,-1,-1,-1,-1,-1,-1,-1,-1,-1,-1,-1,-1],"loss_changes":[4.842353E1,2.466329E1,1.4744457E1,5.973934E0,1.3483668E1,1.89007E1,8.086705E0,4.1407795E0,0E0,6.5656805E0,1.1057537E1,3.2910423E0,9.79118E0,6.5114946E0,1.016086E1,0E0,0E0,0E0,0E0,0E0,0E0,0E0,0E0,0E0,0E0,0E0,0E0,0E0,0E0],"parents":[2147483647,0,0,1,1,2,2,3,3,4,4,5,5,6,6,7,7,9,9,10,10,11,11,12,12,13,13,14,14],"right_children":[2,4,6,8,10,12,14,16,-1,18,20,22,24,26,28,-1,-1,-1,-1,-1,-1,-1,-1,-1,-1,-1,-1,-1,-1],"split_conditions":[6.123234E-17,1E0,-1.9178203E-4,3.6940255E-4,4.709669E-5,5.6528322E-2,1E0,1.4141202E-2,-6.8247996E-2,-7.0710677E-1,-5E-1,-4.911199E-4,1.8183455E1,8.9932434E1,3.4095946E-4,-1.8115424E-2,-3.7912797E-2,6.72741E-3,-6.382722E-3,-2.039501E-2,3.2361657E-3,6.482794E-2,3.6427762E-2,5.9674203E-2,-2.3404048E-3,1.0660383E-2,-1.2101453E-2,1.0864569E-2,-2.8265944E-2],"split_indices":[15,16,0,0,1,11,17,8,0,15,15,0,13,13,6,0,0,0,0,0,0,0,0,0,0,0,0,0,0],"split_type":[0,0,0,0,0,0,0,0,0,0,0,0,0,0,0,0,0,0,0,0,0,0,0,0,0,0,0,0,0],"sum_hessian":[1.4379843E3,7.7806464E2,6.599196E2,1.405956E2,6.37469E2,1.2422711E2,5.356925E2,1.3307E2,7.525589E0,4.0304953E2,2.344195E2,6.539759E1,5.882952E1,4.7096484E2,6.472768E1,9.4739044E1,3.8330963E1,2.4976118E2,1.5328835E2,1.6406468E2,7.035481E1,1.5735488E1,4.96621E1,6.2311287E0,5.2598392E1,4.3793958E2,3.302525E1,3.0909983E1,3.381769E1],"tree_param":{"num_deleted":"0","num_feature":"18","num_nodes":"29","size_leaf_vector":"1"}},{"base_weights":[-4.738091E-3,-4.4218993E-1,7.257011E-2,-3.2646558E-1,-8.771782E-1,-1.0313105E-1,2.2248076E-1,-1.883466E-1,-7.080319E-1,-1.0374036E0,-1.9574927E-2,3.935528E-2,-3.405079E-1,4.624719E-1,1.3569726E-1,-4.433114E-2,-5.043355E-3,-5.132708E-2,-2.0708947E-2,2.0459414E-2,-5.4875296E-2,3.06951E-2,-2.981761E-2,5.1516094E-3,-1.7878173E-2,-2.0265918E-2,1.1876586E-2,3.580041E-2,1.4334819E-3,1.8870322E-2,3.0450837E-3],"categories":[],"categories_nodes":[],"categories_segments":[],"categories_sizes":[],"default_left":[0,0,0,0,0,0,0,0,0,0,0,0,0,0,0,0,0,0,0,0,0,0,0,0,0,0,0,0,0,0,0],"id":10,"left_children":[1,3,5,7,9,11,13,15,17,19,21,23,25,27,29,-1,-1,-1,-1,-1,-1,-1,-1,-1,-1,-1,-1,-1,-1,-1,-1],"loss_changes":[4.8107265E1,1.0467747E1,3.1865381E1,8.84359E0,6.066883E0,1.8861864E1,1.3530296E1,7.6333537E0,3.7780285E0,3.6926613E0,3.2864761E0,8.861044E0,7.931078E0,1.8997414E1,8.668237E0,0E0,0E0,0E0,0E0,0E0,0E0,0E0,0E0,0E0,0E0,0E0,0E0,0E0,0E0,0E0,0E0],"parents":[2147483647,0,0,1,1,2,2,3,3,4,4,5,5,6,6,7,7,8,8,9,9,10,10,11,11,12,12,13,13,14,14],"right_children":[2,4,6,8,10,12,14,16,18,20,22,24,26,28,30,-1,-1,-1,-1,-1,-1,-1,-1,-1,-1,-1,-1,-1,-1,-1,-1],"split_conditions":[-7.0710677E-1,7.1365546E-5,-2.5881904E-1,1.5881382E-2,6.1090466E1,6.0863197E-1,-1.1717249E-4,-5.8386415E-2,3.34392E-2,1.740644E-1,8.010194E-1,1.9872919E-4,4.60869E1,4.7584085E-4,3.4234886E1,-4.433114E-2,-5.043355E-3,-5.132708E-2,-2.0708947E-2,2.0459414E-2,-5.4875296E-2,3.06951E-2,-2.981761E-2,5.1516094E-3,-1.7878173E-2,-2.0265918E-2,1.1876586E-2,3.580041E-2,1.4334819E-3,1.8870322E-2,3.0450837E-3],"split_indices":[14,0,15,8,7,10,0,8,8,10,10,0,12,6,13,0,0,0,0,0,0,0,0,0,0,0,0,0,0,0,0],"split_type":[0,0,0,0,0,0,0,0,0,0,0,0,0,0,0,0,0,0,0,0,0,0,0,0,0,0,0,0,0,0,0],"sum_hessian":[1.4205596E3,2.1263506E2,1.2079246E3,1.6933553E2,4.3299526E1,5.562683E2,6.5165625E2,1.2542715E2,4.390838E1,3.6306713E1,6.9928136E0,3.4813388E2,2.0813443E2,1.7191455E2,4.797417E2,1.2946978E1,1.1248017E2,1.9873713E1,2.4034666E1,1.2165896E0,3.5090122E1,3.301927E0,3.6908863E0,3.0064276E2,4.7491116E1,1.8741956E2,2.0714884E1,1.0809042E2,6.3824127E1,1.1241521E2,3.6732648E2],"tree_param":{"num_deleted":"0","num_feature":"18","num_nodes":"31","size_leaf_vector":"1"}},{"base_weights":[1.1190729E-2,-2.1599787E-1,1.0423519E-1,-5.2411145E-1,-1.4316903E-1,2.5496688E-1,-5.108384E-2,8.890548E-1,-6.059153E-1,1.2467339E-1,-3.0366385E-1,7.7657473E-1,1.9631702E-1,1.2995E-1,-2.2320004E-1,7.6451465E-2,-1.4904344E-2,-3.4115817E-2,-1.7142883E-3,1.2312668E-2,-2.7077923E-2,2.421662E-2,-1.6725583E-2,5.027106E-2,2.0536305E-2,1.7306445E-2,2.6185566E-3,2.1821337E-2,-1.0470015E-3,-2.7124071E-2,-4.964867E-3],"categories":[],"categories_nodes":[],"categories_segments":[],"categories_sizes":[],"default_left":[0,0,0,0,0,0,0,0,0,0,0,0,0,0,0,0,0,0,0,0,0,0,0,0,0,0,0,0,0,0,0],"id":11,"left_children":[1,3,5,7,9,11,13,15,17,19,21,23,25,27,29,-1,-1,-1,-1,-1,-1,-1,-1,-1,-1,-1,-1,-1,-1,-1,-1],"loss_changes":[3.007028E1,9.200005E0,2.36382E1,9.630337E0,1.4468216E1,1.5519737E1,1.5540936E1,4.033212E0,3.2493382E0,1.037903E1,5.271532E0,3.8939323E0,9.941603E0,1.1258677E1,1.00564575E1,0E0,0E0,0E0,0E0,0E0,0E0,0E0,0E0,0E0,0E0,0E0,0E0,0E0,0E0,0E0,0E0],"parents":[2147483647,0,0,1,1,2,2,3,3,4,4,5,5,6,6,7,7,8,8,9,9,10,10,11,11,12,12,13,13,14,14],"right_children":[2,4,6,8,10,12,14,16,18,20,22,24,26,28,30,-1,-1,-1,-1,-1,-1,-1,-1,-1,-1,-1,-1,-1,-1,-1,-1],"split_conditions":[-2.5881904E-1,-2.0823905E-2,1E0,9.136737E-5,3.3647438E1,-1.1604066E-3,-3.5551406E-5,3.5946076E-5,2.3712983E-4,1.6658464E-4,-5.2630977E-4,7.8807643E-4,2.9617759E-5,4.881747E-2,2.307382E-4,7.6451465E-2,-1.4904344E-2,-3.4115817E-2,-1.7142883E-3,1.2312668E-2,-2.7077923E-2,2.421662E-2,-1.6725583E-2,5.027106E-2,2.0536305E-2,1.7306445E-2,2.6185566E-3,2.1821337E-2,-1.0470015E-3,-2.7124071E-2,-4.964867E-3],"split_indices":[14,9,16,5,13,3,0,2,0,0,0,6,0,11,5,0,0,0,0,0,0,0,0,0,0,0,0,0,0,0,0],"split_type":[0,0,0,0,0,0,0,0,0,0,0,0,0,0,0,0,0,0,0,0,0,0,0,0,0,0,0,0,0,0,0],"sum_hessian":[1.4204615E3,4.1233444E2,1.0081271E3,7.764576E1,3.346887E2,5.1129327E2,4.968338E2,3.708752E0,7.3937004E1,1.2548903E2,2.0919965E2,5.0441986E1,4.608513E2,2.4226335E2,2.5457045E2,2.222588E0,1.4861639E0,6.5049225E1,8.887779E0,1.0665588E2,1.8833147E1,7.327228E0,2.0187242E2,2.9955786E1,2.0486202E1,2.2513608E2,2.3571523E2,7.930089E1,1.6296248E2,7.022677E1,1.8434369E2],"tree_param":{"num_deleted":"0","num_feature":"18","num_nodes":"31","size_leaf_vector":"1"}},{"base_weights":[-6.7663514E-3,-1.465573E-1,1.5985554E-1,-5.306842E-1,-6.5023E-2,3.9728913E-1,5.0043873E-2,-2.0944715E-1,-6.802974E-1,1.3975856E-1,-1.515532E-1,4.8844293E-1,-2.9598963E-1,-1.6170111E-1,1.1788723E-1,-3.7715524E-2,7.5302174E-4,-4.0553138E-2,-1.562089E-2,-8.352323E-3,1.584608E-2,-1.3165161E-2,7.6574176E-3,1.250034E-2,3.6574565E-2,6.5849304E-2,-2.3828588E-2,3.615777E-2,-1.32646365E-2,2.0980885E-2,2.576066E-3],"categories":[],"categories_nodes":[],"categories_segments":[],"categories_sizes":[],"default_left":[0,0,0,0,0,0,0,0,0,0,0,0,0,0,0,0,0,0,0,0,0,0,0,0,0,0,0,0,0,0,0],"id":12,"left_children":[1,3,5,7,9,11,13,15,17,19,21,23,25,27,29,-1,-1,-1,-1,-1,-1,-1,-1,-1,-1,-1,-1,-1,-1,-1,-1],"loss_changes":[3.3376312E1,2.4369057E1,1.7025343E1,6.4077835E0,1.1430788E1,1.3200394E1,6.4570274E0,5.485583E0,4.1982727E0,1.0477007E1,1.5468957E1,1.0420273E1,7.801681E0,1.0198631E1,6.786481E0,0E0,0E0,0E0,0E0,0E0,0E0,0E0,0E0,0E0,0E0,0E0,0E0,0E0,0E0,0E0,0E0],"parents":[2147483647,0,0,1,1,2,2,3,3,4,4,5,5,6,6,7,7,8,8,9,9,10,10,11,11,12,12,13,13,14,14],"right_children":[2,4,6,8,10,12,14,16,18,20,22,24,26,28,30,-1,-1,-1,-1,-1,-1,-1,-1,-1,-1,-1,-1,-1,-1,-1,-1],"split_conditions":[6.123234E-17,1E0,-4.8004316E-5,2.8675064E-1,2.5752002E-1,2.3307824E-3,2.408779E-4,1.0044554E1,6.725101E1,-1.569062E-2,-5E-1,-1.19159544E-4,-1.2009306E-3,-1.6994069E-4,2.85712E-4,-3.7715524E-2,7.5302174E-4,-4.0553138E-2,-1.562089E-2,-8.352323E-3,1.584608E-2,-1.3165161E-2,7.6574176E-3,1.250034E-2,3.6574565E-2,6.5849304E-2,-2.3828588E-2,3.615777E-2,-1.32646365E-2,2.0980885E-2,2.576066E-3],"split_indices":[15,16,0,10,10,4,6,13,13,9,15,3,0,2,6,0,0,0,0,0,0,0,0,0,0,0,0,0,0,0,0],"split_type":[0,0,0,0,0,0,0,0,0,0,0,0,0,0,0,0,0,0,0,0,0,0,0,0,0,0,0,0,0,0,0],"sum_hessian":[1.4309315E3,7.781807E2,6.5275073E2,1.3528993E2,6.428908E2,2.0559581E2,4.471549E2,4.3751114E1,9.1538826E1,1.9077925E2,4.5211154E2,1.8196599E2,2.3629824E1,1.08168434E2,3.3898648E2,1.2078249E1,3.1672863E1,6.664478E1,2.4894047E1,6.985822E1,1.2092103E2,3.30892E2,1.2121957E2,9.287857E1,8.908742E1,1.7455362E0,2.1884289E1,1.0709496E1,9.745895E1,6.0157875E1,2.788286E2],"tree_param":{"num_deleted":"0","num_feature":"18","num_nodes":"31","size_leaf_vector":"1"}},{"base_weights":[-2.8959494E-3,-3.556572E-1,5.772187E-2,-2.61983E-1,-9.358035E-1,-1.0013014E-1,1.9343835E-1,-1.2143775E0,-2.1590266E-1,2.5022542E-2,-1.0412025E0,-5.748884E-3,-3.7601405E-1,1.0928853E-2,2.874734E-1,-6.504345E-2,-1.8197438E-2,-3.5457562E-3,-2.8638994E-2,-5.625124E-2,1.4093068E-2,5.5128008E-2,-1.548674E-3,-3.821787E-2,3.9006138E-4,2.055436E-2,-1.155939E-2,-3.2741677E-2,1.5327321E-2],"categories":[],"categories_nodes":[],"categories_segments":[],"categories_sizes":[],"default_left":[0,0,0,0,0,0,0,0,0,0,0,0,0,0,0,0,0,0,0,0,0,0,0,0,0,0,0,0,0],"id":13,"left_children":[1,3,5,7,9,11,13,15,17,-1,19,21,23,25,27,-1,-1,-1,-1,-1,-1,-1,-1,-1,-1,-1,-1,-1,-1],"loss_changes":[3.0622711E1,1.1167028E1,2.6200726E1,7.7336006E0,4.8815365E0,1.4726082E1,1.1280535E1,1.2911415E-1,9.014342E0,0E0,3.329214E0,1.184504E1,2.1494307E1,2.1855663E1,7.9984665E0,0E0,0E0,0E0,0E0,0E0,0E0,0E0,0E0,0E0,0E0,0E0,0E0,0E0,0E0],"parents":[2147483647,0,0,1,1,2,2,3,3,4,4,5,5,6,6,7,7,8,8,10,10,11,11,12,12,13,13,14,14],"right_children":[2,4,6,8,10,12,14,16,18,-1,20,22,24,26,28,-1,-1,-1,-1,-1,-1,-1,-1,-1,-1,-1,-1,-1,-1],"split_conditions":[-7.0710677E-1,1.9059399E-4,-2.5881904E-1,-6.9862485E-2,-1.4633151E-3,7.0710677E-1,5E-1,-2.6603148E-3,1.5881382E-2,2.5022542E-2,3.1796515E-3,-2.8314965E-3,8.660254E-1,4.9895782E1,1.13698E1,-6.504345E-2,-1.8197438E-2,-3.5457562E-3,-2.8638994E-2,-5.625124E-2,1.4093068E-2,5.5128008E-2,-1.548674E-3,-3.821787E-2,3.9006138E-4,2.055436E-2,-1.155939E-2,-3.2741677E-2,1.5327321E-2],"split_indices":[14,0,15,9,2,14,14,4,8,0,4,2,14,7,12,0,0,0,0,0,0,0,0,0,0,0,0,0,0],"split_type":[0,0,0,0,0,0,0,0,0,0,0,0,0,0,0,0,0,0,0,0,0,0,0,0,0,0,0,0,0],"sum_hessian":[1.430104E3,2.0899643E2,1.2211075E3,1.8119165E2,2.7804789E1,5.646383E2,6.564693E2,7.1920476E0,1.739996E2,1.6446949E0,2.6160095E1,4.2147162E2,1.4316669E2,2.2360263E2,4.3286664E2,6.04735E0,1.1446979E0,1.2458393E2,4.941566E1,2.4742243E1,1.4178523E0,8.428612E0,4.13043E2,7.0670746E1,7.249595E1,8.4027794E1,1.3957483E2,7.926431E0,4.2494022E2],"tree_param":{"num_deleted":"0","num_feature":"18","num_nodes":"29","size_leaf_vector":"1"}},{"base_weights":[1.6329756E-3,-9.613339E-2,1.9373831E-1,7.668034E-2,-2.2400148E-1,3.106147E-1,-3.802275E-2,2.9950866E-1,-3.658699E-2,-3.0257544E-1,7.634601E-2,3.4153137E-1,-8.8520825E-1,-2.716273E-1,2.88586E-1,5.3451206E-3,2.473816E-2,7.3295957E-3,-1.0469801E-2,-1.0614828E-2,-2.5659008E-2,-1.7296916E-2,2.1296998E-2,4.9687564E-2,1.5409139E-2,-5.6272604E-2,7.309397E-3,3.6320385E-2,-1.656751E-2,5.9242766E-2,9.1875065E-3],"categories":[],"categories_nodes":[],"categories_segments":[],"categories_sizes":[],"default_left":[0,0,0,0,0,0,0,0,0,0,0,0,0,0,0,0,0,0,0,0,0,0,0,0,0,0,0,0,0,0,0],"id":14,"left_children":[1,3,5,7,9,11,13,15,17,19,21,23,25,27,29,-1,-1,-1,-1,-1,-1,-1,-1,-1,-1,-1,-1,-1,-1,-1,-1],"loss_changes":[2.6952618E1,2.1033228E1,1.3122341E1,1.0237762E1,1.2928959E1,1.2201757E1,1.25262E1,5.08665E0,8.56273E0,8.136524E0,1.700628E1,6.5336494E0,2.2434597E0,5.9409013E0,6.220188E0,0E0,0E0,0E0,0E0,0E0,0E0,0E0,0E0,0E0,0E0,0E0,0E0,0E0,0E0,0E0,0E0],"parents":[2147483647,0,0,1,1,2,2,3,3,4,4,5,5,6,6,7,7,8,8,9,9,10,10,11,11,12,12,13,13,14,14],"right_children":[2,4,6,8,10,12,14,16,18,20,22,24,26,28,30,-1,-1,-1,-1,-1,-1,-1,-1,-1,-1,-1,-1,-1,-1,-1,-1],"split_conditions":[5E-1,-3.4598033E-5,1.2992184E-4,3.061072E-4,5.453266E-4,7.0355644E1,7.0710677E-1,2.2206467E-4,-2.1338498E-4,1.4283379E-4,8.660254E-1,1.0044554E1,7.7701195E1,2.5098627E-2,2.7810005E1,5.3451206E-3,2.473816E-2,7.3295957E-3,-1.0469801E-2,-1.0614828E-2,-2.5659008E-2,-1.7296916E-2,2.1296998E-2,4.9687564E-2,1.5409139E-2,-5.6272604E-2,7.309397E-3,3.6320385E-2,-1.656751E-2,5.9242766E-2,9.1875065E-3],"split_indices":[15,0,0,6,1,7,14,5,4,1,14,13,7,11,13,0,0,0,0,0,0,0,0,0,0,0,0,0,0,0,0],"split_type":[0,0,0,0,0,0,0,0,0,0,0,0,0,0,0,0,0,0,0,0,0,0,0,0,0,0,0,0,0,0,0],"sum_hessian":[1.4330748E3,9.5006616E2,4.8300864E2,4.041958E2,5.4587036E2,3.208598E2,1.6214885E2,1.3566357E2,2.6853223E2,4.3267163E2,1.13198715E2,3.134698E2,7.3900127E0,9.4632195E1,6.7516655E1,6.9073975E1,6.65896E1,1.304286E2,1.3810362E2,3.0425583E2,1.284158E2,5.127395E1,6.192477E1,1.384744E1,2.9962234E2,5.9198947E0,1.4701178E0,4.7128196E0,8.991937E1,5.991525E0,6.1525127E1],"tree_param":{"num_deleted":"0","num_feature":"18","num_nodes":"31","size_leaf_vector":"1"}},{"base_weights":[3.549262E-3,-3.720302E-1,6.599977E-2,-2.5068754E-1,-8.789339E-1,1.666609E-1,-6.1954062E-2,-4.22621E-1,5.87852E-2,-9.896122E-1,4.022967E-1,2.6824892E-1,-5.914563E-2,-9.936322E-1,-4.3720577E-2,-1.2470091E-2,-4.1721128E-2,2.2249805E-2,-1.7237026E-2,2.5450566E-3,-5.642078E-2,3.6946565E-2,-5.040825E-3,1.4251145E-2,-4.462461E-2,-1.1797089E-2,1.2091994E-2,8.267187E-3,-6.438268E-2,-5.4949773E-3,8.544074E-3],"categories":[],"categories_nodes":[],"categories_segments":[],"categories_sizes":[],"default_left":[0,0,0,0,0,0,0,0,0,0,0,0,0,0,0,0,0,0,0,0,0,0,0,0,0,0,0,0,0,0,0],"id":15,"left_children":[1,3,5,7,9,11,13,15,17,19,21,23,25,27,29,-1,-1,-1,-1,-1,-1,-1,-1,-1,-1,-1,-1,-1,-1,-1,-1],"loss_changes":[3.3354412E1,1.2250332E1,1.5714369E1,8.803489E0,5.894491E0,1.5676035E1,9.088824E0,7.3661327E0,9.473319E0,5.2520638E0,7.169012E-1,9.425453E0,1.1372814E1,3.7134972E0,7.521871E0,0E0,0E0,0E0,0E0,0E0,0E0,0E0,0E0,0E0,0E0,0E0,0E0,0E0,0E0,0E0,0E0],"parents":[2147483647,0,0,1,1,2,2,3,3,4,4,5,5,6,6,7,7,8,8,9,9,10,10,11,11,12,12,13,13,14,14],"right_children":[2,4,6,8,10,12,14,16,18,20,22,24,26,28,30,-1,-1,-1,-1,-1,-1,-1,-1,-1,-1,-1,-1,-1,-1,-1,-1],"split_conditions":[-7.0710677E-1,7.1365546E-5,2.9617759E-5,6.123234E-17,3.35234E-3,6.119993E-1,1.1613411E1,1.4827577E-2,3.4095946E-4,-5.9016026E-4,2.5151198E-4,5.9345444E1,8.660254E-1,-4.550976E-4,9.6830947E-4,-1.2470091E-2,-4.1721128E-2,2.2249805E-2,-1.7237026E-2,2.5450566E-3,-5.642078E-2,3.6946565E-2,-5.040825E-3,1.4251145E-2,-4.462461E-2,-1.1797089E-2,1.2091994E-2,8.267187E-3,-6.438268E-2,-5.4949773E-3,8.544074E-3],"split_indices":[14,0,0,15,4,10,12,8,6,2,1,7,14,4,2,0,0,0,0,0,0,0,0,0,0,0,0,0,0,0,0],"split_type":[0,0,0,0,0,0,0,0,0,0,0,0,0,0,0,0,0,0,0,0,0,0,0,0,0,0,0,0,0,0,0],"sum_hessian":[1.4200055E3,2.0174529E2,1.2182601E3,1.6398506E2,3.776022E1,6.816804E2,5.365798E2,1.05183014E2,5.8802048E1,3.4967205E1,2.7930124E0,4.7003058E2,2.1164986E2,9.27278E0,5.2730695E2,7.516952E1,3.0013493E1,2.9993122E1,2.8808924E1,4.190111E0,3.0777094E1,1.392541E0,1.4004714E0,4.6407858E2,5.9519854E0,1.3346805E2,7.818181E1,1.9649546E0,7.3078256E0,4.0339572E2,1.2391125E2],"tree_param":{"num_deleted":"0","num_feature":"18","num_nodes":"31","size_leaf_vector":"1"}},{"base_weights":[3.8565684E-3,-2.5115627E-1,7.43227E-2,-6.589318E-1,-1.9352065E-1,-6.591278E-2,1.8391024E-1,2.247798E-2,-8.2166964E-1,-1.4271621E-1,-7.244461E-1,7.142065E-2,-2.1956602E-1,2.8622E-1,2.3040446E-2,-2.2856474E-2,2.819236E-2,-5.3461827E-2,-2.4551738E-2,-3.0592491E-3,-2.0110805E-2,-4.379972E-2,2.8759215E-2,6.421668E-3,-2.4749778E-2,8.283644E-3,-1.4216018E-2,1.6768733E-2,-1.0934067E-2,-9.849104E-3,1.1405036E-2],"categories":[],"categories_nodes":[],"categories_segments":[],"categories_sizes":[],"default_left":[0,0,0,0,0,0,0,0,0,0,0,0,0,0,0,0,0,0,0,0,0,0,0,0,0,0,0,0,0,0,0],"id":16,"left_children":[1,3,5,7,9,11,13,15,17,19,21,23,25,27,29,-1,-1,-1,-1,-1,-1,-1,-1,-1,-1,-1,-1,-1,-1,-1,-1],"loss_changes":[2.5563124E1,7.110941E0,1.7140383E1,4.2018204E0,7.2134924E0,1.0347917E1,1.029476E1,2.3988087E0,1.9697838E0,5.239723E0,5.1215067E0,8.437284E0,5.8179493E0,9.566193E0,1.1071825E1,0E0,0E0,0E0,0E0,0E0,0E0,0E0,0E0,0E0,0E0,0E0,0E0,0E0,0E0,0E0,0E0],"parents":[2147483647,0,0,1,1,2,2,3,3,4,4,5,5,6,6,7,7,8,8,9,9,10,10,11,11,12,12,13,13,14,14],"right_children":[2,4,6,8,10,12,14,16,18,20,22,24,26,28,30,-1,-1,-1,-1,-1,-1,-1,-1,-1,-1,-1,-1,-1,-1,-1,-1],"split_conditions":[-5E-1,-4.013735E-2,-2.5881904E-1,1.3859755E-1,3.365538E-4,-9.091176E-5,9.4714465E-5,-5.5238046E-2,2.1096518E1,4.0990094E-4,7.6188263E-4,1.9872919E-4,-2.5881904E-1,8.7134865E1,3.6984327E-4,-2.2856474E-2,2.819236E-2,-5.3461827E-2,-2.4551738E-2,-3.0592491E-3,-2.0110805E-2,-4.379972E-2,2.8759215E-2,6.421668E-3,-2.4749778E-2,8.283644E-3,-1.4216018E-2,1.6768733E-2,-1.0934067E-2,-9.849104E-3,1.1405036E-2],"split_indices":[14,8,15,10,0,1,0,8,13,3,0,0,14,13,1,0,0,0,0,0,0,0,0,0,0,0,0,0,0,0,0],"split_type":[0,0,0,0,0,0,0,0,0,0,0,0,0,0,0,0,0,0,0,0,0,0,0,0,0,0,0,0,0,0,0],"sum_hessian":[1.4205242E3,3.0698807E2,1.1135361E3,3.6724842E1,2.702632E2,4.886393E2,6.248967E2,7.2461047E0,2.9478737E1,2.4781822E2,2.2444996E1,2.5830478E2,2.3033455E2,3.814949E2,2.4340184E2,3.9247298E0,3.3213747E0,1.5579506E1,1.389923E1,1.8951198E2,5.8306244E1,2.0392963E1,2.0520306E0,2.3538528E2,2.2919493E1,3.2921032E1,1.9741351E2,3.4795547E2,3.353943E1,1.1743624E2,1.259656E2],"tree_param":{"num_deleted":"0","num_feature":"18","num_nodes":"31","size_leaf_vector":"1"}},{"base_weights":[-3.8957675E-3,-1.3051708E-1,1.409484E-1,-2.1061879E-2,-2.7194116E-1,3.2842338E-1,4.6705488E-2,4.455906E-2,-3.6531478E-1,-6.981608E-1,-1.4733903E-1,-1.6165783E-1,3.937361E-1,4.9054956E-1,1.311102E-2,-7.6406905E-3,7.4937763E-3,-3.9395746E-2,-4.3919287E-3,-3.7958555E-2,2.8008178E-2,-1.607688E-2,4.514884E-3,6.6349185E-3,-4.055458E-2,2.370221E-2,-2.4347503E-3,-3.1092918E-2,3.153897E-2,-3.013932E-3,1.0704545E-2],"categories":[],"categories_nodes":[],"categories_segments":[],"categories_sizes":[],"default_left":[0,0,0,0,0,0,0,0,0,0,0,0,0,0,0,0,0,0,0,0,0,0,0,0,0,0,0,0,0,0,0],"id":17,"left_children":[1,3,5,7,9,11,13,15,17,19,21,23,25,27,29,-1,-1,-1,-1,-1,-1,-1,-1,-1,-1,-1,-1,-1,-1,-1,-1],"loss_changes":[2.5909874E1,1.1662217E1,1.1627269E1,9.639482E0,1.7357538E1,7.114336E0,6.5495596E0,7.4786525E0,7.9409084E0,6.114315E0,1.0612654E1,5.195035E0,6.939602E0,5.214055E0,6.0569944E0,0E0,0E0,0E0,0E0,0E0,0E0,0E0,0E0,0E0,0E0,0E0,0E0,0E0,0E0,0E0,0E0],"parents":[2147483647,0,0,1,1,2,2,3,3,4,4,5,5,6,6,7,7,8,8,9,9,10,10,11,11,12,12,13,13,14,14],"right_children":[2,4,6,8,10,12,14,16,18,20,22,24,26,28,30,-1,-1,-1,-1,-1,-1,-1,-1,-1,-1,-1,-1,-1,-1,-1,-1],"split_conditions":[6.123234E-17,-4.771098E-5,-2.9767918E-5,5.3147774E-4,2.0006493E-4,1.4464561E1,2.5417741E-2,-1.0471221E-3,9.1630174E-4,4.9128458E-2,-5E-1,5.625565E-2,2.099001E-3,5E-1,3.635832E-4,-7.6406905E-3,7.4937763E-3,-3.9395746E-2,-4.3919287E-3,-3.7958555E-2,2.8008178E-2,-1.607688E-2,4.514884E-3,6.6349185E-3,-4.055458E-2,2.370221E-2,-2.4347503E-3,-3.1092918E-2,3.153897E-2,-3.013932E-3,1.0704545E-2],"split_indices":[15,2,0,3,5,12,11,3,3,8,15,11,4,15,5,0,0,0,0,0,0,0,0,0,0,0,0,0,0,0,0],"split_type":[0,0,0,0,0,0,0,0,0,0,0,0,0,0,0,0,0,0,0,0,0,0,0,0,0,0,0,0,0,0,0],"sum_hessian":[1.4107214E3,7.527627E2,6.5795874E2,4.2499023E2,3.2777246E2,2.1927525E2,4.3868347E2,3.5768036E2,6.730989E1,7.310455E1,2.5466791E2,2.5612656E1,1.936626E2,2.9910412E1,4.0877307E2,1.2429289E2,2.3338747E2,2.5949251E1,4.136064E1,7.01023E1,3.0022497E0,1.4674446E2,1.0792345E2,1.8171902E1,7.4407535E0,1.6384984E2,2.9812746E1,2.9639077E0,2.6946505E1,2.9994534E2,1.0882773E2],"tree_param":{"num_deleted":"0","num_feature":"18","num_nodes":"31","size_leaf_vector":"1"}},{"base_weights":[-8.231683E-3,-3.1109774E-1,4.309773E-2,-1.8626985E-1,-5.93068E-1,1.4351027E-1,-7.885823E-2,-4.584017E-1,9.685112E-3,-8.373941E-1,-1.9799398E-1,1.06909156E-1,4.7966012E-1,-2.3156844E-1,1.3920493E-1,-1.3858229E-2,-4.551312E-2,4.639408E-3,-4.9789082E-2,-4.5523155E-2,1.7122367E-2,1.912166E-2,-4.0939715E-2,5.8745896E-3,-5.1469572E-2,2.9574534E-2,-5.964415E-2,-3.4906024E-3,-1.6979244E-2,-1.571179E-2,1.3673435E-2],"categories":[],"categories_nodes":[],"categories_segments":[],"categories_sizes":[],"default_left":[0,0,0,0,0,0,0,0,0,0,0,0,0,0,0,0,0,0,0,0,0,0,0,0,0,0,0,0,0,0,0],"id":18,"left_children":[1,3,5,7,9,11,13,15,17,19,21,23,25,27,29,-1,-1,-1,-1,-1,-1,-1,-1,-1,-1,-1,-1,-1,-1,-1,-1],"loss_changes":[2.2221542E1,7.1805553E0,1.4980768E1,7.738743E0,5.9255676E0,8.201526E0,1.843519E1,4.721814E0,7.2199097E0,3.6465607E0,9.47391E0,7.4104533E0,1.2971284E1,5.661722E0,1.3981176E1,0E0,0E0,0E0,0E0,0E0,0E0,0E0,0E0,0E0,0E0,0E0,0E0,0E0,0E0,0E0,0E0],"parents":[2147483647,0,0,1,1,2,2,3,3,4,4,5,5,6,6,7,7,8,8,9,9,10,10,11,11,12,12,13,13,14,14],"right_children":[2,4,6,8,10,12,14,16,18,20,22,24,26,28,30,-1,-1,-1,-1,-1,-1,-1,-1,-1,-1,-1,-1,-1,-1,-1,-1],"split_conditions":[-7.0710677E-1,1.7681422E-4,2.2801806E-4,-3.9727677E-4,7.07772E-1,9.5257325E-5,8.660254E-1,4.3303254E-1,7.1970457E-1,8.066384E-4,8.1548315E-1,8.401216E-5,7.756546E-4,1E0,2.408779E-4,-1.3858229E-2,-4.551312E-2,4.639408E-3,-4.9789082E-2,-4.5523155E-2,1.7122367E-2,1.912166E-2,-4.0939715E-2,5.8745896E-3,-5.1469572E-2,2.9574534E-2,-5.964415E-2,-3.4906024E-3,-1.6979244E-2,-1.571179E-2,1.3673435E-2],"split_indices":[14,2,3,2,10,3,14,10,10,1,10,3,2,16,6,0,0,0,0,0,0,0,0,0,0,0,0,0,0,0,0],"split_type":[0,0,0,0,0,0,0,0,0,0,0,0,0,0,0,0,0,0,0,0,0,0,0,0,0,0,0,0,0,0,0],"sum_hessian":[1.4275492E3,2.0614464E2,1.2214045E3,1.4403925E2,6.2105392E1,6.697712E2,5.516334E2,5.97384E1,8.430084E1,3.768205E1,2.4423344E1,6.051937E2,6.457746E1,3.2439603E2,2.2723737E2,4.3788586E1,1.5949813E1,7.870361E1,5.5972323E0,3.5699455E1,1.9825933E0,1.2820541E1,1.1602803E1,6.0049774E2,4.6959734E0,6.1136093E1,3.4413655E0,1.3054659E2,1.9384944E2,5.160719E1,1.7563017E2],"tree_param":{"num_deleted":"0","num_feature":"18","num_nodes":"31","size_leaf_vector":"1"}},{"base_weights":[8.635522E-3,-2.8755313E-1,5.7940986E-2,-1.9902474E-1,-8.749427E-1,1.3605836E-1,-3.7266117E-2,-6.216376E-2,-4.5289323E-1,-1.0395409E0,-2.6297468E-1,1.086434E0,1.2143598E-1,-1.6404703E-1,1.5344562E-1,-4.7175684E-3,6.953019E-2,2.6394337E-2,-2.7342295E-2,-5.937587E-2,-1.2395413E-2,1.7286764E-2,-4.0526174E-2,6.535362E-2,-1.2736973E-2,-2.219099E-3,8.947822E-3,2.3627928E-2,-9.688313E-3,-3.304963E-2,1.1941652E-2],"categories":[],"categories_nodes":[],"categories_segments":[],"categories_sizes":[],"default_left":[0,0,0,0,0,0,0,0,0,0,0,0,0,0,0,0,0,0,0,0,0,0,0,0,0,0,0,0,0,0,0],"id":19,"left_children":[1,3,5,7,9,11,13,15,17,19,21,23,25,27,29,-1,-1,-1,-1,-1,-1,-1,-1,-1,-1,-1,-1,-1,-1,-1,-1],"loss_changes":[2.0669014E1,1.0329269E1,9.028027E0,6.115586E0,2.361765E0,9.1319895E0,1.3264745E1,5.5577254E0,5.981286E0,2.080927E0,2.5745058E0,3.2848158E0,6.2805557E0,6.3236313E0,1.5399794E1,0E0,0E0,0E0,0E0,0E0,0E0,0E0,0E0,0E0,0E0,0E0,0E0,0E0,0E0,0E0,0E0],"parents":[2147483647,0,0,1,1,2,2,3,3,4,4,5,5,6,6,7,7,8,8,9,9,10,10,11,11,12,12,13,13,14,14],"right_children":[2,4,6,8,10,12,14,16,18,20,22,24,26,28,30,-1,-1,-1,-1,-1,-1,-1,-1,-1,-1,-1,-1,-1,-1,-1,-1],"split_conditions":[-7.0710677E-1,1.9059399E-4,2.2801806E-4,5.8949225E-2,6.884227E-2,2.2476962E-2,8.660254E-1,1.7117217E-4,1.4116417E1,6.0538303E1,3.5927215E-4,3.3879883E1,-2.0823905E-2,2.5098627E-2,3.0143835E-2,-4.7175684E-3,6.953019E-2,2.6394337E-2,-2.7342295E-2,-5.937587E-2,-1.2395413E-2,1.7286764E-2,-4.0526174E-2,6.535362E-2,-1.2736973E-2,-2.219099E-3,8.947822E-3,2.3627928E-2,-9.688313E-3,-3.304963E-2,1.1941652E-2],"split_indices":[14,0,3,11,11,11,14,0,12,7,0,12,9,11,11,0,0,0,0,0,0,0,0,0,0,0,0,0,0,0,0],"split_type":[0,0,0,0,0,0,0,0,0,0,0,0,0,0,0,0,0,0,0,0,0,0,0,0,0,0,0,0,0,0,0],"sum_hessian":[1.4131846E3,2.0098598E2,1.2121986E3,1.758253E2,2.5160675E1,6.6562476E2,5.465738E2,1.1504773E2,6.0777576E1,1.9277115E1,5.883559E0,8.975364E0,6.566494E2,3.284004E2,2.1817345E2,1.1346876E2,1.5789664E0,4.909391E0,5.5868183E1,1.5819885E1,3.45723E0,2.960712E0,2.922847E0,7.7292414E0,1.246122E0,1.6917787E2,4.8747153E2,1.3982617E1,3.1441776E2,2.0063509E1,1.9810992E2],"tree_param":{"num_deleted":"0","num_feature":"18","num_nodes":"31","size_leaf_vector":"1"}},{"base_weights":[-2.792482E-3,-8.553285E-2,1.5951271E-1,-3.3821455E-1,-2.9945383E-2,1.9348973E-1,-6.8145084E-1,-9.1690415E-1,-2.8538698E-1,5.5700526E-2,-1.024375E-1,-6.473689E-2,2.6411906E-1,-4.085525E-1,-7.083613E-2,-5.104342E-2,2.331359E-3,6.7202705E-3,-1.9065091E-2,-8.7435935E-3,9.886215E-3,-6.696377E-3,1.6312148E-2,1.3389614E-2,-2.1797968E-2,-3.319093E-2,1.4106894E-2,-5.7970803E-2,8.1955874E-4],"categories":[],"categories_nodes":[],"categories_segments":[],"categories_sizes":[],"default_left":[0,0,0,0,0,0,0,0,0,0,0,0,0,0,0,0,0,0,0,0,0,0,0,0,0,0,0,0,0],"id":20,"left_children":[1,3,5,7,9,11,13,15,17,19,21,23,25,27,-1,-1,-1,-1,-1,-1,-1,-1,-1,-1,-1,-1,-1,-1,-1],"loss_changes":[1.9012646E1,1.31608715E1,1.3791242E1,4.9045315E0,4.7846136E0,8.411486E0,3.1905508E0,1.4184208E0,6.3448477E0,1.1610366E1,5.6758547E0,1.2418315E1,6.23345E0,4.838826E0,0E0,0E0,0E0,0E0,0E0,0E0,0E0,0E0,0E0,0E0,0E0,0E0,0E0,0E0,0E0],"parents":[2147483647,0,0,1,1,2,2,3,3,4,4,5,5,6,6,7,7,8,8,9,9,10,10,11,11,12,12,13,13],"right_children":[2,4,6,8,10,12,14,16,18,20,22,24,26,28,-1,-1,-1,-1,-1,-1,-1,-1,-1,-1,-1,-1,-1,-1,-1],"split_conditions":[5E-1,-7.0710677E-1,4.7058347E-3,-4.3429952E-2,-9.5391304E-5,-2.5881904E-1,5.0838806E1,3.43083E-1,-3.4598033E-5,-1.7627463E-2,6.6220853E-4,3.530318E-5,1.13698E1,6.497593E-2,-7.083613E-2,-5.104342E-2,2.331359E-3,6.7202705E-3,-1.9065091E-2,-8.7435935E-3,9.886215E-3,-6.696377E-3,1.6312148E-2,1.3389614E-2,-2.1797968E-2,-3.319093E-2,1.4106894E-2,-5.7970803E-2,8.1955874E-4],"split_indices":[15,14,4,9,4,14,12,10,0,9,0,1,12,9,0,0,0,0,0,0,0,0,0,0,0,0,0,0,0],"split_type":[0,0,0,0,0,0,0,0,0,0,0,0,0,0,0,0,0,0,0,0,0,0,0,0,0,0,0,0,0],"sum_hessian":[1.4137539E3,9.367089E2,4.7704495E2,1.6799168E2,7.687172E2,4.5925964E2,1.7785316E1,1.2684554E1,1.5530713E2,3.5249417E2,4.1622305E2,9.86544E1,3.6060522E2,1.410562E1,3.679696E0,1.1395483E1,1.2890705E0,2.881047E1,1.2649666E2,1.3427327E2,2.182209E2,3.8838092E2,2.7842123E1,5.2186253E1,4.6468147E1,6.186206E0,3.5441904E2,4.473201E0,9.63242E0],"tree_param":{"num_deleted":"0","num_feature":"18","num_nodes":"29","size_leaf_vector":"1"}},{"base_weights":[-1.0504763E-2,-2.826583E-1,3.556593E-2,-2.4446157E-1,-1.0213956E0,1.3107742E-1,-5.2667104E-2,-1.762791E-1,-6.901725E-1,-1.1982433E0,1.0302444E-2,1.6909757E-1,-2.9942855E-1,-8.693941E-2,2.0663229E-1,-9.957539E-3,5.2514594E-2,3.732514E-2,-4.0169716E-2,-1.8787904E-2,-6.373915E-2,1.2960519E-2,5.5153563E-5,-3.9935365E-2,-2.7276715E-3,2.538977E-4,-1.7793413E-2,-7.1948655E-3,3.7006322E-2],"categories":[],"categories_nodes":[],"categories_segments":[],"categories_sizes":[],"default_left":[0,0,0,0,0,0,0,0,0,0,0,0,0,0,0,0,0,0,0,0,0,0,0,0,0,0,0,0,0],"id":21,"left_children":[1,3,5,7,9,11,13,15,17,19,-1,21,23,25,27,-1,-1,-1,-1,-1,-1,-1,-1,-1,-1,-1,-1,-1,-1],"loss_changes":[1.7673391E1,5.508415E0,1.0167558E1,5.814803E0,2.3563385E0,9.531753E0,5.5938644E0,4.9998975E0,4.759838E0,6.4946175E-2,0E0,8.06676E0,5.7474623E0,1.373324E1,1.385977E1,0E0,0E0,0E0,0E0,0E0,0E0,0E0,0E0,0E0,0E0,0E0,0E0,0E0,0E0],"parents":[2147483647,0,0,1,1,2,2,3,3,4,4,5,5,6,6,7,7,8,8,9,9,11,11,12,12,13,13,14,14],"right_children":[2,4,6,8,10,12,14,16,18,20,-1,22,24,26,28,-1,-1,-1,-1,-1,-1,-1,-1,-1,-1,-1,-1,-1,-1],"split_conditions":[-7.0710677E-1,9.1227055E-2,1E0,1.9059399E-4,5.365105E-3,5.3071953E-2,9.659258E-1,1.6658464E-4,-1.4633151E-3,-3.792278E-4,1.0302444E-2,1.2992184E-4,5E-1,7.0710677E-1,7.238644E1,-9.957539E-3,5.2514594E-2,3.732514E-2,-4.0169716E-2,-1.8787904E-2,-6.373915E-2,1.2960519E-2,5.5153563E-5,-3.9935365E-2,-2.7276715E-3,2.538977E-4,-1.7793413E-2,-7.1948655E-3,3.7006322E-2],"split_indices":[14,11,16,0,4,9,14,0,2,0,0,0,14,14,13,0,0,0,0,0,0,0,0,0,0,0,0,0,0],"split_type":[0,0,0,0,0,0,0,0,0,0,0,0,0,0,0,0,0,0,0,0,0,0,0,0,0,0,0,0,0],"sum_hessian":[1.4077504E3,2.0306262E2,1.2046877E3,1.9434485E2,8.717768E0,5.7825073E2,6.26437E2,1.6976987E2,2.4574984E1,7.640702E0,1.077066E0,5.318845E2,4.6366188E1,5.538923E2,7.254473E1,1.6748445E2,2.285419E0,1.3866361E0,2.3188347E1,1.1536005E0,6.4871016E0,3.4583472E2,1.8604982E2,1.4513253E1,3.1852936E1,4.1341745E2,1.4047482E2,4.422029E1,2.8324444E1],"tree_param":{"num_deleted":"0","num_feature":"18","num_nodes":"29","size_leaf_vector":"1"}},{"base_weights":[-3.5431334E-3,-2.7157336E-1,4.0240232E-2,-4.1250446E-1,8.10545E-3,-6.2845E-2,1.292478E-1,-8.324081E-2,-5.045514E-1,-7.6661015E-1,1.3988565E-1,1.3421786E-1,-1.4933744E-1,-6.3348E-1,1.4897363E-1,2.1698833E-2,-1.9340424E-2,3.1527102E-3,-2.857518E-2,1.4834615E-3,-5.1998585E-2,5.4129105E-2,1.2567135E-3,1.5901815E-2,-3.799352E-3,-2.213519E-3,-1.4808337E-2,3.4010157E-2,-3.9212506E-2,7.7918745E-3,-5.288399E-2],"categories":[],"categories_nodes":[],"categories_segments":[],"categories_sizes":[],"default_left":[0,0,0,0,0,0,0,0,0,0,0,0,0,0,0,0,0,0,0,0,0,0,0,0,0,0,0,0,0,0,0],"id":22,"left_children":[1,3,5,7,9,11,13,15,17,19,21,23,25,27,29,-1,-1,-1,-1,-1,-1,-1,-1,-1,-1,-1,-1,-1,-1,-1,-1],"loss_changes":[1.6533237E1,7.8006E0,1.1120382E1,3.94524E0,6.974346E0,9.596353E0,9.877726E0,4.868786E0,3.9357815E0,2.1929207E0,6.2828026E0,6.666491E0,6.017867E0,3.8180318E0,5.421361E0,0E0,0E0,0E0,0E0,0E0,0E0,0E0,0E0,0E0,0E0,0E0,0E0,0E0,0E0,0E0,0E0],"parents":[2147483647,0,0,1,1,2,2,3,3,4,4,5,5,6,6,7,7,8,8,9,9,10,10,11,11,12,12,13,13,14,14],"right_children":[2,4,6,8,10,12,14,16,18,20,22,24,26,28,30,-1,-1,-1,-1,-1,-1,-1,-1,-1,-1,-1,-1,-1,-1,-1,-1],"split_conditions":[-7.0710677E-1,6.123234E-17,-2.5881904E-1,1.7374794E1,-3.893282E-2,2.5752002E-1,1.1824059E1,-4.4098706E-4,1.3859755E-1,2.3461695E1,-2.3886572E-4,2.4274715E1,5E-1,2.0696997E1,6.05027E-3,2.1698833E-2,-1.9340424E-2,3.1527102E-3,-2.857518E-2,1.4834615E-3,-5.1998585E-2,5.4129105E-2,1.2567135E-3,1.5901815E-2,-3.799352E-3,-2.213519E-3,-1.4808337E-2,3.4010157E-2,-3.9212506E-2,7.7918745E-3,-5.288399E-2],"split_indices":[14,15,15,12,9,10,12,3,10,12,1,13,14,13,3,0,0,0,0,0,0,0,0,0,0,0,0,0,0,0,0],"split_type":[0,0,0,0,0,0,0,0,0,0,0,0,0,0,0,0,0,0,0,0,0,0,0,0,0,0,0,0,0,0,0],"sum_hessian":[1.4069196E3,1.9682233E2,1.2100972E3,1.3055852E2,6.626381E1,5.608434E2,6.492538E2,2.8940172E1,1.0161835E2,8.93267E0,5.733114E1,1.7090489E2,3.8993848E2,1.5583432E1,6.3367035E2,1.0544649E1,1.8395523E1,1.0727892E1,9.089046E1,2.5106933E0,6.4219766E0,5.3061686E0,5.202497E1,9.090125E1,8.000365E1,2.2805211E2,1.6188637E2,1.2428408E0,1.4340591E1,6.3095215E2,2.7182255E0],"tree_param":{"num_deleted":"0","num_feature":"18","num_nodes":"31","size_leaf_vector":"1"}},{"base_weights":[-1.0611952E-2,1.1587903E-1,-9.0050936E-2,2.1567562E-1,-9.8954685E-2,-3.075925E-1,-2.37724E-2,5.752001E-1,1.4177272E-1,2.9039502E-1,-2.527254E-1,4.0419567E-2,-5.0845486E-1,-1.8171395E-1,8.095609E-2,1.711315E-2,5.2818414E-2,-2.0835752E-2,9.761638E-3,4.766866E-3,3.3553883E-2,-2.0060891E-2,-2.052752E-3,-1.2154192E-2,1.7667683E-2,-3.3696596E-2,-1.4283247E-2,2.021182E-2,-1.0987776E-2,-1.1398622E-2,9.017446E-3],"categories":[],"categories_nodes":[],"categories_segments":[],"categories_sizes":[],"default_left":[0,0,0,0,0,0,0,0,0,0,0,0,0,0,0,0,0,0,0,0,0,0,0,0,0,0,0,0,0,0,0],"id":23,"left_children":[1,3,5,7,9,11,13,15,17,19,21,23,25,27,29,-1,-1,-1,-1,-1,-1,-1,-1,-1,-1,-1,-1,-1,-1,-1,-1],"loss_changes":[1.4280946E1,1.1776411E1,1.257851E1,9.873959E0,1.0526466E1,1.4263845E1,1.1099557E1,6.7624607E0,9.400564E0,3.6411495E0,3.934371E0,6.783451E0,4.5731087E0,6.051528E0,1.2435138E1,0E0,0E0,0E0,0E0,0E0,0E0,0E0,0E0,0E0,0E0,0E0,0E0,0E0,0E0,0E0,0E0],"parents":[2147483647,0,0,1,1,2,2,3,3,4,4,5,5,6,6,7,7,8,8,9,9,10,10,11,11,12,12,13,13,14,14],"right_children":[2,4,6,8,10,12,14,16,18,20,22,24,26,28,30,-1,-1,-1,-1,-1,-1,-1,-1,-1,-1,-1,-1,-1,-1,-1,-1],"split_conditions":[-3.4598033E-5,4.8717894E-4,2.3857405E-4,-4.6535296E-4,-1.403481E-3,4.0396027E1,0E0,-5.432405E-4,-3.1912416E-2,2.5881904E-1,6.2332157E-4,-3.2358206E-4,5E-1,8.80424E-5,-5E-1,1.711315E-2,5.2818414E-2,-2.0835752E-2,9.761638E-3,4.766866E-3,3.3553883E-2,-2.0060891E-2,-2.052752E-3,-1.2154192E-2,1.7667683E-2,-3.3696596E-2,-1.4283247E-2,2.021182E-2,-1.0987776E-2,-1.1398622E-2,9.017446E-3],"split_indices":[0,6,6,0,3,13,14,0,8,15,5,3,15,5,15,0,0,0,0,0,0,0,0,0,0,0,0,0,0,0,0],"split_type":[0,0,0,0,0,0,0,0,0,0,0,0,0,0,0,0,0,0,0,0,0,0,0,0,0,0,0,0,0,0,0],"sum_hessian":[1.4191896E3,5.4728577E2,8.719038E2,3.7369122E2,1.7359451E2,2.0275938E2,6.691444E2,6.2560818E1,3.111304E2,4.889731E1,1.246972E2,7.449275E1,1.2826663E2,2.6649973E2,4.0264468E2,4.330693E1,1.925389E1,2.658689E1,2.8454352E2,3.3157963E1,1.5739347E1,7.27592E1,5.1938004E1,3.9201378E1,3.5291374E1,7.2438225E1,5.58284E1,1.5660255E1,2.5083948E2,9.769612E1,3.0494855E2],"tree_param":{"num_deleted":"0","num_feature":"18","num_nodes":"31","size_leaf_vector":"1"}},{"base_weights":[1.2433707E-3,1.3544448E-1,-8.50914E-2,3.289777E-1,4.5789324E-2,-1.2421629E-1,1.8978962E-1,2.1208403E-1,6.007721E-1,8.932556E-2,-3.19962E-1,-4.5062542E-2,-2.9454643E-1,2.835014E-1,-4.7550592E-1,1.6292937E-2,-1.1510416E-2,2.5435958E-2,6.9026165E-2,3.0626354E-3,4.4477012E-2,-4.790541E-2,-6.3475952E-3,3.0358296E-3,-1.3523777E-2,-4.157378E-2,-1.1799903E-2,-4.9060483E-2,1.5522889E-2,-3.603082E-2,1.4814198E-2],"categories":[],"categories_nodes":[],"categories_segments":[],"categories_sizes":[],"default_left":[0,0,0,0,0,0,0,0,0,0,0,0,0,0,0,0,0,0,0,0,0,0,0,0,0,0,0,0,0,0,0],"id":24,"left_children":[1,3,5,7,9,11,13,15,17,19,21,23,25,27,29,-1,-1,-1,-1,-1,-1,-1,-1,-1,-1,-1,-1,-1,-1,-1,-1],"loss_changes":[1.6356558E1,9.574182E0,9.262668E0,5.426304E0,6.061179E0,1.013402E1,6.832997E0,6.3038044E0,3.0319595E0,7.568404E0,4.8687716E0,1.2296803E1,7.304779E0,3.536467E0,2.7934964E0,0E0,0E0,0E0,0E0,0E0,0E0,0E0,0E0,0E0,0E0,0E0,0E0,0E0,0E0,0E0,0E0],"parents":[2147483647,0,0,1,1,2,2,3,3,4,4,5,5,6,6,7,7,8,8,9,9,10,10,11,11,12,12,13,13,14,14],"right_children":[2,4,6,8,10,12,14,16,18,20,22,24,26,28,30,-1,-1,-1,-1,-1,-1,-1,-1,-1,-1,-1,-1,-1,-1,-1,-1],"split_conditions":[-3.4598033E-5,2.8758615E-4,8.378682E-4,2.4944555E-4,6.4941175E-2,1.9872919E-4,5.7079527E-3,5.3563198E1,1.205605E-3,5.6214094E-2,7.6854095E-2,6.297479E1,-7.0710677E-1,2.349262E-4,9.659258E-1,1.6292937E-2,-1.1510416E-2,2.5435958E-2,6.9026165E-2,3.0626354E-3,4.4477012E-2,-4.790541E-2,-6.3475952E-3,3.0358296E-3,-1.3523777E-2,-4.157378E-2,-1.1799903E-2,-4.9060483E-2,1.5522889E-2,-3.603082E-2,1.4814198E-2],"split_indices":[0,6,1,6,8,0,4,7,4,8,8,13,14,6,14,0,0,0,0,0,0,0,0,0,0,0,0,0,0,0,0],"split_type":[0,0,0,0,0,0,0,0,0,0,0,0,0,0,0,0,0,0,0,0,0,0,0,0,0,0,0,0,0,0,0],"sum_hessian":[1.4097301E3,5.516545E2,8.5807556E2,1.7380426E2,3.7785025E2,7.5163983E2,1.0643574E2,1.2277943E2,5.102483E1,3.383334E2,3.9516846E1,5.1403046E2,2.376094E2,9.379754E1,1.26382E1,9.786739E1,2.4912033E1,4.7115105E1,3.909726E0,3.2790643E2,1.0426956E1,8.256031E0,3.1260815E1,3.5035202E2,1.636784E2,2.206417E1,2.1554523E2,1.218727E0,9.257881E1,9.642251E0,2.9959488E0],"tree_param":{"num_deleted":"0","num_feature":"18","num_nodes":"31","size_leaf_vector":"1"}},{"base_weights":[-6.483964E-3,-1.0291669E-1,1.8911512E-1,2.3092493E-2,-1.7532459E-1,3.4916064E-1,1.278424E-2,1.0247165E0,-2.0337156E-3,-3.2302E-1,-1.687655E-2,4.646966E-1,7.3951654E-2,9.6948974E-2,-4.9021655E-1,6.838388E-2,-2.726738E-2,-1.0283812E-3,4.899327E-2,-8.8742515E-3,-3.015413E-2,-7.139505E-3,1.7096518E-2,2.6230386E-2,-9.4351275E-3,3.0088032E-2,-7.816918E-3,-3.9981157E-2,7.833209E-3,-4.5356836E-2,-9.025028E-3],"categories":[],"categories_nodes":[],"categories_segments":[],"categories_sizes":[],"default_left":[0,0,0,0,0,0,0,0,0,0,0,0,0,0,0,0,0,0,0,0,0,0,0,0,0,0,0,0,0,0,0],"id":25,"left_children":[1,3,5,7,9,11,13,15,17,19,21,23,25,27,29,-1,-1,-1,-1,-1,-1,-1,-1,-1,-1,-1,-1,-1,-1,-1,-1],"loss_changes":[2.660783E1,8.624363E0,1.3141588E1,8.701398E0,1.4038717E1,7.7287903E0,9.474437E0,5.301813E0,6.1749063E0,1.255051E1,1.3176786E1,6.8231277E0,9.013372E0,1.0382866E1,3.9790955E0,0E0,0E0,0E0,0E0,0E0,0E0,0E0,0E0,0E0,0E0,0E0,0E0,0E0,0E0,0E0,0E0],"parents":[2147483647,0,0,1,1,2,2,3,3,4,4,5,5,6,6,7,7,8,8,9,9,10,10,11,11,12,12,13,13,14,14],"right_children":[2,4,6,8,10,12,14,16,18,20,22,24,26,28,30,-1,-1,-1,-1,-1,-1,-1,-1,-1,-1,-1,-1,-1,-1,-1,-1],"split_conditions":[5E-1,-7.0710677E-1,2.3224074E-4,-2.8314965E-3,8.660254E-1,5.4541666E-2,3.2919828E-2,-2.1681466E-4,8.7922614E-4,2.0232087E-4,5.561798E-4,2.9634775E-4,-6.724674E-4,-1.7865456E-4,5E-1,6.838388E-2,-2.726738E-2,-1.0283812E-3,4.899327E-2,-8.8742515E-3,-3.015413E-2,-7.139505E-3,1.7096518E-2,2.6230386E-2,-9.4351275E-3,3.0088032E-2,-7.816918E-3,-3.9981157E-2,7.833209E-3,-4.5356836E-2,-9.025028E-3],"split_indices":[15,15,2,2,14,11,9,1,0,3,1,1,1,1,14,0,0,0,0,0,0,0,0,0,0,0,0,0,0,0,0],"split_type":[0,0,0,0,0,0,0,0,0,0,0,0,0,0,0,0,0,0,0,0,0,0,0,0,0,0,0,0,0,0,0],"sum_hessian":[1.4086146E3,9.4378906E2,4.6482562E2,3.4466336E2,5.991257E2,2.4315108E2,2.2167453E2,7.4609118E0,3.3720245E2,3.0954678E2,2.8957892E2,1.7077094E2,7.238015E1,1.905911E2,3.1083445E1,6.2291374E0,1.2317743E0,3.3191638E2,5.286059E0,2.0477095E2,1.0477582E2,2.1480202E2,7.47769E1,1.5660837E2,1.4162553E1,2.1497133E1,5.088302E1,1.1127701E1,1.794634E2,1.2426602E1,1.8656841E1],"tree_param":{"num_deleted":"0","num_feature":"18","num_nodes":"31","size_leaf_vector":"1"}},{"base_weights":[3.7770518E-3,1.4287794E-1,-5.4250754E-2,3.069676E-1,6.396688E-3,4.4008577E-1,-8.037792E-2,9.600268E-2,5.4593647E-1,-6.059545E-2,3.708832E-1,1.120838E0,1.836458E-1,-1.1759727E-1,1.19244024E-1,-3.327097E-2,8.505992E-3,2.9459244E-2,-3.8619056E-2,-6.7052306E-3,2.3547644E-2,2.9495794E-2,-2.4356393E-2,8.025117E-2,3.1383287E-2,3.474191E-2,-2.829652E-3,1.0670677E-3,-8.333791E-3,-5.017107E-3,1.6280277E-2],"categories":[],"categories_nodes":[],"categories_segments":[],"categories_sizes":[],"default_left":[0,0,0,0,0,0,0,0,0,0,0,0,0,0,0,0,0,0,0,0,0,0,0,0,0,0,0,0,0,0,0],"id":26,"left_children":[1,3,5,7,9,11,13,15,17,19,21,23,25,27,29,-1,-1,-1,-1,-1,-1,-1,-1,-1,-1,-1,-1,-1,-1,-1,-1],"loss_changes":[1.1369852E1,9.28388E0,1.287358E1,9.438234E0,5.5746317E0,8.532083E0,7.034838E0,5.8243003E0,5.4755554E0,7.6019535E0,6.948481E0,2.2161903E0,4.651194E0,5.4379425E0,6.784248E0,0E0,0E0,0E0,0E0,0E0,0E0,0E0,0E0,0E0,0E0,0E0,0E0,0E0,0E0,0E0,0E0],"parents":[2147483647,0,0,1,1,2,2,3,3,4,4,5,5,6,6,7,7,8,8,9,9,10,10,11,11,12,12,13,13,14,14],"right_children":[2,4,6,8,10,12,14,16,18,20,22,24,26,28,30,-1,-1,-1,-1,-1,-1,-1,-1,-1,-1,-1,-1,-1,-1,-1,-1],"split_conditions":[-1.1717249E-4,5.4541666E-2,7.338379E-5,2.569435E-4,1.0321844E-1,-5.871213E-5,1.0072176E-3,-6.09161E-4,4.8287312E-4,1.1071704E-3,2.0005524E-3,-4.89034E-4,-1.4167767E-3,-5.8370456E-4,8.660254E-1,-3.327097E-2,8.505992E-3,2.9459244E-2,-3.8619056E-2,-6.7052306E-3,2.3547644E-2,2.9495794E-2,-2.4356393E-2,8.025117E-2,3.1383287E-2,3.474191E-2,-2.829652E-3,1.0670677E-3,-8.333791E-3,-5.017107E-3,1.6280277E-2],"split_indices":[0,11,5,5,11,2,2,1,6,2,2,3,8,3,14,0,0,0,0,0,0,0,0,0,0,0,0,0,0,0,0],"split_type":[0,0,0,0,0,0,0,0,0,0,0,0,0,0,0,0,0,0,0,0,0,0,0,0,0,0,0,0,0,0,0],"sum_hessian":[1.4066432E3,4.136362E2,9.9300696E2,1.87254E2,2.2638222E2,4.9053368E1,9.4395355E2,1.0019885E2,8.7055145E1,1.9193802E2,3.4444202E1,1.2499939E1,3.655343E1,7.959586E2,1.4799492E2,8.180525E0,9.2018326E1,8.4825455E1,2.2296855E0,1.6927611E2,2.2661911E1,2.7688385E1,6.755818E0,5.1698294E0,7.3301096E0,1.1081458E1,2.547197E1,2.0791846E2,5.8804016E2,7.194892E1,7.6046E1],"tree_param":{"num_deleted":"0","num_feature":"18","num_nodes":"31","size_leaf_vector":"1"}},{"base_weights":[-1.154133E-2,-2.296193E-1,2.4277946E-2,-3.4458813E-1,-1.2766946E-2,-6.1689697E-2,9.638044E-2,-2.963678E-1,-1.033488E0,2.842585E-1,-3.3382234E-1,1.9587874E-2,-3.0027243E-1,4.1971583E-2,2.7068463E-1,-1.780321E-2,9.687863E-3,-7.964477E-3,-5.6826826E-2,-1.891018E-2,2.413766E-2,-2.5303101E-2,2.902031E-2,4.9134693E-3,-8.139986E-3,-2.8813107E-2,-1.8398034E-3,3.832992E-3,-3.1193314E-2,-7.894404E-3,1.837644E-2],"categories":[],"categories_nodes":[],"categories_segments":[],"categories_sizes":[],"default_left":[0,0,0,0,0,0,0,0,0,0,0,0,0,0,0,0,0,0,0,0,0,0,0,0,0,0,0,0,0,0,0],"id":27,"left_children":[1,3,5,7,9,11,13,15,17,19,21,23,25,27,29,-1,-1,-1,-1,-1,-1,-1,-1,-1,-1,-1,-1,-1,-1,-1,-1],"loss_changes":[1.1174763E1,5.027152E0,7.6241364E0,4.073741E0,6.8621035E0,1.0888886E1,6.3314633E0,3.7154999E0,5.597658E-1,5.100685E0,5.7361183E0,6.0368586E0,1.0353373E1,1.1847777E1,6.654029E0,0E0,0E0,0E0,0E0,0E0,0E0,0E0,0E0,0E0,0E0,0E0,0E0,0E0,0E0,0E0,0E0],"parents":[2147483647,0,0,1,1,2,2,3,3,4,4,5,5,6,6,7,7,8,8,9,9,10,10,11,11,12,12,13,13,14,14],"right_children":[2,4,6,8,10,12,14,16,18,20,22,24,26,28,30,-1,-1,-1,-1,-1,-1,-1,-1,-1,-1,-1,-1,-1,-1,-1,-1],"split_conditions":[-7.0710677E-1,6.123234E-17,-2.5881904E-1,3.6940255E-4,3.4095946E-4,7.0710677E-1,5.06107E-4,3.960748E-4,2.0991288E-4,1.920079E-4,6.1090466E1,4.709669E-5,8.660254E-1,6.7062225E1,5E-1,-1.780321E-2,9.687863E-3,-7.964477E-3,-5.6826826E-2,-1.891018E-2,2.413766E-2,-2.5303101E-2,2.902031E-2,4.9134693E-3,-8.139986E-3,-2.8813107E-2,-1.8398034E-3,3.832992E-3,-3.1193314E-2,-7.894404E-3,1.837644E-2],"split_indices":[14,15,15,0,6,14,1,1,6,6,7,1,14,7,14,0,0,0,0,0,0,0,0,0,0,0,0,0,0,0,0],"split_type":[0,0,0,0,0,0,0,0,0,0,0,0,0,0,0,0,0,0,0,0,0,0,0,0,0,0,0,0,0,0,0],"sum_hessian":[1.4288584E3,2.0081697E2,1.2280415E3,1.308533E2,6.996368E1,5.602277E2,6.678138E2,1.2362988E2,7.223409E0,3.640141E1,3.356227E1,4.1855664E2,1.4167107E2,5.0989224E2,1.5792152E2,1.104507E2,1.3179186E1,1.0301371E0,6.193272E0,8.18366E0,2.8217749E1,2.8617268E1,4.9450026E0,2.9273343E2,1.2582322E2,6.861265E1,7.305842E1,4.8548474E2,2.4407505E1,2.8991714E1,1.2892981E2],"tree_param":{"num_deleted":"0","num_feature":"18","num_nodes":"31","size_leaf_vector":"1"}},{"base_weights":[-2.6349591E-2,3.558034E-2,-1.6030896E-1,1.2158524E-1,-1.14492044E-1,-6.249305E-1,-1.2152348E-1,1.8800743E-2,2.9374665E-1,-1.3319695E-1,7.333192E-1,-8.0864143E-1,2.498656E-1,6.8044686E-1,-1.4151618E-1,6.932139E-3,-8.195887E-3,2.0495383E-2,1.930166E-3,-9.990809E-3,6.6006333E-3,-2.7728925E-2,5.5161487E-2,1.269407E-2,-4.3960016E-2,3.846052E-2,-4.3040197E-2,-1.5136014E-2,5.89673E-2,-2.3318572E-2,-3.0435657E-3],"categories":[],"categories_nodes":[],"categories_segments":[],"categories_sizes":[],"default_left":[0,0,0,0,0,0,0,0,0,0,0,0,0,0,0,0,0,0,0,0,0,0,0,0,0,0,0,0,0,0,0],"id":28,"left_children":[1,3,5,7,9,11,13,15,17,19,21,23,25,27,29,-1,-1,-1,-1,-1,-1,-1,-1,-1,-1,-1,-1,-1,-1,-1,-1],"loss_changes":[1.1714921E1,1.248226E1,7.968376E0,1.0869681E1,5.6867967E0,5.690551E0,6.7220798E0,8.472756E0,6.791399E0,6.1338935E0,4.309537E0,2.356907E0,4.5217557E0,5.371687E0,1.0556124E1,0E0,0E0,0E0,0E0,0E0,0E0,0E0,0E0,0E0,0E0,0E0,0E0,0E0,0E0,0E0,0E0],"parents":[2147483647,0,0,1,1,2,2,3,3,4,4,5,5,6,6,7,7,8,8,9,9,10,10,11,11,12,12,13,13,14,14],"right_children":[2,4,6,8,10,12,14,16,18,20,22,24,26,28,30,-1,-1,-1,-1,-1,-1,-1,-1,-1,-1,-1,-1,-1,-1,-1,-1],"split_conditions":[9.579017E-5,5.8034357E-2,-7.0710677E-1,5E-1,9.3512436E1,3.484935E1,2.5417741E-2,-4.5421835E-5,6.297479E1,7.313751E-4,-3.0617765E-4,-1.1636083E-3,8.010194E-1,6.774053E-1,3.7846863E-2,6.932139E-3,-8.195887E-3,2.0495383E-2,1.930166E-3,-9.990809E-3,6.6006333E-3,-2.7728925E-2,5.5161487E-2,1.269407E-2,-4.3960016E-2,3.846052E-2,-4.3040197E-2,-1.5136014E-2,5.89673E-2,-2.3318572E-2,-3.0435657E-3],"split_indices":[0,11,14,15,13,12,11,2,13,5,0,2,10,10,11,0,0,0,0,0,0,0,0,0,0,0,0,0,0,0,0],"split_type":[0,0,0,0,0,0,0,0,0,0,0,0,0,0,0,0,0,0,0,0,0,0,0,0,0,0,0,0,0,0,0],"sum_hessian":[1.4104132E3,9.6501666E2,4.4539655E2,6.135738E2,3.5144284E2,3.3151653E1,4.1224487E2,3.8489276E2,2.2868105E2,3.4468118E2,6.761664E0,2.7460459E1,5.6911926E0,9.223574E0,4.030213E2,2.325852E2,1.5230757E2,1.567223E2,7.195873E1,2.7567874E2,6.900244E1,1.3973525E0,5.3643117E0,1.548218E0,2.5912241E1,4.0873833E0,1.6038089E0,3.237245E0,5.9863286E0,7.920066E1,3.2382065E2],"tree_param":{"num_deleted":"0","num_feature":"18","num_nodes":"31","size_leaf_vector":"1"}},{"base_weights":[-8.738748E-3,-2.0789705E-1,4.3182284E-2,-6.724608E-1,-1.5011594E-1,-9.990067E-2,1.2831078E-1,-7.727676E-1,2.710994E-2,-8.6843185E-2,-7.2003233E-1,-2.6262694E-3,-5.807618E-1,-5.2258307E-1,1.625082E-1,2.3097197E-2,-4.4157013E-2,-3.1313442E-3,-4.716735E-2,-3.8586506E-3,-4.3367885E-2,1.943836E-2,-3.7077412E-3,2.9204685E-2,-3.352985E-2,5.650085E-2,-3.0817175E-2,-3.876206E-2,8.847121E-3],"categories":[],"categories_nodes":[],"categories_segments":[],"categories_sizes":[],"default_left":[0,0,0,0,0,0,0,0,0,0,0,0,0,0,0,0,0,0,0,0,0,0,0,0,0,0,0,0,0],"id":29,"left_children":[1,3,5,7,9,11,13,15,-1,17,19,21,23,25,27,-1,-1,-1,-1,-1,-1,-1,-1,-1,-1,-1,-1,-1,-1],"loss_changes":[1.4557257E1,7.713354E0,1.3616058E1,4.3074675E0,9.320192E0,1.9511333E1,1.5680625E1,4.481703E0,0E0,4.8220396E0,2.3825827E0,9.770676E0,7.736191E0,6.152416E0,9.157873E0,0E0,0E0,0E0,0E0,0E0,0E0,0E0,0E0,0E0,0E0,0E0,0E0,0E0,0E0],"parents":[2147483647,0,0,1,1,2,2,3,3,4,4,5,5,6,6,7,7,9,9,10,10,11,11,12,12,13,13,14,14],"right_children":[2,4,6,8,10,12,14,16,-1,18,20,22,24,26,28,-1,-1,-1,-1,-1,-1,-1,-1,-1,-1,-1,-1,-1,-1],"split_conditions":[-5E-1,-2.180128E-3,-5E-1,5.0838806E1,2.9913106E-4,7.0710677E-1,-2.5881904E-1,-4.3254835E-4,2.710994E-2,5.917877E1,-6.933568E-4,1.6721363E1,-1.0032448E-3,-7.94182E-2,1.13698E1,2.3097197E-2,-4.4157013E-2,-3.1313442E-3,-4.716735E-2,-3.8586506E-3,-4.3367885E-2,1.943836E-2,-3.7077412E-3,2.9204685E-2,-3.352985E-2,5.650085E-2,-3.0817175E-2,-3.876206E-2,8.847121E-3],"split_indices":[14,4,15,12,0,14,14,0,0,12,3,12,0,8,12,0,0,0,0,0,0,0,0,0,0,0,0,0,0],"split_type":[0,0,0,0,0,0,0,0,0,0,0,0,0,0,0,0,0,0,0,0,0,0,0,0,0,0,0,0,0],"sum_hessian":[1.4059216E3,2.9011118E2,1.1158104E3,3.0914959E1,2.5919623E2,4.1616006E2,6.996503E2,2.8892786E1,2.0221725E0,2.3433272E2,2.4863499E1,3.469752E2,6.9184875E1,3.421129E1,6.65439E2,2.109461E0,2.6783325E1,2.2893312E2,5.3996053E0,4.919764E0,1.9943735E1,5.2927696E1,2.940475E2,4.5596747E0,6.4625206E1,1.2433918E0,3.29679E1,9.28842E0,6.5615063E2],"tree_param":{"num_deleted":"0","num_feature":"18","num_nodes":"29","size_leaf_vector":"1"}},{"base_weights":[-7.7663218E-3,-7.3855974E-2,1.21025436E-1,6.01474E-2,-1.4127275E-1,-4.996608E-4,2.6375952E-1,1.8371919E-1,-1.0203539E-1,2.234996E-2,-2.205764E-1,4.8812903E-2,-1.1754575E0,5.238853E-2,4.0968788E-1,3.6590525E-3,4.346962E-2,2.2558415E-2,-9.1871675E-3,2.1092618E-2,-4.294805E-3,-1.4916337E-2,1.7140968E-3,1.0465162E-2,-9.604385E-3,-5.740767E-4,-6.97731E-2,-1.3783559E-2,1.692862E-2,4.088948E-2,1.2516679E-2],"categories":[],"categories_nodes":[],"categories_segments":[],"categories_sizes":[],"default_left":[0,0,0,0,0,0,0,0,0,0,0,0,0,0,0,0,0,0,0,0,0,0,0,0,0,0,0,0,0,0,0],"id":30,"left_children":[1,3,5,7,9,11,13,15,17,19,21,23,25,27,29,-1,-1,-1,-1,-1,-1,-1,-1,-1,-1,-1,-1,-1,-1,-1,-1],"loss_changes":[1.2128733E1,8.515205E0,8.382586E0,6.3491654E0,8.137624E0,1.5238801E1,6.833454E0,1.3551243E1,6.286206E0,8.923554E0,8.377083E0,9.799519E0,2.6968307E0,8.722615E0,8.33567E0,0E0,0E0,0E0,0E0,0E0,0E0,0E0,0E0,0E0,0E0,0E0,0E0,0E0,0E0,0E0,0E0],"parents":[2147483647,0,0,1,1,2,2,3,3,4,4,5,5,6,6,7,7,8,8,9,9,10,10,11,11,12,12,13,13,14,14],"right_children":[2,4,6,8,10,12,14,16,18,20,22,24,26,28,30,-1,-1,-1,-1,-1,-1,-1,-1,-1,-1,-1,-1,-1,-1,-1,-1],"split_conditions":[5E-1,-1.1717249E-4,5E-1,6.689378E-2,-7.0710677E-1,6.772269E1,1.184471E-5,8.379184E-4,1.8490852E1,-2.5881904E-1,1.1517378E-3,3.5436402E-5,2.7368337E-2,2.5507872E-4,5.4243557E1,3.6590525E-3,4.346962E-2,2.2558415E-2,-9.1871675E-3,2.1092618E-2,-4.294805E-3,-1.4916337E-2,1.7140968E-3,1.0465162E-2,-9.604385E-3,-5.740767E-4,-6.97731E-2,-1.3783559E-2,1.692862E-2,4.088948E-2,1.2516679E-2],"split_indices":[15,0,14,11,15,7,4,3,13,14,3,0,8,5,7,0,0,0,0,0,0,0,0,0,0,0,0,0,0,0,0],"split_type":[0,0,0,0,0,0,0,0,0,0,0,0,0,0,0,0,0,0,0,0,0,0,0,0,0,0,0,0,0,0,0],"sum_hessian":[1.4228811E3,9.406248E2,4.8225626E2,3.1487E2,6.257548E2,2.610189E2,2.2123735E2,1.7863216E2,1.3623784E2,2.0451297E2,4.2124182E2,2.5142514E2,9.593769E0,9.09129E1,1.3032445E2,1.547857E2,2.384645E1,1.695079E1,1.1928704E2,4.2982147E1,1.6153084E2,3.22642E2,9.859984E1,1.5097517E2,1.0044997E2,1.6923345E0,7.9014344E0,4.237459E1,4.8538315E1,3.543769E1,9.4886765E1],"tree_param":{"num_deleted":"0","num_feature":"18","num_nodes":"31","size_leaf_vector":"1"}},{"base_weights":[5.488637E-3,-5.1160835E-2,1.1720407E-1,-8.694744E-2,1.8118843E-1,1.463478E-1,-4.7764608E-1,-2.750751E-2,-2.9651362E-1,-1.2804309E-1,3.737658E-1,1.5726547E-1,-8.308378E-1,-6.940851E-2,-2.0138238E-1,-2.0033875E-3,5.482598E-2,-5.3263385E-2,-1.0869953E-2,2.8970935E-3,-3.2092895E-2,1.1030374E-2,5.736966E-2,2.849332E-2,6.368776E-3,-4.3446473E-3,-5.181526E-2,9.831252E-3,-4.3059677E-2],"categories":[],"categories_nodes":[],"categories_segments":[],"categories_sizes":[],"default_left":[0,0,0,0,0,0,0,0,0,0,0,0,0,0,0,0,0,0,0,0,0,0,0,0,0,0,0,0,0],"id":31,"left_children":[1,3,5,7,9,11,13,15,17,19,21,23,25,-1,27,-1,-1,-1,-1,-1,-1,-1,-1,-1,-1,-1,-1,-1,-1],"loss_changes":[8.978613E0,7.8438253E0,8.345203E0,1.0162252E1,7.5496826E0,4.993557E0,5.3874826E0,9.039421E0,1.0734526E1,4.728232E0,8.975161E0,5.497061E0,7.041187E-1,0E0,5.0156045E0,0E0,0E0,0E0,0E0,0E0,0E0,0E0,0E0,0E0,0E0,0E0,0E0,0E0,0E0],"parents":[2147483647,0,0,1,1,2,2,3,3,4,4,5,5,6,6,7,7,8,8,9,9,10,10,11,11,12,12,14,14],"right_children":[2,4,6,8,10,12,14,16,18,20,22,24,26,-1,28,-1,-1,-1,-1,-1,-1,-1,-1,-1,-1,-1,-1,-1,-1],"split_conditions":[5E-1,5.898912E-4,6.998118E1,1.4283379E-4,-5E-1,1.5780756E-3,8.743319E-4,1.3090193E-4,1.294596E-4,3.2919828E-2,7.313107E1,-6.5521314E-4,4.5033242E-4,-6.940851E-2,6.839146E-2,-2.0033875E-3,5.482598E-2,-5.3263385E-2,-1.0869953E-2,2.8970935E-3,-3.2092895E-2,1.1030374E-2,5.736966E-2,2.849332E-2,6.368776E-3,-4.3446473E-3,-5.181526E-2,9.831252E-3,-4.3059677E-2],"split_indices":[15,1,7,1,15,6,3,1,5,9,7,1,5,0,11,0,0,0,0,0,0,0,0,0,0,0,0,0,0],"split_type":[0,0,0,0,0,0,0,0,0,0,0,0,0,0,0,0,0,0,0,0,0,0,0,0,0,0,0,0,0],"sum_hessian":[1.416784E3,9.404407E2,4.7634344E2,8.154675E2,1.24973114E2,4.548145E2,2.1528936E1,6.361621E2,1.7930544E2,4.808908E1,7.688403E1,4.50619E2,4.1955056E0,4.0746603E0,1.7454277E1,6.300857E2,6.076426E0,1.5567884E1,1.6373755E2,3.5959934E1,1.2129146E1,6.5251144E1,1.1632889E1,2.9218695E1,4.214003E2,1.21591E0,2.9795954E0,1.1324922E1,6.129355E0],"tree_param":{"num_deleted":"0","num_feature":"18","num_nodes":"29","size_leaf_vector":"1"}},{"base_weights":[-1.9196812E-2,-1.06106035E-1,8.093871E-2,-1.5319696E-1,8.988264E-2,3.928504E-1,4.2457983E-2,-4.235515E-2,-3.3330405E-1,-8.086411E-1,1.4423539E-1,-4.2809075E-1,4.7246295E-1,-5.6164503E-1,6.222826E-2,1.48028955E-2,-6.668211E-3,-5.8049794E-2,-1.5170465E-2,4.400256E-2,-6.048846E-2,1.2981377E-2,-1.3479932E-2,-4.304723E-2,3.415433E-2,3.0496338E-2,3.9056246E-3,2.1071488E-2,-3.792329E-2,-3.1324911E-3,8.03219E-3],"categories":[],"categories_nodes":[],"categories_segments":[],"categories_sizes":[],"default_left":[0,0,0,0,0,0,0,0,0,0,0,0,0,0,0,0,0,0,0,0,0,0,0,0,0,0,0,0,0,0,0],"id":32,"left_children":[1,3,5,7,9,11,13,15,17,19,21,23,25,27,29,-1,-1,-1,-1,-1,-1,-1,-1,-1,-1,-1,-1,-1,-1,-1,-1],"loss_changes":[1.2195758E1,6.937024E0,7.8000035E0,1.2067482E1,7.2445297E0,4.868781E0,6.972201E0,1.1612906E1,5.348938E0,6.806539E0,6.6826406E0,3.876401E0,3.506486E0,3.9004784E0,6.933518E0,0E0,0E0,0E0,0E0,0E0,0E0,0E0,0E0,0E0,0E0,0E0,0E0,0E0,0E0,0E0,0E0],"parents":[2147483647,0,0,1,1,2,2,3,3,4,4,5,5,6,6,7,7,8,8,9,9,10,10,11,11,12,12,13,13,14,14],"right_children":[2,4,6,8,10,12,14,16,18,20,22,24,26,28,30,-1,-1,-1,-1,-1,-1,-1,-1,-1,-1,-1,-1,-1,-1,-1,-1],"split_conditions":[6.123234E-17,8.660254E-1,-1.2078553E-3,-4.771098E-5,1.1089043E-4,2.3230465E1,1.216095E1,3.889348E-2,1.1613411E1,1.4602699E1,6.8478484E-4,4.186189E1,3.33811E1,2.3302855E1,5E-1,1.48028955E-2,-6.668211E-3,-5.8049794E-2,-1.5170465E-2,4.400256E-2,-6.048846E-2,1.2981377E-2,-1.3479932E-2,-4.304723E-2,3.415433E-2,3.0496338E-2,3.9056246E-3,2.1071488E-2,-3.792329E-2,-3.1324911E-3,8.03219E-3],"split_indices":[15,14,3,2,5,7,12,11,12,12,5,12,12,13,14,0,0,0,0,0,0,0,0,0,0,0,0,0,0,0,0],"split_type":[0,0,0,0,0,0,0,0,0,0,0,0,0,0,0,0,0,0,0,0,0,0,0,0,0,0,0,0,0,0,0],"sum_hessian":[1.3993894E3,7.491396E2,6.502499E2,6.0418756E2,1.4495206E2,7.040026E1,5.798496E2,3.747769E2,2.2941066E2,7.4765778E0,1.3747548E2,5.836706E0,6.456355E1,1.7506618E1,5.62343E2,7.8950386E1,2.9582648E2,6.678127E0,2.2273253E2,1.2059133E0,6.270664E0,1.07791794E2,2.9683685E1,4.362508E0,1.4741983E0,4.7469753E1,1.7093801E1,2.7299519E0,1.4776667E1,2.4801001E2,3.1433298E2],"tree_param":{"num_deleted":"0","num_feature":"18","num_nodes":"31","size_leaf_vector":"1"}},{"base_weights":[6.000189E-3,-1.7824608E-1,5.3644333E-2,-1.3475841E-1,-9.0123874E-1,2.1652839E-1,1.7733797E-2,-5.692151E-1,-9.791647E-2,-1.0336883E0,2.4725734E-3,6.351545E-2,1.9045387E-1,9.620859E-1,8.98506E-3,2.8008386E-2,-3.3078033E-2,4.4355434E-4,-1.6027136E-2,-5.6771737E-2,-5.0241733E-3,1.3749081E-2,-5.9645897E-4,7.2446644E-2,-7.741174E-3,-5.679099E-3,4.22197E-3],"categories":[],"categories_nodes":[],"categories_segments":[],"categories_sizes":[],"default_left":[0,0,0,0,0,0,0,0,0,0,0,0,0,0,0,0,0,0,0,0,0,0,0,0,0,0,0],"id":33,"left_children":[1,3,5,7,9,11,13,15,17,19,-1,-1,21,23,25,-1,-1,-1,-1,-1,-1,-1,-1,-1,-1,-1,-1],"loss_changes":[1.2354469E1,8.970433E0,6.5364137E0,4.3290057E0,2.0948744E0,5.305421E0,7.569511E0,2.582274E0,6.0350246E0,1.2429066E0,0E0,0E0,3.393776E0,4.797471E0,8.423916E0,0E0,0E0,0E0,0E0,0E0,0E0,0E0,0E0,0E0,0E0,0E0,0E0],"parents":[2147483647,0,0,1,1,2,2,3,3,4,4,5,5,6,6,7,7,8,8,9,9,12,12,13,13,14,14],"right_children":[2,4,6,8,10,12,14,16,18,20,-1,-1,22,24,26,-1,-1,-1,-1,-1,-1,-1,-1,-1,-1,-1,-1],"split_conditions":[-5E-1,9.1227055E-2,2.628508E1,-4.9784027E-2,5.365105E-3,7.670592E-5,-1.7979816E-1,1.8337381E1,5.3997726E1,9.511979E-4,2.4725734E-3,6.351545E-2,-6.1181065E-4,6.553236E-4,5.3011173E1,2.8008386E-2,-3.3078033E-2,4.4355434E-4,-1.6027136E-2,-5.6771737E-2,-5.0241733E-3,1.3749081E-2,-5.9645897E-4,7.2446644E-2,-7.741174E-3,-5.679099E-3,4.22197E-3],"split_indices":[14,11,13,8,4,5,10,12,7,5,0,0,3,5,13,0,0,0,0,0,0,0,0,0,0,0,0],"split_type":[0,0,0,0,0,0,0,0,0,0,0,0,0,0,0,0,0,0,0,0,0,0,0,0,0,0,0],"sum_hessian":[1.4053052E3,2.8817044E2,1.1171348E3,2.7293967E2,1.5230798E1,2.0089226E2,9.162425E2,2.0206411E1,2.5273325E2,1.3291703E1,1.9390943E0,3.6985826E0,1.9719366E2,7.410158E0,9.0883234E2,1.1444029E0,1.906201E1,1.7145245E2,8.1280785E1,1.1789591E1,1.502112E0,1.3884476E2,5.834892E1,4.9536524E0,2.4565058E0,3.4611023E2,5.6272217E2],"tree_param":{"num_deleted":"0","num_feature":"18","num_nodes":"27","size_leaf_vector":"1"}},{"base_weights":[-2.3474442E-2,-1.9237833E-1,3.30923E-3,-6.206472E-1,-1.4669111E-1,-4.8597446E-1,1.3692535E-2,-9.186252E-1,1.0634923E-1,1.1858844E-1,-2.8323472E-1,5.941113E-2,-9.4301885E-1,1.9180262E-2,-9.28822E-1,-6.1377365E-2,-1.5900925E-2,-3.687277E-2,4.6696287E-2,7.2660233E-4,3.9337218E-2,-3.4309678E-2,-9.951762E-3,-1.180446E-2,4.915833E-2,2.3662075E-2,-5.5676498E-2,-4.6190512E-4,8.400073E-3,7.661865E-3,-6.2693045E-2],"categories":[],"categories_nodes":[],"categories_segments":[],"categories_sizes":[],"default_left":[0,0,0,0,0,0,0,0,0,0,0,0,0,0,0,0,0,0,0,0,0,0,0,0,0,0,0,0,0,0,0],"id":34,"left_children":[1,3,5,7,9,11,13,15,17,19,21,23,25,27,29,-1,-1,-1,-1,-1,-1,-1,-1,-1,-1,-1,-1,-1,-1,-1,-1],"loss_changes":[6.299228E0,3.6379385E0,6.1169405E0,4.0103664E0,6.318839E0,6.292774E0,6.114368E0,2.0057907E0,4.9813075E0,4.1370707E0,3.7601852E0,3.6028838E0,3.8285942E0,4.961868E0,2.5990453E0,0E0,0E0,0E0,0E0,0E0,0E0,0E0,0E0,0E0,0E0,0E0,0E0,0E0,0E0,0E0,0E0],"parents":[2147483647,0,0,1,1,2,2,3,3,4,4,5,5,6,6,7,7,8,8,9,9,10,10,11,11,12,12,13,13,14,14],"right_children":[2,4,6,8,10,12,14,16,18,20,22,24,26,28,30,-1,-1,-1,-1,-1,-1,-1,-1,-1,-1,-1,-1,-1,-1,-1,-1],"split_conditions":[-7.0710677E-1,-4.3429952E-2,1.13698E1,2.9786038E-1,3.1001186E-1,-1.9163E-4,5.4175006E-3,-1.1415314E-5,2.5507872E-4,3.3722713E1,-4.1928835E-4,3.1816578E-1,6.949904E-5,9.47215E-4,1.770453E-3,-6.1377365E-2,-1.5900925E-2,-3.687277E-2,4.6696287E-2,7.2660233E-4,3.9337218E-2,-3.4309678E-2,-9.951762E-3,-1.180446E-2,4.915833E-2,2.3662075E-2,-5.5676498E-2,-4.6190512E-4,8.400073E-3,7.661865E-3,-6.2693045E-2],"split_indices":[14,9,12,10,10,2,2,1,5,12,2,10,5,2,1,0,0,0,0,0,0,0,0,0,0,0,0,0,0,0,0],"split_type":[0,0,0,0,0,0,0,0,0,0,0,0,0,0,0,0,0,0,0,0,0,0,0,0,0,0,0,0,0,0,0],"sum_hessian":[1.3913026E3,1.8958078E2,1.2017219E3,1.706162E1,1.7251917E2,2.4020506E1,1.1777014E3,1.1914549E1,5.1470714E0,5.866846E1,1.1385071E2,1.1348495E1,1.2672011E1,1.1718579E3,5.8434143E0,7.1784616E0,4.7360873E0,2.6024685E0,2.544603E0,5.1646893E1,7.0215673E0,1.8442009E1,9.540869E1,9.162065E0,2.18643E0,1.1709234E0,1.1501088E1,9.847513E2,1.8710667E2,1.4719219E0,4.3714924E0],"tree_param":{"num_deleted":"0","num_feature":"18","num_nodes":"31","size_leaf_vector":"1"}},{"base_weights":[1.9302597E-2,-1.7389809E-1,5.0512E-2,-6.255239E-1,-1.180426E-1,5.5357855E-2,-9.065535E-1,-7.196917E-1,2.3981506E-2,-1.4788131E-2,-3.4523132E-1,9.6318565E-2,-3.5660416E-2,-6.283275E-2,-7.857743E-3,-4.1450877E-2,-5.957899E-4,4.6442985E-3,-2.2557188E-2,-3.375646E-2,4.6668E-3,2.6149957E-3,1.1004149E-2,-1.1976854E-2,2.8525968E-3],"categories":[],"categories_nodes":[],"categories_segments":[],"categories_sizes":[],"default_left":[0,0,0,0,0,0,0,0,0,0,0,0,0,0,0,0,0,0,0,0,0,0,0,0,0],"id":35,"left_children":[1,3,5,7,9,11,13,15,-1,17,19,21,23,-1,-1,-1,-1,-1,-1,-1,-1,-1,-1,-1,-1],"loss_changes":[8.550813E0,4.9018183E0,5.710244E0,2.5802937E0,4.141562E0,4.5339603E0,1.4306726E0,1.5524311E0,0E0,5.8011127E0,8.048096E0,4.555678E0,7.1563253E0,0E0,0E0,0E0,0E0,0E0,0E0,0E0,0E0,0E0,0E0,0E0,0E0],"parents":[2147483647,0,0,1,1,2,2,3,3,4,4,5,5,6,6,7,7,9,9,10,10,11,11,12,12],"right_children":[2,4,6,8,10,12,14,16,-1,18,20,22,24,-1,-1,-1,-1,-1,-1,-1,-1,-1,-1,-1,-1],"split_conditions":[-7.0710677E-1,-2.1354943E-3,6.617046E-3,5.0838806E1,1.7681422E-4,6.581579E-2,1.06392734E-1,8.3176725E-2,2.3981506E-2,2.3823962E-4,7.07772E-1,3.6172854E-4,2.1961676E1,-6.283275E-2,-7.857743E-3,-4.1450877E-2,-5.957899E-4,4.6442985E-3,-2.2557188E-2,-3.375646E-2,4.6668E-3,2.6149957E-3,1.1004149E-2,-1.1976854E-2,2.8525968E-3],"split_indices":[14,4,3,12,2,11,11,11,0,3,10,6,12,0,0,0,0,0,0,0,0,0,0,0,0],"split_type":[0,0,0,0,0,0,0,0,0,0,0,0,0,0,0,0,0,0,0,0,0,0,0,0,0],"sum_hessian":[1.4156641E3,1.9624493E2,1.2194191E3,2.0476984E1,1.7576796E2,1.2142134E3,5.2056975E0,1.9190582E1,1.2864019E0,1.2157755E2,5.4190403E1,8.373326E2,3.768808E2,3.0867538E0,2.1189435E0,1.6474558E1,2.7160244E0,9.8146324E1,2.3431227E1,3.0618925E1,2.357148E1,6.187039E2,2.1862868E2,1.1731614E2,2.5956467E2],"tree_param":{"num_deleted":"0","num_feature":"18","num_nodes":"25","size_leaf_vector":"1"}},{"base_weights":[1.3563307E-3,1.00678116E-1,-6.3868284E-2,2.4341682E-1,-9.36595E-3,-3.7024915E-1,-2.7763741E-2,5.6348857E-2,3.5996565E-1,3.1913075E-1,-9.2103995E-2,-6.733583E-1,-2.3375039E-1,-7.285456E-1,-1.6244262E-2,1.380787E-2,-1.643971E-2,1.981716E-2,-2.057841E-2,-2.5264457E-2,2.1548815E-2,-2.890352E-2,-2.4256073E-3,-2.1230139E-2,-6.1866004E-2,1.1994867E-2,-2.161601E-2,-6.769549E-2,-1.1542075E-2,-5.832733E-3,2.5943646E-3],"categories":[],"categories_nodes":[],"categories_segments":[],"categories_sizes":[],"default_left":[0,0,0,0,0,0,0,0,0,0,0,0,0,0,0,0,0,0,0,0,0,0,0,0,0,0,0,0,0,0,0],"id":36,"left_children":[1,3,5,7,9,11,13,15,17,19,21,23,25,27,29,-1,-1,-1,-1,-1,-1,-1,-1,-1,-1,-1,-1,-1,-1,-1,-1],"loss_changes":[9.066166E0,8.715825E0,9.334169E0,5.245702E0,8.569242E0,3.5237427E0,6.097393E0,8.040292E0,4.334627E0,6.0674534E0,5.305395E0,3.2756462E0,6.017521E0,3.4896522E0,5.106555E0,0E0,0E0,0E0,0E0,0E0,0E0,0E0,0E0,0E0,0E0,0E0,0E0,0E0,0E0,0E0,0E0],"parents":[2147483647,0,0,1,1,2,2,3,3,4,4,5,5,6,6,7,7,8,8,9,9,10,10,11,11,12,12,13,13,14,14],"right_children":[2,4,6,8,10,12,14,16,18,20,22,24,26,28,30,-1,-1,-1,-1,-1,-1,-1,-1,-1,-1,-1,-1,-1,-1,-1,-1],"split_conditions":[-3.4598033E-5,4.9552575E-2,-8.660254E-1,-5E-1,-1.4046915E-3,-3.8116527E-4,-2.9066478E-5,-2.3296209E-4,3.4038324E-2,3.2464945E-4,-1.1291289E-3,1.1195567E-2,-4.5421835E-5,1.3982425E-4,-2.5881904E-1,1.380787E-2,-1.643971E-2,1.981716E-2,-2.057841E-2,-2.5264457E-2,2.1548815E-2,-2.890352E-2,-2.4256073E-3,-2.1230139E-2,-6.1866004E-2,1.1994867E-2,-2.161601E-2,-6.769549E-2,-1.1542075E-2,-5.832733E-3,2.5943646E-3],"split_indices":[0,11,14,15,2,2,0,2,9,5,2,8,2,5,15,0,0,0,0,0,0,0,0,0,0,0,0,0,0,0,0],"split_type":[0,0,0,0,0,0,0,0,0,0,0,0,0,0,0,0,0,0,0,0,0,0,0,0,0,0,0,0,0,0,0],"sum_hessian":[1.3974904E3,5.537363E2,8.43754E2,2.4053073E2,3.132056E2,8.7972244E1,7.5578174E2,9.2901566E1,1.4762917E2,6.244031E1,2.5076527E2,2.6094261E1,6.187798E1,1.1216021E1,7.4456573E2,5.9326027E1,3.3575535E1,1.414463E2,6.182851E0,7.0388465E0,5.5401466E1,1.963305E1,2.3113222E2,1.932373E1,6.7705307E0,1.8216978E1,4.3661003E1,4.2081623E0,7.007858E0,3.0069604E2,4.4386972E2],"tree_param":{"num_deleted":"0","num_feature":"18","num_nodes":"31","size_leaf_vector":"1"}},{"base_weights":[-5.1800786E-3,3.959857E-3,-4.9946663E-1,1.7186859E-1,-1.6114678E-2,-6.3773113E-1,5.3325363E-2,7.8522466E-2,5.6562907E-1,-2.9914334E-2,3.3039185E-1,8.9377314E-2,-9.894993E-1,2.0701539E-2,-1.4487212E-4,-1.4075835E-3,4.1572224E-2,-1.0767631E-3,-3.055805E-2,1.8842992E-3,3.640669E-2,-2.9005233E-2,3.0726273E-2,-5.375572E-2,-1.2310006E-3],"categories":[],"categories_nodes":[],"categories_segments":[],"categories_sizes":[],"default_left":[0,0,0,0,0,0,0,0,0,0,0,0,0,0,0,0,0,0,0,0,0,0,0,0,0],"id":37,"left_children":[1,3,5,7,9,11,-1,13,15,17,19,21,23,-1,-1,-1,-1,-1,-1,-1,-1,-1,-1,-1,-1],"loss_changes":[6.306786E0,4.6247253E0,6.167802E0,5.340959E0,5.870791E0,6.205146E0,0E0,3.2683308E0,4.429619E0,5.7322216E0,5.447532E0,3.4203086E0,1.3117886E0,0E0,0E0,0E0,0E0,0E0,0E0,0E0,0E0,0E0,0E0,0E0,0E0],"parents":[2147483647,0,0,1,1,2,2,3,3,4,4,5,5,7,7,8,8,9,9,10,10,11,11,12,12],"right_children":[2,4,6,8,10,12,-1,14,16,18,20,22,24,-1,-1,-1,-1,-1,-1,-1,-1,-1,-1,-1,-1],"split_conditions":[5.46291E1,1.7020319E1,1.1360859E-1,1.5032824E1,4.6803444E1,2.5895142E-3,5.3325363E-2,1.8227787E1,-1.4703372E-3,6.472903E-3,7.166206E1,4.4585907E1,9.1244675E1,2.0701539E-2,-1.4487212E-4,-1.4075835E-3,4.1572224E-2,-1.0767631E-3,-3.055805E-2,1.8842992E-3,3.640669E-2,-2.9005233E-2,3.0726273E-2,-5.375572E-2,-1.2310006E-3],"split_indices":[12,13,11,13,12,4,0,12,4,4,13,13,13,0,0,0,0,0,0,0,0,0,0,0,0],"split_type":[0,0,0,0,0,0,0,0,0,0,0,0,0,0,0,0,0,0,0,0,0,0,0,0,0],"sum_hessian":[1.3945646E3,1.3702196E3,2.4344973E1,1.4551682E2,1.2247028E3,2.2914537E1,1.4304354E0,1.18600426E2,2.691638E1,1.1786755E3,4.6027203E1,7.714501E0,1.5200036E1,2.2363146E1,9.623728E1,8.599913E0,1.8316467E1,1.1629479E3,1.5727649E1,2.7145245E1,1.8881958E1,3.345219E0,4.3692822E0,1.3856298E1,1.3437372E0],"tree_param":{"num_deleted":"0","num_feature":"18","num_nodes":"25","size_leaf_vector":"1"}},{"base_weights":[-1.2620985E-2,9.307491E-2,-8.0556706E-2,2.3419271E-1,-1.9860273E-2,-1.3352679E-1,1.0192517E-1,1.8268643E-1,7.9065233E-1,2.0863834E-1,-8.5340105E-2,-4.1088954E-2,-3.0858243E-1,-7.8403026E-1,1.533184E-1,1.3869445E-2,-9.109474E-3,-4.3657377E-2,4.944784E-2,1.2143522E-3,3.6670785E-2,-7.206297E-3,9.956378E-3,-4.852147E-2,-1.2150478E-3,-2.6315985E-2,-9.990886E-3,8.733572E-3,-6.005708E-2,-2.0170111E-2,9.81358E-3],"categories":[],"categories_nodes":[],"categories_segments":[],"categories_sizes":[],"default_left":[0,0,0,0,0,0,0,0,0,0,0,0,0,0,0,0,0,0,0,0,0,0,0,0,0,0,0,0,0,0,0],"id":38,"left_children":[1,3,5,7,9,11,13,15,17,19,21,23,25,27,29,-1,-1,-1,-1,-1,-1,-1,-1,-1,-1,-1,-1,-1,-1,-1,-1],"loss_changes":[1.0022709E1,8.709341E0,8.225771E0,6.8167048E0,4.5709186E0,1.0649257E1,8.848714E0,7.777009E0,7.553297E0,6.5676556E0,3.9959733E0,6.721809E0,5.283411E0,4.478243E0,4.4319468E0,0E0,0E0,0E0,0E0,0E0,0E0,0E0,0E0,0E0,0E0,0E0,0E0,0E0,0E0,0E0,0E0],"parents":[2147483647,0,0,1,1,2,2,3,3,4,4,5,5,6,6,7,7,8,8,9,9,10,10,11,11,12,12,13,13,14,14],"right_children":[2,4,6,8,10,12,14,16,18,20,22,24,26,28,30,-1,-1,-1,-1,-1,-1,-1,-1,-1,-1,-1,-1,-1,-1,-1,-1],"split_conditions":[-3.4598033E-5,4.9552575E-2,5.453266E-4,5.380405E-4,-6.6471065E-4,1.4624596E-4,-2.3962137E-4,5.3563198E1,1.6319023E1,1.0178415E-1,8.911871E-4,-2.9066478E-5,2.4944555E-4,-4.2431675E-2,2.408779E-4,1.3869445E-2,-9.109474E-3,-4.3657377E-2,4.944784E-2,1.2143522E-3,3.6670785E-2,-7.206297E-3,9.956378E-3,-4.852147E-2,-1.2150478E-3,-2.6315985E-2,-9.990886E-3,8.733572E-3,-6.005708E-2,-2.0170111E-2,9.81358E-3],"split_indices":[0,11,1,2,0,1,2,7,12,11,2,0,6,9,6,0,0,0,0,0,0,0,0,0,0,0,0,0,0,0,0],"split_type":[0,0,0,0,0,0,0,0,0,0,0,0,0,0,0,0,0,0,0,0,0,0,0,0,0,0,0,0,0,0,0],"sum_hessian":[1.3937738E3,5.451881E2,8.4858575E2,2.4187735E2,3.0331076E2,6.5788574E2,1.9070003E2,2.226015E2,1.9275846E1,6.707151E1,2.3623924E2,4.3134793E2,2.2653778E2,9.674153E0,1.8102588E2,1.7692175E2,4.5679745E1,1.6903685E0,1.7585478E1,5.0409294E1,1.6662218E1,1.961896E2,4.0049644E1,6.64585E0,4.247021E2,7.418565E1,1.5235213E2,3.1091716E0,6.5649815E0,1.2365367E1,1.686605E2],"tree_param":{"num_deleted":"0","num_feature":"18","num_nodes":"31","size_leaf_vector":"1"}}]},"name":"gbtree"},"learner_model_param":{"base_score":"[4.4707176E-1]","boost_from_average":"1","num_class":"0","num_feature":"18","num_target":"1"},"objective":{"name":"binary:logistic","reg_loss_param":{"scale_pos_weight":"1"}}},"version":[3,2,0]}