{"learner":{"attributes":{"best_iteration":"13","best_score":"0.692983909006229","scikit_learn":"{\"_estimator_type\": \"classifier\"}"},"feature_names":["log_return_1h","log_return_3h","log_return_6h","log_return_12h","log_return_24h","vol_6h","vol_24h","rsi_14","macd_line","macd_signal","bbp_20","atr_14","adx_14","stoch_k","hour_sin","hour_cos","london_session","ny_session"],"feature_types":["float","float","float","float","float","float","float","float","float","float","float","float","float","float","float","float","int","int"],"gradient_booster":{"model":{"cats":{"enc":[],"feature_segments":[],"sorted_idx":[]},"gbtree_model_param":{"num_parallel_tree":"1","num_trees":"44"},"iteration_indptr":[0,1,2,3,4,5,6,7,8,9,10,11,12,13,14,15,16,17,18,19,20,21,22,23,24,25,26,27,28,29,30,31,32,33,34,35,36,37,38,39,40,41,42,43,44],"tree_info":[0,0,0,0,0,0,0,0,0,0,0,0,0,0,0,0,0,0,0,0,0,0,0,0,0,0,0,0,0,0,0,0,0,0,0,0,0,0,0,0,0,0,0,0],"trees":[{"base_weights":[-2.0341868E-2,1.9897439E-1,-5.8015037E-2,4.9762177E-1,8.891069E-2,2.0788897E-2,-1.3870071E-1,7.2423E-1,-2.7851824E-2,2.6537368E-1,-1.2529819E-1,-1.2968764E0,3.0746384E-2,8.9419745E-2,-1.7088479E-1,4.1265264E-2,-1.2372357E-3,-6.360664E-2,1.2510709E-2,-1.9514631E-2,1.7117452E-2,-1.6957521E-2,1.7828738E-2,-7.760122E-2,-1.1924706E-2,3.1832948E-3,-1.3988714E-2,7.3286532E-3,-5.406796E-2,-5.411569E-3,-1.6875423E-2],"categories":[],"categories_nodes":[],"categories_segments":[],"categories_sizes":[],"default_left":[0,0,0,0,0,0,0,0,0,0,0,0,0,0,0,0,0,0,0,0,0,0,0,0,0,0,0,0,0,0,0],"id":0,"left_children":[1,3,5,7,9,11,13,15,17,19,21,23,25,27,29,-1,-1,-1,-1,-1,-1,-1,-1,-1,-1,-1,-1,-1,-1,-1,-1],"loss_changes":[1.3959522E1,8.097622E0,9.168076E0,7.9370995E0,6.920826E0,9.619172E0,5.245229E0,3.5398674E0,7.5826635E0,5.192175E0,8.672244E0,1.1148338E0,7.4349823E0,6.095852E0,6.4841843E0,0E0,0E0,0E0,0E0,0E0,0E0,0E0,0E0,0E0,0E0,0E0,0E0,0E0,0E0,0E0,0E0],"parents":[2147483647,0,0,1,1,2,2,3,3,4,4,5,5,6,6,7,7,8,8,9,9,10,10,11,11,12,12,13,13,14,14],"right_children":[2,4,6,8,10,12,14,16,18,20,22,24,26,28,30,-1,-1,-1,-1,-1,-1,-1,-1,-1,-1,-1,-1,-1,-1,-1,-1],"split_conditions":[1.6471397E1,2.0484186E1,5.3280844E-5,1.9815129E-1,-3.4472228E-3,-7.264117E-3,-8.660254E-1,1.9448382E-3,-2.2614135E-4,-4.4158865E-3,-1.6432566E-3,-7.139663E-4,4.1936775E1,3.2010265E-3,2.2863043E-3,4.1265264E-2,-1.2372357E-3,-6.360664E-2,1.2510709E-2,-1.9514631E-2,1.7117452E-2,-1.6957521E-2,1.7828738E-2,-7.760122E-2,-1.1924706E-2,3.1832948E-3,-1.3988714E-2,7.3286532E-3,-5.406796E-2,-5.411569E-3,-1.6875423E-2],"split_indices":[13,12,0,10,3,3,14,11,0,1,3,0,12,1,3,0,0,0,0,0,0,0,0,0,0,0,0,0,0,0,0],"split_type":[0,0,0,0,0,0,0,0,0,0,0,0,0,0,0,0,0,0,0,0,0,0,0,0,0,0,0,0,0,0,0],"sum_hessian":[1.6871393E3,2.4669727E2,1.440442E3,6.5486E1,1.8121126E2,7.290941E2,7.113479E2,4.5490276E1,1.9995726E1,9.922878E1,8.1982475E1,4.499038E0,7.245951E2,8.773125E1,6.236167E2,3.999145E1,5.4988246E0,2.9993587E0,1.6996367E1,9.997863E0,8.923093E1,5.6987816E1,2.4994656E1,3.2493052E0,1.2497329E0,6.558598E2,6.8735306E1,8.448194E1,3.2493052E0,4.5440286E2,1.6921382E2],"tree_param":{"num_deleted":"0","num_feature":"18","num_nodes":"31","size_leaf_vector":"1"}},{"base_weights":[3.5735688E-3,4.8392665E-2,-1.4837377E-1,9.829456E-2,-3.8074028E-2,3.0559315E-3,-2.4718341E-1,1.1808236E-1,-3.0371106E-1,3.6829242E-1,-8.7955765E-2,-8.717137E-1,7.125914E-2,-3.901458E-1,-6.458494E-2,1.2457105E-2,2.2608493E-3,-2.2067474E-2,4.3241315E-2,2.234782E-2,-4.358877E-2,-8.024985E-3,8.132882E-3,-9.527529E-3,-6.930717E-2,4.2598583E-2,1.2617562E-3,-2.223214E-2,3.034844E-2,-2.8869137E-2,3.6624502E-3],"categories":[],"categories_nodes":[],"categories_segments":[],"categories_sizes":[],"default_left":[0,0,0,0,0,0,0,0,0,0,0,0,0,0,0,0,0,0,0,0,0,0,0,0,0,0,0,0,0,0,0],"id":1,"left_children":[1,3,5,7,9,11,13,15,17,19,21,23,25,27,29,-1,-1,-1,-1,-1,-1,-1,-1,-1,-1,-1,-1,-1,-1,-1,-1],"loss_changes":[1.1620794E1,5.689232E0,5.8165426E0,6.684168E0,9.820816E0,9.2777815E0,6.11518E0,7.6024523E0,6.732825E0,5.5585456E0,7.860219E0,3.6771612E0,5.160425E0,7.428108E0,7.4277554E0,0E0,0E0,0E0,0E0,0E0,0E0,0E0,0E0,0E0,0E0,0E0,0E0,0E0,0E0,0E0,0E0],"parents":[2147483647,0,0,1,1,2,2,3,3,4,4,5,5,6,6,7,7,8,8,9,9,10,10,11,11,12,12,13,13,14,14],"right_children":[2,4,6,8,10,12,14,16,18,20,22,24,26,28,30,-1,-1,-1,-1,-1,-1,-1,-1,-1,-1,-1,-1,-1,-1,-1,-1],"split_conditions":[1.363556E-3,4.0612515E-4,1.2133747E-4,1.5614684E-3,-8.660254E-1,1.4470228E-3,8.205051E-4,-2.446101E-4,4.09788E-6,1.2549171E-3,1.6417756E-3,1.4044807E-3,3.9224127E-1,2.4218906E-3,-8.660254E-1,1.2457105E-2,2.2608493E-3,-2.2067474E-2,4.3241315E-2,2.234782E-2,-4.358877E-2,-8.024985E-3,8.132882E-3,-9.527529E-3,-6.930717E-2,4.2598583E-2,1.2617562E-3,-2.223214E-2,3.034844E-2,-2.8869137E-2,3.6624502E-3],"split_indices":[2,9,0,6,15,2,0,0,9,0,11,11,10,11,15,0,0,0,0,0,0,0,0,0,0,0,0,0,0,0,0],"split_type":[0,0,0,0,0,0,0,0,0,0,0,0,0,0,0,0,0,0,0,0,0,0,0,0,0,0,0,0,0,0,0],"sum_hessian":[1.7043408E3,1.3166555E3,3.876853E2,8.3475977E2,4.8189572E2,1.5346428E2,2.3422104E2,7.962714E2,3.8488354E1,5.1987896E1,4.2990784E2,1.024764E1,1.4321664E2,1.3073088E2,1.0349015E2,2.8365482E2,5.1261664E2,3.498937E1,3.498984E0,4.9488174E1,2.499723E0,3.3367886E2,9.622895E1,4.998917E0,5.2487226E0,6.9979467E0,1.3621869E2,1.2448145E2,6.249425E0,2.1248436E1,8.2241714E1],"tree_param":{"num_deleted":"0","num_feature":"18","num_nodes":"31","size_leaf_vector":"1"}},{"base_weights":[3.3208888E-2,5.509816E-2,-3.210268E-1,8.7640986E-2,-8.440202E-2,-6.1060935E-1,8.725447E-2,7.452909E-2,4.3530837E-1,-1.0428537E-1,8.722475E-1,-7.5934833E-1,-1.1413633E-2,2.770628E-1,-3.661571E-1,4.125789E-3,-4.869239E-2,1.5765483E-2,6.870545E-2,-3.0599305E-2,-3.5122577E-3,-2.1985553E-4,5.7499893E-2,-6.469487E-2,-2.72608E-2,3.9381463E-2,-2.4004726E-2,3.252774E-2,-4.522515E-3,6.056327E-3,-4.461568E-2],"categories":[],"categories_nodes":[],"categories_segments":[],"categories_sizes":[],"default_left":[0,0,0,0,0,0,0,0,0,0,0,0,0,0,0,0,0,0,0,0,0,0,0,0,0,0,0,0,0,0,0],"id":2,"left_children":[1,3,5,7,9,11,13,15,17,19,21,23,25,27,29,-1,-1,-1,-1,-1,-1,-1,-1,-1,-1,-1,-1,-1,-1,-1,-1],"loss_changes":[1.3119981E1,7.2358713E0,1.169725E1,5.855299E0,5.829631E0,5.1376076E0,3.693802E0,1.0511852E1,4.831479E0,5.080258E0,1.5267768E0,4.587902E0,5.058738E0,4.1758375E0,3.3766043E0,0E0,0E0,0E0,0E0,0E0,0E0,0E0,0E0,0E0,0E0,0E0,0E0,0E0,0E0,0E0,0E0],"parents":[2147483647,0,0,1,1,2,2,3,3,4,4,5,5,6,6,7,7,8,8,9,9,10,10,11,11,12,12,13,13,14,14],"right_children":[2,4,6,8,10,12,14,16,18,20,22,24,26,28,30,-1,-1,-1,-1,-1,-1,-1,-1,-1,-1,-1,-1,-1,-1,-1,-1],"split_conditions":[6.9568255E-3,9.965366E-4,1.8811068E-3,2.2500695E-3,7.817578E1,6.925182E-3,7.2548483E-3,2.1886027E-3,7.63979E-4,1.3336068E1,2.5184394E-3,1.7244456E-3,7.493222E1,2.2200756E-3,1E0,4.125789E-3,-4.869239E-2,1.5765483E-2,6.870545E-2,-3.0599305E-2,-3.5122577E-3,-2.1985553E-4,5.7499893E-2,-6.469487E-2,-2.72608E-2,3.9381463E-2,-2.4004726E-2,3.252774E-2,-4.522515E-3,6.056327E-3,-4.461568E-2],"split_indices":[4,1,11,11,7,3,3,11,1,12,2,9,7,11,17,0,0,0,0,0,0,0,0,0,0,0,0,0,0,0,0],"split_type":[0,0,0,0,0,0,0,0,0,0,0,0,0,0,0,0,0,0,0,0,0,0,0,0,0,0,0,0,0,0,0],"sum_hessian":[1.6887546E3,1.5912699E3,9.748482E1,1.2905743E3,3.006955E2,5.6743015E1,4.07418E1,1.244841E3,4.573343E1,2.9544583E2,5.2496634E0,4.5244617E1,1.14984E1,2.8993431E1,1.1748368E1,1.2363436E3,8.497348E0,4.1734707E1,3.998722E0,1.7497461E1,2.7794836E2,1.4998755E0,3.7497878E0,1.1498312E1,3.3746304E1,3.999398E0,7.499002E0,1.3997776E1,1.4995655E1,6.4991603E0,5.249208E0],"tree_param":{"num_deleted":"0","num_feature":"18","num_nodes":"31","size_leaf_vector":"1"}},{"base_weights":[6.3696466E-3,9.705613E-2,-6.1126884E-2,6.311288E-2,5.254367E-1,-6.34927E-1,-4.9025416E-2,7.4783415E-2,-8.0437E-1,2.542511E-1,9.033511E-1,1.04181096E-1,-9.590442E-1,1.6424245E-1,-7.8694515E-2,4.4728373E-3,-3.0631592E-2,-7.278291E-2,4.239095E-3,-7.7503147E-3,2.4820285E-2,6.930929E-2,2.0791618E-2,-3.4841925E-2,3.932832E-2,-6.15729E-2,5.696619E-3,-6.6122995E-3,1.6865512E-2,-1.1941436E-3,-1.0722487E-2],"categories":[],"categories_nodes":[],"categories_segments":[],"categories_sizes":[],"default_left":[0,0,0,0,0,0,0,0,0,0,0,0,0,0,0,0,0,0,0,0,0,0,0,0,0,0,0,0,0,0,0],"id":3,"left_children":[1,3,5,7,9,11,13,15,17,19,21,23,25,27,29,-1,-1,-1,-1,-1,-1,-1,-1,-1,-1,-1,-1,-1,-1,-1,-1],"loss_changes":[1.0377309E1,1.0485227E1,6.7183146E0,6.8574643E0,5.1992664E0,4.88929E0,6.04309E0,6.7463827E0,5.3339925E0,3.2713838E0,4.54093E0,4.37249E0,4.23123E0,6.033428E0,6.225212E0,0E0,0E0,0E0,0E0,0E0,0E0,0E0,0E0,0E0,0E0,0E0,0E0,0E0,0E0,0E0,0E0],"parents":[2147483647,0,0,1,1,2,2,3,3,4,4,5,5,6,6,7,7,8,8,9,9,10,10,11,11,12,12,13,13,14,14],"right_children":[2,4,6,8,10,12,14,16,18,20,22,24,26,28,30,-1,-1,-1,-1,-1,-1,-1,-1,-1,-1,-1,-1,-1,-1,-1,-1],"split_conditions":[4.8864277E1,6.9618714E-4,4.9232735E1,7.090501E-1,-1.6997548E-4,-3.069897E-4,-8.660254E-1,4.1308964E-4,4.7656696E1,4.8710228E-4,2.5652626E-1,-5E-1,4.1508873E-4,6.092248E-4,6.3518272E1,4.4728373E-3,-3.0631592E-2,-7.278291E-2,4.239095E-3,-7.7503147E-3,2.4820285E-2,6.930929E-2,2.0791618E-2,-3.4841925E-2,3.932832E-2,-6.15729E-2,5.696619E-3,-6.6122995E-3,1.6865512E-2,-1.1941436E-3,-1.0722487E-2],"split_indices":[7,4,7,10,0,0,14,4,7,5,10,15,0,8,7,0,0,0,0,0,0,0,0,0,0,0,0,0,0,0,0],"split_type":[0,0,0,0,0,0,0,0,0,0,0,0,0,0,0,0,0,0,0,0,0,0,0,0,0,0,0,0,0,0,0],"sum_hessian":[1.693386E3,7.223792E2,9.7100684E2,6.704061E2,5.1973114E1,1.8992577E1,9.520142E2,6.6240826E2,7.9978104E0,3.123333E1,2.0739784E1,5.996619E0,1.2995956E1,1.15712456E2,8.3630176E2,6.4941595E2,1.2992339E1,4.248631E0,3.7491794E0,1.1744399E1,1.948893E1,9.493826E0,1.1245957E1,2.7487786E0,3.2478406E0,1.0246748E1,2.7492082E0,4.2735935E1,7.2976524E1,5.965988E2,2.3970296E2],"tree_param":{"num_deleted":"0","num_feature":"18","num_nodes":"31","size_leaf_vector":"1"}},{"base_weights":[-3.761009E-3,2.302141E-2,-2.0691893E-1,8.846084E-2,-4.8751734E-2,2.3634362E-1,-3.5426852E-1,1.3081273E-1,-1.6497172E-1,-7.509491E-2,3.1996584E-1,-4.5445314E-1,3.6412093E-1,-1.4183697E0,-3.0164948E-1,5.8948398E-3,4.8834443E-2,-1.2491093E-2,2.685449E-2,6.5994225E-3,-6.13461E-3,6.1499007E-2,1.0170964E-2,5.451696E-2,-4.4304837E-2,2.328942E-2,-2.7374823E-2,-1.1672388E-2,-8.225496E-2,-2.1056475E-2,1.5860487E-2],"categories":[],"categories_nodes":[],"categories_segments":[],"categories_sizes":[],"default_left":[0,0,0,0,0,0,0,0,0,0,0,0,0,0,0,0,0,0,0,0,0,0,0,0,0,0,0,0,0,0,0],"id":4,"left_children":[1,3,5,7,9,11,13,15,17,19,21,23,25,27,29,-1,-1,-1,-1,-1,-1,-1,-1,-1,-1,-1,-1,-1,-1,-1,-1],"loss_changes":[9.246502E0,7.0569344E0,1.3011823E1,8.455875E0,6.9862423E0,4.577305E0,7.912369E0,7.246806E0,6.8630514E0,6.618085E0,4.8391347E0,6.4651785E0,4.215794E0,1.428978E0,1.0722373E1,0E0,0E0,0E0,0E0,0E0,0E0,0E0,0E0,0E0,0E0,0E0,0E0,0E0,0E0,0E0,0E0],"parents":[2147483647,0,0,1,1,2,2,3,3,4,4,5,5,6,6,7,7,8,8,9,9,10,10,11,11,12,12,13,13,14,14],"right_children":[2,4,6,8,10,12,14,16,18,20,22,24,26,28,30,-1,-1,-1,-1,-1,-1,-1,-1,-1,-1,-1,-1,-1,-1,-1,-1],"split_conditions":[1.5586797E-3,4.04158E-5,7.234669E1,9.0580696E-4,1.2500576E-3,-7.43481E-4,6.459416E-1,1.1128752E-3,6.5892196E-4,2.0410175E1,1.0120639E-3,-3.0636187E-3,2.8257514E-3,5.9066486E-1,8.660254E-1,5.8948398E-3,4.8834443E-2,-1.2491093E-2,2.685449E-2,6.5994225E-3,-6.13461E-3,6.1499007E-2,1.0170964E-2,5.451696E-2,-4.4304837E-2,2.328942E-2,-2.7374823E-2,-1.1672388E-2,-8.225496E-2,-2.1056475E-2,1.5860487E-2],"split_indices":[8,0,13,9,8,0,10,8,1,13,11,1,8,10,14,0,0,0,0,0,0,0,0,0,0,0,0,0,0,0,0],"split_type":[0,0,0,0,0,0,0,0,0,0,0,0,0,0,0,0,0,0,0,0,0,0,0,0,0,0,0,0,0,0,0],"sum_hessian":[1.697518E3,1.500582E3,1.9693587E2,7.8480273E2,7.157793E2,4.8982113E1,1.4795377E2,6.7284534E2,1.1195742E2,6.6879346E2,4.6985878E1,7.2469034E0,4.1735207E1,5.7484727E0,1.4220529E2,6.638482E2,8.997124E0,1.0046011E2,1.1497302E1,1.2465949E2,5.441339E2,4.249733E0,4.2736145E1,1.2494125E0,5.997491E0,3.798771E1,3.747498E0,1.2492644E0,4.4992085E0,1.1946105E2,2.2744232E1],"tree_param":{"num_deleted":"0","num_feature":"18","num_nodes":"31","size_leaf_vector":"1"}},{"base_weights":[1.5168753E-2,9.644763E-2,-4.5327425E-2,1.08971536E-1,-6.442921E-1,-6.0245E-1,-3.2033388E-2,1.1941152E-1,-6.0470223E-1,-8.570507E-1,1.4879073E-2,-8.5544384E-1,6.147365E-1,3.5326868E-1,-4.9674798E-2,-9.997521E-3,6.9996356E-3,-4.4474386E-2,2.605995E-2,-1.5727965E-3,-5.596127E-2,-5.8998115E-2,-1.8847993E-2,-1.0354781E-2,6.068125E-2,4.8747804E-2,8.916158E-3,-5.8828235E-2,-2.0316374E-3],"categories":[],"categories_nodes":[],"categories_segments":[],"categories_sizes":[],"default_left":[0,0,0,0,0,0,0,0,0,0,0,0,0,0,0,0,0,0,0,0,0,0,0,0,0,0,0,0,0],"id":5,"left_children":[1,3,5,7,9,11,13,15,17,19,-1,21,23,25,27,-1,-1,-1,-1,-1,-1,-1,-1,-1,-1,-1,-1,-1,-1],"loss_changes":[8.386205E0,6.8210506E0,7.2237463E0,5.4103374E0,2.708548E0,7.527093E0,6.517148E0,4.6747494E0,3.8285549E0,2.1823711E0,0E0,2.5429354E0,2.463361E0,4.392743E0,9.277727E0,0E0,0E0,0E0,0E0,0E0,0E0,0E0,0E0,0E0,0E0,0E0,0E0,0E0,0E0],"parents":[2147483647,0,0,1,1,2,2,3,3,4,4,5,5,6,6,7,7,8,8,9,9,11,11,12,12,13,13,14,14],"right_children":[2,4,6,8,10,12,14,16,18,20,-1,22,24,26,28,-1,-1,-1,-1,-1,-1,-1,-1,-1,-1,-1,-1,-1,-1],"split_conditions":[4.8864277E1,1.8593096E-3,4.9232735E1,1.2352896E-3,-6.6874945E-4,1.072481E-3,5.0090153E1,-3.2410584E-3,-1.5800552E-3,1.2246469E-16,1.4879073E-2,7.430696E-4,-1.0002772E-3,-7.0710677E-1,-9.875725E-4,-9.997521E-3,6.9996356E-3,-4.4474386E-2,2.605995E-2,-1.5727965E-3,-5.596127E-2,-5.8998115E-2,-1.8847993E-2,-1.0354781E-2,6.068125E-2,4.8747804E-2,8.916158E-3,-5.8828235E-2,-2.0316374E-3],"split_indices":[7,3,7,9,8,6,7,1,3,14,0,6,3,14,8,0,0,0,0,0,0,0,0,0,0,0,0,0,0],"split_type":[0,0,0,0,0,0,0,0,0,0,0,0,0,0,0,0,0,0,0,0,0,0,0,0,0,0,0,0,0],"sum_hessian":[1.7036428E3,7.267E2,9.769428E2,7.154564E2,1.1243548E1,2.1735619E1,9.552072E2,7.05962E2,9.494486E0,9.245215E0,1.9983324E0,1.8241331E1,3.4942884E0,4.0987316E1,9.142199E2,4.221346E1,6.637485E2,7.7453537E0,1.7491325E0,2.4982238E0,6.7469916E0,9.995869E0,8.245461E0,1.7487477E0,1.7455406E0,7.996829E0,3.2990486E1,6.249403E0,9.079705E2],"tree_param":{"num_deleted":"0","num_feature":"18","num_nodes":"29","size_leaf_vector":"1"}},{"base_weights":[-1.3412728E-2,1.6167088E-1,-5.188874E-2,2.4812073E-1,-1.4352968E-1,-3.7949374E-1,-3.7059885E-2,2.210573E-2,3.9988425E-1,-1.1912996E-2,-7.415755E-1,6.84233E-1,-5.1038444E-1,-2.760493E-2,-6.245367E-1,7.223205E-3,-1.970376E-2,-3.9181214E-2,2.1548567E-2,-7.524387E-3,7.681834E-2,-6.732615E-2,-8.935907E-3,-1.188183E-3,5.4137845E-2,-6.8837637E-3,-4.4951897E-2,-3.2070305E-2,-9.996046E-4,3.8744602E-2,-3.859597E-2],"categories":[],"categories_nodes":[],"categories_segments":[],"categories_sizes":[],"default_left":[0,0,0,0,0,0,0,0,0,0,0,0,0,0,0,0,0,0,0,0,0,0,0,0,0,0,0,0,0,0,0],"id":6,"left_children":[1,3,5,7,9,11,13,15,17,19,21,23,25,27,29,-1,-1,-1,-1,-1,-1,-1,-1,-1,-1,-1,-1,-1,-1,-1,-1],"loss_changes":[1.1400002E1,8.080433E0,6.7245617E0,8.15374E0,5.3386154E0,8.697555E0,7.3600955E0,4.9790382E0,5.5736694E0,1.2395943E1,3.9263887E0,1.9999206E0,7.6930246E0,6.0999365E0,4.927532E0,0E0,0E0,0E0,0E0,0E0,0E0,0E0,0E0,0E0,0E0,0E0,0E0,0E0,0E0,0E0,0E0],"parents":[2147483647,0,0,1,1,2,2,3,3,4,4,5,5,6,6,7,7,8,8,9,9,10,10,11,11,12,12,13,13,14,14],"right_children":[2,4,6,8,10,12,14,16,18,20,22,24,26,28,30,-1,-1,-1,-1,-1,-1,-1,-1,-1,-1,-1,-1,-1,-1,-1,-1],"split_conditions":[1.891193E1,-1.0286339E-4,2.2228882E1,-4.496285E-3,-2.2881267E-4,-1.9477045E-3,5.467144E1,-6.376723E-4,-4.4158865E-3,4.498508E1,8.9047867E-4,-2.5881904E-1,2.0781546E1,-8.829953E-3,-2.8238962E-3,7.223205E-3,-1.970376E-2,-3.9181214E-2,2.1548567E-2,-7.524387E-3,7.681834E-2,-6.732615E-2,-8.935907E-3,-1.188183E-3,5.4137845E-2,-6.8837637E-3,-4.4951897E-2,-3.2070305E-2,-9.996046E-4,3.8744602E-2,-3.859597E-2],"split_indices":[13,1,13,4,4,8,12,1,1,7,4,15,13,4,8,0,0,0,0,0,0,0,0,0,0,0,0,0,0,0,0],"split_type":[0,0,0,0,0,0,0,0,0,0,0,0,0,0,0,0,0,0,0,0,0,0,0,0,0,0,0,0,0,0,0],"sum_hessian":[1.6900236E3,3.039066E2,1.386117E3,2.3697037E2,6.693622E1,5.8959904E1,1.3271571E3,9.565745E1,1.4131293E2,5.5698193E1,1.1238024E1,5.9968653E0,5.296304E1,1.3071663E3,1.9990772E1,7.442822E1,2.1229227E1,2.9972668E0,1.3831566E2,5.1951237E1,3.7469566E0,4.745432E0,6.4925914E0,2.498511E0,3.4983542E0,2.772739E1,2.523565E1,1.4993956E1,1.2921724E3,1.4990735E0,1.84917E1],"tree_param":{"num_deleted":"0","num_feature":"18","num_nodes":"31","size_leaf_vector":"1"}},{"base_weights":[2.2804504E-3,2.1443894E-2,-3.569023E-1,1.9939972E-1,-5.2762902E-3,-5.6225073E-1,1.0831656E-1,5.1999027E-1,8.6863354E-2,6.449815E-2,-7.308883E-2,-6.2234116E-1,5.852899E-1,5.83301E-1,-4.7772112E-1,3.468519E-2,-1.0859799E-3,-3.4270417E-2,6.570303E-3,6.4332895E-3,-6.0508614E-3,-2.7244373E-3,-3.177255E-2,1.5497796E-2,-3.465894E-2,-1.0094082E-2,5.560034E-2,4.4066235E-2,-2.4690682E-2,-3.4914594E-2,1.5228211E-2],"categories":[],"categories_nodes":[],"categories_segments":[],"categories_sizes":[],"default_left":[0,0,0,0,0,0,0,0,0,0,0,0,0,0,0,0,0,0,0,0,0,0,0,0,0,0,0,0,0,0,0],"id":7,"left_children":[1,3,5,7,9,11,13,15,17,19,21,23,25,27,29,-1,-1,-1,-1,-1,-1,-1,-1,-1,-1,-1,-1,-1,-1,-1,-1],"loss_changes":[1.1713791E1,7.6827292E0,8.295511E0,7.564637E0,6.6552567E0,4.4990463E0,7.8596983E0,5.153325E0,5.5018315E0,8.268579E0,7.4261894E0,4.0098553E0,1.6752446E0,5.408526E0,2.4112737E0,0E0,0E0,0E0,0E0,0E0,0E0,0E0,0E0,0E0,0E0,0E0,0E0,0E0,0E0,0E0,0E0],"parents":[2147483647,0,0,1,1,2,2,3,3,4,4,5,5,6,6,7,7,8,8,9,9,10,10,11,11,12,12,13,13,14,14],"right_children":[2,4,6,8,10,12,14,16,18,20,22,24,26,28,30,-1,-1,-1,-1,-1,-1,-1,-1,-1,-1,-1,-1,-1,-1,-1,-1],"split_conditions":[7.340122E-3,1.4609716E1,6.646458E-4,2.0484186E1,2.54288E-5,1E0,9.751647E-1,1.9815129E-1,2.1651258E1,8.5187284E-4,9.590148E1,-1.2986365E-3,-7.731941E-5,3.3100548E-3,5.289664E-3,3.468519E-2,-1.0859799E-3,-3.4270417E-2,6.570303E-3,6.4332895E-3,-6.0508614E-3,-2.7244373E-3,-3.177255E-2,1.5497796E-2,-3.465894E-2,-1.0094082E-2,5.560034E-2,4.4066235E-2,-2.4690682E-2,-3.4914594E-2,1.5228211E-2],"split_indices":[4,13,0,12,0,14,10,10,12,9,13,1,1,9,1,0,0,0,0,0,0,0,0,0,0,0,0,0,0,0,0],"split_type":[0,0,0,0,0,0,0,0,0,0,0,0,0,0,0,0,0,0,0,0,0,0,0,0,0,0,0,0,0,0,0],"sum_hessian":[1.6996876E3,1.6144902E3,8.519744E1,2.0992589E2,1.4045643E3,5.8962654E1,2.6234789E1,5.3602867E1,1.5632303E2,6.922922E2,7.1227216E2,5.646364E1,2.4990184E0,1.4492923E1,1.1741866E1,4.0374985E1,1.3227883E1,7.74005E0,1.4858298E2,5.146033E2,1.776889E2,6.9052985E2,2.174233E1,3.7488818E0,5.2714756E1,1.2490485E0,1.24997E0,1.1494356E1,2.9985666E0,9.243085E0,2.4987814E0],"tree_param":{"num_deleted":"0","num_feature":"18","num_nodes":"31","size_leaf_vector":"1"}},{"base_weights":[-3.1923014E-3,1.4253336E-2,-3.3159736E-1,1.7498806E-1,-1.5023539E-2,-5.811557E-1,2.5141016E-3,4.6127144E-2,3.4253547E-1,-3.8663352E-1,-1.2307431E-3,7.753359E-2,-7.0612335E-1,6.292942E-1,-2.6211235E-1,-1.6663052E-2,9.012106E-3,2.1195395E-2,-1.6512183E-2,1.7775683E-2,-3.0222157E-2,5.3648287E-3,-2.0411944E-3,-3.1949334E-2,6.0133707E-2,-4.817569E-2,-1.5369611E-2,-1.9270321E-2,4.961898E-2,-7.7278055E-5,-5.6912035E-2],"categories":[],"categories_nodes":[],"categories_segments":[],"categories_sizes":[],"default_left":[0,0,0,0,0,0,0,0,0,0,0,0,0,0,0,0,0,0,0,0,0,0,0,0,0,0,0,0,0,0,0],"id":8,"left_children":[1,3,5,7,9,11,13,15,17,19,21,23,25,27,29,-1,-1,-1,-1,-1,-1,-1,-1,-1,-1,-1,-1,-1,-1,-1,-1],"loss_changes":[9.755557E0,7.612164E0,7.163143E0,5.3652244E0,7.015454E0,4.102295E0,6.421323E0,7.2871394E0,6.0632772E0,8.133005E0,5.6799192E0,7.8164234E0,3.9556866E0,4.616321E0,6.2142158E0,0E0,0E0,0E0,0E0,0E0,0E0,0E0,0E0,0E0,0E0,0E0,0E0,0E0,0E0,0E0,0E0],"parents":[2147483647,0,0,1,1,2,2,3,3,4,4,5,5,6,6,7,7,8,8,9,9,10,10,11,11,12,12,13,13,14,14],"right_children":[2,4,6,8,10,12,14,16,18,20,22,24,26,28,30,-1,-1,-1,-1,-1,-1,-1,-1,-1,-1,-1,-1,-1,-1,-1,-1],"split_conditions":[7.340122E-3,1.6471397E1,1.8510082E-3,-4.184939E-4,1.8128543E-4,7.292063E1,1.0998349E-3,1.2499702E-3,1.1106782E-3,4.4358635E-1,1.1957197E-3,1.6417756E-3,5.507741E-3,9.0782484E-4,7.7217114E-3,-1.6663052E-2,9.012106E-3,2.1195395E-2,-1.6512183E-2,1.7775683E-2,-3.0222157E-2,5.3648287E-3,-2.0411944E-3,-3.1949334E-2,6.0133707E-2,-4.817569E-2,-1.5369611E-2,-1.9270321E-2,4.961898E-2,-7.7278055E-5,-5.6912035E-2],"split_indices":[4,13,11,9,5,13,6,11,9,10,11,11,3,6,3,0,0,0,0,0,0,0,0,0,0,0,0,0,0,0,0],"split_type":[0,0,0,0,0,0,0,0,0,0,0,0,0,0,0,0,0,0,0,0,0,0,0,0,0,0,0,0,0,0,0],"sum_hessian":[1.7009426E3,1.6160509E3,8.489177E1,2.4823332E2,1.3678175E3,4.817153E1,3.6720238E1,1.4103694E2,1.0719637E2,4.7984055E1,1.3198335E3,7.7423134E0,4.042922E1,1.0491821E1,2.6228416E1,3.6447716E1,1.04589226E2,9.595996E1,1.1236416E1,1.0743907E1,3.7240147E1,3.5233926E2,9.6749426E2,4.9940495E0,2.748264E0,2.3708422E1,1.6720798E1,2.7486894E0,7.743132E0,2.0988155E1,5.240262E0],"tree_param":{"num_deleted":"0","num_feature":"18","num_nodes":"31","size_leaf_vector":"1"}},{"base_weights":[8.3195865E-3,4.3779366E-2,-1.782588E-1,2.084003E-1,2.4079548E-2,5.939838E-2,-1.9669862E-1,4.5631144E-2,3.865426E-1,1.1303322E-3,2.0066719E-1,-3.7998715E-1,-6.9383524E-2,2.2046573E-2,-1.165651E-2,-2.9904632E-2,2.4002392E-2,-1.0392935E-2,1.664766E-3,5.1675256E-2,7.0140557E-3,-2.5789771E-2,-2.244716E-3,-1.0505694E-2,7.41272E-3],"categories":[],"categories_nodes":[],"categories_segments":[],"categories_sizes":[],"default_left":[0,0,0,0,0,0,0,0,0,0,0,0,0,0,0,0,0,0,0,0,0,0,0,0,0],"id":9,"left_children":[1,3,5,7,9,-1,11,13,15,17,19,21,23,-1,-1,-1,-1,-1,-1,-1,-1,-1,-1,-1,-1],"loss_changes":[1.1217057E1,4.61459E0,7.0552254E0,4.393109E0,5.160164E0,0E0,6.2280874E0,8.986813E0,6.9615345E0,7.588958E0,7.220137E0,4.966317E0,4.912856E0,0E0,0E0,0E0,0E0,0E0,0E0,0E0,0E0,0E0,0E0,0E0,0E0],"parents":[2147483647,0,0,1,1,2,2,3,3,4,4,6,6,7,7,8,8,9,9,10,10,11,11,12,12],"right_children":[2,4,6,8,10,-1,12,14,16,18,20,22,24,-1,-1,-1,-1,-1,-1,-1,-1,-1,-1,-1,-1],"split_conditions":[6.386115E1,1.1874043E1,4.9201553E1,-4.32495E-3,8.113427E1,5.939838E-2,6.7333796E-4,-3.7404778E-4,-2.7513911E-3,-8.2953775E-4,-8.8941125E-4,9.107068E1,1.347859E-3,2.2046573E-2,-1.165651E-2,-2.9904632E-2,2.4002392E-2,-1.0392935E-2,1.664766E-3,5.1675256E-2,7.0140557E-3,-2.5789771E-2,-2.244716E-3,-1.0505694E-2,7.41272E-3],"split_indices":[7,13,13,4,13,0,1,0,1,0,0,13,9,0,0,0,0,0,0,0,0,0,0,0,0],"split_type":[0,0,0,0,0,0,0,0,0,0,0,0,0,0,0,0,0,0,0,0,0,0,0,0,0],"sum_hessian":[1.6932571E3,1.423485E3,2.6977222E2,1.5111534E2,1.2723696E3,2.74797E0,2.6702423E2,7.9621284E1,7.149406E1,1.126922E3,1.4544765E2,1.086386E2,1.5838564E2,3.2687164E1,4.693412E1,5.732538E0,6.576152E1,1.4957967E2,9.773423E2,8.74349E0,1.3670416E2,7.69234E1,3.1715206E1,9.620897E1,6.217666E1],"tree_param":{"num_deleted":"0","num_feature":"18","num_nodes":"25","size_leaf_vector":"1"}},{"base_weights":[1.3997933E-2,8.272526E-2,-5.7725243E-2,2.590934E-1,4.4586133E-2,-4.2429242E-2,-5.956527E-1,5.728038E-1,1.3989945E-1,-1.2343939E-1,9.974442E-2,-1.876587E-1,1.3164346E-3,-8.2227266E-1,5.839738E-1,3.623369E-2,-6.670254E-3,-3.0549118E-2,1.0768118E-2,-2.2660485E-2,-6.19311E-4,1.3442521E-2,3.6184484E-4,-1.3573009E-2,3.172184E-2,1.0729142E-2,-2.3009926E-3,-1.6769556E-2,-5.747972E-2,4.5116894E-2,6.729777E-6],"categories":[],"categories_nodes":[],"categories_segments":[],"categories_sizes":[],"default_left":[0,0,0,0,0,0,0,0,0,0,0,0,0,0,0,0,0,0,0,0,0,0,0,0,0,0,0,0,0,0,0],"id":10,"left_children":[1,3,5,7,9,11,13,15,17,19,21,23,25,27,29,-1,-1,-1,-1,-1,-1,-1,-1,-1,-1,-1,-1,-1,-1,-1,-1],"loss_changes":[8.306158E0,5.776015E0,6.76019E0,5.63237E0,6.579964E0,5.1014614E0,6.555023E0,4.57341E0,6.479705E0,6.424543E0,8.352599E0,1.2977957E1,6.249361E0,2.7185144E0,7.8924847E-1,0E0,0E0,0E0,0E0,0E0,0E0,0E0,0E0,0E0,0E0,0E0,0E0,0E0,0E0,0E0,0E0],"parents":[2147483647,0,0,1,1,2,2,3,3,4,4,5,5,6,6,7,7,8,8,9,9,10,10,11,11,12,12,13,13,14,14],"right_children":[2,4,6,8,10,12,14,16,18,20,22,24,26,28,30,-1,-1,-1,-1,-1,-1,-1,-1,-1,-1,-1,-1,-1,-1,-1,-1],"split_conditions":[3.7461832E-5,1.6471397E1,9.6216095E1,2.0484186E1,2.744149E-1,6.0287165E-4,1.8510082E-3,1.9492103E-1,-4.4158865E-3,1.7190538E1,2.3045563E-4,9.022036E1,1.2538274E-3,4.04737E-4,7.626306E1,3.623369E-2,-6.670254E-3,-3.0549118E-2,1.0768118E-2,-2.2660485E-2,-6.19311E-4,1.3442521E-2,3.6184484E-4,-1.3573009E-2,3.172184E-2,1.0729142E-2,-2.3009926E-3,-1.6769556E-2,-5.747972E-2,4.5116894E-2,6.729777E-6],"split_indices":[0,13,13,12,10,6,11,10,1,12,8,13,11,0,7,0,0,0,0,0,0,0,0,0,0,0,0,0,0,0,0],"split_type":[0,0,0,0,0,0,0,0,0,0,0,0,0,0,0,0,0,0,0,0,0,0,0,0,0,0,0,0,0,0,0],"sum_hessian":[1.6830751E3,8.594094E2,8.2366565E2,1.5177188E2,7.076376E2,8.019413E2,2.1724377E1,4.0740364E1,1.1103151E2,1.7458162E2,5.3305597E2,1.8487909E2,6.170622E2,1.847756E1,3.2468157E0,3.3508274E1,7.2320914E0,9.491488E0,1.0154002E2,4.3204792E1,1.3137683E2,1.8781651E2,3.4523944E2,1.6838438E2,1.6494705E1,1.1144238E2,5.056198E2,8.242193E0,1.0235367E1,1.748076E0,1.4987397E0],"tree_param":{"num_deleted":"0","num_feature":"18","num_nodes":"31","size_leaf_vector":"1"}},{"base_weights":[-3.0488844E-3,1.4413317E-1,-3.468483E-2,2.2443378E-1,-1.3918303E-1,-3.5917553E-1,-1.9926578E-2,1.8002407E-1,8.6038315E-1,-6.708504E-1,-2.5042143E-2,-6.196739E-1,9.265627E-2,-7.458558E-3,-3.631499E-1,1.8602103E-3,1.7518286E-2,5.567461E-2,6.556216E-3,6.591922E-3,-6.423995E-2,-2.7257789E-2,7.6475586E-3,-1.0126591E-2,-4.9280737E-2,-6.7497427E-3,6.996034E-2,5.9460774E-3,-1.8476222E-3,-2.1923346E-2,3.8962204E-2],"categories":[],"categories_nodes":[],"categories_segments":[],"categories_sizes":[],"default_left":[0,0,0,0,0,0,0,0,0,0,0,0,0,0,0,0,0,0,0,0,0,0,0,0,0,0,0,0,0,0,0],"id":11,"left_children":[1,3,5,7,9,11,13,15,17,19,21,23,25,27,29,-1,-1,-1,-1,-1,-1,-1,-1,-1,-1,-1,-1,-1,-1,-1,-1],"loss_changes":[7.8709226E0,6.8351016E0,6.6554856E0,6.436944E0,4.0285997E0,7.1742344E0,5.6964765E0,5.3253455E0,2.617279E0,5.956545E0,5.26019E0,5.6748E0,7.024573E0,4.7983894E0,4.356591E0,0E0,0E0,0E0,0E0,0E0,0E0,0E0,0E0,0E0,0E0,0E0,0E0,0E0,0E0,0E0,0E0],"parents":[2147483647,0,0,1,1,2,2,3,3,4,4,5,5,6,6,7,7,8,8,9,9,10,10,11,11,12,12,13,13,14,14],"right_children":[2,4,6,8,10,12,14,16,18,20,22,24,26,28,30,-1,-1,-1,-1,-1,-1,-1,-1,-1,-1,-1,-1,-1,-1,-1,-1],"split_conditions":[1.891193E1,-9.2300455E-5,2.2228882E1,-2.0262756E-4,1.0984909E-3,1.5795529E-3,9.554995E1,-4.184939E-4,7.866203E-5,3.125126E-4,1.2786964E-5,1.2925105E-3,6.7769644E-5,1.1033096E-3,1.2784782E-3,1.8602103E-3,1.7518286E-2,5.567461E-2,6.556216E-3,6.591922E-3,-6.423995E-2,-2.7257789E-2,7.6475586E-3,-1.0126591E-2,-4.9280737E-2,-6.7497427E-3,6.996034E-2,5.9460774E-3,-1.8476222E-3,-2.1923346E-2,3.8962204E-2],"split_indices":[13,1,13,1,11,11,13,9,9,5,0,11,2,11,6,0,0,0,0,0,0,0,0,0,0,0,0,0,0,0,0],"split_type":[0,0,0,0,0,0,0,0,0,0,0,0,0,0,0,0,0,0,0,0,0,0,0,0,0,0,0,0,0,0,0],"sum_hessian":[1.6883282E3,2.9806485E2,1.3902633E3,2.3240259E2,6.566228E1,5.9465E1,1.3307983E3,2.1843208E2,1.3970504E1,1.0743192E1,5.491909E1,3.748309E1,2.198191E1,1.2851359E3,4.5662453E1,1.1947709E2,9.895499E1,9.979846E0,3.990658E0,4.996252E0,5.746939E0,1.3476542E1,4.1442547E1,1.8242083E1,1.9241005E1,1.948377E1,2.4981403E0,2.4259482E2,1.042541E3,4.3416245E1,2.2462091E0],"tree_param":{"num_deleted":"0","num_feature":"18","num_nodes":"31","size_leaf_vector":"1"}},{"base_weights":[7.2048865E-3,5.5788178E-2,-7.987721E-2,1.864056E-2,2.928311E-1,-1.6459133E-1,1.4355974E-1,2.43985E-2,-6.572279E-1,1.4267068E-1,8.045427E-1,-5.261788E-1,-1.172912E-1,3.7312472E-1,-7.015798E-2,-2.1568562E-3,4.141561E-3,2.6435738E-3,-7.377336E-2,1.4033496E-2,-1.38711175E-2,1.9707272E-2,5.812052E-2,-6.567223E-2,-1.7962232E-2,1.0465259E-2,-8.736345E-3,2.1858595E-2,-4.8500318E-2,5.3403147E-2,-7.0458497E-3],"categories":[],"categories_nodes":[],"categories_segments":[],"categories_sizes":[],"default_left":[0,0,0,0,0,0,0,0,0,0,0,0,0,0,0,0,0,0,0,0,0,0,0,0,0,0,0,0,0,0,0],"id":12,"left_children":[1,3,5,7,9,11,13,15,17,19,21,23,25,27,29,-1,-1,-1,-1,-1,-1,-1,-1,-1,-1,-1,-1,-1,-1,-1,-1],"loss_changes":[7.1761494E0,9.581009E0,1.1521795E1,3.6829178E0,1.1213386E1,7.4795427E0,8.245631E0,3.694373E0,4.7235546E0,6.7560654E0,4.42251E0,6.193824E0,7.3749814E0,7.3859177E0,7.20593E0,0E0,0E0,0E0,0E0,0E0,0E0,0E0,0E0,0E0,0E0,0E0,0E0,0E0,0E0,0E0,0E0],"parents":[2147483647,0,0,1,1,2,2,3,3,4,4,5,5,6,6,7,7,8,8,9,9,10,10,11,11,12,12,13,13,14,14],"right_children":[2,4,6,8,10,12,14,16,18,20,22,24,26,28,30,-1,-1,-1,-1,-1,-1,-1,-1,-1,-1,-1,-1,-1,-1,-1,-1],"split_conditions":[6.827314E1,8.4411015E-4,8.9561806E1,7.9443475E-4,1.1804433E-3,2.6775594E-4,9.317121E1,5.5885396E-4,5.7291025E-1,2.106277E-3,-2.5881904E-1,7.13115E1,3.813193E-4,1.5526597E-3,-4.3565664E-4,-2.1568562E-3,4.141561E-3,2.6435738E-3,-7.377336E-2,1.4033496E-2,-1.38711175E-2,1.9707272E-2,5.812052E-2,-6.567223E-2,-1.7962232E-2,1.0465259E-2,-8.736345E-3,2.1858595E-2,-4.8500318E-2,5.3403147E-2,-7.0458497E-3],"split_indices":[13,3,13,3,9,5,13,5,10,3,15,13,5,5,0,0,0,0,0,0,0,0,0,0,0,0,0,0,0,0,0],"split_type":[0,0,0,0,0,0,0,0,0,0,0,0,0,0,0,0,0,0,0,0,0,0,0,0,0,0,0,0,0,0,0],"sum_hessian":[1.6941412E3,1.087681E3,6.064602E2,9.4125336E2,1.4642764E2,4.3992862E2,1.665316E2,9.3425806E2,6.9953437E0,1.1419596E2,3.223169E1,4.971978E1,3.9020883E2,7.992947E1,8.660214E1,4.3349414E2,5.007639E2,4.2459393E0,2.7494044E0,8.620859E1,2.7987371E1,1.599278E1,1.623891E1,7.4967704E0,4.2223007E1,5.796404E1,3.3224478E2,7.693532E1,2.9941468E0,4.243725E0,8.235841E1],"tree_param":{"num_deleted":"0","num_feature":"18","num_nodes":"31","size_leaf_vector":"1"}},{"base_weights":[-8.454919E-3,3.0403057E-1,-2.1321379E-2,3.6747897E-1,-5.2892502E-2,-1.4396301E-1,1.0632742E-2,6.869682E-2,2.7903143E-1,2.3861499E-1,-2.0694369E-1,6.968315E-2,-7.127446E-2,-4.218128E-2,1.8629087E-2,1.9584311E-2,-2.1439819E-2,-5.535368E-2,-8.916448E-3,1.6355388E-3,1.8656557E-2,-1.0424791E-2,7.0620654E-4],"categories":[],"categories_nodes":[],"categories_segments":[],"categories_sizes":[],"default_left":[0,0,0,0,0,0,0,0,0,0,0,0,0,0,0,0,0,0,0,0,0,0,0],"id":13,"left_children":[1,3,5,7,-1,9,11,-1,13,15,17,19,21,-1,-1,-1,-1,-1,-1,-1,-1,-1,-1],"loss_changes":[6.8305707E0,6.1943054E0,6.393663E0,5.397353E0,0E0,8.174435E0,6.2679143E0,0E0,6.7153144E0,5.0849514E0,7.2741394E0,8.43515E0,6.365567E0,0E0,0E0,0E0,0E0,0E0,0E0,0E0,0E0,0E0,0E0],"parents":[2147483647,0,0,1,1,2,2,3,3,5,5,6,6,8,8,9,9,10,10,11,11,12,12],"right_children":[2,4,6,8,-1,10,12,-1,14,16,18,20,22,-1,-1,-1,-1,-1,-1,-1,-1,-1,-1],"split_conditions":[1.1866244E1,3.399788E-3,1.782062E1,-4.3983595E-4,-5.2892502E-2,1.891193E1,6.3427013E1,6.869682E-2,-2.3388814E-3,-1.1573505E-3,-2.5612083E-3,8.4411015E-4,7.878618E1,-4.218128E-2,1.8629087E-2,1.9584311E-2,-2.1439819E-2,-5.535368E-2,-8.916448E-3,1.6355388E-3,1.8656557E-2,-1.0424791E-2,7.0620654E-4],"split_indices":[12,4,12,8,0,13,13,0,4,3,2,3,13,0,0,0,0,0,0,0,0,0,0],"split_type":[0,0,0,0,0,0,0,0,0,0,0,0,0,0,0,0,0,0,0,0,0,0,0],"sum_hessian":[1.6962885E3,6.618698E1,1.6301014E3,6.393834E1,2.2486422E0,3.362088E2,1.2938927E3,3.9909391E0,5.99474E1,4.7129658E1,2.8907913E2,7.5193774E2,5.419549E2,3.9944034E0,5.5952995E1,3.8673084E1,8.456572E0,7.745364E0,2.8133377E2,6.712588E2,8.067897E1,2.0734479E2,3.3461008E2],"tree_param":{"num_deleted":"0","num_feature":"18","num_nodes":"23","size_leaf_vector":"1"}},{"base_weights":[-3.2136536E-3,2.0637484E-1,-1.9739289E-2,3.6101875E-1,-1.7025301E-1,1.369022E-1,-4.1426327E-2,3.0342314E-1,6.374451E-2,-3.9108983E-1,5.6654793E-1,-2.0353091E-1,2.6918864E-1,-1.2756523E-2,-1.9353268E-1,1.7569616E-2,-3.480651E-2,8.751034E-3,-2.8022572E-2,-4.5958254E-3,5.5551916E-2,-4.6049547E-3,-6.480385E-2,5.2040424E-2,8.579213E-3,-3.7622562E-4,-4.134416E-2,-1.3877924E-2,5.490001E-3],"categories":[],"categories_nodes":[],"categories_segments":[],"categories_sizes":[],"default_left":[0,0,0,0,0,0,0,0,0,0,0,0,0,0,0,0,0,0,0,0,0,0,0,0,0,0,0,0,0],"id":14,"left_children":[1,3,5,7,9,11,13,15,-1,17,19,21,23,25,27,-1,-1,-1,-1,-1,-1,-1,-1,-1,-1,-1,-1,-1,-1],"loss_changes":[5.9316487E0,7.3515086E0,5.397649E0,4.3004484E0,6.260338E0,8.758207E0,6.0808153E0,4.3242598E0,0E0,2.8925505E0,3.3169942E0,6.5341682E0,1.0335829E1,4.9979095E0,5.667412E0,0E0,0E0,0E0,0E0,0E0,0E0,0E0,0E0,0E0,0E0,0E0,0E0,0E0,0E0],"parents":[2147483647,0,0,1,1,2,2,3,3,4,4,5,5,6,6,7,7,9,9,10,10,11,11,12,12,13,13,14,14],"right_children":[2,4,6,8,10,12,14,16,-1,18,20,22,24,26,28,-1,-1,-1,-1,-1,-1,-1,-1,-1,-1,-1,-1,-1,-1],"split_conditions":[1.0450644E1,8.4495207E-4,-8.660254E-1,1.4322926E-3,9.044298E0,4.498508E1,6.421876E1,4.4339146E1,6.374451E-2,4.5756507E0,-2.5881904E-1,-8.041924E-4,4.753343E1,3.0952475E-3,8.660254E-1,1.7569616E-2,-3.480651E-2,8.751034E-3,-2.8022572E-2,-4.5958254E-3,5.5551916E-2,-4.6049547E-3,-6.480385E-2,5.2040424E-2,8.579213E-3,-3.7622562E-4,-4.134416E-2,-1.3877924E-2,5.490001E-3],"split_indices":[13,5,14,4,13,7,7,7,0,13,14,4,7,11,14,0,0,0,0,0,0,0,0,0,0,0,0,0,0],"split_type":[0,0,0,0,0,0,0,0,0,0,0,0,0,0,0,0,0,0,0,0,0,0,0,0,0,0,0,0,0],"sum_hessian":[1.7103998E3,1.2416559E2,1.5862341E3,8.805254E1,3.611305E1,1.9226036E2,1.3939738E3,8.40852E1,3.9673452E0,2.8146175E1,7.9668746E0,5.3651672E1,1.3860869E2,1.1738115E3,2.2016231E2,8.085344E1,3.2317572E0,6.4736958E0,2.167248E1,3.9822447E0,3.9846299E0,4.966999E1,3.9816828E0,1.4479134E1,1.2412955E2,1.1673188E3,6.492569E0,1.7247124E2,4.769107E1],"tree_param":{"num_deleted":"0","num_feature":"18","num_nodes":"29","size_leaf_vector":"1"}},{"base_weights":[-2.5853133E-3,5.5153403E-2,-6.113659E-2,6.919758E-2,-6.5989083E-1,-7.764123E-1,-5.178027E-2,4.7251737E-1,5.438201E-2,-1.2092897E0,1.1619112E-1,2.5957553E-2,-1.0859563E0,-1.3674134E-1,1.24854E-2,1.4212757E-2,5.637136E-2,-3.7226006E-2,3.3436671E-3,1.22024175E-2,-7.257697E-2,-3.28054E-2,3.3683013E-2,-6.0001094E-2,-1.0502978E-2,-4.3013897E-3,-2.7426133E-2,1.4409813E-2,-1.978074E-3],"categories":[],"categories_nodes":[],"categories_segments":[],"categories_sizes":[],"default_left":[0,0,0,0,0,0,0,0,0,0,0,0,0,0,0,0,0,0,0,0,0,0,0,0,0,0,0,0,0],"id":15,"left_children":[1,3,5,7,9,11,13,15,17,19,21,-1,23,25,27,-1,-1,-1,-1,-1,-1,-1,-1,-1,-1,-1,-1,-1,-1],"loss_changes":[5.7031484E0,8.575616E0,5.565159E0,4.957518E0,7.157336E0,4.8721614E0,4.5217495E0,3.306727E0,8.088493E0,3.777526E0,3.7715304E0,0E0,6.465931E-1,7.3995895E0,6.787956E0,0E0,0E0,0E0,0E0,0E0,0E0,0E0,0E0,0E0,0E0,0E0,0E0,0E0,0E0],"parents":[2147483647,0,0,1,1,2,2,3,3,4,4,5,5,6,6,7,7,8,8,9,9,10,10,12,12,13,13,14,14],"right_children":[2,4,6,8,10,12,14,16,18,20,22,-1,24,26,28,-1,-1,-1,-1,-1,-1,-1,-1,-1,-1,-1,-1,-1,-1],"split_conditions":[2.54288E-5,2.8257514E-3,3.8434402E-4,-4.7913687E-3,9.811719E-3,1.2111422E-4,3.5259713E-4,-5.233067E-3,-3.6529347E-3,6.5021276E-1,-5E-1,2.5957553E-2,7.129575E1,1.4990652E-3,-2.5499242E-4,1.4212757E-2,5.637136E-2,-3.7226006E-2,3.3436671E-3,1.22024175E-2,-7.257697E-2,-3.28054E-2,3.3683013E-2,-6.0001094E-2,-1.0502978E-2,-4.3013897E-3,-2.7426133E-2,1.4409813E-2,-1.978074E-3],"split_indices":[0,8,6,2,4,8,0,2,1,10,14,0,7,8,1,0,0,0,0,0,0,0,0,0,0,0,0,0,0],"split_type":[0,0,0,0,0,0,0,0,0,0,0,0,0,0,0,0,0,0,0,0,0,0,0,0,0,0,0,0,0],"sum_hessian":[1.6849874E3,8.484098E2,8.365777E2,8.32953E2,1.54568E1,9.743198E0,8.2683453E2,2.8418966E1,8.04534E2,8.723277E0,6.7335234E0,1.7483823E0,7.994816E0,3.5559714E2,4.712374E2,2.318747E1,5.231498E0,1.14835415E1,7.930505E2,1.24524E0,7.4780374E0,2.748669E0,3.9848547E0,6.7462244E0,1.2485912E0,3.1768152E2,3.7915623E1,7.411048E1,3.971269E2],"tree_param":{"num_deleted":"0","num_feature":"18","num_nodes":"29","size_leaf_vector":"1"}},{"base_weights":[1.3586555E-2,2.8662756E-1,-7.158938E-3,-3.8886294E-1,4.059295E-1,-5.700096E-2,8.05745E-2,-6.4811224E-1,8.077246E-1,5.804864E-1,8.767322E-3,-4.7484064E-1,-3.6885664E-2,9.784447E-2,-5.050904E-1,1.6155066E-2,-3.8645957E-2,5.3979136E-2,7.3441276E-3,4.2003047E-2,1.480605E-2,4.6986368E-2,-1.2025078E-2,-7.95133E-3,-5.354899E-2,-1.4800817E-3,-6.2020686E-2,-1.2306145E-2,6.1801295E-3,-1.0755303E-2,-7.161428E-2],"categories":[],"categories_nodes":[],"categories_segments":[],"categories_sizes":[],"default_left":[0,0,0,0,0,0,0,0,0,0,0,0,0,0,0,0,0,0,0,0,0,0,0,0,0,0,0,0,0,0,0],"id":16,"left_children":[1,3,5,7,9,11,13,15,17,19,21,23,25,27,29,-1,-1,-1,-1,-1,-1,-1,-1,-1,-1,-1,-1,-1,-1,-1,-1],"loss_changes":[9.569299E0,9.7713785E0,6.8730955E0,6.236779E0,7.0577126E0,8.406428E0,5.809291E0,2.1518664E0,5.1061535E-1,4.9740276E0,7.6797686E0,8.48056E0,8.355556E0,4.9388137E0,4.1212378E0,0E0,0E0,0E0,0E0,0E0,0E0,0E0,0E0,0E0,0E0,0E0,0E0,0E0,0E0,0E0,0E0],"parents":[2147483647,0,0,1,1,2,2,3,3,4,4,5,5,6,6,7,7,8,8,9,9,10,10,11,11,12,12,13,13,14,14],"right_children":[2,4,6,8,10,12,14,16,18,20,22,24,26,28,30,-1,-1,-1,-1,-1,-1,-1,-1,-1,-1,-1,-1,-1,-1,-1,-1],"split_conditions":[1.0450644E1,-8.660254E-1,7.423044E-4,-2.63562E-3,7.086542E-4,-1.7803455E-3,2.6271131E-3,-1.4757434E-3,-1.1112707E-3,7.0710677E-1,-1.1380998E-2,2.2753705E-4,3.0583902E-3,-2.8949594E-3,-1.8369701E-16,1.6155066E-2,-3.8645957E-2,5.3979136E-2,7.3441276E-3,4.2003047E-2,1.480605E-2,4.6986368E-2,-1.2025078E-2,-7.95133E-3,-5.354899E-2,-1.4800817E-3,-6.2020686E-2,-1.2306145E-2,6.1801295E-3,-1.0755303E-2,-7.161428E-2],"split_indices":[13,14,5,4,5,8,0,0,1,15,4,0,1,1,15,0,0,0,0,0,0,0,0,0,0,0,0,0,0,0,0],"split_type":[0,0,0,0,0,0,0,0,0,0,0,0,0,0,0,0,0,0,0,0,0,0,0,0,0,0,0,0,0,0,0],"sum_hessian":[1.6880222E3,1.1829328E2,1.5697289E3,1.7417202E1,1.0087608E2,1.0012574E3,5.684715E2,1.4692362E1,2.7248402E0,6.975601E1,3.1120071E1,4.4949512E1,9.5630786E2,5.5299774E2,1.5473752E1,1.4921373E0,1.3200225E1,1.4816642E0,1.243176E0,3.5446007E1,3.431E1,5.987658E0,2.5132414E1,3.0211344E1,1.473817E1,9.515733E2,4.734548E0,3.7930344E1,5.1506744E2,1.2725723E1,2.748029E0],"tree_param":{"num_deleted":"0","num_feature":"18","num_nodes":"31","size_leaf_vector":"1"}},{"base_weights":[3.693431E-3,1.07207475E-2,-4.0910566E-1,3.7374415E-2,-8.453434E-2,3.5707682E-1,-5.997792E-1,-1.5467633E-2,1.23952985E-1,-1.6747828E-1,9.964899E-2,-1.9893264E-2,8.0500567E-1,-7.320973E-1,3.4705874E-1,4.2772048E-5,-3.410368E-2,-6.079536E-3,9.275958E-3,-1.1462015E-2,1.4050853E-2,-3.055392E-2,9.897178E-3,-1.0934913E-2,6.522655E-2,-9.893001E-3,-4.827882E-2,3.608037E-2,-9.115717E-3],"categories":[],"categories_nodes":[],"categories_segments":[],"categories_sizes":[],"default_left":[0,0,0,0,0,0,0,0,0,0,0,0,0,0,0,0,0,0,0,0,0,0,0,0,0,0,0,0,0],"id":17,"left_children":[1,3,5,7,9,11,13,15,17,19,21,-1,23,25,27,-1,-1,-1,-1,-1,-1,-1,-1,-1,-1,-1,-1,-1,-1],"loss_changes":[4.8825836E0,4.203661E0,4.3300905E0,5.9193344E0,5.5474005E0,2.4307528E0,3.127182E0,8.749962E0,7.4350467E0,6.989202E0,8.017927E0,0E0,2.457448E0,2.3588066E0,8.235903E-1,0E0,0E0,0E0,0E0,0E0,0E0,0E0,0E0,0E0,0E0,0E0,0E0,0E0,0E0],"parents":[2147483647,0,0,1,1,2,2,3,3,4,4,5,5,6,6,7,7,8,8,9,9,10,10,12,12,13,13,14,14],"right_children":[2,4,6,8,10,12,14,16,18,20,22,-1,24,26,28,-1,-1,-1,-1,-1,-1,-1,-1,-1,-1,-1,-1,-1,-1],"split_conditions":[5.467144E1,1.3881251E-3,-8.829953E-3,0E0,8.9561806E1,-6.2927376E-3,6.6154553E-3,8.309753E1,-8.6618867E-4,2.1886027E-3,3.7346053E-4,-1.9893264E-2,4.3337487E-4,4.5631907E-4,2.4069508E-4,4.2772048E-5,-3.410368E-2,-6.079536E-3,9.275958E-3,-1.1462015E-2,1.4050853E-2,-3.055392E-2,9.897178E-3,-1.0934913E-2,6.522655E-2,-9.893001E-3,-4.827882E-2,3.608037E-2,-9.115717E-3],"split_indices":[12,2,4,2,13,3,3,13,3,11,5,0,5,5,0,0,0,0,0,0,0,0,0,0,0,0,0,0,0],"split_type":[0,0,0,0,0,0,0,0,0,0,0,0,0,0,0,0,0,0,0,0,0,0,0,0,0,0,0,0,0],"sum_hessian":[1.6806327E3,1.653459E3,2.7173754E1,1.2924277E3,3.610312E2,5.24103E0,2.1932724E1,8.030926E2,4.8933524E2,2.489923E2,1.1203889E2,1.9932911E0,3.247739E0,1.9442484E1,2.4902399E0,7.8487225E2,1.8220324E1,9.790135E1,3.9143387E2,2.1928374E2,2.9708565E1,1.2978671E1,9.906022E1,1.2494212E0,1.9983178E0,6.4747233E0,1.2967761E1,1.2457181E0,1.2445217E0],"tree_param":{"num_deleted":"0","num_feature":"18","num_nodes":"29","size_leaf_vector":"1"}},{"base_weights":[-2.4456613E-2,3.288575E-2,-8.276795E-2,4.947619E-2,-3.7368453E-1,-1.2204334E-1,6.424545E-2,8.100892E-1,4.2246614E-2,2.952238E-1,-5.1358974E-1,6.1434364E-1,-1.344292E-1,-2.3021972E-2,5.1730263E-1,6.2096227E-2,-8.476446E-3,5.770568E-3,-1.3321241E-3,-1.9594425E-2,4.516068E-2,-4.05545E-2,8.294176E-3,4.7319032E-2,-2.4665806E-2,-2.0277044E-2,-4.6633235E-3,6.4994367E-3,-1.7372891E-2,1.4631393E-2,5.4771103E-2],"categories":[],"categories_nodes":[],"categories_segments":[],"categories_sizes":[],"default_left":[0,0,0,0,0,0,0,0,0,0,0,0,0,0,0,0,0,0,0,0,0,0,0,0,0,0,0,0,0,0,0],"id":18,"left_children":[1,3,5,7,9,11,13,15,17,19,21,23,25,27,29,-1,-1,-1,-1,-1,-1,-1,-1,-1,-1,-1,-1,-1,-1,-1,-1],"loss_changes":[5.707073E0,5.825144E0,4.8934336E0,4.5188293E0,3.3211002E0,6.1760807E0,7.0908904E0,3.4851995E0,4.1423883E0,3.0665836E0,5.8702645E0,4.5973563E0,7.303672E0,7.5454073E0,3.4410615E0,0E0,0E0,0E0,0E0,0E0,0E0,0E0,0E0,0E0,0E0,0E0,0E0,0E0,0E0,0E0,0E0],"parents":[2147483647,0,0,1,1,2,2,3,3,4,4,5,5,6,6,7,7,8,8,9,9,10,10,11,11,12,12,13,13,14,14],"right_children":[2,4,6,8,10,12,14,16,18,20,22,24,26,28,30,-1,-1,-1,-1,-1,-1,-1,-1,-1,-1,-1,-1,-1,-1,-1,-1],"split_conditions":[2.54288E-5,2.3549115E-3,8.660254E-1,3.7100326E-4,5.5129E-1,-3.3072405E-3,1.347859E-3,7.51691E-1,4.904086E-5,-1.2029049E-3,3.2257978E-3,9.7052247E-4,-1.1524553E-3,3.5608924E-4,1.1166043E-3,6.2096227E-2,-8.476446E-3,5.770568E-3,-1.3321241E-3,-1.9594425E-2,4.516068E-2,-4.05545E-2,8.294176E-3,4.7319032E-2,-2.4665806E-2,-2.0277044E-2,-4.6633235E-3,6.4994367E-3,-1.7372891E-2,1.4631393E-2,5.4771103E-2],"split_indices":[0,9,14,6,10,9,9,10,9,1,8,0,9,9,0,0,0,0,0,0,0,0,0,0,0,0,0,0,0,0,0],"split_type":[0,0,0,0,0,0,0,0,0,0,0,0,0,0,0,0,0,0,0,0,0,0,0,0,0,0,0,0,0,0,0],"sum_hessian":[1.704995E3,8.598598E2,8.451352E2,8.26992E2,3.2867798E1,6.670888E2,1.7804639E2,6.740891E0,8.202511E2,5.4933023E0,2.7374496E1,1.0230754E1,6.5685803E2,1.5008614E2,2.7960257E1,4.492668E0,2.2482226E0,3.9745377E2,4.2279733E2,2.745709E0,2.7475936E0,1.8903912E1,8.470584E0,7.98326E0,2.2474937E0,8.541748E1,5.7144055E2,1.02394226E2,4.769191E1,2.1219778E1,6.740478E0],"tree_param":{"num_deleted":"0","num_feature":"18","num_nodes":"31","size_leaf_vector":"1"}},{"base_weights":[2.1860944E-2,3.228207E-2,-4.8285002E-1,1.1713741E-1,-2.6475955E-3,5.5071473E-2,-5.764811E-1,1.9129033E-1,-1.3952298E-1,-1.2057072E-1,2.9375417E-2,-9.3718386E-1,-2.778368E-1,8.63066E-3,5.5728156E-2,-1.5024307E-2,1.5939597E-2,4.338329E-3,-1.3418379E-2,1.2700656E-2,-1.0118061E-4,-1.0033724E-2,-5.7658117E-2,2.0769827E-2,-3.5042387E-2],"categories":[],"categories_nodes":[],"categories_segments":[],"categories_sizes":[],"default_left":[0,0,0,0,0,0,0,0,0,0,0,0,0,0,0,0,0,0,0,0,0,0,0,0,0],"id":19,"left_children":[1,3,5,7,9,-1,11,13,15,17,19,21,23,-1,-1,-1,-1,-1,-1,-1,-1,-1,-1,-1,-1],"loss_changes":[8.880235E0,4.897516E0,5.7019377E0,9.196783E0,4.427136E0,0E0,3.284604E0,6.2610645E0,8.105958E0,7.695553E0,6.5041413E0,2.072606E0,5.987258E0,0E0,0E0,0E0,0E0,0E0,0E0,0E0,0E0,0E0,0E0,0E0,0E0],"parents":[2147483647,0,0,1,1,2,2,3,3,4,4,6,6,7,7,8,8,9,9,10,10,11,11,12,12],"right_children":[2,4,6,8,10,-1,12,14,16,18,20,22,24,-1,-1,-1,-1,-1,-1,-1,-1,-1,-1,-1,-1],"split_conditions":[3.5024125E-3,-3.15558E-4,4.7417867E-1,9.3917083E-4,-1.5489688E-3,5.5071473E-2,6.495021E1,1.0952451E-3,1.8437728E-3,-3.2202424E-3,-8.660254E-1,7.2384256E-1,6.7171343E-3,8.63066E-3,5.5728156E-2,-1.5024307E-2,1.5939597E-2,4.338329E-3,-1.3418379E-2,1.2700656E-2,-1.0118061E-4,-1.0033724E-2,-5.7658117E-2,2.0769827E-2,-3.5042387E-2],"split_indices":[1,0,10,9,3,0,7,8,11,3,14,10,4,0,0,0,0,0,0,0,0,0,0,0,0],"split_type":[0,0,0,0,0,0,0,0,0,0,0,0,0,0,0,0,0,0,0,0,0,0,0,0,0],"sum_hessian":[1.6844045E3,1.6512462E3,3.3158413E1,4.8082202E2,1.1704242E3,1.2496852E0,3.1908726E1,3.7324173E2,1.0758028E2,2.4936928E2,9.210549E2,1.3484279E1,1.8424448E1,3.6700446E2,6.237268E0,7.9872795E1,2.770748E1,1.0395233E2,1.4541693E2,1.1208397E2,8.089709E2,3.495022E0,9.989256E0,6.9889345E0,1.14355135E1],"tree_param":{"num_deleted":"0","num_feature":"18","num_nodes":"25","size_leaf_vector":"1"}},{"base_weights":[-4.9321065E-3,5.204924E-2,-6.197137E-2,6.894393E-2,-3.6783847E-1,-1.0014661E-1,8.350244E-2,-6.825317E-2,1.14456564E-1,6.8656707E-1,-5.592404E-1,-2.3848352E-1,-4.367324E-2,-1.7630924E-2,5.8648765E-1,-2.37902E-2,1.4832014E-3,1.6604362E-2,3.8505557E-3,6.730322E-2,-9.26464E-3,-3.7733044E-2,5.791715E-3,-6.568708E-2,-1.0518002E-2,7.3648714E-3,-6.135563E-3,5.907172E-3,-1.9920459E-2,3.441097E-2,-3.933227E-2],"categories":[],"categories_nodes":[],"categories_segments":[],"categories_sizes":[],"default_left":[0,0,0,0,0,0,0,0,0,0,0,0,0,0,0,0,0,0,0,0,0,0,0,0,0,0,0,0,0,0,0],"id":20,"left_children":[1,3,5,7,9,11,13,15,17,19,21,23,25,27,29,-1,-1,-1,-1,-1,-1,-1,-1,-1,-1,-1,-1,-1,-1,-1,-1],"loss_changes":[5.4833584E0,6.012761E0,4.6904078E0,5.0794725E0,7.0044255E0,5.2104506E0,8.952882E0,8.1130295E0,4.94769E0,3.4054706E0,3.8229218E0,5.5751963E0,7.199464E0,7.6644435E0,4.6565113E0,0E0,0E0,0E0,0E0,0E0,0E0,0E0,0E0,0E0,0E0,0E0,0E0,0E0,0E0,0E0,0E0],"parents":[2147483647,0,0,1,1,2,2,3,3,4,4,5,5,6,6,7,7,8,8,9,9,10,10,11,11,12,12,13,13,14,14],"right_children":[2,4,6,8,10,12,14,16,18,20,22,24,26,28,30,-1,-1,-1,-1,-1,-1,-1,-1,-1,-1,-1,-1,-1,-1,-1,-1],"split_conditions":[2.54288E-5,2.3549115E-3,8.660254E-1,-7.744237E-4,5.2727914E-1,2.0937252E-4,1.2593701E-3,1.7190538E1,-1.1524553E-3,8.6580956E-4,9.811719E-3,3.8434402E-4,1.0274938E-4,4.4721796E-4,1.5414626E-3,-2.37902E-2,1.4832014E-3,1.6604362E-2,3.8505557E-3,6.730322E-2,-9.26464E-3,-3.7733044E-2,5.791715E-3,-6.568708E-2,-1.0518002E-2,7.3648714E-3,-6.135563E-3,5.907172E-3,-1.9920459E-2,3.441097E-2,-3.933227E-2],"split_indices":[0,9,14,0,10,0,9,12,9,5,4,6,1,9,6,0,0,0,0,0,0,0,0,0,0,0,0,0,0,0,0],"split_type":[0,0,0,0,0,0,0,0,0,0,0,0,0,0,0,0,0,0,0,0,0,0,0,0,0,0,0,0,0,0,0],"sum_hessian":[1.6851044E3,8.43024E2,8.4208044E2,8.1121936E2,3.1804604E1,6.6728345E2,1.7479695E2,2.0194865E2,6.092707E2,4.4888935E0,2.731571E1,1.9250388E2,4.747796E2,1.4633821E2,2.8458735E1,3.837307E1,1.6357559E2,8.828648E1,5.2098425E2,2.246035E0,2.2428584E0,2.1092085E1,6.2236247E0,3.7414627E0,1.8876242E2,1.3872656E2,3.3605304E2,1.0838207E2,3.795614E1,2.6960127E1,1.4986073E0],"tree_param":{"num_deleted":"0","num_feature":"18","num_nodes":"31","size_leaf_vector":"1"}},{"base_weights":[-1.184995E-3,3.377431E-2,-1.1217434E-1,5.1891956E-2,-1.9487268E-1,-6.2914187E-1,-8.162999E-2,3.4969248E-2,3.1815633E-1,1.0267235E0,-2.815293E-1,-1.0475908E-1,-1.2465699E0,6.919256E-2,-1.9064891E-1,1.2485931E-3,3.1564754E-2,7.185788E-3,4.4996787E-2,7.589785E-2,-2.6210852E-3,-3.1578034E-2,-2.1612735E-3,3.69792E-2,-2.5802001E-2,-2.8477699E-2,-7.948917E-2,-2.859619E-2,6.5683364E-3,-5.437332E-2,-8.361295E-3],"categories":[],"categories_nodes":[],"categories_segments":[],"categories_sizes":[],"default_left":[0,0,0,0,0,0,0,0,0,0,0,0,0,0,0,0,0,0,0,0,0,0,0,0,0,0,0,0,0,0,0],"id":21,"left_children":[1,3,5,7,9,11,13,15,17,19,21,23,25,27,29,-1,-1,-1,-1,-1,-1,-1,-1,-1,-1,-1,-1,-1,-1,-1,-1],"loss_changes":[6.5646214E0,5.3400593E0,6.3477564E0,5.3642483E0,1.0311407E1,7.140913E0,6.323721E0,6.6779985E0,7.0929585E0,3.5180893E0,7.4123516E0,4.978123E0,1.4698763E0,6.522942E0,4.503269E0,0E0,0E0,0E0,0E0,0E0,0E0,0E0,0E0,0E0,0E0,0E0,0E0,0E0,0E0,0E0,0E0],"parents":[2147483647,0,0,1,1,2,2,3,3,4,4,5,5,6,6,7,7,8,8,9,9,10,10,11,11,12,12,13,13,14,14],"right_children":[2,4,6,8,10,12,14,16,18,20,22,24,26,28,30,-1,-1,-1,-1,-1,-1,-1,-1,-1,-1,-1,-1,-1,-1,-1,-1],"split_conditions":[1.2910113E-3,6.3518272E1,3.3176193E-4,8.140501E1,6.049643E1,3.0993574E-4,1.4756165E-3,3.4426686E-3,1E0,1.3318048E-3,3.0579037E-4,1.0596787E-3,8.754129E1,5.236724E1,1.4928808E-3,1.2485931E-3,3.1564754E-2,7.185788E-3,4.4996787E-2,7.589785E-2,-2.6210852E-3,-3.1578034E-2,-2.1612735E-3,3.69792E-2,-2.5802001E-2,-2.8477699E-2,-7.948917E-2,-2.859619E-2,6.5683364E-3,-5.437332E-2,-8.361295E-3],"split_indices":[2,7,5,13,13,0,11,3,16,11,2,11,13,7,11,0,0,0,0,0,0,0,0,0,0,0,0,0,0,0,0],"split_type":[0,0,0,0,0,0,0,0,0,0,0,0,0,0,0,0,0,0,0,0,0,0,0,0,0,0,0,0,0,0,0],"sum_hessian":[1.6898882E3,1.2856357E3,4.0425247E2,1.1919597E3,9.367606E1,2.145895E1,3.8279352E2,1.1217942E3,7.016547E1,5.4863906E0,8.8189674E1,1.2236305E1,9.222646E0,1.6075786E2,2.2203564E2,1.1043221E3,1.7472054E1,5.493946E1,1.5226004E1,3.4907508E0,1.9956398E0,3.5052605E1,5.313707E1,3.7465482E0,8.489757E0,3.9972422E0,5.225404E0,1.3486941E1,1.4727092E2,4.4952364E0,2.175404E2],"tree_param":{"num_deleted":"0","num_feature":"18","num_nodes":"31","size_leaf_vector":"1"}},{"base_weights":[-4.010773E-3,6.0291443E-2,-5.9192635E-2,1.19282715E-2,2.145854E-1,-1.2002766E0,-5.0605774E-2,4.2492326E-2,-6.6606134E-1,3.037917E-1,-2.696687E-1,-1.4192889E-2,-7.629075E-2,8.193451E-1,-5.904372E-2,-2.002134E-2,3.1409704E-3,-4.083959E-2,-1.698633E-3,-4.56505E-3,2.4396813E-2,-3.3923395E-2,1.471761E-3,6.5442346E-2,-1.451196E-2,-1.7443748E-2,-1.5963573E-3],"categories":[],"categories_nodes":[],"categories_segments":[],"categories_sizes":[],"default_left":[0,0,0,0,0,0,0,0,0,0,0,0,0,0,0,0,0,0,0,0,0,0,0,0,0,0,0],"id":22,"left_children":[1,3,5,7,9,11,13,15,17,19,21,-1,-1,23,25,-1,-1,-1,-1,-1,-1,-1,-1,-1,-1,-1,-1],"loss_changes":[5.9868026E0,5.8123083E0,8.835838E0,1.23443575E1,8.112753E0,1.5769043E0,6.6712947E0,5.153824E0,2.42058E0,1.1500159E1,3.6207743E0,0E0,0E0,5.123803E0,7.0189195E0,0E0,0E0,0E0,0E0,0E0,0E0,0E0,0E0,0E0,0E0,0E0,0E0],"parents":[2147483647,0,0,1,1,2,2,3,3,4,4,5,5,6,6,7,7,8,8,9,9,10,10,13,13,14,14],"right_children":[2,4,6,8,10,12,14,16,18,20,22,-1,-1,24,26,-1,-1,-1,-1,-1,-1,-1,-1,-1,-1,-1,-1],"split_conditions":[5.0090153E1,-4.330019E-4,-9.875725E-4,-5.9277186E-4,1.3180248E-3,-2.1932037E-3,-2.3440765E-3,4.4949492E-4,1.8308524E-4,-5.5712176E-4,2.4818035E1,-1.4192889E-2,-7.629075E-2,4.9337572E-3,5.164866E1,-2.002134E-2,3.1409704E-3,-4.083959E-2,-1.698633E-3,-4.56505E-3,2.4396813E-2,-3.3923395E-2,1.471761E-3,6.5442346E-2,-1.451196E-2,-1.7443748E-2,-1.5963573E-3],"split_indices":[7,3,8,3,3,9,1,6,9,1,12,0,0,4,7,0,0,0,0,0,0,0,0,0,0,0,0],"split_type":[0,0,0,0,0,0,0,0,0,0,0,0,0,0,0,0,0,0,0,0,0,0,0,0,0,0,0],"sum_hessian":[1.6852179E3,7.782489E2,9.0696893E2,5.933437E2,1.8490523E2,5.737579E0,9.012314E2,5.686462E2,2.4697481E1,1.5645645E2,2.8448784E1,1.9945915E0,3.7429874E0,7.7341986E0,8.934972E2,2.4131487E1,5.445147E2,1.9706078E1,4.9914026E0,4.9899147E1,1.06557304E2,1.148431E1,1.6964474E1,5.242046E0,2.4921527E0,7.5428276E1,8.180689E2],"tree_param":{"num_deleted":"0","num_feature":"18","num_nodes":"27","size_leaf_vector":"1"}},{"base_weights":[-6.26252E-3,2.2936506E-2,-9.878351E-2,-3.4231466E-1,3.4515213E-2,-1.4837536E-1,2.5283572E-1,3.0991063E-2,-5.794182E-1,7.74458E-2,-6.6020004E-2,2.2277914E-1,-2.0977254E-1,4.3597305E-1,-7.8768057E-1,1.6575595E-2,-3.8975656E-2,3.0535016E-2,-3.7891906E-2,4.3538464E-3,-3.9664414E-2,2.857008E-2,-4.654789E-3,-1.275675E-2,2.2025092E-2,-2.7767835E-2,-8.24874E-3,9.122894E-3,4.695129E-2,3.510086E-2,-5.8425166E-2],"categories":[],"categories_nodes":[],"categories_segments":[],"categories_sizes":[],"default_left":[0,0,0,0,0,0,0,0,0,0,0,0,0,0,0,0,0,0,0,0,0,0,0,0,0,0,0,0,0,0,0],"id":23,"left_children":[1,3,5,7,9,11,13,15,17,19,21,23,25,27,29,-1,-1,-1,-1,-1,-1,-1,-1,-1,-1,-1,-1,-1,-1,-1,-1],"loss_changes":[4.6025066E0,5.48921E0,7.1637726E0,3.5484734E0,5.427217E0,8.222811E0,1.0039786E1,4.2634554E0,5.653388E0,7.455635E0,6.5504837E0,5.461995E0,4.6825123E0,5.4288893E0,5.342828E0,0E0,0E0,0E0,0E0,0E0,0E0,0E0,0E0,0E0,0E0,0E0,0E0,0E0,0E0,0E0,0E0],"parents":[2147483647,0,0,1,1,2,2,3,3,4,4,5,5,6,6,7,7,8,8,9,9,10,10,11,11,12,12,13,13,14,14],"right_children":[2,4,6,8,10,12,14,16,18,20,22,24,26,28,30,-1,-1,-1,-1,-1,-1,-1,-1,-1,-1,-1,-1,-1,-1,-1,-1],"split_conditions":[9.5445866E-4,4.2491092E-4,1.2784782E-3,-1.3389777E-4,3.0993574E-4,-8.660254E-1,8.328155E-3,5.532179E-4,-5.9052976E-4,4.6389108E-3,4.815369E-4,1.222795E-3,1.0270684E-3,4.2110367E-4,1.4031013E-3,1.6575595E-2,-3.8975656E-2,3.0535016E-2,-3.7891906E-2,4.3538464E-3,-3.9664414E-2,2.857008E-2,-4.654789E-3,-1.275675E-2,2.2025092E-2,-2.7767835E-2,-8.24874E-3,9.122894E-3,4.695129E-2,3.510086E-2,-5.8425166E-2],"split_indices":[8,6,6,0,0,14,3,8,8,4,6,8,8,0,6,0,0,0,0,0,0,0,0,0,0,0,0,0,0,0,0],"split_type":[0,0,0,0,0,0,0,0,0,0,0,0,0,0,0,0,0,0,0,0,0,0,0,0,0,0,0,0,0,0,0],"sum_hessian":[1.7018324E3,1.2941569E3,4.0767548E2,3.8887383E1,1.2552695E3,3.5779117E2,4.988431E1,1.5442834E1,2.344455E1,8.798047E2,3.7546484E2,5.041245E1,3.0737872E2,4.2912457E1,6.9718547E0,1.1696833E1,3.7460015E0,2.7406566E0,2.0703894E1,8.710698E2,8.734842E0,1.44796295E1,3.6098523E2,1.5724472E1,3.4687977E1,3.3964993E1,2.7341373E2,2.943918E1,1.3473275E1,1.2476987E0,5.724156E0],"tree_param":{"num_deleted":"0","num_feature":"18","num_nodes":"31","size_leaf_vector":"1"}},{"base_weights":[-1.1171419E-3,1.0811331E-2,-1.9805562E-1,9.397669E-4,3.8490316E-1,-3.4662083E-1,3.3918163E-1,5.2525226E-2,-6.534028E-2,-7.97639E-2,6.287617E-1,4.4149137E-1,-4.358509E-1,-5.0506073E-1,7.801519E-1,1.9087769E-3,2.1767953E-2,-2.469331E-3,-3.6319707E-2,-3.0029163E-2,1.5442385E-2,3.6375314E-2,-2.5325632E-2,-2.5209134E-2,6.709658E-2,-4.249391E-2,-1.4400902E-2,4.3157533E-2,-4.7781672E-2,5.558629E-2,-3.8029726E-3],"categories":[],"categories_nodes":[],"categories_segments":[],"categories_sizes":[],"default_left":[0,0,0,0,0,0,0,0,0,0,0,0,0,0,0,0,0,0,0,0,0,0,0,0,0,0,0,0,0,0,0],"id":24,"left_children":[1,3,5,7,9,11,13,15,17,19,21,23,25,27,29,-1,-1,-1,-1,-1,-1,-1,-1,-1,-1,-1,-1,-1,-1,-1,-1],"loss_changes":[3.9648542E0,5.8767114E0,7.810799E0,5.308318E0,4.68619E0,5.5371723E0,8.35575E0,4.7795067E0,7.1303205E0,3.2151494E0,3.389039E0,7.6817336E0,3.9647741E0,5.72266E0,4.184388E0,0E0,0E0,0E0,0E0,0E0,0E0,0E0,0E0,0E0,0E0,0E0,0E0,0E0,0E0,0E0,0E0],"parents":[2147483647,0,0,1,1,2,2,3,3,4,4,5,5,6,6,7,7,8,8,9,9,10,10,11,11,12,12,13,13,14,14],"right_children":[2,4,6,8,10,12,14,16,18,20,22,24,26,28,30,-1,-1,-1,-1,-1,-1,-1,-1,-1,-1,-1,-1,-1,-1,-1,-1],"split_conditions":[6.9568255E-3,7.265658E1,1.0497086E-3,7.978015E-5,9.022036E1,-1.1446376E-3,-7.0710677E-1,9.138428E1,9.5202286E1,4.4077638E-4,1.8840797E-3,6.0532234E1,-1.0286339E-4,1.2500576E-3,1.0716159E0,1.9087769E-3,2.1767953E-2,-2.469331E-3,-3.6319707E-2,-3.0029163E-2,1.5442385E-2,3.6375314E-2,-2.5325632E-2,-2.5209134E-2,6.709658E-2,-4.249391E-2,-1.4400902E-2,4.3157533E-2,-4.7781672E-2,5.558629E-2,-3.8029726E-3],"split_indices":[4,7,0,0,13,1,15,13,13,0,0,7,1,8,10,0,0,0,0,0,0,0,0,0,0,0,0,0,0,0,0],"split_type":[0,0,0,0,0,0,0,0,0,0,0,0,0,0,0,0,0,0,0,0,0,0,0,0,0,0,0,0,0,0,0],"sum_hessian":[1.6858528E3,1.5904642E3,9.538858E1,1.5505508E3,3.991354E1,7.5002525E1,2.0386057E1,8.7204755E2,6.785032E2,1.3968942E1,2.59446E1,7.226619E0,6.77759E1,6.9448075E0,1.3441249E1,8.416017E2,3.0445879E1,6.6356366E2,1.493952E1,5.7360277E0,8.232914E0,2.4198984E1,1.7456138E0,3.7394192E0,3.4871993E0,1.6583235E1,5.119267E1,1.4936146E0,5.451193E0,9.473965E0,3.9672842E0],"tree_param":{"num_deleted":"0","num_feature":"18","num_nodes":"31","size_leaf_vector":"1"}},{"base_weights":[4.8174746E-3,5.8945876E-2,-5.954902E-2,-5.3158823E-2,1.019191E-1,3.5652855E-1,-8.23495E-2,7.997399E-2,-3.795467E-1,7.0010684E-2,3.943537E-1,-2.8659834E-2,8.6574054E-1,-4.5470548E-1,-5.3008113E-2,1.2781495E-3,3.487615E-2,-7.5405273E-3,-4.57954E-2,4.2474642E-3,-2.8698254E-2,1.3426102E-2,4.7930915E-2,-1.9981824E-2,2.3217285E-2,-3.6807757E-2,5.1737405E-2,-3.4746677E-2,1.3870792E-3,1.7361572E-2,-3.4852715E-3],"categories":[],"categories_nodes":[],"categories_segments":[],"categories_sizes":[],"default_left":[0,0,0,0,0,0,0,0,0,0,0,0,0,0,0,0,0,0,0,0,0,0,0,0,0,0,0,0,0,0,0],"id":25,"left_children":[1,3,5,7,9,11,13,15,17,19,21,23,25,27,29,-1,-1,-1,-1,-1,-1,-1,-1,-1,-1,-1,-1,-1,-1,-1,-1],"loss_changes":[5.8919115E0,4.4306087E0,7.3582144E0,1.1119477E1,6.1716847E0,7.9336987E0,7.986562E0,6.100593E0,8.9541235E0,5.822966E0,4.3679447E0,4.561242E0,5.4717875E0,6.211028E0,4.5738573E0,0E0,0E0,0E0,0E0,0E0,0E0,0E0,0E0,0E0,0E0,0E0,0E0,0E0,0E0,0E0,0E0],"parents":[2147483647,0,0,1,1,2,2,3,3,4,4,5,5,6,6,7,7,8,8,9,9,10,10,11,11,12,12,13,13,14,14],"right_children":[2,4,6,8,10,12,14,16,18,20,22,24,26,28,30,-1,-1,-1,-1,-1,-1,-1,-1,-1,-1,-1,-1,-1,-1,-1,-1],"split_conditions":[8.1594003E-4,-8.6275075E-4,2.8196353E-1,1.8756407E-1,4.1941646E-4,-2.2614135E-4,1.1482176E-3,1.5417252E-1,1.77235E-3,3.5080154E-4,7.7505887E-4,-1.2612487E-3,-2.6462942E-3,6.8863767E-4,-1.6825695E-3,1.2781495E-3,3.487615E-2,-7.5405273E-3,-4.57954E-2,4.2474642E-3,-2.8698254E-2,1.3426102E-2,4.7930915E-2,-1.9981824E-2,2.3217285E-2,-3.6807757E-2,5.1737405E-2,-3.4746677E-2,1.3870792E-3,1.7361572E-2,-3.4852715E-3],"split_indices":[4,1,10,10,9,0,4,10,11,8,1,2,2,1,1,0,0,0,0,0,0,0,0,0,0,0,0,0,0,0,0],"split_type":[0,0,0,0,0,0,0,0,0,0,0,0,0,0,0,0,0,0,0,0,0,0,0,0,0,0,0,0,0,0,0],"sum_hessian":[1.6890999E3,9.1756573E2,7.715341E2,2.5419849E2,6.6336725E2,3.9322144E1,7.32212E2,1.8108807E2,7.3110405E1,5.992236E2,6.4143684E1,2.29247E1,1.6397446E1,5.242443E1,6.797876E2,1.673818E2,1.370628E1,5.215122E1,2.095919E1,5.8648663E2,1.2736912E1,5.3654537E1,1.0489144E1,1.3189362E1,9.735338E0,1.2446439E0,1.51528015E1,3.4703735E1,1.7720695E1,2.643109E1,6.533565E2],"tree_param":{"num_deleted":"0","num_feature":"18","num_nodes":"31","size_leaf_vector":"1"}},{"base_weights":[1.6997939E-2,-1.2350487E-1,3.898617E-2,9.338329E-2,-2.392054E-1,1.5331998E-1,1.489561E-2,1.9092587E-1,-6.342125E-1,-3.8947877E-1,1.3180076E-1,-1.0449381E-1,2.542646E-1,-8.20899E-2,6.2737375E-2,-4.306894E-3,2.2229984E-2,-5.4974575E-2,4.7533777E-2,-1.7126208E-2,-6.1656643E-2,-5.078254E-3,3.4034394E-2,-4.4145975E-2,4.5603127E-4,1.027786E-3,1.9486038E-2,-3.4018118E-2,-2.8385145E-3,4.774732E-3,-5.7577644E-3],"categories":[],"categories_nodes":[],"categories_segments":[],"categories_sizes":[],"default_left":[0,0,0,0,0,0,0,0,0,0,0,0,0,0,0,0,0,0,0,0,0,0,0,0,0,0,0,0,0,0,0],"id":26,"left_children":[1,3,5,7,9,11,13,15,17,19,21,23,25,27,29,-1,-1,-1,-1,-1,-1,-1,-1,-1,-1,-1,-1,-1,-1,-1,-1],"loss_changes":[5.230947E0,5.7726593E0,4.028671E0,5.829744E0,8.398283E0,6.652187E0,5.6189938E0,5.0773535E0,8.227679E0,3.8086586E0,5.6931977E0,6.4060564E0,5.79303E0,6.0221705E0,4.735672E0,0E0,0E0,0E0,0E0,0E0,0E0,0E0,0E0,0E0,0E0,0E0,0E0,0E0,0E0,0E0,0E0],"parents":[2147483647,0,0,1,1,2,2,3,3,4,4,5,5,6,6,7,7,8,8,9,9,10,10,11,11,12,12,13,13,14,14],"right_children":[2,4,6,8,10,12,14,16,18,20,22,24,26,28,30,-1,-1,-1,-1,-1,-1,-1,-1,-1,-1,-1,-1,-1,-1,-1,-1],"split_conditions":[5.265807E-4,-1.5424653E-4,1.1872915E-3,1.0164296E-3,7.74004E-4,1.2246469E-16,5.557655E-4,-4.1736572E-4,1.4713141E-3,4.1936775E1,1E0,-9.6272986E-4,1.782062E1,-1.7258476E-3,2.662174E-3,-4.306894E-3,2.2229984E-2,-5.4974575E-2,4.7533777E-2,-1.7126208E-2,-6.1656643E-2,-5.078254E-3,3.4034394E-2,-4.4145975E-2,4.5603127E-4,1.027786E-3,1.9486038E-2,-3.4018118E-2,-2.8385145E-3,4.774732E-3,-5.7577644E-3],"split_indices":[6,0,11,9,8,14,5,0,8,12,16,9,12,1,2,0,0,0,0,0,0,0,0,0,0,0,0,0,0,0,0],"split_type":[0,0,0,0,0,0,0,0,0,0,0,0,0,0,0,0,0,0,0,0,0,0,0,0,0,0,0,0,0,0,0],"sum_hessian":[1.690629E3,2.2815054E2,1.4624785E3,7.943582E1,1.4871472E2,2.5358751E2,1.208891E3,7.069583E1,8.739994E0,1.0580811E2,4.2906612E1,7.134255E1,1.8224495E2,3.991046E2,8.097864E2,3.4105778E1,3.659005E1,6.9932394E0,1.7467549E0,1.01561584E2,4.246536E0,3.0678322E1,1.2228289E1,8.2241125E0,6.3118435E1,6.729298E1,1.1495198E2,1.5154348E1,3.8395026E2,6.8425116E2,1.2553521E2],"tree_param":{"num_deleted":"0","num_feature":"18","num_nodes":"31","size_leaf_vector":"1"}},{"base_weights":[-1.5752904E-2,2.2598663E-1,-2.1433473E-2,6.922138E-2,9.787771E-1,-3.6960262E-1,-1.13919135E-2,-8.2499045E-1,1.8341029E-1,3.9653736E-1,6.691975E-2,-4.611655E-1,5.962492E-1,5.25114E-3,-1.3718352E-1,-6.354754E-2,-2.4633412E-3,-1.1430457E-2,2.0803545E-2,5.147205E-2,-1.3279542E-2,3.574125E-2,-2.7490485E-2,-1.20787015E-2,4.969256E-2,2.941324E-3,-2.7089089E-3,-9.906883E-3,1.7030133E-2],"categories":[],"categories_nodes":[],"categories_segments":[],"categories_sizes":[],"default_left":[0,0,0,0,0,0,0,0,0,0,0,0,0,0,0,0,0,0,0,0,0,0,0,0,0,0,0,0,0],"id":27,"left_children":[1,3,5,7,9,11,13,15,17,19,-1,21,23,25,27,-1,-1,-1,-1,-1,-1,-1,-1,-1,-1,-1,-1,-1,-1],"loss_changes":[2.3519418E0,4.5734463E0,5.837411E0,3.5848422E0,8.726268E-1,4.4143896E0,3.402876E0,1.3175619E0,3.0319524E0,1.9413108E0,0E0,4.908658E0,1.7355292E0,4.57578E0,5.598545E0,0E0,0E0,0E0,0E0,0E0,0E0,0E0,0E0,0E0,0E0,0E0,0E0,0E0,0E0],"parents":[2147483647,0,0,1,1,2,2,3,3,4,4,5,5,6,6,7,7,8,8,9,9,11,11,12,12,13,13,14,14],"right_children":[2,4,6,8,10,12,14,16,18,20,-1,22,24,26,28,-1,-1,-1,-1,-1,-1,-1,-1,-1,-1,-1,-1,-1,-1],"split_conditions":[-4.7913687E-3,-5.233067E-3,-3.450072E-3,-9.659258E-1,-2.7513911E-3,6.892784E-4,1.1870124E-3,-5.5078696E-4,1.1925296E-3,-2.5881904E-1,6.691975E-2,4.5756507E0,-1.1307736E-3,2.2256018E-4,2.0571006E-3,-6.354754E-2,-2.4633412E-3,-1.1430457E-2,2.0803545E-2,5.147205E-2,-1.3279542E-2,3.574125E-2,-2.7490485E-2,-1.20787015E-2,4.969256E-2,2.941324E-3,-2.7089089E-3,-9.906883E-3,1.7030133E-2],"split_indices":[2,2,2,14,1,0,6,0,6,15,0,13,9,9,9,0,0,0,0,0,0,0,0,0,0,0,0,0,0],"split_type":[0,0,0,0,0,0,0,0,0,0,0,0,0,0,0,0,0,0,0,0,0,0,0,0,0,0,0,0,0],"sum_hessian":[1.7081958E3,3.8328396E1,1.6698674E3,3.2626106E1,5.702288E0,4.580687E1,1.6240605E3,2.9896228E0,2.9636484E1,2.9800682E0,2.7222202E0,4.231768E1,3.489192E0,1.4351404E3,1.8892023E2,1.4929346E0,1.4966882E0,1.0701889E1,1.8934595E1,1.2400271E0,1.740041E0,2.4710972E0,3.984658E1,1.2492361E0,2.239956E0,7.547478E2,6.803926E2,1.6806448E2,2.0855736E1],"tree_param":{"num_deleted":"0","num_feature":"18","num_nodes":"29","size_leaf_vector":"1"}},{"base_weights":[3.526962E-3,-4.879713E-2,4.902106E-2,3.1449103E-1,-7.412771E-2,5.6694992E-2,-4.842074E-1,4.4450465E-1,-2.0434043E-1,-5.4496776E-2,-4.8237437E-1,2.9299928E-2,2.2731268E-1,-7.646898E-2,2.4713752E-1,9.21196E-3,3.865546E-2,2.4344912E-2,-3.148327E-2,-1.3319437E-2,-6.224431E-4,-4.8742194E-2,-1.2441498E-2,3.5795327E-3,-6.8041817E-3,4.9020797E-3,2.9866938E-2,4.988667E-2,-9.198253E-3],"categories":[],"categories_nodes":[],"categories_segments":[],"categories_sizes":[],"default_left":[0,0,0,0,0,0,0,0,0,0,0,0,0,0,0,0,0,0,0,0,0,0,0,0,0,0,0,0,0],"id":28,"left_children":[1,3,5,7,9,11,13,15,17,19,21,23,25,-1,27,-1,-1,-1,-1,-1,-1,-1,-1,-1,-1,-1,-1,-1,-1],"loss_changes":[4.015061E0,7.2424583E0,3.7191825E0,3.552958E0,5.857534E0,4.1546154E0,1.0241892E1,3.3944654E0,3.5315964E0,6.247782E0,3.6168385E0,5.3831267E0,5.8260894E0,0E0,2.9187763E0,0E0,0E0,0E0,0E0,0E0,0E0,0E0,0E0,0E0,0E0,0E0,0E0,0E0,0E0],"parents":[2147483647,0,0,1,1,2,2,3,3,4,4,5,5,6,6,7,7,8,8,9,9,10,10,11,11,12,12,14,14],"right_children":[2,4,6,8,10,12,14,16,18,20,22,24,26,-1,28,-1,-1,-1,-1,-1,-1,-1,-1,-1,-1,-1,-1,-1,-1],"split_conditions":[5.5885396E-4,-8.660254E-1,5.467144E1,5.1380246E-4,9.483929E1,3.7576317E1,-5E-1,3.6345283E-4,1.2286161E-3,-1.1068363E-3,5E-1,2.9401215E1,1.2497138E-3,-7.646898E-2,2.1100517E1,9.21196E-3,3.865546E-2,2.4344912E-2,-3.148327E-2,-1.3319437E-2,-6.224431E-4,-4.8742194E-2,-1.2441498E-2,3.5795327E-3,-6.8041817E-3,4.9020797E-3,2.9866938E-2,4.988667E-2,-9.198253E-3],"split_indices":[5,15,12,5,13,12,15,8,11,2,15,12,5,0,13,0,0,0,0,0,0,0,0,0,0,0,0,0,0],"split_type":[0,0,0,0,0,0,0,0,0,0,0,0,0,0,0,0,0,0,0,0,0,0,0,0,0,0,0,0,0],"sum_hessian":[1.6846853E3,7.834937E2,9.011916E2,5.032487E1,7.331688E2,8.892872E2,1.1904456E1,4.0355476E1,9.969394E0,7.006127E2,3.255614E1,7.672639E2,1.2202326E2,4.451535E0,7.4529204E0,2.3390284E1,1.6965193E1,3.7424278E0,6.2269664E0,1.1512553E2,5.854872E2,9.451617E0,2.3104527E1,6.1147015E2,1.5579375E2,9.136815E1,3.0655115E1,2.2394397E0,5.213481E0],"tree_param":{"num_deleted":"0","num_feature":"18","num_nodes":"29","size_leaf_vector":"1"}},{"base_weights":[1.6719162E-2,3.305291E-2,-2.40118E-1,1.2186317E-2,1.410549E-1,-4.1093424E-1,3.2230818E-1,-5.551445E-1,2.1357713E-2,3.5515624E-1,-1.0798961E-2,7.699103E-2,-5.2325976E-1,-6.641057E-1,6.1074156E-1,1.34308105E-2,-3.7337642E-2,1.0948164E-2,-2.2022607E-5,-6.0560973E-3,2.3745393E-2,6.397091E-3,-1.059602E-2,3.9971158E-2,-3.0652E-2,-4.400116E-2,-1.4003023E-2,1.3208057E-2,-4.8402756E-2,3.7779532E-2,-3.3377897E-2],"categories":[],"categories_nodes":[],"categories_segments":[],"categories_sizes":[],"default_left":[0,0,0,0,0,0,0,0,0,0,0,0,0,0,0,0,0,0,0,0,0,0,0,0,0,0,0,0,0,0,0],"id":29,"left_children":[1,3,5,7,9,11,13,15,17,19,21,23,25,27,29,-1,-1,-1,-1,-1,-1,-1,-1,-1,-1,-1,-1,-1,-1,-1,-1],"loss_changes":[7.076109E0,3.5702782E0,9.822603E0,6.929242E0,8.344824E0,4.30457E0,7.250371E0,3.5446982E0,5.639643E0,6.130932E0,4.242381E0,8.182787E0,5.2522106E0,1.9266245E0,4.0475593E0,0E0,0E0,0E0,0E0,0E0,0E0,0E0,0E0,0E0,0E0,0E0,0E0,0E0,0E0,0E0,0E0],"parents":[2147483647,0,0,1,1,2,2,3,3,4,4,5,5,6,6,7,7,8,8,9,9,10,10,11,11,12,12,13,13,14,14],"right_children":[2,4,6,8,10,12,14,16,18,20,22,24,26,28,30,-1,-1,-1,-1,-1,-1,-1,-1,-1,-1,-1,-1,-1,-1,-1,-1],"split_conditions":[6.9568255E-3,3.5854797E1,1.0002007E-3,-8.829953E-3,4.0209545E1,2.9285666E1,-8.660254E-1,-1.8867416E-3,-3.1600494E-3,-7.0710677E-1,4.987136E-4,8.112146E-1,3.8548696E-3,1.2742331E-3,1.1823238E0,1.34308105E-2,-3.7337642E-2,1.0948164E-2,-2.2022607E-5,-6.0560973E-3,2.3745393E-2,6.397091E-3,-1.059602E-2,3.9971158E-2,-3.0652E-2,-4.400116E-2,-1.4003023E-2,1.3208057E-2,-4.8402756E-2,3.7779532E-2,-3.3377897E-2],"split_indices":[4,12,0,4,12,12,15,0,3,14,3,10,3,8,10,0,0,0,0,0,0,0,0,0,0,0,0,0,0,0,0],"split_type":[0,0,0,0,0,0,0,0,0,0,0,0,0,0,0,0,0,0,0,0,0,0,0,0,0,0,0,0,0,0,0],"sum_hessian":[1.6838586E3,1.5839946E3,9.9863976E1,1.3284445E3,2.5555011E2,7.680626E1,2.3057718E1,2.018677E1,1.3082577E3,1.054855E2,1.500646E2,1.4431696E1,6.2374565E1,4.922114E0,1.8135605E1,3.7335653E0,1.6453205E1,1.2907918E2,1.1791786E3,2.1191372E1,8.429413E1,8.901957E1,6.1045033E1,6.9728723E0,7.458823E0,2.422255E1,3.815201E1,1.2464225E0,3.6756911E0,1.665704E1,1.4785646E0],"tree_param":{"num_deleted":"0","num_feature":"18","num_nodes":"31","size_leaf_vector":"1"}},{"base_weights":[3.668564E-3,4.305588E-2,-6.482141E-2,2.5093457E-2,3.046853E-1,-2.3927085E-1,2.4481608E-2,1.9160044E-1,2.9602302E-3,-6.420487E-1,4.1216677E-1,-4.163685E-1,-7.993893E-2,7.290089E-1,-1.3124354E-2,-2.0534059E-2,1.5188168E-2,-1.8914722E-2,6.805849E-4,3.179912E-2,-4.998632E-2,4.004183E-2,1.033799E-2,-9.542792E-3,-3.524195E-2,-8.2600646E-4,-4.1954774E-2,-1.8197102E-2,4.5687113E-2,2.5068015E-2,-2.1122133E-3],"categories":[],"categories_nodes":[],"categories_segments":[],"categories_sizes":[],"default_left":[0,0,0,0,0,0,0,0,0,0,0,0,0,0,0,0,0,0,0,0,0,0,0,0,0,0,0,0,0,0,0],"id":30,"left_children":[1,3,5,7,9,11,13,15,17,19,21,23,25,27,29,-1,-1,-1,-1,-1,-1,-1,-1,-1,-1,-1,-1,-1,-1,-1,-1],"loss_changes":[4.608024E0,5.088683E0,9.722323E0,3.743221E0,7.3448725E0,5.9281225E0,1.09631E1,8.175499E0,3.650578E0,4.0573587E0,4.8716707E0,6.3590145E0,5.4000034E0,4.5659266E0,5.915907E0,0E0,0E0,0E0,0E0,0E0,0E0,0E0,0E0,0E0,0E0,0E0,0E0,0E0,0E0,0E0,0E0],"parents":[2147483647,0,0,1,1,2,2,3,3,4,4,5,5,6,6,7,7,8,8,9,9,10,10,11,11,12,12,13,13,14,14],"right_children":[2,4,6,8,10,12,14,16,18,20,22,24,26,28,30,-1,-1,-1,-1,-1,-1,-1,-1,-1,-1,-1,-1,-1,-1,-1,-1],"split_conditions":[6.827314E1,1.726492E-3,7.878618E1,1.0450644E1,-3.3495766E-3,1.358541E-3,7.980313E1,-8.660254E-1,-9.828654E-3,1.8593096E-3,2.106277E-3,1.171347E-3,4.232382E1,2.4674172E-4,-8.2953775E-4,-2.0534059E-2,1.5188168E-2,-1.8914722E-2,6.805849E-4,3.179912E-2,-4.998632E-2,4.004183E-2,1.033799E-2,-9.542792E-3,-3.524195E-2,-8.2600646E-4,-4.1954774E-2,-1.8197102E-2,4.5687113E-2,2.5068015E-2,-2.1122133E-3],"split_indices":[13,3,13,13,4,11,13,14,4,3,3,11,12,5,0,0,0,0,0,0,0,0,0,0,0,0,0,0,0,0,0],"split_type":[0,0,0,0,0,0,0,0,0,0,0,0,0,0,0,0,0,0,0,0,0,0,0,0,0,0,0,0,0,0,0],"sum_hessian":[1.7061365E3,1.0834409E3,6.226955E2,1.0148606E3,6.858034E1,2.1026768E2,4.1242783E2,1.18175606E2,8.96685E2,6.484963E0,6.2095375E1,9.8818054E1,1.1144962E2,1.9967226E1,3.924606E2,1.8134928E1,1.0004067E2,2.3432573E1,8.7325244E2,1.2479128E0,5.23705E0,2.0467712E1,4.1627663E1,5.639372E1,4.242434E1,1.0380008E2,7.649543E0,2.746691E0,1.7220535E1,2.0154684E1,3.723059E2],"tree_param":{"num_deleted":"0","num_feature":"18","num_nodes":"31","size_leaf_vector":"1"}},{"base_weights":[-1.2571972E-3,3.8064122E-2,-6.820312E-2,4.479317E-2,-4.2064682E-1,-1.7386062E-1,2.8400255E-2,3.647432E-2,8.3719724E-1,-1.180912E0,2.7595899E-1,3.3158097E-2,-2.7956888E-1,4.2733088E-2,-1.02132E0,2.4220026E-3,-1.808549E-2,5.5689353E-2,-1.3737856E-2,-6.648395E-3,-6.815369E-2,6.3315764E-2,-7.010796E-3,2.063442E-2,-5.6677037E-3,-2.360308E-2,-5.3744563E-3,-3.256144E-2,3.2755488E-3,-1.6639134E-2,-6.267658E-2],"categories":[],"categories_nodes":[],"categories_segments":[],"categories_sizes":[],"default_left":[0,0,0,0,0,0,0,0,0,0,0,0,0,0,0,0,0,0,0,0,0,0,0,0,0,0,0,0,0,0,0],"id":31,"left_children":[1,3,5,7,9,11,13,15,17,19,21,23,25,27,29,-1,-1,-1,-1,-1,-1,-1,-1,-1,-1,-1,-1,-1,-1,-1,-1],"loss_changes":[4.479592E0,3.3279567E0,6.4318566E0,6.940153E0,8.585305E0,6.593606E0,5.0054264E0,5.0085163E0,3.6708694E0,1.2784166E0,3.8660007E0,5.751809E0,6.5503044E0,5.2005377E0,2.9951906E-1,0E0,0E0,0E0,0E0,0E0,0E0,0E0,0E0,0E0,0E0,0E0,0E0,0E0,0E0,0E0,0E0],"parents":[2147483647,0,0,1,1,2,2,3,3,4,4,5,5,6,6,7,7,8,8,9,9,10,10,11,11,12,12,13,13,14,14],"right_children":[2,4,6,8,10,12,14,16,18,20,22,24,26,28,30,-1,-1,-1,-1,-1,-1,-1,-1,-1,-1,-1,-1,-1,-1,-1,-1],"split_conditions":[5E-1,7.7217114E-3,7.430696E-4,9.811719E-3,-5E-1,-1.39828E-4,1.0342393E0,7.340122E-3,7.559119E1,6.6598004E-4,7.473125E-3,-1.3453439E-3,8.660254E-1,-7.264117E-3,1.705379E-3,2.4220026E-3,-1.808549E-2,5.5689353E-2,-1.3737856E-2,-6.648395E-3,-6.815369E-2,6.3315764E-2,-7.010796E-3,2.063442E-2,-5.6677037E-3,-2.360308E-2,-5.3744563E-3,-3.256144E-2,3.2755488E-3,-1.6639134E-2,-6.267658E-2],"split_indices":[15,3,6,4,15,0,10,4,7,9,4,3,15,3,11,0,0,0,0,0,0,0,0,0,0,0,0,0,0,0,0],"split_type":[0,0,0,0,0,0,0,0,0,0,0,0,0,0,0,0,0,0,0,0,0,0,0,0,0,0,0,0,0,0,0],"sum_hessian":[1.6997263E3,1.0710603E3,6.2866595E2,1.056465E3,1.4595431E1,2.9988004E2,3.2878592E2,1.0465243E3,9.94063E0,6.6464057E0,7.9490256E0,1.0159771E2,1.9828232E2,3.2530353E2,3.4823887E0,1.0168457E3,2.9678614E1,7.9591956E0,1.9814347E0,1.2404215E0,5.4059844E0,1.7475936E0,6.201432E0,2.779077E1,7.3806946E1,9.2767265E1,1.0551505E2,9.46128E0,3.1584225E2,1.4918782E0,1.9905106E0],"tree_param":{"num_deleted":"0","num_feature":"18","num_nodes":"31","size_leaf_vector":"1"}},{"base_weights":[4.3899912E-4,1.0943346E-1,-2.5279088E-2,-3.0268085E-1,1.349777E-1,-4.387832E-1,-1.5199841E-2,1.09721534E-1,-7.3718166E-1,2.050632E-1,-2.2586297E-2,-6.779367E-1,1.675527E-1,3.0371135E-1,-2.51351E-2,3.5417385E-2,-2.6609842E-2,1.693889E-2,-4.9119785E-2,1.1347852E-2,-3.481966E-2,-3.1899828E-3,6.30486E-2,1.5466171E-2,-4.4054713E-2,-1.0534615E-2,5.0931986E-2,3.6335982E-2,-1.17580246E-4,-9.458748E-4,-2.7108932E-2],"categories":[],"categories_nodes":[],"categories_segments":[],"categories_sizes":[],"default_left":[0,0,0,0,0,0,0,0,0,0,0,0,0,0,0,0,0,0,0,0,0,0,0,0,0,0,0,0,0,0,0],"id":32,"left_children":[1,3,5,7,9,11,13,15,17,19,21,23,25,27,29,-1,-1,-1,-1,-1,-1,-1,-1,-1,-1,-1,-1,-1,-1,-1,-1],"loss_changes":[4.7304916E0,3.4324465E0,5.6841116E0,3.505622E0,3.3623867E0,4.819713E0,4.2342353E0,4.479439E0,2.8225212E0,4.313575E0,5.080083E0,4.980419E0,3.4279575E0,5.229412E0,4.1515226E0,0E0,0E0,0E0,0E0,0E0,0E0,0E0,0E0,0E0,0E0,0E0,0E0,0E0,0E0,0E0,0E0],"parents":[2147483647,0,0,1,1,2,2,3,3,4,4,5,5,6,6,7,7,8,8,9,9,10,10,11,11,12,12,13,13,14,14],"right_children":[2,4,6,8,10,12,14,16,18,20,22,24,26,28,30,-1,-1,-1,-1,-1,-1,-1,-1,-1,-1,-1,-1,-1,-1,-1,-1],"split_conditions":[2.0410175E1,9.273125E-4,2.2228882E1,-1.4575395E-3,8.4495207E-4,1.675634E-3,8.5259014E-4,8.5259014E-4,1.2246469E-16,5.2851067E1,1E0,-8.660254E-1,-3.726447E-4,7.0710677E-1,5.646999E1,3.5417385E-2,-2.6609842E-2,1.693889E-2,-4.9119785E-2,1.1347852E-2,-3.481966E-2,-3.1899828E-3,6.30486E-2,1.5466171E-2,-4.4054713E-2,-1.0534615E-2,5.0931986E-2,3.6335982E-2,-1.17580246E-4,-9.458748E-4,-2.7108932E-2],"split_indices":[13,11,13,3,5,11,11,11,14,7,15,15,2,14,12,0,0,0,0,0,0,0,0,0,0,0,0,0,0,0,0],"split_type":[0,0,0,0,0,0,0,0,0,0,0,0,0,0,0,0,0,0,0,0,0,0,0,0,0,0,0,0,0,0,0],"sum_hessian":[1.6855886E3,3.2117572E2,1.364413E3,1.8112415E1,3.030633E2,3.1454376E1,1.3329585E3,9.6760025E0,8.436412E0,2.0955183E2,9.3511475E1,2.2472567E1,8.98181E0,3.9378593E1,1.29358E3,4.953288E0,4.7227144E0,1.4950067E0,6.941405E0,2.0531357E2,4.2382565E0,9.152309E1,1.9883903E0,3.7460008E0,1.8726566E1,6.7391853E0,2.2426245E0,1.5954097E1,2.3424498E1,1.2792334E3,1.4346581E1],"tree_param":{"num_deleted":"0","num_feature":"18","num_nodes":"31","size_leaf_vector":"1"}},{"base_weights":[1.58529E-2,6.303585E-4,2.7331987E-1,7.4064336E-3,-3.8884366E-1,-1.5287906E-1,4.0556288E-1,2.1026836E-1,-7.6968214E-3,6.161505E-1,-5.253975E-1,-6.13836E-1,6.122636E-1,6.301094E-1,2.6670948E-2,1.4397809E-3,2.7678642E-2,-1.1474953E-2,2.9864098E-4,-1.0578266E-3,5.252865E-2,-4.7648482E-2,-8.528287E-3,-6.9299894E-3,-6.0632616E-2,5.0511725E-2,1.1047993E-3,3.996837E-2,4.338642E-3,-1.8236956E-2,3.4851015E-2],"categories":[],"categories_nodes":[],"categories_segments":[],"categories_sizes":[],"default_left":[0,0,0,0,0,0,0,0,0,0,0,0,0,0,0,0,0,0,0,0,0,0,0,0,0,0,0,0,0,0,0],"id":33,"left_children":[1,3,5,7,9,11,13,15,17,19,21,23,25,27,29,-1,-1,-1,-1,-1,-1,-1,-1,-1,-1,-1,-1,-1,-1,-1,-1],"loss_changes":[6.6529627E0,4.2353992E0,5.4028597E0,4.8343506E0,4.0900187E0,8.546468E0,6.1594133E0,6.7954564E0,4.455301E0,1.0585548E0,3.5849714E0,4.088117E0,2.1408343E0,4.1183796E0,7.615945E0,0E0,0E0,0E0,0E0,0E0,0E0,0E0,0E0,0E0,0E0,0E0,0E0,0E0,0E0,0E0,0E0],"parents":[2147483647,0,0,1,1,2,2,3,3,4,4,5,5,6,6,7,7,8,8,9,9,10,10,11,11,12,12,13,13,14,14],"right_children":[2,4,6,8,10,12,14,16,18,20,22,24,26,28,30,-1,-1,-1,-1,-1,-1,-1,-1,-1,-1,-1,-1,-1,-1,-1,-1],"split_conditions":[2.2500695E-3,2.1424019E-3,-8.829953E-3,-3.6437763E-3,5.581809E-2,3.7576317E1,6.003313E1,-4.1516125E-3,-2.7223602E-3,-2.8534112E-2,4.944922E-1,-6.637096E-3,3.1570915E1,1.0873977E-3,2.5881904E-1,1.4397809E-3,2.7678642E-2,-1.1474953E-2,2.9864098E-4,-1.0578266E-3,5.252865E-2,-4.7648482E-2,-8.528287E-3,-6.9299894E-3,-6.0632616E-2,5.0511725E-2,1.1047993E-3,3.996837E-2,4.338642E-3,-1.8236956E-2,3.4851015E-2],"split_indices":[11,11,4,3,10,12,7,3,3,10,10,3,7,9,14,0,0,0,0,0,0,0,0,0,0,0,0,0,0,0,0],"split_type":[0,0,0,0,0,0,0,0,0,0,0,0,0,0,0,0,0,0,0,0,0,0,0,0,0,0,0,0,0,0,0],"sum_hessian":[1.6965306E3,1.6027705E3,9.376016E1,1.5763265E3,2.6443968E1,2.2166117E1,7.159404E1,1.08331505E2,1.467995E3,2.7431421E0,2.3700827E1,1.3956084E1,8.210033E0,4.4536747E1,2.7057297E1,7.1578545E1,3.675296E1,8.4303635E1,1.3836914E3,1.4975314E0,1.2456107E0,9.984189E0,1.3716638E1,8.467507E0,5.488577E0,4.478349E0,3.7316844E0,3.3598927E1,1.093782E1,1.737065E1,9.686646E0],"tree_param":{"num_deleted":"0","num_feature":"18","num_nodes":"31","size_leaf_vector":"1"}},{"base_weights":[-3.954971E-3,-4.9715492E-1,2.3426604E-3,4.138865E-2,-8.250438E-1,3.601499E-2,-9.508809E-2,-3.3097333E-1,5.709231E-2,-1.0069517E0,1.8034847E-2,-7.1231476E-3,1.4119257E-1,-2.797505E-1,-3.3156473E-2,-5.71966E-2,7.6819793E-4,-5.940208E-2,-3.9861104E-3,-5.507698E-3,4.9732192E-3,8.017986E-3,-2.7303232E-2,-1.8546162E-2,1.9841535E-2,-2.5239918E-2,-5.5554137E-5],"categories":[],"categories_nodes":[],"categories_segments":[],"categories_sizes":[],"default_left":[0,0,0,0,0,0,0,0,0,0,0,0,0,0,0,0,0,0,0,0,0,0,0,0,0,0,0],"id":34,"left_children":[1,3,5,7,9,11,13,15,-1,17,-1,19,21,23,25,-1,-1,-1,-1,-1,-1,-1,-1,-1,-1,-1,-1],"loss_changes":[5.2182302E0,3.77451E0,5.4477663E0,4.052822E0,3.2133465E0,5.599861E0,4.8683357E0,2.1225424E0,0E0,1.8732023E0,0E0,9.631429E0,4.816071E0,6.7463055E0,4.843729E0,0E0,0E0,0E0,0E0,0E0,0E0,0E0,0E0,0E0,0E0,0E0,0E0],"parents":[2147483647,0,0,1,1,2,2,3,3,4,4,5,5,6,6,7,7,9,9,11,11,12,12,13,13,14,14],"right_children":[2,4,6,8,10,12,14,16,-1,18,-1,20,22,24,26,-1,-1,-1,-1,-1,-1,-1,-1,-1,-1,-1,-1],"split_conditions":[-4.4158865E-3,2.0420589E-3,1.1849111E-3,1.2784782E-3,9.644862E-4,1.9708539E-4,-4.184939E-4,1.5589336E-3,5.709231E-2,3.5854797E1,1.8034847E-2,5.672457E-4,1.5145829E-3,2.2200756E-3,3.3176193E-4,-5.71966E-2,7.6819793E-4,-5.940208E-2,-3.9861104E-3,-5.507698E-3,4.9732192E-3,8.017986E-3,-2.7303232E-2,-1.8546162E-2,1.9841535E-2,-2.5239918E-2,-5.5554137E-5],"split_indices":[1,11,2,6,8,2,9,11,0,12,0,5,5,11,5,0,0,0,0,0,0,0,0,0,0,0,0],"split_type":[0,0,0,0,0,0,0,0,0,0,0,0,0,0,0,0,0,0,0,0,0,0,0,0,0,0,0],"sum_hessian":[1.678678E3,2.0181957E1,1.658496E3,7.968237E0,1.2213719E1,1.2329987E3,4.254973E2,6.476144E0,1.4920933E0,1.0719927E1,1.4937929E0,8.750379E2,3.579608E2,1.0597951E2,3.195178E2,1.2467356E0,5.2294083E0,8.733061E0,1.9868655E0,4.449256E2,4.3011234E2,3.4899423E2,8.966553E0,9.37923E1,1.2187217E1,1.9389652E1,3.0012814E2],"tree_param":{"num_deleted":"0","num_feature":"18","num_nodes":"27","size_leaf_vector":"1"}},{"base_weights":[-1.3338538E-3,-1.38625875E-2,2.1296972E-1,-5.74601E-3,-5.0510484E-1,4.460574E-1,-4.4009555E-2,-2.5765697E-4,-6.9753224E-1,-8.31876E-1,4.4088885E-2,2.4784017E-1,1.0832169E0,-4.729648E-1,4.9124286E-1,-4.351378E-3,1.4736131E-3,2.0521146E-3,-5.2462965E-2,4.970621E-3,-5.1267613E-2,3.0178443E-2,-2.508626E-2,1.9705227E-2,-3.8709264E-2,6.205665E-2,-6.0176533E-3,1.6529808E-2,-3.3391714E-2,3.679589E-2,-5.231139E-3],"categories":[],"categories_nodes":[],"categories_segments":[],"categories_sizes":[],"default_left":[0,0,0,0,0,0,0,0,0,0,0,0,0,0,0,0,0,0,0,0,0,0,0,0,0,0,0,0,0,0,0],"id":35,"left_children":[1,3,5,7,9,11,13,15,17,19,21,23,25,27,29,-1,-1,-1,-1,-1,-1,-1,-1,-1,-1,-1,-1,-1,-1,-1,-1],"loss_changes":[4.5766716E0,6.4177527E0,5.6590533E0,6.018273E0,4.7318215E0,5.9780636E0,1.0722707E1,4.0621157E0,3.2841935E0,3.0664997E0,3.5731702E0,6.138114E0,2.3235054E0,4.2722116E0,3.1119719E0,0E0,0E0,0E0,0E0,0E0,0E0,0E0,0E0,0E0,0E0,0E0,0E0,0E0,0E0,0E0,0E0],"parents":[2147483647,0,0,1,1,2,2,3,3,4,4,5,5,6,6,7,7,8,8,9,9,10,10,11,11,12,12,13,13,14,14],"right_children":[2,4,6,8,10,12,14,16,18,20,22,24,26,28,30,-1,-1,-1,-1,-1,-1,-1,-1,-1,-1,-1,-1,-1,-1,-1,-1],"split_conditions":[2.2500695E-3,1.6524488E-3,3.1155773E1,2.1886027E-3,1.848267E-4,2.70832E1,3.879412E1,1.782062E1,-1.1980158E-3,-8.925922E-3,1.8593096E-3,9.238265E-1,3.3408126E-3,-6.340134E-3,3.834553E-3,-4.351378E-3,1.4736131E-3,2.0521146E-3,-5.2462965E-2,4.970621E-3,-5.1267613E-2,3.0178443E-2,-2.508626E-2,1.9705227E-2,-3.8709264E-2,6.205665E-2,-6.0176533E-3,1.6529808E-2,-3.3391714E-2,3.679589E-2,-5.231139E-3],"split_indices":[11,6,12,11,3,12,12,12,8,3,3,10,1,2,8,0,0,0,0,0,0,0,0,0,0,0,0,0,0,0,0],"split_type":[0,0,0,0,0,0,0,0,0,0,0,0,0,0,0,0,0,0,0,0,0,0,0,0,0,0,0,0,0,0,0],"sum_hessian":[1.7024637E3,1.6093145E3,9.3149315E1,1.584152E3,2.5162539E1,4.845943E1,4.4689888E1,1.5726753E3,1.14766E1,1.5453162E1,9.709377E0,3.802043E1,1.0438997E1,2.487292E1,1.981697E1,4.0084366E2,1.1718317E3,3.98726E0,7.48934E0,2.7418032E0,1.2711359E1,4.7424126E0,4.9669647E0,3.3797924E1,4.2225075E0,9.200608E0,1.2383888E0,4.718653E0,2.0154266E1,1.388178E1,5.935191E0],"tree_param":{"num_deleted":"0","num_feature":"18","num_nodes":"31","size_leaf_vector":"1"}},{"base_weights":[-1.5299908E-2,-2.4281796E-2,2.0340893E-1,-1.5331748E-2,-4.3545035E-1,5.806289E-1,-3.5375934E-3,-1.86977E-2,6.3472766E-1,-6.4952284E-1,6.922206E-2,8.060978E-1,-5.4482486E-2,5.202185E-1,-1.5571968E-1,-8.599422E-3,-1.7627828E-4,-1.6717758E-2,4.992385E-2,-1.323089E-2,-5.224603E-2,-2.1665176E-2,3.6389735E-2,-2.7346207E-2,4.770155E-2,7.7740024E-3,6.287964E-2,-5.1141072E-2,-5.877241E-4],"categories":[],"categories_nodes":[],"categories_segments":[],"categories_sizes":[],"default_left":[0,0,0,0,0,0,0,0,0,0,0,0,0,0,0,0,0,0,0,0,0,0,0,0,0,0,0,0,0],"id":36,"left_children":[1,3,5,7,9,11,13,15,17,19,21,23,-1,25,27,-1,-1,-1,-1,-1,-1,-1,-1,-1,-1,-1,-1,-1,-1],"loss_changes":[3.3261042E0,5.972779E0,5.2167077E0,3.4937022E0,3.7807498E0,9.792536E0,3.59837E0,3.6835098E0,3.233429E0,3.433323E0,4.0229034E0,4.8111353E0,0E0,2.538515E0,4.35254E0,0E0,0E0,0E0,0E0,0E0,0E0,0E0,0E0,0E0,0E0,0E0,0E0,0E0,0E0],"parents":[2147483647,0,0,1,1,2,2,3,3,4,4,5,5,6,6,7,7,8,8,9,9,10,10,11,11,13,13,14,14],"right_children":[2,4,6,8,10,12,14,16,18,20,22,24,-1,26,28,-1,-1,-1,-1,-1,-1,-1,-1,-1,-1,-1,-1,-1,-1],"split_conditions":[1.6922116E-3,1.5145829E-3,1.4031013E-3,1.4780996E-3,6.646458E-4,5E-1,3.1570915E1,3.4081345E1,1.9332625E-3,-5.61581E-4,1.6406256E-4,-2.3702103E-1,-5.4482486E-2,-5.61191E-3,-1.6024194E-3,-8.599422E-3,-1.7627828E-4,-1.6717758E-2,4.992385E-2,-1.323089E-2,-5.224603E-2,-2.1665176E-2,3.6389735E-2,-2.7346207E-2,4.770155E-2,7.7740024E-3,6.287964E-2,-5.1141072E-2,-5.877241E-4],"split_indices":[5,5,6,5,0,15,7,7,11,2,9,10,0,2,9,0,0,0,0,0,0,0,0,0,0,0,0,0,0],"split_type":[0,0,0,0,0,0,0,0,0,0,0,0,0,0,0,0,0,0,0,0,0,0,0,0,0,0,0,0,0],"sum_hessian":[1.6896609E3,1.6238616E3,6.579942E1,1.5902826E3,3.3578945E1,2.2670385E1,4.3129036E1,1.5830569E3,7.225694E0,2.3376188E1,1.0202758E1,2.0429956E1,2.2404282E0,9.165676E0,3.396336E1,1.4164268E2,1.4414142E3,1.9940511E0,5.231643E0,1.2691108E1,1.068508E1,5.9809976E0,4.22176E0,1.7477385E0,1.8682219E1,6.942473E0,2.223203E0,3.9667852E0,2.9996574E1],"tree_param":{"num_deleted":"0","num_feature":"18","num_nodes":"29","size_leaf_vector":"1"}},{"base_weights":[-2.185536E-3,2.418648E-1,-1.0104976E-2,6.660174E-1,-4.371523E-2,-1.06060944E-1,1.6504962E-2,1.6586639E-1,1.1957952E0,-2.3650596E-1,1.0123239E0,-9.540915E-2,-6.2161207E-2,3.4036693E-1,2.3557248E-3,3.371344E-2,-5.2217424E-2,8.887034E-3,6.586195E-2,4.3615613E-2,-2.1989E-2,1.5403025E-2,6.7404956E-2,-5.574792E-3,3.907279E-2,4.4617176E-2,8.895587E-3,-9.655347E-4,1.0351571E-2],"categories":[],"categories_nodes":[],"categories_segments":[],"categories_sizes":[],"default_left":[0,0,0,0,0,0,0,0,0,0,0,0,0,0,0,0,0,0,0,0,0,0,0,0,0,0,0,0,0],"id":37,"left_children":[1,3,5,7,9,11,13,15,17,19,21,23,-1,25,27,-1,-1,-1,-1,-1,-1,-1,-1,-1,-1,-1,-1,-1,-1],"loss_changes":[3.261571E0,6.4538007E0,4.1745677E0,5.4729424E0,6.8839755E0,4.18069E0,5.866014E0,8.192506E0,1.0310307E0,6.7867393E0,8.2091236E-1,5.0626516E0,0E0,4.6464157E0,5.4483733E0,0E0,0E0,0E0,0E0,0E0,0E0,0E0,0E0,0E0,0E0,0E0,0E0,0E0,0E0],"parents":[2147483647,0,0,1,1,2,2,3,3,4,4,5,5,6,6,7,7,8,8,9,9,10,10,11,11,13,13,14,14],"right_children":[2,4,6,8,10,12,14,16,18,20,22,24,-1,26,28,-1,-1,-1,-1,-1,-1,-1,-1,-1,-1,-1,-1,-1,-1],"split_conditions":[8.5259014E-4,-6.576167E-5,1.1638708E-3,-2.9289728E-4,4.4263154E-3,5.646999E1,1.1957197E-3,-6.236422E-4,3.271313E-1,4.7656696E1,8.255753E-1,5.143958E1,-6.2161207E-2,2.7674555E1,8.9561806E1,3.371344E-2,-5.2217424E-2,8.887034E-3,6.586195E-2,4.3615613E-2,-2.1989E-2,1.5403025E-2,6.7404956E-2,-5.574792E-3,3.907279E-2,4.4617176E-2,8.895587E-3,-9.655347E-4,1.0351571E-2],"split_indices":[11,1,11,3,4,12,11,3,10,7,10,12,0,13,13,0,0,0,0,0,0,0,0,0,0,0,0,0,0],"split_type":[0,0,0,0,0,0,0,0,0,0,0,0,0,0,0,0,0,0,0,0,0,0,0,0,0,0,0,0,0],"sum_hessian":[1.6852711E3,5.2039803E1,1.6332313E3,2.0403585E1,3.1636215E1,3.5393802E2,1.2792933E3,1.1170685E1,9.232901E0,2.7408548E1,4.2276664E0,3.517273E2,2.2107253E0,5.258644E1,1.2267068E3,8.178013E0,2.992672E0,1.246569E0,7.986332E0,3.7363281E0,2.367222E1,1.9839474E0,2.243719E0,3.4624796E2,5.479313E0,1.0936037E1,4.1650406E1,1.1101002E3,1.1660658E2],"tree_param":{"num_deleted":"0","num_feature":"18","num_nodes":"29","size_leaf_vector":"1"}},{"base_weights":[-1.1405412E-2,-3.1851094E-2,1.0433891E-1,-2.4362566E-2,-6.0419315E-1,4.1640583E-1,3.4191728E-2,-4.5632252E-1,-1.6056104E-2,-1.052676E0,-2.2110707E-1,5.9080034E-1,-2.571834E-1,4.0819967E-1,-4.4976946E-2,2.1466462E-2,-3.213702E-2,1.8537961E-2,-1.1718421E-3,-7.983578E-2,-1.572248E-2,4.5473636E-3,-4.3561127E-2,4.9290597E-2,1.5544407E-2,1.1896908E-2,-5.8920074E-2,3.3365786E-2,-2.1407785E-2,-4.8805643E-3,2.2710664E-2],"categories":[],"categories_nodes":[],"categories_segments":[],"categories_sizes":[],"default_left":[0,0,0,0,0,0,0,0,0,0,0,0,0,0,0,0,0,0,0,0,0,0,0,0,0,0,0,0,0,0,0],"id":38,"left_children":[1,3,5,7,9,11,13,15,17,19,21,23,25,27,29,-1,-1,-1,-1,-1,-1,-1,-1,-1,-1,-1,-1,-1,-1,-1,-1],"loss_changes":[3.9840722E0,6.1158767E0,5.519006E0,5.0624075E0,2.9338884E0,5.5908947E0,6.161404E0,4.671184E0,3.9694765E0,2.8012886E0,2.3526745E0,3.7936096E0,4.941336E0,8.161757E0,4.5668173E0,0E0,0E0,0E0,0E0,0E0,0E0,0E0,0E0,0E0,0E0,0E0,0E0,0E0,0E0,0E0,0E0],"parents":[2147483647,0,0,1,1,2,2,3,3,4,4,5,5,6,6,7,7,8,8,9,9,10,10,11,11,12,12,13,13,14,14],"right_children":[2,4,6,8,10,12,14,16,18,20,22,24,26,28,30,-1,-1,-1,-1,-1,-1,-1,-1,-1,-1,-1,-1,-1,-1,-1,-1],"split_conditions":[3.7576317E1,3.6963745E1,3.931856E1,-3.6529347E-3,-3.8243223E-3,5.078886E-4,-2.1932037E-3,1.5910555E-3,-4.210172E-3,1.7505276E-3,5.204265E-3,-3.3759495E-4,9.514173E-4,1.6524488E-3,1.966494E-3,2.1466462E-2,-3.213702E-2,1.8537961E-2,-1.1718421E-3,-7.983578E-2,-1.572248E-2,4.5473636E-3,-4.3561127E-2,4.9290597E-2,1.5544407E-2,1.1896908E-2,-5.8920074E-2,3.3365786E-2,-2.1407785E-2,-4.8805643E-3,2.2710664E-2],"split_indices":[12,12,12,1,4,0,9,11,2,11,4,1,6,6,11,0,0,0,0,0,0,0,0,0,0,0,0,0,0,0,0],"split_type":[0,0,0,0,0,0,0,0,0,0,0,0,0,0,0,0,0,0,0,0,0,0,0,0,0,0,0,0,0,0,0],"sum_hessian":[1.6811451E3,1.4293773E3,2.5176785E2,1.4119459E3,1.7431345E1,4.530065E1,2.0646721E2,2.5621445E1,1.3863245E3,7.225037E0,1.0206308E1,3.6081844E1,9.218804E0,3.534318E1,1.7112402E2,4.2286286E0,2.1392815E1,2.5035053E1,1.3612894E3,3.4900897E0,3.7349472E0,7.4773154E0,2.728993E0,1.3918385E1,2.2163462E1,6.4785376E0,2.740267E0,2.7137632E1,8.20555E0,1.5552954E2,1.5594489E1],"tree_param":{"num_deleted":"0","num_feature":"18","num_nodes":"31","size_leaf_vector":"1"}},{"base_weights":[-8.713831E-3,2.7731786E-2,-1.24090545E-1,-2.3580626E-2,8.9734696E-2,-2.6342574E-1,-4.506865E-2,1.5898965E-2,-3.855883E-1,1.1324824E-1,-7.67654E-1,6.073002E-2,-2.8995585E-1,-4.530632E-1,1.1619109E-2,-4.714655E-4,1.9215105E-2,-3.9456096E-2,-3.7008561E-3,4.6281763E-3,3.575717E-2,-4.859344E-2,6.657101E-3,-1.1211126E-2,-3.602485E-2,3.2166515E-2,-2.8481066E-2,-8.768768E-3,8.184308E-3],"categories":[],"categories_nodes":[],"categories_segments":[],"categories_sizes":[],"default_left":[0,0,0,0,0,0,0,0,0,0,0,0,0,0,0,0,0,0,0,0,0,0,0,0,0,0,0,0,0],"id":39,"left_children":[1,3,5,7,9,11,13,15,17,19,21,-1,23,25,27,-1,-1,-1,-1,-1,-1,-1,-1,-1,-1,-1,-1,-1,-1],"loss_changes":[7.011204E0,4.034047E0,4.3950176E0,9.927878E0,1.1660463E1,6.0237837E0,5.940085E0,5.8533897E0,8.5295E0,6.9011464E0,2.9719067E0,0E0,3.8825226E0,4.3700757E0,6.4630084E0,0E0,0E0,0E0,0E0,0E0,0E0,0E0,0E0,0E0,0E0,0E0,0E0,0E0,0E0],"parents":[2147483647,0,0,1,1,2,2,3,3,4,4,5,5,6,6,7,7,8,8,9,9,10,10,12,12,13,13,14,14],"right_children":[2,4,6,8,10,12,14,16,18,20,22,-1,24,26,28,-1,-1,-1,-1,-1,-1,-1,-1,-1,-1,-1,-1,-1,-1],"split_conditions":[1.2666144E-3,-2.2780959E-4,-5E-1,-3.9618474E-4,1.5145829E-3,4.1435165E1,3.784144E-4,2.2500695E-3,1.238618E-3,1.2112433E-3,9.5811975E-4,6.073002E-2,7.402338E1,1.6500137E-4,8.501404E-1,-4.714655E-4,1.9215105E-2,-3.9456096E-2,-3.7008561E-3,4.6281763E-3,3.575717E-2,-4.859344E-2,6.657101E-3,-1.1211126E-2,-3.602485E-2,3.2166515E-2,-2.8481066E-2,-8.768768E-3,8.184308E-3],"split_indices":[2,2,15,2,5,7,5,11,11,5,2,0,7,5,10,0,0,0,0,0,0,0,0,0,0,0,0,0,0],"split_type":[0,0,0,0,0,0,0,0,0,0,0,0,0,0,0,0,0,0,0,0,0,0,0,0,0,0,0,0,0],"sum_hessian":[1.6655408E3,1.2662977E3,3.992431E2,6.93221E2,5.7307666E2,1.4363875E2,2.5560434E2,6.259163E2,6.730469E1,5.586245E2,1.4452139E1,1.7431594E0,1.418956E2,3.0328814E1,2.2527553E2,5.865636E2,3.9352734E1,2.865685E1,3.8647835E1,5.411801E2,1.7444395E1,1.171695E1,2.7351882E0,1.2442037E2,1.7475224E1,2.4801462E0,2.7848667E1,1.0096597E2,1.24309555E2],"tree_param":{"num_deleted":"0","num_feature":"18","num_nodes":"29","size_leaf_vector":"1"}},{"base_weights":[-1.3984267E-2,-7.7443407E-3,-4.089707E-1,4.23746E-2,-5.825822E-2,-4.305452E-2,-8.0571E-1,-4.7853105E-2,1.5607913E-1,-1.0885713E-1,1.0316664E-1,1.8648581E-1,-5.0210364E-2,1.8365232E-2,-9.6555877E-1,-5.176633E-4,-1.9391334E-2,3.6703173E-2,6.7963316E-3,-3.3662822E-3,-1.5082754E-2,-5.918038E-3,1.5185453E-2,-1.5844982E-2,4.5351006E-2,4.1383095E-3,-6.347304E-2],"categories":[],"categories_nodes":[],"categories_segments":[],"categories_sizes":[],"default_left":[0,0,0,0,0,0,0,0,0,0,0,0,0,0,0,0,0,0,0,0,0,0,0,0,0,0,0],"id":40,"left_children":[1,3,5,7,9,11,13,15,17,19,21,23,-1,-1,25,-1,-1,-1,-1,-1,-1,-1,-1,-1,-1,-1,-1],"loss_changes":[4.1515627E0,4.2063766E0,3.7684135E0,8.564653E0,6.769499E0,3.4269753E0,2.700839E0,5.9347177E0,4.2014074E0,5.0277567E0,8.831071E0,4.8926754E0,0E0,0E0,3.7011633E0,0E0,0E0,0E0,0E0,0E0,0E0,0E0,0E0,0E0,0E0,0E0,0E0],"parents":[2147483647,0,0,1,1,2,2,3,3,4,4,5,5,6,6,7,7,8,8,9,9,10,10,11,11,14,14],"right_children":[2,4,6,8,10,12,14,16,18,20,22,24,-1,-1,26,-1,-1,-1,-1,-1,-1,-1,-1,-1,-1,-1,-1],"split_conditions":[5.467144E1,2.54288E-5,3.925445E-3,-1.8069071E-4,9.0580696E-4,5.743579E-4,1.9517973E-4,5.9066486E-1,-1.4272476E-4,4.7037838E-4,4.3084257E-4,-6.147004E-5,-5.0210364E-2,1.8365232E-2,-6.246107E-4,-5.176633E-4,-1.9391334E-2,3.6703173E-2,6.7963316E-3,-3.3662822E-3,-1.5082754E-2,-5.918038E-3,1.5185453E-2,-1.5844982E-2,4.5351006E-2,4.1383095E-3,-6.347304E-2],"split_indices":[12,0,4,2,9,1,5,10,2,9,0,1,0,0,0,0,0,0,0,0,0,0,0,0,0,0,0],"split_type":[0,0,0,0,0,0,0,0,0,0,0,0,0,0,0,0,0,0,0,0,0,0,0,0,0,0,0],"sum_hessian":[1.6847035E3,1.6595065E3,2.5196983E1,8.330905E2,8.264159E2,1.3684327E1,1.1512656E1,4.6482117E2,3.6826935E2,6.294419E2,1.9697403E2,1.1696881E1,1.9874458E0,1.2250527E0,1.0287603E1,4.1957193E2,4.524926E1,1.1214219E1,3.5705515E2,5.1899255E2,1.1044935E2,9.3785034E1,1.03188995E2,7.215864E0,4.481017E0,2.4755893E0,7.812014E0],"tree_param":{"num_deleted":"0","num_feature":"18","num_nodes":"27","size_leaf_vector":"1"}},{"base_weights":[-5.1465053E-3,2.2453293E-1,-1.3797348E-2,4.2369726E-1,-2.5484744E-1,-1.24500036E-1,1.1234544E-2,8.07693E-2,8.2183874E-1,4.1250527E-1,-6.6487455E-1,4.4217715E-1,-1.9412419E-1,8.100117E-2,-3.273109E-2,4.0765833E-2,-7.938391E-3,4.9787845E-2,2.1296032E-3,-1.7872728E-2,6.1145294E-2,-5.83602E-2,-8.704165E-3,7.0849426E-2,8.417227E-3,-2.1192132E-2,-3.2892667E-3,-1.0822334E-2,5.6833723E-3,2.097918E-2,-2.138298E-3],"categories":[],"categories_nodes":[],"categories_segments":[],"categories_sizes":[],"default_left":[0,0,0,0,0,0,0,0,0,0,0,0,0,0,0,0,0,0,0,0,0,0,0,0,0,0,0,0,0,0,0],"id":41,"left_children":[1,3,5,7,9,11,13,15,17,19,21,23,25,27,29,-1,-1,-1,-1,-1,-1,-1,-1,-1,-1,-1,-1,-1,-1,-1,-1],"loss_changes":[3.3721008E0,5.9896417E0,4.5321045E0,5.927143E0,5.392897E0,1.198543E1,4.095648E0,4.4742384E0,2.695815E0,5.264396E0,2.7478585E0,8.652152E0,7.911476E0,5.0395074E0,3.7365031E0,0E0,0E0,0E0,0E0,0E0,0E0,0E0,0E0,0E0,0E0,0E0,0E0,0E0,0E0,0E0,0E0],"parents":[2147483647,0,0,1,1,2,2,3,3,4,4,5,5,6,6,7,7,8,8,9,9,10,10,11,11,12,12,13,13,14,14],"right_children":[2,4,6,8,10,12,14,16,18,20,22,24,26,28,30,-1,-1,-1,-1,-1,-1,-1,-1,-1,-1,-1,-1,-1,-1,-1,-1],"split_conditions":[1.1726145E1,7.429105E1,1.7190538E1,1.0671672E1,1.2246469E-16,1.6751902E1,-1.39828E-4,-1.9826407E-4,9.17648E-4,6.150766E-4,8.9047867E-4,-7.0710677E-1,4.6114254E1,-6.425403E-3,-3.0861995E-3,4.0765833E-2,-7.938391E-3,4.9787845E-2,2.1296032E-3,-1.7872728E-2,6.1145294E-2,-5.83602E-2,-8.704165E-3,7.0849426E-2,8.417227E-3,-2.1192132E-2,-3.2892667E-3,-1.0822334E-2,5.6833723E-3,2.097918E-2,-2.138298E-3],"split_indices":[12,13,12,12,14,13,0,9,6,6,4,14,13,4,9,0,0,0,0,0,0,0,0,0,0,0,0,0,0,0,0],"split_type":[0,0,0,0,0,0,0,0,0,0,0,0,0,0,0,0,0,0,0,0,0,0,0,0,0,0,0,0,0,0,0],"sum_hessian":[1.69459E3,6.0603924E1,1.633986E3,4.289771E1,1.7706215E1,3.0060352E2,1.3333824E3,2.3693148E1,1.9204561E1,6.7362967E0,1.0969917E1,3.2306572E1,2.6829697E2,5.151218E2,8.182607E2,5.2352834E0,1.8457865E1,1.5473275E1,3.7312865E0,3.740947E0,2.9953496E0,4.740136E0,6.2297816E0,6.169443E0,2.613713E1,9.5340675E1,1.7295628E2,5.041689E1,4.647049E2,1.68738E1,8.0138684E2],"tree_param":{"num_deleted":"0","num_feature":"18","num_nodes":"31","size_leaf_vector":"1"}},{"base_weights":[6.224216E-3,3.728977E-2,-1.0313508E-1,8.43653E-3,2.8796977E-1,-7.369577E-1,-8.3809726E-2,3.641689E-2,-1.9627175E-1,3.7136462E-1,-2.8262505E-1,-4.541235E-2,-1.1630437E0,9.7948337E-1,-9.907036E-2,2.1836157E-4,1.605487E-2,-6.7343E-3,-4.8799608E-2,5.2570194E-2,1.4445393E-2,-4.0879673E-3,-6.2760584E-2,1.934917E-2,-3.3954922E-2,-6.815427E-2,-7.843578E-3,6.0126822E-2,7.2634327E-3,-1.9106517E-2,-3.4425862E-3],"categories":[],"categories_nodes":[],"categories_segments":[],"categories_sizes":[],"default_left":[0,0,0,0,0,0,0,0,0,0,0,0,0,0,0,0,0,0,0,0,0,0,0,0,0,0,0,0,0,0,0],"id":42,"left_children":[1,3,5,7,9,11,13,15,17,19,21,23,25,27,29,-1,-1,-1,-1,-1,-1,-1,-1,-1,-1,-1,-1,-1,-1,-1,-1],"loss_changes":[5.7286253E0,9.494713E0,4.5076814E0,6.7576065E0,6.5527363E0,3.161759E0,5.9895654E0,9.466183E0,6.6812787E0,6.349661E0,3.3838658E0,1.6875564E0,1.1366835E0,7.984781E-1,3.043707E0,0E0,0E0,0E0,0E0,0E0,0E0,0E0,0E0,0E0,0E0,0E0,0E0,0E0,0E0,0E0,0E0],"parents":[2147483647,0,0,1,1,2,2,3,3,4,4,5,5,6,6,7,7,8,8,9,9,10,10,11,11,12,12,13,13,14,14],"right_children":[2,4,6,8,10,12,14,16,18,20,22,24,26,28,30,-1,-1,-1,-1,-1,-1,-1,-1,-1,-1,-1,-1,-1,-1,-1,-1],"split_conditions":[2.13407E-3,7.878618E1,-1.1248771E-3,6.827314E1,1.4561999E-3,2.5881904E-1,5.5699927E-1,8.4411015E-4,2.4634644E-3,6.4259726E-1,1.9539588E-3,6.7189497E-1,7.317862E-1,2.811585E1,2.3284417E-3,2.1836157E-4,1.605487E-2,-6.7343E-3,-4.8799608E-2,5.2570194E-2,1.4445393E-2,-4.0879673E-3,-6.2760584E-2,1.934917E-2,-3.3954922E-2,-6.815427E-2,-7.843578E-3,6.0126822E-2,7.2634327E-3,-1.9106517E-2,-3.4425862E-3],"split_indices":[3,13,8,13,9,14,10,3,2,10,11,10,10,12,3,0,0,0,0,0,0,0,0,0,0,0,0,0,0,0,0],"split_type":[0,0,0,0,0,0,0,0,0,0,0,0,0,0,0,0,0,0,0,0,0,0,0,0,0,0,0,0,0,0,0],"sum_hessian":[1.6840933E3,1.3120421E3,3.720511E2,1.177541E3,1.3450117E2,9.909524E0,3.6214157E2,1.0366672E3,1.4087378E2,1.1765462E2,1.684656E1,4.199782E0,5.7097425E0,4.230006E0,3.5791156E2,9.3268036E2,1.0398687E2,1.3164835E2,9.225428E0,1.1452483E1,1.0620213E2,1.4861349E1,1.9852108E0,2.7277887E0,1.4719933E0,4.4669285E0,1.2428138E0,2.989225E0,1.2407812E0,3.3400585E1,3.24511E2],"tree_param":{"num_deleted":"0","num_feature":"18","num_nodes":"31","size_leaf_vector":"1"}},{"base_weights":[3.4929689E-3,-1.0477445E-1,2.559584E-2,-1.812841E-1,1.6431543E-1,3.54113E-1,1.3706317E-2,-9.068562E-2,-4.780989E-1,2.626324E-1,-4.8878372E-1,4.4519445E-1,-5.42852E-1,-5.195242E-1,2.417279E-2,2.5211447E-3,-1.8506194E-2,-5.1087797E-2,-9.030021E-3,-3.9148282E-2,1.7063402E-2,-5.8611628E-2,4.3417346E-2,1.0880091E-2,4.9576696E-2,1.0015945E-2,-4.227681E-2,-3.267136E-2,2.6827956E-2,2.017196E-3,-7.909328E-3],"categories":[],"categories_nodes":[],"categories_segments":[],"categories_sizes":[],"default_left":[0,0,0,0,0,0,0,0,0,0,0,0,0,0,0,0,0,0,0,0,0,0,0,0,0,0,0,0,0,0,0],"id":43,"left_children":[1,3,5,7,9,11,13,15,17,19,21,23,25,27,29,-1,-1,-1,-1,-1,-1,-1,-1,-1,-1,-1,-1,-1,-1,-1,-1],"loss_changes":[4.050341E0,5.9377575E0,5.4848323E0,5.9777822E0,4.2412558E0,4.248869E0,7.5884433E0,6.831614E0,8.246537E0,4.898115E0,9.115557E0,5.3892937E0,1.2878385E0,4.052189E0,3.9351466E0,0E0,0E0,0E0,0E0,0E0,0E0,0E0,0E0,0E0,0E0,0E0,0E0,0E0,0E0,0E0,0E0],"parents":[2147483647,0,0,1,1,2,2,3,3,4,4,5,5,6,6,7,7,8,8,9,9,10,10,11,11,12,12,13,13,14,14],"right_children":[2,4,6,8,10,12,14,16,18,20,22,24,26,28,30,-1,-1,-1,-1,-1,-1,-1,-1,-1,-1,-1,-1,-1,-1,-1,-1],"split_conditions":[5.548673E-4,7.965714E-4,5.7663E-4,5.973626E-4,1.082974E-3,1.2169186E-3,5.8750954E-4,1.06798136E-4,7.687112E-5,-7.117434E-4,7.371918E-4,1.2020497E-3,-3.628303E-4,1.1804433E-3,3.1581356E-3,2.5211447E-3,-1.8506194E-2,-5.1087797E-2,-9.030021E-3,-3.9148282E-2,1.7063402E-2,-5.8611628E-2,4.3417346E-2,1.0880091E-2,4.9576696E-2,1.0015945E-2,-4.227681E-2,-3.267136E-2,2.6827956E-2,2.017196E-3,-7.909328E-3],"split_indices":[6,8,6,2,1,9,6,4,4,2,0,3,1,9,2,0,0,0,0,0,0,0,0,0,0,0,0,0,0,0,0],"split_type":[0,0,0,0,0,0,0,0,0,0,0,0,0,0,0,0,0,0,0,0,0,0,0,0,0,0,0,0,0,0,0],"sum_hessian":[1.6904434E3,2.8596222E2,1.4044812E3,2.229093E2,6.305293E1,4.8049545E1,1.3564316E3,1.717811E2,5.1128197E1,5.5322582E1,7.730346E0,4.407741E1,3.9721317E0,2.5175783E1,1.3312559E3,1.1468695E2,5.7094154E1,1.722191E1,3.390629E1,3.2430954E0,5.207949E1,5.231841E0,2.4985049E0,3.210252E1,1.1974891E1,1.2474643E0,2.7246675E0,2.2681255E1,2.494529E0,1.2235349E3,1.0772098E2],"tree_param":{"num_deleted":"0","num_feature":"18","num_nodes":"31","size_leaf_vector":"1"}}]},"name":"gbtree"},"learner_model_param":{"base_score":"[5.073096E-1]","boost_from_average":"1","num_class":"0","num_feature":"18","num_target":"1"},"objective":{"name":"binary:logistic","reg_loss_param":{"scale_pos_weight":"1"}}},"version":[3,2,0]}