{"learner":{"attributes":{"best_iteration":"34","best_score":"0.6917154887710617","scikit_learn":"{\"_estimator_type\": \"classifier\"}"},"feature_names":["log_return_1h","log_return_3h","log_return_6h","log_return_12h","log_return_24h","vol_6h","vol_24h","rsi_14","macd_line","macd_signal","bbp_20","atr_14","adx_14","stoch_k","hour_sin","hour_cos","london_session","ny_session"],"feature_types":["float","float","float","float","float","float","float","float","float","float","float","float","float","float","float","float","int","int"],"gradient_booster":{"model":{"cats":{"enc":[],"feature_segments":[],"sorted_idx":[]},"gbtree_model_param":{"num_parallel_tree":"1","num_trees":"65"},"iteration_indptr":[0,1,2,3,4,5,6,7,8,9,10,11,12,13,14,15,16,17,18,19,20,21,22,23,24,25,26,27,28,29,30,31,32,33,34,35,36,37,38,39,40,41,42,43,44,45,46,47,48,49,50,51,52,53,54,55,56,57,58,59,60,61,62,63,64,65],"tree_info":[0,0,0,0,0,0,0,0,0,0,0,0,0,0,0,0,0,0,0,0,0,0,0,0,0,0,0,0,0,0,0,0,0,0,0,0,0,0,0,0,0,0,0,0,0,0,0,0,0,0,0,0,0,0,0,0,0,0,0,0,0,0,0,0,0],"trees":[{"base_weights":[-1.4839834E-2,8.662889E-2,-1.0465593E-1,1.3069524E-1,-1.4076553E-1,-3.0818162E-2,-1.8807809E-1,2.3931153E-1,-1.9738212E-2,2.5801986E-1,-2.48592E-1,-2.5980842E-1,6.070059E-2,-7.3572814E-1,-1.418394E-1,1.3711226E-2,-1.0011759E-2,-2.380762E-2,1.6458277E-3,2.6540453E-2,-2.791853E-2,-5.132853E-2,-7.177805E-3,-2.0240463E-2,7.568051E-3,5.848739E-3,-2.3204578E-2,-4.9058225E-2,1.729603E-2,-5.055225E-3,-2.59091E-2],"categories":[],"categories_nodes":[],"categories_segments":[],"categories_sizes":[],"default_left":[0,0,0,0,0,0,0,0,0,0,0,0,0,0,0,0,0,0,0,0,0,0,0,0,0,0,0,0,0,0,0],"id":0,"left_children":[1,3,5,7,9,11,13,15,17,19,21,23,25,27,29,-1,-1,-1,-1,-1,-1,-1,-1,-1,-1,-1,-1,-1,-1,-1,-1],"loss_changes":[1.5391789E1,7.96547E0,5.5121603E0,1.08682575E1,5.6207013E0,9.999671E0,1.0541603E1,5.9810333E0,6.7373447E0,6.5308127E0,8.206345E0,8.1828165E0,1.0130088E1,8.965641E0,5.9098563E0,0E0,0E0,0E0,0E0,0E0,0E0,0E0,0E0,0E0,0E0,0E0,0E0,0E0,0E0,0E0,0E0],"parents":[2147483647,0,0,1,1,2,2,3,3,4,4,5,5,6,6,7,7,8,8,9,9,10,10,11,11,12,12,13,13,14,14],"right_children":[2,4,6,8,10,12,14,16,18,20,22,24,26,28,30,-1,-1,-1,-1,-1,-1,-1,-1,-1,-1,-1,-1,-1,-1,-1,-1],"split_conditions":[2.2212873E-5,1.8514972E-3,6.491025E-5,8.952931E-5,1.0730501E1,-7.5547653E-4,1.12905E-4,6.791249E1,2.7454694E-4,1.5406291E-1,-3.2410584E-3,1.3859583E-3,2.1500995E-3,8.9557884E1,9.4416145E1,1.3711226E-2,-1.0011759E-2,-2.380762E-2,1.6458277E-3,2.6540453E-2,-2.791853E-2,-5.132853E-2,-7.177805E-3,-2.0240463E-2,7.568051E-3,5.848739E-3,-2.3204578E-2,-4.9058225E-2,1.729603E-2,-5.055225E-3,-2.59091E-2],"split_indices":[8,11,0,1,13,1,0,13,5,10,1,3,8,13,13,0,0,0,0,0,0,0,0,0,0,0,0,0,0,0,0],"split_type":[0,0,0,0,0,0,0,0,0,0,0,0,0,0,0,0,0,0,0,0,0,0,0,0,0,0,0,0,0,0,0],"sum_hessian":[1.6869008E3,7.92086E2,8.9481476E2,6.6386255E2,1.2822345E2,4.7540158E2,4.1941315E2,3.8517026E2,2.786923E2,2.6994411E1,1.0122904E2,1.35222E2,3.4017957E2,3.1493479E1,3.8791968E2,3.5717606E2,2.7994204E1,2.7994204E1,2.5069809E2,2.0495756E1,6.4986544E0,1.0997723E1,9.0231316E1,9.99793E1,3.5242702E1,3.0793625E2,3.2243324E1,2.5744669E1,5.74881E0,3.5117728E2,3.6742393E1],"tree_param":{"num_deleted":"0","num_feature":"18","num_nodes":"31","size_leaf_vector":"1"}},{"base_weights":[8.512392E-3,5.2209787E-2,-1.4795776E-1,1.0384048E-1,-2.5977986E-2,1.1954223E-2,-2.5460845E-1,-5.601326E-2,1.41373E-1,3.8659796E-2,-3.4975332E-1,-6.944987E-2,5.7376932E-2,-4.1350457E-1,-5.243017E-2,-2.5419999E-2,1.176742E-3,1.1109135E-4,1.002162E-2,7.996383E-3,-5.0556413E-3,-4.864734E-2,-8.842272E-3,7.0206885E-4,6.0924035E-2,-2.2973714E-2,3.908192E-2,1.955181E-2,-1.00265965E-2],"categories":[],"categories_nodes":[],"categories_segments":[],"categories_sizes":[],"default_left":[0,0,0,0,0,0,0,0,0,0,0,0,0,0,0,0,0,0,0,0,0,0,0,0,0,0,0,0,0],"id":1,"left_children":[1,3,5,7,9,11,13,15,17,19,21,-1,23,25,27,-1,-1,-1,-1,-1,-1,-1,-1,-1,-1,-1,-1,-1,-1],"loss_changes":[1.1664255E1,5.385491E0,6.354789E0,4.8274183E0,1.1128719E1,9.622674E0,7.157339E0,5.5344367E0,5.3481865E0,7.5356374E0,9.362617E0,0E0,7.3400025E0,7.22575E0,6.6124735E0,0E0,0E0,0E0,0E0,0E0,0E0,0E0,0E0,0E0,0E0,0E0,0E0,0E0,0E0],"parents":[2147483647,0,0,1,1,2,2,3,3,4,4,5,5,6,6,7,7,8,8,9,9,10,10,12,12,13,13,14,14],"right_children":[2,4,6,8,10,12,14,16,18,20,22,-1,24,26,28,-1,-1,-1,-1,-1,-1,-1,-1,-1,-1,-1,-1,-1,-1],"split_conditions":[1.3890759E-3,5E-1,1.2133747E-4,1.6685328E1,1.1946155E-3,1.4073959E-3,8.2100625E-4,-9.227533E-4,-8.675856E-4,2.54288E-5,1.4353058E-3,-6.944987E-2,6.194057E-3,2.618187E-3,2.0816538E-3,-2.5419999E-2,1.176742E-3,1.1109135E-4,1.002162E-2,7.996383E-3,-5.0556413E-3,-4.864734E-2,-8.842272E-3,7.0206885E-4,6.0924035E-2,-2.2973714E-2,3.908192E-2,1.955181E-2,-1.00265965E-2],"split_indices":[2,15,0,12,9,2,0,0,8,0,9,0,2,11,2,0,0,0,0,0,0,0,0,0,0,0,0,0,0],"split_type":[0,0,0,0,0,0,0,0,0,0,0,0,0,0,0,0,0,0,0,0,0,0,0,0,0,0,0,0,0],"sum_hessian":[1.7038346E3,1.3324014E3,3.714332E2,8.022883E2,5.30113E2,1.4896423E2,2.2246896E2,1.5245953E2,6.498288E2,4.4262827E2,8.748472E1,3.749226E0,1.4521501E2,1.2398293E2,9.848604E1,2.1993326E1,1.304662E2,1.9393411E2,4.558947E2,2.3692554E2,2.0570273E2,1.7996151E1,6.948856E1,1.4096587E2,4.2491374E0,1.1998347E2,3.9994674E0,2.4245764E1,7.424027E1],"tree_param":{"num_deleted":"0","num_feature":"18","num_nodes":"29","size_leaf_vector":"1"}},{"base_weights":[-6.7801625E-3,4.30163E-2,-1.9195382E-1,9.705656E-2,-3.846939E-2,-7.22395E-1,-1.5084921E-1,4.931598E-1,7.832648E-2,-6.72307E-2,6.734122E-1,-8.5509163E-1,2.245581E-2,-1.1446143E-1,-7.3139745E-1,-3.4653854E-3,4.3241106E-2,5.360465E-3,-9.131531E-3,-4.7240932E-3,2.758318E-2,4.3157935E-2,-2.0845586E-2,1.1901374E-2,-5.1438726E-2,-7.837359E-3,1.5620281E-2,-4.976863E-2,-4.2622644E-3],"categories":[],"categories_nodes":[],"categories_segments":[],"categories_sizes":[],"default_left":[0,0,0,0,0,0,0,0,0,0,0,0,0,0,0,0,0,0,0,0,0,0,0,0,0,0,0,0,0],"id":2,"left_children":[1,3,5,7,9,11,13,15,17,19,21,23,-1,25,27,-1,-1,-1,-1,-1,-1,-1,-1,-1,-1,-1,-1,-1,-1],"loss_changes":[1.55848675E1,5.8695292E0,7.7006626E0,5.905513E0,1.0935197E1,4.3475103E0,6.9653444E0,7.582752E0,5.794671E0,8.68947E0,4.6516886E0,4.6583023E0,0E0,5.73827E0,3.2404985E0,0E0,0E0,0E0,0E0,0E0,0E0,0E0,0E0,0E0,0E0,0E0,0E0,0E0,0E0],"parents":[2147483647,0,0,1,1,2,2,3,3,4,4,5,5,6,6,7,7,8,8,9,9,10,10,11,11,13,13,14,14],"right_children":[2,4,6,8,10,12,14,16,18,20,22,24,-1,26,28,-1,-1,-1,-1,-1,-1,-1,-1,-1,-1,-1,-1,-1,-1],"split_conditions":[6.1615715E1,8.0062244E-5,-2.1260385E-4,-9.659258E-1,3.6353283E-3,4.805347E-3,7.684808E-3,-2.502231E-4,3.938014E1,6.064493E1,3.3506202E-3,1.1467779E-4,2.245581E-2,1.9656043E-3,7.8155075E1,-3.4653854E-3,4.3241106E-2,5.360465E-3,-9.131531E-3,-4.7240932E-3,2.758318E-2,4.3157935E-2,-2.0845586E-2,1.1901374E-2,-5.1438726E-2,-7.837359E-3,1.5620281E-2,-4.976863E-2,-4.2622644E-3],"split_indices":[7,1,2,15,3,3,3,9,12,7,1,3,0,11,7,0,0,0,0,0,0,0,0,0,0,0,0,0,0],"split_type":[0,0,0,0,0,0,0,0,0,0,0,0,0,0,0,0,0,0,0,0,0,0,0,0,0,0,0,0,0],"sum_hessian":[1.688255E3,1.3310735E3,3.5718146E2,8.002001E2,5.308735E2,2.4495874E1,3.3268558E2,3.4986057E1,7.65214E2,5.111285E2,1.9744967E1,2.2246157E1,2.2497177E0,3.1418985E2,1.8495726E1,1.4243581E1,2.0742477E1,6.894902E2,7.572386E1,4.9038327E2,2.0745224E1,1.6995605E1,2.7493594E0,2.999231E0,1.9246925E1,2.8644702E2,2.7742844E1,1.2747483E1,5.748242E0],"tree_param":{"num_deleted":"0","num_feature":"18","num_nodes":"29","size_leaf_vector":"1"}},{"base_weights":[-5.5423384E-3,1.2088478E-2,-3.4689188E-1,6.797179E-2,-5.6855954E-2,-6.594011E-1,2.9042335E-2,5.5225253E-2,6.2031966E-1,-9.561398E-2,2.147428E-1,-7.3520005E-1,3.296751E-2,-2.307858E-1,5.769426E-1,3.2894865E-3,-3.6184274E-2,6.350871E-2,6.433231E-3,-3.0596925E-2,-3.6239976E-3,2.9336384E-2,-5.7716947E-4,-7.7053614E-2,-3.159153E-2,1.315266E-4,-4.054519E-2,5.9265595E-2,-3.481641E-4],"categories":[],"categories_nodes":[],"categories_segments":[],"categories_sizes":[],"default_left":[0,0,0,0,0,0,0,0,0,0,0,0,0,0,0,0,0,0,0,0,0,0,0,0,0,0,0,0,0],"id":3,"left_children":[1,3,5,7,9,11,13,15,17,19,21,23,-1,25,27,-1,-1,-1,-1,-1,-1,-1,-1,-1,-1,-1,-1,-1,-1],"loss_changes":[1.019869E1,6.2134767E0,9.797067E0,6.236188E0,7.6215405E0,5.031952E0,5.647914E0,7.220072E0,6.223963E0,7.511748E0,7.6231203E0,2.6491737E0,0E0,3.6569917E0,4.5363493E0,0E0,0E0,0E0,0E0,0E0,0E0,0E0,0E0,0E0,0E0,0E0,0E0,0E0,0E0],"parents":[2147483647,0,0,1,1,2,2,3,3,4,4,5,5,6,6,7,7,8,8,9,9,10,10,11,11,13,13,14,14],"right_children":[2,4,6,8,10,12,14,16,18,20,22,24,-1,26,28,-1,-1,-1,-1,-1,-1,-1,-1,-1,-1,-1,-1,-1,-1],"split_conditions":[7.3230597E-3,7.9191916E-5,1.8514972E-3,4.9105613E-3,1.249472E-3,1E0,2.5881904E-1,2.2880216E-3,8.397937E-4,8.885292E-4,1.4713141E-3,1.4507828E-3,3.296751E-2,7.684808E-3,1.091732E-2,3.2894865E-3,-3.6184274E-2,6.350871E-2,6.433231E-3,-3.0596925E-2,-3.6239976E-3,2.9336384E-2,-5.7716947E-4,-7.7053614E-2,-3.159153E-2,1.315266E-4,-4.054519E-2,5.9265595E-2,-3.481641E-4],"split_indices":[4,0,11,3,8,14,14,8,5,11,8,8,0,3,4,0,0,0,0,0,0,0,0,0,0,0,0,0,0],"split_type":[0,0,0,0,0,0,0,0,0,0,0,0,0,0,0,0,0,0,0,0,0,0,0,0,0,0,0,0,0],"sum_hessian":[1.6929246E3,1.6106962E3,8.222839E1,8.8962195E2,7.210742E2,4.449022E1,3.7738174E1,8.7063043E2,1.8991564E1,6.315919E2,8.948226E1,4.2490463E1,1.9997551E0,2.5991251E1,1.1746925E1,8.5988324E2,1.0747187E1,7.497773E0,1.1493791E1,2.599359E1,6.055983E2,3.324272E1,5.623954E1,3.249428E0,3.9241035E1,1.9243784E1,6.747466E0,5.248531E0,6.498394E0],"tree_param":{"num_deleted":"0","num_feature":"18","num_nodes":"29","size_leaf_vector":"1"}},{"base_weights":[1.2482665E-2,1.9872504E-1,-1.9217843E-2,7.317449E-2,3.724047E-1,1.5724649E-1,-4.4139955E-2,1.08432956E-1,-9.8896116E-1,6.504335E-1,1.7774366E-1,-5.7454627E-2,1.8212461E-1,-1.3421016E0,-3.7965447E-2,1.714404E-2,-1.5661601E-3,-1.8443743E-2,-6.527798E-2,3.8797043E-2,-1.7209373E-3,-5.1832993E-2,1.39466245E-2,1.0732468E-2,-3.3627395E-2,-2.7693892E-2,-7.681503E-2,-1.5188957E-3,-4.3242842E-2],"categories":[],"categories_nodes":[],"categories_segments":[],"categories_sizes":[],"default_left":[0,0,0,0,0,0,0,0,0,0,0,0,0,0,0,0,0,0,0,0,0,0,0,0,0,0,0,0,0],"id":4,"left_children":[1,3,5,7,9,11,13,15,17,19,21,-1,23,25,27,-1,-1,-1,-1,-1,-1,-1,-1,-1,-1,-1,-1,-1,-1],"loss_changes":[1.0030713E1,5.361249E0,6.393575E0,5.5252385E0,5.4826975E0,6.0570164E0,1.0153444E1,4.628341E0,4.5036125E-1,3.6558666E0,7.934726E0,0E0,5.076699E0,6.740379E-2,7.9309955E0,0E0,0E0,0E0,0E0,0E0,0E0,0E0,0E0,0E0,0E0,0E0,0E0,0E0,0E0],"parents":[2147483647,0,0,1,1,2,2,3,3,4,4,5,5,6,6,7,7,8,8,9,9,10,10,12,12,13,13,14,14],"right_children":[2,4,6,8,10,12,14,16,18,20,22,-1,24,26,28,-1,-1,-1,-1,-1,-1,-1,-1,-1,-1,-1,-1,-1,-1],"split_conditions":[1.6471397E1,-4.1956163E-4,-8.660254E-1,-7.490202E-4,-3.340433E-4,-2.7484759E-3,-7.264117E-3,-3.324667E-4,-8.2862016E-4,4.0467308E1,-1.10501826E-1,-5.7454627E-2,3.066019E-3,-2.6248028E-3,9.761705E1,1.714404E-2,-1.5661601E-3,-1.8443743E-2,-6.527798E-2,3.8797043E-2,-1.7209373E-3,-5.1832993E-2,1.39466245E-2,1.0732468E-2,-3.3627395E-2,-2.7693892E-2,-7.681503E-2,-1.5188957E-3,-4.3242842E-2],"split_indices":[13,9,14,8,8,1,3,0,1,7,10,0,1,9,13,0,0,0,0,0,0,0,0,0,0,0,0,0,0],"split_type":[0,0,0,0,0,0,0,0,0,0,0,0,0,0,0,0,0,0,0,0,0,0,0,0,0,0,0,0,0],"sum_hessian":[1.6973285E3,2.4611563E2,1.4512129E3,1.4367577E2,1.0243986E2,1.789344E2,1.2722784E3,1.3992863E2,3.7471354E0,4.1222122E1,6.121774E1,2.499472E0,1.7643494E2,4.9992967E0,1.2672792E3,5.1717148E1,8.821149E1,1.9983352E0,1.7488002E0,3.4725292E1,6.4968286E0,3.9975E0,5.7220238E1,1.7068822E2,5.7467237E0,1.7496904E0,3.2496061E0,1.2567837E3,1.0495477E1],"tree_param":{"num_deleted":"0","num_feature":"18","num_nodes":"29","size_leaf_vector":"1"}},{"base_weights":[-1.1982313E-2,6.9589466E-2,-8.175143E-2,9.700765E-2,-2.0814991E-1,8.454492E-1,-9.15873E-2,8.572168E-2,1.0272325E0,3.0899623E-1,-3.703078E-1,1.2078148E0,9.217674E-2,-1.0459415E0,-8.383466E-2,4.7599105E-3,-4.066241E-2,6.385145E-2,-1.1694488E-2,-6.418039E-3,4.5462765E-2,-9.343166E-3,-4.5679785E-2,7.0344865E-2,1.0318874E-2,-5.6254096E-2,4.8717346E-2,-7.680676E-2,-1.3174906E-2,-2.2781735E-2,-3.2317347E-3],"categories":[],"categories_nodes":[],"categories_segments":[],"categories_sizes":[],"default_left":[0,0,0,0,0,0,0,0,0,0,0,0,0,0,0,0,0,0,0,0,0,0,0,0,0,0,0,0,0,0,0],"id":5,"left_children":[1,3,5,7,9,11,13,15,17,19,21,23,25,27,29,-1,-1,-1,-1,-1,-1,-1,-1,-1,-1,-1,-1,-1,-1,-1,-1],"loss_changes":[9.706223E0,6.008085E0,8.460057E0,7.432529E0,6.0657473E0,2.5489407E0,6.648285E0,6.1162214E0,2.9750938E0,4.707273E0,5.259123E0,1.0051126E0,5.6580443E0,2.3755755E0,6.4250107E0,0E0,0E0,0E0,0E0,0E0,0E0,0E0,0E0,0E0,0E0,0E0,0E0,0E0,0E0,0E0,0E0],"parents":[2147483647,0,0,1,1,2,2,3,3,4,4,5,5,6,6,7,7,8,8,9,9,10,10,11,11,12,12,13,13,14,14],"right_children":[2,4,6,8,10,12,14,16,18,20,22,24,26,28,30,-1,-1,-1,-1,-1,-1,-1,-1,-1,-1,-1,-1,-1,-1,-1,-1],"split_conditions":[5.0061905E1,1.4213906E-3,-2.34472E-3,2.277706E-3,-4.7913687E-3,1.5568024E-3,-9.879918E-4,2.2132841E-3,1.9934294E-3,-1.0715176E-3,8.660254E-1,-6.225492E-4,2.0777027E-3,9.737487E-4,1.8889162E-4,4.7599105E-3,-4.066241E-2,6.385145E-2,-1.1694488E-2,-6.418039E-3,4.5462765E-2,-9.343166E-3,-4.5679785E-2,7.0344865E-2,1.0318874E-2,-5.6254096E-2,4.8717346E-2,-7.680676E-2,-1.3174906E-2,-2.2781735E-2,-3.2317347E-3],"split_indices":[7,6,1,11,2,5,8,2,1,9,14,2,5,5,5,0,0,0,0,0,0,0,0,0,0,0,0,0,0,0,0],"split_type":[0,0,0,0,0,0,0,0,0,0,0,0,0,0,0,0,0,0,0,0,0,0,0,0,0,0,0,0,0,0,0],"sum_hessian":[1.7034823E3,7.853174E2,9.18165E2,7.153494E2,6.996794E1,8.746018E0,9.0941895E2,7.078536E2,7.4958925E0,1.6486015E1,5.3481926E1,5.4978337E0,3.2481847E0,6.2489986E0,9.031699E2,7.013543E2,6.4992495E0,6.246087E0,1.2498056E0,9.991921E0,6.4940934E0,4.0986523E1,1.2495403E1,4.2483892E0,1.2494445E0,1.2491684E0,1.9990164E0,3.2497842E0,2.9992144E0,4.3233753E1,8.5993616E2],"tree_param":{"num_deleted":"0","num_feature":"18","num_nodes":"31","size_leaf_vector":"1"}},{"base_weights":[-1.6663152E-3,1.479344E-2,-3.0732635E-1,2.1593028E-1,-2.132286E-3,-6.4370954E-1,1.4940548E-1,-3.123E-1,3.1378296E-1,-2.9793225E-2,1.3904898E-1,9.999072E-1,-7.699342E-1,5.1497006E-1,-1.8758076E-1,-2.482237E-2,3.0898241E-2,6.203493E-3,2.6760032E-2,-8.0230786E-4,-3.0167773E-2,5.803103E-2,5.581179E-3,1.0429422E-2,6.4181976E-2,-6.20546E-3,-4.2626794E-2,-1.1852542E-2,3.3921804E-2,-2.4128104E-2,3.456096E-2],"categories":[],"categories_nodes":[],"categories_segments":[],"categories_sizes":[],"default_left":[0,0,0,0,0,0,0,0,0,0,0,0,0,0,0,0,0,0,0,0,0,0,0,0,0,0,0,0,0,0,0],"id":6,"left_children":[1,3,5,7,9,11,13,15,17,19,21,23,25,27,29,-1,-1,-1,-1,-1,-1,-1,-1,-1,-1,-1,-1,-1,-1,-1,-1],"loss_changes":[8.510401E0,5.465261E0,1.33758745E1,6.5386734E0,5.7901673E0,1.1135672E1,4.7127194E0,3.728816E0,4.3706284E0,9.7652E0,6.675938E0,6.2999296E-1,2.3996334E0,2.403139E0,5.5779967E0,0E0,0E0,0E0,0E0,0E0,0E0,0E0,0E0,0E0,0E0,0E0,0E0,0E0,0E0,0E0,0E0],"parents":[2147483647,0,0,1,1,2,2,3,3,4,4,5,5,6,6,7,7,8,8,9,9,10,10,11,11,12,12,13,13,14,14],"right_children":[2,4,6,8,10,12,14,16,18,20,22,24,26,28,30,-1,-1,-1,-1,-1,-1,-1,-1,-1,-1,-1,-1,-1,-1,-1,-1],"split_conditions":[7.3230597E-3,1.0424159E1,1.8514972E-3,-8.660254E-1,1.1120584E-3,-1.1446376E-3,1.1741075E-3,-2.6398955E-3,-4.42303E-3,4.635872E-3,-2.5286223E-3,-1.7556484E-3,2.6433908E1,8.8905194E-4,7.0710677E-1,-2.482237E-2,3.0898241E-2,6.203493E-3,2.6760032E-2,-8.0230786E-4,-3.0167773E-2,5.803103E-2,5.581179E-3,1.0429422E-2,6.4181976E-2,-6.20546E-3,-4.2626794E-2,-1.1852542E-2,3.3921804E-2,-2.4128104E-2,3.456096E-2],"split_indices":[4,13,11,14,8,1,6,4,4,4,1,1,12,6,14,0,0,0,0,0,0,0,0,0,0,0,0,0,0,0,0],"split_type":[0,0,0,0,0,0,0,0,0,0,0,0,0,0,0,0,0,0,0,0,0,0,0,0,0,0,0,0,0,0,0],"sum_hessian":[1.6896587E3,1.604223E3,8.5435616E1,1.2360505E2,1.480618E3,4.896413E1,3.6471485E1,1.8976137E1,1.04628914E2,1.2387123E3,2.4190572E2,2.9984603E0,4.5965668E1,1.724061E1,1.9230875E1,1.6229767E1,2.7463703E0,5.7189053E1,4.7439857E1,1.2107218E3,2.7990454E1,5.2442145E0,2.366615E2,1.2493181E0,1.7491422E0,5.496164E0,4.0469505E1,2.9980419E0,1.4242567E1,1.4735565E1,4.49531E0],"tree_param":{"num_deleted":"0","num_feature":"18","num_nodes":"31","size_leaf_vector":"1"}},{"base_weights":[-7.6396633E-3,1.6754527E-1,-4.6616245E-2,2.3526028E-1,-7.216371E-2,3.328024E-1,-6.462811E-2,6.1116237E-2,3.3754843E-1,8.5490406E-1,-1.7809166E-1,4.9440724E-1,-2.5751024E-1,-2.1355437E-1,-3.0036474E-2,1.4007431E-2,-7.325437E-3,8.230995E-3,2.9499397E-2,6.89878E-2,1.4418641E-2,-5.8507036E-2,-2.6296258E-3,1.463708E-2,4.7825243E-2,6.6305823E-3,-5.0282646E-2,-5.137079E-2,-8.051658E-3,-1.0321318E-3,-4.2374466E-2],"categories":[],"categories_nodes":[],"categories_segments":[],"categories_sizes":[],"default_left":[0,0,0,0,0,0,0,0,0,0,0,0,0,0,0,0,0,0,0,0,0,0,0,0,0,0,0,0,0,0,0],"id":7,"left_children":[1,3,5,7,9,11,13,15,17,19,21,23,25,27,29,-1,-1,-1,-1,-1,-1,-1,-1,-1,-1,-1,-1,-1,-1,-1,-1],"loss_changes":[1.161752E1,5.0433836E0,9.531884E0,4.284547E0,6.9255958E0,6.1594706E0,6.842059E0,4.1636457E0,6.53985E0,1.7564492E0,7.748188E0,4.3779907E0,4.291749E0,1.053854E1,8.275631E0,0E0,0E0,0E0,0E0,0E0,0E0,0E0,0E0,0E0,0E0,0E0,0E0,0E0,0E0,0E0,0E0],"parents":[2147483647,0,0,1,1,2,2,3,3,4,4,5,5,6,6,7,7,8,8,9,9,10,10,11,11,12,12,13,13,14,14],"right_children":[2,4,6,8,10,12,14,16,18,20,22,24,26,28,30,-1,-1,-1,-1,-1,-1,-1,-1,-1,-1,-1,-1,-1,-1,-1,-1],"split_conditions":[1.974636E1,-9.297822E-5,1.1866244E1,-4.7574015E-3,7.5819783E0,6.893065E-4,1.7190538E1,1.6011623E-3,7.821887E-4,1.0131642E-4,9.803778E-4,1.2957426E-3,8.660254E-1,-1.6827743E-3,2.6271131E-3,1.4007431E-2,-7.325437E-3,8.230995E-3,2.9499397E-2,6.89878E-2,1.4418641E-2,-5.8507036E-2,-2.6296258E-3,1.463708E-2,4.7825243E-2,6.6305823E-3,-5.0282646E-2,-5.137079E-2,-8.051658E-3,-1.0321318E-3,-4.2374466E-2],"split_indices":[13,1,12,4,13,1,12,11,6,0,11,11,14,1,0,0,0,0,0,0,0,0,0,0,0,0,0,0,0,0,0],"split_type":[0,0,0,0,0,0,0,0,0,0,0,0,0,0,0,0,0,0,0,0,0,0,0,0,0,0,0,0,0,0,0],"sum_hessian":[1.6992814E3,3.086624E2,1.390619E3,2.406891E2,6.797332E1,6.223188E1,1.3283871E3,8.965326E1,1.5103584E2,6.2452326E0,6.172809E1,4.8984325E1,1.3247553E1,2.4941502E2,1.078972E3,4.3458134E1,4.619513E1,9.061442E1,6.0421425E1,2.496735E0,3.7484975E0,5.9972177E0,5.573087E1,3.523904E1,1.3745288E1,9.24793E0,3.999623E0,1.3994611E1,2.3542041E2,1.0677274E3,1.1244638E1],"tree_param":{"num_deleted":"0","num_feature":"18","num_nodes":"31","size_leaf_vector":"1"}},{"base_weights":[-1.547251E-2,1.3387856E-1,-5.092863E-2,1.5359545E-1,-6.2300646E-1,-7.0541173E-1,-3.7313294E-2,1.250365E-2,2.550402E-1,-8.9472353E-1,1.9337067E-2,5.6372304E-2,-9.293477E-1,-9.198654E-3,-2.0259713E-1,8.539238E-3,-1.2038224E-2,2.8055016E-2,6.4883553E-3,-6.838919E-2,-1.5369367E-3,-7.602583E-4,-5.2528333E-2,-2.626734E-3,6.348452E-3,1.0497349E-2,-1.6382547E-2],"categories":[],"categories_nodes":[],"categories_segments":[],"categories_sizes":[],"default_left":[0,0,0,0,0,0,0,0,0,0,0,0,0,0,0,0,0,0,0,0,0,0,0,0,0,0,0],"id":8,"left_children":[1,3,5,7,9,11,13,15,17,19,-1,-1,21,23,25,-1,-1,-1,-1,-1,-1,-1,-1,-1,-1,-1,-1],"loss_changes":[9.019229E0,4.9726443E0,1.2236387E1,4.5670147E0,2.6766975E0,1.25355215E1,6.267458E0,5.437123E0,7.0470676E0,2.817079E0,0E0,0E0,2.8085537E0,6.8167553E0,1.0184562E1,0E0,0E0,0E0,0E0,0E0,0E0,0E0,0E0,0E0,0E0,0E0,0E0],"parents":[2147483647,0,0,1,1,2,2,3,3,4,4,5,5,6,6,7,7,8,8,9,9,12,12,13,13,14,14],"right_children":[2,4,6,8,10,12,14,16,18,20,-1,-1,22,24,26,-1,-1,-1,-1,-1,-1,-1,-1,-1,-1,-1,-1],"split_conditions":[2.0769257E1,3.3946966E-3,2.2220812E1,-4.2347E-3,5.474837E-3,-1.7537486E-3,1.5563371E-3,-5.5735027E-3,-3.0928182E-3,-1.0831174E-3,1.9337067E-2,5.6372304E-2,9.5262384E-4,7.8773544E1,7.081223E1,8.539238E-3,-1.2038224E-2,2.8055016E-2,6.4883553E-3,-6.838919E-2,-1.5369367E-3,-7.602583E-4,-5.2528333E-2,-2.626734E-3,6.348452E-3,1.0497349E-2,-1.6382547E-2],"split_indices":[13,4,13,4,4,9,8,4,3,2,0,0,11,13,13,0,0,0,0,0,0,0,0,0,0,0,0],"split_type":[0,0,0,0,0,0,0,0,0,0,0,0,0,0,0,0,0,0,0,0,0,0,0,0,0,0,0],"sum_hessian":[1.7009291E3,3.257986E2,1.3751305E3,3.1830386E2,7.4947624E0,2.6988638E1,1.3481418E3,1.3360544E2,1.8469841E2,5.9953613E0,1.4994016E0,2.4991403E0,2.4489498E1,1.1530625E3,1.950793E2,8.242145E1,5.1183994E1,5.263197E1,1.3206644E2,3.4973407E0,2.4980206E0,2.9989674E0,2.149053E1,8.7515454E2,2.77908E2,4.5220634E1,1.4985867E2],"tree_param":{"num_deleted":"0","num_feature":"18","num_nodes":"27","size_leaf_vector":"1"}},{"base_weights":[-6.3164127E-3,8.6484306E-2,-7.211845E-2,6.455056E-2,4.719048E-1,7.9693335E-1,-7.908186E-2,8.4739506E-2,-3.5953575E-1,-1.5356863E-1,9.647365E-1,1.0232959E0,-1.1806665E-2,-4.696942E-1,-6.558153E-2,1.4723465E-2,2.5911804E-3,1.5028034E-2,-3.0380933E-2,5.8630556E-2,-1.7565642E-2,6.1301988E-2,-1.8396018E-2,-1.8651584E-3,6.6705994E-2,-3.0309243E-2,4.221218E-2,1.4768562E-2,-4.1010557E-3],"categories":[],"categories_nodes":[],"categories_segments":[],"categories_sizes":[],"default_left":[0,0,0,0,0,0,0,0,0,0,0,0,0,0,0,0,0,0,0,0,0,0,0,0,0,0,0,0,0],"id":9,"left_children":[1,3,5,7,9,11,13,15,17,19,21,23,-1,25,27,-1,-1,-1,-1,-1,-1,-1,-1,-1,-1,-1,-1,-1,-1],"loss_changes":[1.03508625E1,5.9149394E0,6.0646763E0,5.7376194E0,1.1772282E1,2.1062589E0,5.1623273E0,4.3829055E0,5.174267E0,4.9962864E0,7.843443E0,2.2677255E0,0E0,6.3827505E0,5.6794987E0,0E0,0E0,0E0,0E0,0E0,0E0,0E0,0E0,0E0,0E0,0E0,0E0,0E0,0E0],"parents":[2147483647,0,0,1,1,2,2,3,3,4,4,5,5,6,6,7,7,8,8,9,9,10,10,11,11,13,13,14,14],"right_children":[2,4,6,8,10,12,14,16,18,20,22,24,-1,26,28,-1,-1,-1,-1,-1,-1,-1,-1,-1,-1,-1,-1,-1,-1],"split_conditions":[4.8549675E1,1.100319E-3,-2.5286223E-3,2.645561E-4,-4.3568376E-4,3.0259045E-3,4.9213634E1,-1.9374166E-3,5.948069E-4,1.2719159E-3,8.952931E-5,1.3630461E-3,-1.1806665E-2,7.826044E-4,5.0061905E1,1.4723465E-2,2.5911804E-3,1.5028034E-2,-3.0380933E-2,5.8630556E-2,-1.7565642E-2,6.1301988E-2,-1.8396018E-2,-1.8651584E-3,6.6705994E-2,-3.0309243E-2,4.221218E-2,1.4768562E-2,-4.1010557E-3],"split_indices":[7,4,1,8,0,8,7,9,6,4,1,9,0,0,7,0,0,0,0,0,0,0,0,0,0,0,0,0,0],"split_type":[0,0,0,0,0,0,0,0,0,0,0,0,0,0,0,0,0,0,0,0,0,0,0,0,0,0,0,0,0],"sum_hessian":[1.6930416E3,7.0228864E2,9.90753E2,6.655789E2,3.6709682E1,6.973675E0,9.837793E2,6.360972E2,2.9481697E1,1.6481153E1,2.022853E1,5.728025E0,1.24565E0,3.1736574E1,9.520427E2,8.5211334E1,5.5088586E2,7.9955873E0,2.148611E1,1.498884E0,1.498227E1,1.6979288E1,3.2492425E0,1.4976627E0,4.2303624E0,2.9238008E1,2.4985666E0,4.0732815E1,9.1130994E2],"tree_param":{"num_deleted":"0","num_feature":"18","num_nodes":"29","size_leaf_vector":"1"}},{"base_weights":[-8.2953395E-3,3.0261671E-2,-1.775941E-1,9.889169E-2,-5.6782708E-2,4.100624E-1,-2.0807128E-1,-3.9455575E-1,1.185881E-1,-6.0402024E-1,-3.9482802E-2,1.0265446E0,-2.3649602E-1,-2.646679E-1,7.452215E-2,-2.2834262E-3,-5.034072E-2,5.401685E-3,3.683054E-2,3.7441835E-2,-4.186801E-2,1.1781807E-2,-3.911953E-3,7.096701E-2,-3.258045E-2,-5.71551E-2,1.659286E-2,1.2878537E-2,-1.5085052E-2,-9.68458E-3,4.3169502E-2],"categories":[],"categories_nodes":[],"categories_segments":[],"categories_sizes":[],"default_left":[0,0,0,0,0,0,0,0,0,0,0,0,0,0,0,0,0,0,0,0,0,0,0,0,0,0,0,0,0,0,0],"id":10,"left_children":[1,3,5,7,9,11,13,15,17,19,21,23,25,27,29,-1,-1,-1,-1,-1,-1,-1,-1,-1,-1,-1,-1,-1,-1,-1,-1],"loss_changes":[1.09975195E1,8.204264E0,5.682477E0,7.508618E0,5.7101784E0,6.5186586E0,4.7821827E0,6.298233E0,4.7411137E0,6.4640803E0,6.2900043E0,6.361227E0,4.758061E0,4.879925E0,1.0844963E1,0E0,0E0,0E0,0E0,0E0,0E0,0E0,0E0,0E0,0E0,0E0,0E0,0E0,0E0,0E0,0E0],"parents":[2147483647,0,0,1,1,2,2,3,3,4,4,5,5,6,6,7,7,8,8,9,9,10,10,11,11,12,12,13,13,14,14],"right_children":[2,4,6,8,10,12,14,16,18,20,22,24,26,28,30,-1,-1,-1,-1,-1,-1,-1,-1,-1,-1,-1,-1,-1,-1,-1,-1],"split_conditions":[6.2950787E1,5.108678E-5,6.219388E1,-3.6529347E-3,4.3396425E-4,3.8353565E1,8.660254E-1,-1.3369584E-3,3.885937E-5,-5.905856E-4,1.460017E1,9.4803476E-1,6.380693E1,-4.940859E-4,1.5965238E-3,-2.2834262E-3,-5.034072E-2,5.401685E-3,3.683054E-2,3.7441835E-2,-4.186801E-2,1.1781807E-2,-3.911953E-3,7.096701E-2,-3.258045E-2,-5.71551E-2,1.659286E-2,1.2878537E-2,-1.5085052E-2,-9.68458E-3,4.3169502E-2],"split_indices":[7,0,13,1,6,12,14,0,0,8,13,10,7,1,11,0,0,0,0,0,0,0,0,0,0,0,0,0,0,0,0],"split_type":[0,0,0,0,0,0,0,0,0,0,0,0,0,0,0,0,0,0,0,0,0,0,0,0,0,0,0,0,0,0,0],"sum_hessian":[1.6829349E3,1.3714213E3,3.115136E2,7.6674567E2,6.0467566E2,1.4745147E1,2.9676846E2,2.8700089E1,7.380456E2,1.7490622E1,5.87185E2,7.247283E0,7.497864E0,2.4730309E2,4.9465393E1,1.8966742E1,9.733348E0,7.2680817E2,1.1237402E1,2.247995E0,1.5242626E1,7.1876366E1,5.1530865E2,5.997669E0,1.249614E0,2.4995177E0,4.998346E0,1.5981268E1,2.3132182E2,3.7477554E1,1.1987837E1],"tree_param":{"num_deleted":"0","num_feature":"18","num_nodes":"31","size_leaf_vector":"1"}},{"base_weights":[1.052421E-2,1.3074365E-1,-1.8164305E-2,-8.5469075E-2,1.9341213E-1,1.8295933E-1,-4.534032E-2,6.870907E-2,-5.5964196E-1,1.0180478E-1,4.2467737E-1,5.7805225E-2,6.8777287E-1,4.7421925E-2,-9.902438E-2,1.9677892E-2,-9.064146E-3,-5.384289E-2,9.147875E-5,9.004396E-3,-1.7566308E-2,4.6018414E-2,1.2192591E-2,-4.3115385E-2,5.7249363E-3,4.0712785E-2,-5.72594E-2,-7.445616E-3,6.5524504E-3,-3.6627136E-2,-4.4711726E-3],"categories":[],"categories_nodes":[],"categories_segments":[],"categories_sizes":[],"default_left":[0,0,0,0,0,0,0,0,0,0,0,0,0,0,0,0,0,0,0,0,0,0,0,0,0,0,0,0,0,0,0],"id":11,"left_children":[1,3,5,7,9,11,13,15,17,19,21,23,25,27,29,-1,-1,-1,-1,-1,-1,-1,-1,-1,-1,-1,-1,-1,-1,-1,-1],"loss_changes":[5.8285875E0,4.428037E0,7.467435E0,5.4378257E0,5.3108616E0,1.0236315E1,5.9957566E0,4.6697893E0,5.296368E0,6.531134E0,6.174408E0,6.954576E0,8.402591E0,7.271593E0,4.5714893E0,0E0,0E0,0E0,0E0,0E0,0E0,0E0,0E0,0E0,0E0,0E0,0E0,0E0,0E0,0E0,0E0],"parents":[2147483647,0,0,1,1,2,2,3,3,4,4,5,5,6,6,7,7,8,8,9,9,10,10,11,11,12,12,13,13,14,14],"right_children":[2,4,6,8,10,12,14,16,18,20,22,24,26,28,30,-1,-1,-1,-1,-1,-1,-1,-1,-1,-1,-1,-1,-1,-1,-1,-1],"split_conditions":[2.0411385E1,1.1675827E-3,-8.660254E-1,1.77341E-4,-1.1077429E-3,1.1800153E-3,-1.5503826E-4,-6.732061E-4,1.0235446E-3,-1.484609E-3,1.3088521E-3,-2.1265803E-3,3.066019E-3,-8.110546E-4,7.6779095E-4,1.9677892E-2,-9.064146E-3,-5.384289E-2,9.147875E-5,9.004396E-3,-1.7566308E-2,4.6018414E-2,1.2192591E-2,-4.3115385E-2,5.7249363E-3,4.0712785E-2,-5.72594E-2,-7.445616E-3,6.5524504E-3,-3.6627136E-2,-4.4711726E-3],"split_indices":[13,11,14,0,2,9,0,1,11,2,11,2,1,0,11,0,0,0,0,0,0,0,0,0,0,0,0,0,0,0,0],"split_type":[0,0,0,0,0,0,0,0,0,0,0,0,0,0,0,0,0,0,0,0,0,0,0,0,0,0,0,0,0,0,0],"sum_hessian":[1.6882876E3,3.2457907E2,1.3637085E3,7.2855675E1,2.517234E2,1.6164885E2,1.2020596E3,5.5624397E1,1.7231274E1,1.8133452E2,7.038889E1,1.3042757E2,3.1221283E1,4.4069193E2,7.613677E2,2.3940697E1,3.16837E1,8.491323E0,8.739951E0,1.5513574E2,2.6198767E1,1.772103E1,5.2667866E1,6.745228E0,1.23682335E2,2.9725834E1,1.4954497E0,1.3140562E2,3.092863E2,1.0242103E1,7.511256E2],"tree_param":{"num_deleted":"0","num_feature":"18","num_nodes":"31","size_leaf_vector":"1"}},{"base_weights":[4.759584E-3,2.1027442E-2,-2.8379813E-1,8.8900566E-2,-4.880699E-2,-8.491084E-1,-1.6294782E-1,9.6281335E-2,-8.812097E-1,-2.540691E-1,-1.7175747E-2,-7.592807E-2,-2.1456705E-1,-3.3314693E-1,3.3010775E-1,3.8942427E-3,2.7047787E-2,1.0979916E-2,-6.0019135E-2,-1.9054568E-3,-3.4010537E-2,2.0510904E-3,-7.104536E-3,2.5711035E-2,-4.6839442E-2,-6.4139455E-3,-3.2672632E-2,-4.629166E-2,3.0300245E-2],"categories":[],"categories_nodes":[],"categories_segments":[],"categories_sizes":[],"default_left":[0,0,0,0,0,0,0,0,0,0,0,0,0,0,0,0,0,0,0,0,0,0,0,0,0,0,0,0,0],"id":12,"left_children":[1,3,5,7,9,11,13,15,17,19,21,-1,23,25,27,-1,-1,-1,-1,-1,-1,-1,-1,-1,-1,-1,-1,-1,-1],"loss_changes":[7.963005E0,7.6144166E0,6.0465446E0,5.9172115E0,5.137739E0,6.346589E0,6.472932E0,6.5783787E0,2.4591794E0,9.699503E0,5.002367E0,0E0,5.3391013E0,3.6476312E0,7.477273E0,0E0,0E0,0E0,0E0,0E0,0E0,0E0,0E0,0E0,0E0,0E0,0E0,0E0,0E0],"parents":[2147483647,0,0,1,1,2,2,3,3,4,4,5,5,6,6,7,7,8,8,9,9,10,10,12,12,13,13,14,14],"right_children":[2,4,6,8,10,12,14,16,18,20,22,-1,24,26,28,-1,-1,-1,-1,-1,-1,-1,-1,-1,-1,-1,-1,-1,-1],"split_conditions":[7.3230597E-3,2.54288E-5,1.4555752E-3,1.0342393E0,5.20302E-4,1.1147162E-3,7.826044E-4,9.1325294E1,-8.660254E-1,4.8486007E-4,1.2226172E-3,-7.592807E-2,2.9268711E1,4.3484016E1,-7.0710677E-1,3.8942427E-3,2.7047787E-2,1.0979916E-2,-6.0019135E-2,-1.9054568E-3,-3.4010537E-2,2.0510904E-3,-7.104536E-3,2.5711035E-2,-4.6839442E-2,-6.4139455E-3,-3.2672632E-2,-4.629166E-2,3.0300245E-2],"split_indices":[4,0,9,10,6,6,0,13,15,6,2,0,12,12,15,0,0,0,0,0,0,0,0,0,0,0,0,0,0],"split_type":[0,0,0,0,0,0,0,0,0,0,0,0,0,0,0,0,0,0,0,0,0,0,0,0,0,0,0,0,0],"sum_hessian":[1.6940729E3,1.6045416E3,8.9531235E1,8.135588E2,7.9098285E2,1.470737E1,7.482386E1,8.0830975E2,5.249007E0,1.0467722E2,6.8630566E2,6.478874E0,8.228496E0,5.5864258E1,1.8959602E1,7.773264E2,3.0983366E1,1.2499576E0,3.9990494E0,7.019384E1,3.4483383E1,4.686394E2,2.1766623E2,4.23898E0,3.9895158E0,3.4926018E1,2.0938242E1,2.9905019E0,1.5969101E1],"tree_param":{"num_deleted":"0","num_feature":"18","num_nodes":"29","size_leaf_vector":"1"}},{"base_weights":[4.1581425E-3,5.191545E-2,-7.908235E-2,2.1245645E-2,2.5685042E-1,-2.3058847E-1,2.901793E-4,1.5464236E-1,-2.5698824E-2,1.163932E-1,8.438063E-1,-3.4371263E-1,3.0725976E-3,2.1060152E-1,-1.111508E-1,1.3401655E-4,1.958259E-2,-5.2490494E-5,-1.32534E-2,7.6319682E-3,-6.4178295E-2,5.4900523E-2,-4.0461887E-3,-1.1537758E-2,-3.5931185E-2,1.1790953E-2,-1.619241E-2,-1.0007038E-3,1.9600697E-2,3.0783221E-2,-7.7277008E-3],"categories":[],"categories_nodes":[],"categories_segments":[],"categories_sizes":[],"default_left":[0,0,0,0,0,0,0,0,0,0,0,0,0,0,0,0,0,0,0,0,0,0,0,0,0,0,0,0,0,0,0],"id":13,"left_children":[1,3,5,7,9,11,13,15,17,19,21,23,25,27,29,-1,-1,-1,-1,-1,-1,-1,-1,-1,-1,-1,-1,-1,-1,-1,-1],"loss_changes":[6.7516794E0,6.777419E0,7.4461417E0,5.8890553E0,1.1475812E1,5.6278086E0,9.569977E0,8.814838E0,4.1062646E0,6.003046E0,6.423527E0,5.9086933E0,5.435465E0,5.9245625E0,8.51478E0,0E0,0E0,0E0,0E0,0E0,0E0,0E0,0E0,0E0,0E0,0E0,0E0,0E0,0E0,0E0,0E0],"parents":[2147483647,0,0,1,1,2,2,3,3,4,4,5,5,6,6,7,7,8,8,9,9,10,10,11,11,12,12,13,13,14,14],"right_children":[2,4,6,8,10,12,14,16,18,20,22,24,26,28,30,-1,-1,-1,-1,-1,-1,-1,-1,-1,-1,-1,-1,-1,-1,-1,-1],"split_conditions":[6.791249E1,8.661902E-4,7.8773544E1,1.6471397E1,1.3630461E-3,3.113496E-3,2.1625634E-3,-2.9407747E-4,1.1869828E-3,6.634992E1,4.4024643E1,1.5396829E-3,6.400355E1,1.675646E-4,8.0146835E1,1.3401655E-4,1.958259E-2,-5.2490494E-5,-1.32534E-2,7.6319682E-3,-6.4178295E-2,5.4900523E-2,-4.0461887E-3,-1.1537758E-2,-3.5931185E-2,1.1790953E-2,-1.619241E-2,-1.0007038E-3,1.9600697E-2,3.0783221E-2,-7.7277008E-3],"split_indices":[13,3,13,13,9,4,4,9,2,7,12,2,7,8,13,0,0,0,0,0,0,0,0,0,0,0,0,0,0,0,0],"split_type":[0,0,0,0,0,0,0,0,0,0,0,0,0,0,0,0,0,0,0,0,0,0,0,0,0,0,0,0,0,0,0],"sum_hessian":[1.6963569E3,1.0781625E3,6.1819446E2,9.387729E2,1.3938957E2,2.1187079E2,4.063237E2,2.4377403E2,6.9499884E2,1.1344156E2,2.594801E1,1.4243947E2,6.943133E1,1.4042462E2,2.6589905E2,1.4915344E2,9.462058E1,6.310237E2,6.3975204E1,1.1144707E2,1.9944923E0,2.0206068E1,5.741941E0,1.1070154E2,3.1737928E1,4.0719994E1,2.8711332E1,6.221948E1,7.820515E1,1.4240909E1,2.5165816E2],"tree_param":{"num_deleted":"0","num_feature":"18","num_nodes":"31","size_leaf_vector":"1"}},{"base_weights":[6.004543E-3,-6.420496E-2,6.589322E-2,3.345261E-1,-9.437281E-2,9.805487E-2,-1.4970574E-1,-2.656111E-1,4.881123E-1,4.3795025E-1,-1.2415814E-1,8.451294E-2,4.8212555E-1,-3.3194938E-1,3.00629E-1,-3.116699E-2,5.0753206E-2,6.262309E-2,1.1592517E-2,-3.8866204E-4,4.3437E-2,-2.3949822E-2,-4.3523475E-3,5.54637E-3,-1.2861438E-2,5.1591612E-2,-2.7064073E-3,-3.2924537E-2,-5.7291836E-3,6.0090214E-2,6.777115E-4],"categories":[],"categories_nodes":[],"categories_segments":[],"categories_sizes":[],"default_left":[0,0,0,0,0,0,0,0,0,0,0,0,0,0,0,0,0,0,0,0,0,0,0,0,0,0,0,0,0,0,0],"id":14,"left_children":[1,3,5,7,9,11,13,15,17,19,21,23,25,27,29,-1,-1,-1,-1,-1,-1,-1,-1,-1,-1,-1,-1,-1,-1,-1,-1],"loss_changes":[7.200017E0,9.513892E0,6.422042E0,5.260653E0,1.1686393E1,4.144554E0,9.976652E0,6.126178E0,8.460535E0,7.5134907E0,9.117445E0,7.056058E0,8.072175E0,6.0393677E0,9.089074E0,0E0,0E0,0E0,0E0,0E0,0E0,0E0,0E0,0E0,0E0,0E0,0E0,0E0,0E0,0E0,0E0],"parents":[2147483647,0,0,1,1,2,2,3,3,4,4,5,5,6,6,7,7,8,8,9,9,10,10,11,11,12,12,13,13,14,14],"right_children":[2,4,6,8,10,12,14,16,18,20,22,24,26,28,30,-1,-1,-1,-1,-1,-1,-1,-1,-1,-1,-1,-1,-1,-1,-1,-1],"split_conditions":[5.5627216E-4,-8.660254E-1,9.5714873E-1,4.7516797E-4,8.573824E0,9.1325294E1,9.15383E1,2.1625634E-3,1.0984909E-3,-4.42303E-3,-9.2218706E-4,6.380693E1,5E-1,8.2100625E-4,6.599998E-4,-3.116699E-2,5.0753206E-2,6.262309E-2,1.1592517E-2,-3.8866204E-4,4.3437E-2,-2.3949822E-2,-4.3523475E-3,5.54637E-3,-1.2861438E-2,5.1591612E-2,-2.7064073E-3,-3.2924537E-2,-5.7291836E-3,6.0090214E-2,6.777115E-4],"split_indices":[5,15,10,6,13,13,13,4,11,4,1,7,15,0,6,0,0,0,0,0,0,0,0,0,0,0,0,0,0,0,0],"split_type":[0,0,0,0,0,0,0,0,0,0,0,0,0,0,0,0,0,0,0,0,0,0,0,0,0,0,0,0,0,0,0],"sum_hessian":[1.7103452E3,7.8729767E2,9.2304755E2,5.466724E1,7.3263043E2,8.037018E2,1.1934582E2,1.0990913E1,4.3676327E1,3.809492E1,6.945355E2,7.775077E2,2.6194054E1,8.514985E1,3.4195972E1,8.992365E0,1.9985486E0,9.990464E0,3.3685863E1,1.9205547E1,1.8889372E1,6.463374E1,6.299018E2,7.223501E2,5.515763E1,1.247843E1,1.3715624E1,3.3218052E1,5.1931797E1,7.4917493E0,2.6704222E1],"tree_param":{"num_deleted":"0","num_feature":"18","num_nodes":"31","size_leaf_vector":"1"}},{"base_weights":[1.821223E-2,2.6427862E-1,1.0420162E-3,-7.3749416E-2,4.018763E-1,-3.8204288E-1,1.2908608E-2,-2.1697205E-1,9.407127E-1,7.904875E-2,4.9661526E-1,-4.897345E-1,5.549225E-2,2.1183759E-2,-6.3093334E-1,2.344175E-3,-3.5865135E-2,6.4984495E-3,6.17051E-2,-1.8305514E-2,3.862628E-2,6.437089E-2,1.8455604E-2,-5.601044E-4,-3.6415722E-2,8.866831E-3,-1.1208621E-4,2.6267904E-4,-4.5706853E-2],"categories":[],"categories_nodes":[],"categories_segments":[],"categories_sizes":[],"default_left":[0,0,0,0,0,0,0,0,0,0,0,0,0,0,0,0,0,0,0,0,0,0,0,0,0,0,0,0,0],"id":15,"left_children":[1,3,5,7,9,11,13,15,17,19,21,23,-1,25,27,-1,-1,-1,-1,-1,-1,-1,-1,-1,-1,-1,-1,-1,-1],"loss_changes":[7.122996E0,5.1444416E0,7.173873E0,4.9491763E0,2.3557835E0,8.161402E0,8.168198E0,3.918919E0,8.4523106E-1,6.1348104E0,5.6101713E0,5.119893E0,0E0,5.5317326E0,3.510057E0,0E0,0E0,0E0,0E0,0E0,0E0,0E0,0E0,0E0,0E0,0E0,0E0,0E0,0E0],"parents":[2147483647,0,0,1,1,2,2,3,3,4,4,5,5,6,6,7,7,8,8,9,9,10,10,11,11,13,13,14,14],"right_children":[2,4,6,8,10,12,14,16,18,20,22,24,-1,26,28,-1,-1,-1,-1,-1,-1,-1,-1,-1,-1,-1,-1,-1,-1],"split_conditions":[3.1570915E1,6.829923E-4,3.3736145E1,-3.4924648E-3,-7.0710677E-1,5.2131496E1,5.4570988E1,-1.2406438E-3,-7.763306E-4,6.123234E-17,-5E-1,-1.4409715E-3,5.549225E-2,4.0467308E1,-3.9739738E-4,2.344175E-3,-3.5865135E-2,6.4984495E-3,6.17051E-2,-1.8305514E-2,3.862628E-2,6.437089E-2,1.8455604E-2,-5.601044E-4,-3.6415722E-2,8.866831E-3,-1.1208621E-4,2.6267904E-4,-4.5706853E-2],"split_indices":[7,6,7,4,14,12,12,8,0,15,14,1,0,7,2,0,0,0,0,0,0,0,0,0,0,0,0,0,0],"split_type":[0,0,0,0,0,0,0,0,0,0,0,0,0,0,0,0,0,0,0,0,0,0,0,0,0,0,0,0,0],"sum_hessian":[1.6849761E3,1.0896771E2,1.5760083E3,3.1658407E1,7.730931E1,4.641499E1,1.5295934E3,2.8430664E1,3.2277443E0,1.7956398E1,5.935291E1,4.3916615E1,2.4983766E0,1.5111382E3,1.845521E1,1.9207596E1,9.223068E0,1.241104E0,1.9866405E0,1.1223705E1,6.7326937E0,6.9778175E0,5.237509E1,1.4959171E1,2.8957443E1,1.9626659E2,1.3148716E3,5.987155E0,1.2468055E1],"tree_param":{"num_deleted":"0","num_feature":"18","num_nodes":"29","size_leaf_vector":"1"}},{"base_weights":[-5.3769317E-3,9.710287E-3,-2.845305E-1,1.7950389E-1,-8.642498E-3,6.897001E-1,-3.7530783E-1,-1.8867034E-2,3.887181E-1,-2.0817235E-2,3.0494332E-1,-2.522074E-1,6.68453E-2,-5.809269E-1,1.8246042E-2,2.1581275E-2,-7.097916E-3,6.26356E-4,3.4363758E-2,-4.816346E-4,-2.7391365E-2,4.7731735E-2,2.1942814E-3,1.8946232E-2,-3.9054077E-2,-3.4921534E-2,5.70194E-3,-3.9694306E-2,1.6575428E-2],"categories":[],"categories_nodes":[],"categories_segments":[],"categories_sizes":[],"default_left":[0,0,0,0,0,0,0,0,0,0,0,0,0,0,0,0,0,0,0,0,0,0,0,0,0,0,0,0,0],"id":16,"left_children":[1,3,5,7,9,11,13,15,17,19,21,23,-1,25,27,-1,-1,-1,-1,-1,-1,-1,-1,-1,-1,-1,-1,-1,-1],"loss_changes":[7.1175E0,4.9988127E0,7.9221787E0,6.5013237E0,5.5352182E0,5.0545006E0,6.4773865E0,4.5679526E0,8.549971E0,8.217281E0,9.148569E0,1.628759E0,0E0,4.36849E0,7.4868183E0,0E0,0E0,0E0,0E0,0E0,0E0,0E0,0E0,0E0,0E0,0E0,0E0,0E0,0E0],"parents":[2147483647,0,0,1,1,2,2,3,3,4,4,5,5,6,6,7,7,8,8,9,9,10,10,11,11,13,13,14,14],"right_children":[2,4,6,8,10,12,14,16,18,20,22,24,-1,26,28,-1,-1,-1,-1,-1,-1,-1,-1,-1,-1,-1,-1,-1,-1],"split_conditions":[7.3230597E-3,1.1874043E1,-1.2986365E-3,-4.32495E-3,4.9105613E-3,-2.112493E-3,6.0070795E-4,-8.109904E-3,6.740747E-2,4.297313E-3,5.3413794E-3,3.176033E-3,6.68453E-2,9.659258E-1,-7.0710677E-1,2.1581275E-2,-7.097916E-3,6.26356E-4,3.4363758E-2,-4.816346E-4,-2.7391365E-2,4.7731735E-2,2.1942814E-3,1.8946232E-2,-3.9054077E-2,-3.4921534E-2,5.70194E-3,-3.9694306E-2,1.6575428E-2],"split_indices":[4,13,1,4,3,1,0,3,10,3,3,3,0,15,15,0,0,0,0,0,0,0,0,0,0,0,0,0,0],"split_type":[0,0,0,0,0,0,0,0,0,0,0,0,0,0,0,0,0,0,0,0,0,0,0,0,0,0,0,0,0],"sum_hessian":[1.6882988E3,1.602647E3,8.565193E1,1.5547408E2,1.4471729E3,6.738289E0,7.891364E1,8.027215E1,7.520193E1,1.393986E3,5.318685E1,2.9929006E0,3.7453883E0,5.152001E1,2.739363E1,1.6688524E1,6.3583622E1,3.3735775E1,4.146615E1,1.3660139E3,2.7972137E1,1.4483968E1,3.8702885E1,1.4938E0,1.4991004E0,4.406464E1,7.455372E0,7.198162E0,2.0195467E1],"tree_param":{"num_deleted":"0","num_feature":"18","num_nodes":"29","size_leaf_vector":"1"}},{"base_weights":[-1.192265E-2,2.6882155E-2,-1.299769E-1,9.047586E-3,4.0194768E-1,-1.1378578E-1,-1.0639799E0,-7.531884E-2,1.017375E-1,8.496977E-1,2.0106262E-1,-1.3192219E-1,6.665239E-1,2.44222E-3,-6.879722E-2,1.7958945E-2,-5.071431E-3,5.8557573E-3,-2.1869447E-2,5.4407913E-2,-1.1470318E-2,-1.0586492E-3,4.7009904E-2,-2.9152831E-2,-5.0235144E-3,-1.2562822E-2,5.1496178E-2],"categories":[],"categories_nodes":[],"categories_segments":[],"categories_sizes":[],"default_left":[0,0,0,0,0,0,0,0,0,0,0,0,0,0,0,0,0,0,0,0,0,0,0,0,0,0,0],"id":17,"left_children":[1,3,5,7,9,11,13,15,17,19,21,23,25,-1,-1,-1,-1,-1,-1,-1,-1,-1,-1,-1,-1,-1,-1],"loss_changes":[7.7067327E0,8.467317E0,6.1723433E0,9.469098E0,4.997511E0,5.892933E0,2.4874606E0,7.228607E0,4.834373E0,4.749132E0,6.7504983E0,5.6412497E0,3.4213953E0,0E0,0E0,0E0,0E0,0E0,0E0,0E0,0E0,0E0,0E0,0E0,0E0,0E0,0E0],"parents":[2147483647,0,0,1,1,2,2,3,3,4,4,5,5,6,6,7,7,8,8,9,9,10,10,11,11,12,12],"right_children":[2,4,6,8,10,12,14,16,18,20,22,24,26,-1,-1,-1,-1,-1,-1,-1,-1,-1,-1,-1,-1,-1,-1],"split_conditions":[1.2452187E-3,1.0289305E-3,5.4570988E1,5.720153E-4,4.236902E-4,4.944008E1,-6.247139E-4,-8.660254E-1,2.8525384E-3,9.281368E1,1.7507778E-3,3.3243943E-4,1.5792589E-3,2.44222E-3,-6.879722E-2,1.7958945E-2,-5.071431E-3,5.8557573E-3,-2.1869447E-2,5.4407913E-2,-1.1470318E-2,-1.0586492E-3,4.7009904E-2,-2.9152831E-2,-5.0235144E-3,-1.2562822E-2,5.1496178E-2],"split_indices":[2,2,12,5,5,12,0,15,11,13,11,5,2,0,0,0,0,0,0,0,0,0,0,0,0,0,0],"split_type":[0,0,0,0,0,0,0,0,0,0,0,0,0,0,0,0,0,0,0,0,0,0,0,0,0,0,0],"sum_hessian":[1.6805361E3,1.2653755E3,4.1516068E2,1.208915E3,5.646045E1,4.0918912E2,5.9715433E0,6.3297144E2,5.7594366E2,1.6485767E1,3.997468E1,4.007066E2,8.482519E0,1.4921718E0,4.479371E0,3.51572E1,5.978142E2,5.607325E2,1.5211152E1,1.3495206E1,2.9905617E0,3.1480734E1,8.493947E0,2.4972486E1,3.7573413E2,2.4935517E0,5.988968E0],"tree_param":{"num_deleted":"0","num_feature":"18","num_nodes":"27","size_leaf_vector":"1"}},{"base_weights":[1.7726632E-2,8.496207E-2,-6.0007412E-2,1.4454207E-1,-8.580201E-2,1.794522E-1,-9.54246E-2,-4.952828E-2,2.3365392E-1,-5.446833E-2,-6.7195344E-1,-5.4483894E-2,3.06963E-1,-3.151413E-1,-4.3980215E-2,7.678771E-3,-1.5001466E-2,6.3373394E-2,1.1154759E-2,-8.328517E-3,1.1364487E-2,1.293158E-2,-4.023133E-2,2.1100076E-2,-2.6373526E-2,-1.2155878E-2,2.1171859E-2,-2.508007E-2,5.1279827E-3,-5.05192E-3,4.1762744E-3],"categories":[],"categories_nodes":[],"categories_segments":[],"categories_sizes":[],"default_left":[0,0,0,0,0,0,0,0,0,0,0,0,0,0,0,0,0,0,0,0,0,0,0,0,0,0,0,0,0,0,0],"id":18,"left_children":[1,3,5,7,9,11,13,15,17,19,21,23,25,27,29,-1,-1,-1,-1,-1,-1,-1,-1,-1,-1,-1,-1,-1,-1,-1,-1],"loss_changes":[8.919612E0,9.321688E0,6.7310686E0,1.1748972E1,4.3216686E0,3.0697274E0,7.788709E0,1.0954167E1,4.796362E0,7.1870823E0,1.6838889E0,8.55136E0,4.3567605E0,1.0238774E1,4.0861955E0,0E0,0E0,0E0,0E0,0E0,0E0,0E0,0E0,0E0,0E0,0E0,0E0,0E0,0E0,0E0,0E0],"parents":[2147483647,0,0,1,1,2,2,3,3,4,4,5,5,6,6,7,7,8,8,9,9,10,10,11,11,12,12,13,13,14,14],"right_children":[2,4,6,8,10,12,14,16,18,20,22,24,26,28,30,-1,-1,-1,-1,-1,-1,-1,-1,-1,-1,-1,-1,-1,-1,-1,-1],"split_conditions":[6.491025E-5,8.516566E-4,-8.660254E-1,1.7897047E1,5.4570988E1,2.1440912E1,-5E-1,5E-1,1.7963812E1,3.737906E1,1.2989255E-3,2.2212873E-5,-1.2256089E-3,6.647091E-4,8.660254E-1,7.678771E-3,-1.5001466E-2,6.3373394E-2,1.1154759E-2,-8.328517E-3,1.1364487E-2,1.293158E-2,-4.023133E-2,2.1100076E-2,-2.6373526E-2,-1.2155878E-2,2.1171859E-2,-2.508007E-2,5.1279827E-3,-5.05192E-3,4.1762744E-3],"split_indices":[0,9,14,12,12,12,14,14,12,12,8,8,9,0,14,0,0,0,0,0,0,0,0,0,0,0,0,0,0,0,0],"split_type":[0,0,0,0,0,0,0,0,0,0,0,0,0,0,0,0,0,0,0,0,0,0,0,0,0,0,0,0,0,0,0],"sum_hessian":[1.7046431E3,9.1399634E2,7.906467E2,6.7769904E2,2.3629727E2,1.01348854E2,6.892979E2,2.1339832E2,4.6430075E2,2.2534406E2,1.0953211E1,3.595577E1,6.539309E1,1.2980038E2,5.594975E2,1.18061874E2,9.533644E1,3.4906425E0,4.608101E2,1.6149821E2,6.3845856E1,1.2482749E0,9.704936E0,1.7965336E1,1.7990435E1,1.1236828E1,5.415626E1,8.960168E1,4.019871E1,3.8667148E2,1.7282605E2],"tree_param":{"num_deleted":"0","num_feature":"18","num_nodes":"31","size_leaf_vector":"1"}},{"base_weights":[-5.1924405E-3,5.0921194E-2,-6.2404685E-2,1.0642687E-1,-1.2251982E-1,-7.6432085E-1,-5.363595E-2,9.2169814E-2,9.031046E-1,6.4448886E-2,-1.4084245E-1,-9.9503976E-1,1.1303089E-2,-6.4632855E-2,4.185858E-1,5.324028E-3,-6.285687E-2,5.697711E-2,-1.8988919E-2,-1.2885314E-2,5.3518626E-4,-8.907317E-3,-5.9012104E-2,-2.4990377E-3,-1.9933805E-2,-1.3756475E-2,4.112502E-2],"categories":[],"categories_nodes":[],"categories_segments":[],"categories_sizes":[],"default_left":[0,0,0,0,0,0,0,0,0,0,0,0,0,0,0,0,0,0,0,0,0,0,0,0,0,0,0],"id":19,"left_children":[1,3,5,7,9,11,13,15,17,-1,19,21,-1,23,25,-1,-1,-1,-1,-1,-1,-1,-1,-1,-1,-1,-1],"loss_changes":[5.4125533E0,8.207492E0,5.096897E0,7.247046E0,5.5306187E0,2.5611672E0,4.3140574E0,1.2398092E1,3.8398619E0,0E0,3.6347766E0,1.0723124E0,0E0,3.9329057E0,5.528002E0,0E0,0E0,0E0,0E0,0E0,0E0,0E0,0E0,0E0,0E0,0E0,0E0],"parents":[2147483647,0,0,1,1,2,2,3,3,4,4,5,5,6,6,7,7,8,8,10,10,11,11,13,13,14,14],"right_children":[2,4,6,8,10,12,14,16,18,-1,20,22,-1,24,26,-1,-1,-1,-1,-1,-1,-1,-1,-1,-1,-1,-1],"split_conditions":[2.54288E-5,9.031994E-4,7.6779095E-4,1.1120584E-3,7.460546E-4,8.726373E-1,2.5525284E-3,4.9289754E-3,3.2424503E1,6.4448886E-2,1.5945457E-3,2.1429794E1,1.1303089E-2,7.3230597E-3,1.9539588E-3,5.324028E-3,-6.285687E-2,5.697711E-2,-1.8988919E-2,-1.2885314E-2,5.3518626E-4,-8.907317E-3,-5.9012104E-2,-2.4990377E-3,-1.9933805E-2,-1.3756475E-2,4.112502E-2],"split_indices":[0,9,11,8,11,10,9,4,12,0,3,13,0,4,11,0,0,0,0,0,0,0,0,0,0,0,0],"split_type":[0,0,0,0,0,0,0,0,0,0,0,0,0,0,0,0,0,0,0,0,0,0,0,0,0,0,0],"sum_hessian":[1.6839607E3,8.5019824E2,8.3376245E2,6.4436945E2,2.0582877E2,9.224183E0,8.2453827E2,6.341369E2,1.0232589E1,1.748939E0,2.0407982E2,7.477522E0,1.746661E0,8.0661725E2,1.7921041E1,6.2839325E2,5.74365E0,8.734532E0,1.4980569E0,1.14829384E2,8.9250435E1,1.744547E0,5.732975E0,7.738247E2,3.2792576E1,6.712057E0,1.1208985E1],"tree_param":{"num_deleted":"0","num_feature":"18","num_nodes":"27","size_leaf_vector":"1"}},{"base_weights":[-1.9775808E-2,-4.1126153E-3,-2.6905367E-1,5.387097E-2,-6.351663E-2,2.2985199E-1,-4.25002E-1,5.8727074E-2,-5.380977E-2,-2.7664226E-1,-2.8226903E-2,-5.937049E-1,5.7515305E-1,-9.538493E-1,-1.478224E-1,4.63873E-3,-4.303451E-3,-4.0637157E-3,-3.152836E-2,-5.0407507E-2,-9.517825E-4,-4.759416E-2,5.729008E-3,4.6897805E-3,5.4436702E-2,1.4551848E-2,-5.1395953E-2,1.6472673E-2,-1.8619908E-2],"categories":[],"categories_nodes":[],"categories_segments":[],"categories_sizes":[],"default_left":[0,0,0,0,0,0,0,0,0,0,0,0,0,0,0,0,0,0,0,0,0,0,0,0,0,0,0,0,0],"id":20,"left_children":[1,3,5,7,9,11,13,15,-1,17,19,21,23,25,27,-1,-1,-1,-1,-1,-1,-1,-1,-1,-1,-1,-1,-1,-1],"loss_changes":[6.5820713E0,5.471124E0,7.8518357E0,4.474454E0,5.89291E0,7.2753925E0,1.1040589E1,3.9585967E0,0E0,7.64736E0,6.0532427E0,2.0612893E0,4.270586E0,2.7010212E0,5.6139784E0,0E0,0E0,0E0,0E0,0E0,0E0,0E0,0E0,0E0,0E0,0E0,0E0,0E0,0E0],"parents":[2147483647,0,0,1,1,2,2,3,3,4,4,5,5,6,6,7,7,9,9,10,10,11,11,12,12,13,13,14,14],"right_children":[2,4,6,8,10,12,14,16,-1,18,20,22,24,26,28,-1,-1,-1,-1,-1,-1,-1,-1,-1,-1,-1,-1,-1,-1],"split_conditions":[6.9322106E-3,2.54288E-5,2.9268711E1,1.082625E0,5.2373216E-4,1.1575536E-3,6.654003E-4,9.386464E-4,-5.380977E-2,4.8486007E-4,1.4016549E-4,3.5119704E-3,2.625043E-4,6.0287165E-4,3.069014E-4,4.63873E-3,-4.303451E-3,-4.0637157E-3,-3.152836E-2,-5.0407507E-2,-9.517825E-4,-4.759416E-2,5.729008E-3,4.6897805E-3,5.4436702E-2,1.4551848E-2,-5.1395953E-2,1.6472673E-2,-1.8619908E-2],"split_indices":[4,0,12,10,6,9,5,9,0,6,5,1,0,6,1,0,0,0,0,0,0,0,0,0,0,0,0,0,0],"split_type":[0,0,0,0,0,0,0,0,0,0,0,0,0,0,0,0,0,0,0,0,0,0,0,0,0,0,0,0,0],"sum_hessian":[1.6850546E3,1.5863912E3,9.866324E1,8.028407E2,7.835506E2,2.3383018E1,7.528022E1,8.003495E2,2.4912171E0,1.1033913E2,6.732114E2,6.695234E0,1.6687786E1,2.5048136E1,5.0232082E1,6.482731E2,1.5207643E2,7.188692E1,3.8452217E1,5.2458E0,6.6796564E2,4.218181E0,2.4770527E0,9.224598E0,7.463188E0,1.2421504E0,2.3805986E1,1.5923637E1,3.4308445E1],"tree_param":{"num_deleted":"0","num_feature":"18","num_nodes":"29","size_leaf_vector":"1"}},{"base_weights":[2.0838985E-2,3.378065E-2,-2.1863984E-1,8.148499E-2,-2.4889998E-2,-5.303668E-1,1.7530116E-1,6.5273955E-2,4.0211588E-1,8.647673E-4,-5.188872E-1,-1.1633382E0,-4.0265337E-1,-6.577488E-2,6.6671014E-1,4.5315027E-3,-1.2409765E-2,-2.6927633E-2,3.7917804E-2,-1.4316044E-3,2.1604057E-2,-4.7443602E-2,-3.912386E-3,-6.742355E-2,-5.6049027E-3,-2.3406759E-2,2.6292542E-2,-1.7041797E-2,2.0284964E-2,4.8700295E-2,1.1911593E-2],"categories":[],"categories_nodes":[],"categories_segments":[],"categories_sizes":[],"default_left":[0,0,0,0,0,0,0,0,0,0,0,0,0,0,0,0,0,0,0,0,0,0,0,0,0,0,0,0,0,0,0],"id":21,"left_children":[1,3,5,7,9,11,13,15,17,19,21,23,25,27,29,-1,-1,-1,-1,-1,-1,-1,-1,-1,-1,-1,-1,-1,-1,-1,-1],"loss_changes":[5.2463737E0,4.493059E0,1.075234E1,4.5750403E0,9.165392E0,3.468872E0,4.6754103E0,6.729596E0,1.4620167E1,8.733642E0,6.689165E0,1.3372774E0,2.8032708E0,3.6577442E0,1.4740081E0,0E0,0E0,0E0,0E0,0E0,0E0,0E0,0E0,0E0,0E0,0E0,0E0,0E0,0E0,0E0,0E0],"parents":[2147483647,0,0,1,1,2,2,3,3,4,4,5,5,6,6,7,7,8,8,9,9,10,10,11,11,12,12,13,13,14,14],"right_children":[2,4,6,8,10,12,14,16,18,20,22,24,26,28,30,-1,-1,-1,-1,-1,-1,-1,-1,-1,-1,-1,-1,-1,-1,-1,-1],"split_conditions":[7.3230597E-3,7.9191916E-5,1.8514972E-3,9.1325294E1,9.34791E1,1.32603E-3,2.5881904E-1,6.2583115E1,1.1264209E-3,8.9557884E1,8.075023E-4,8.964614E-3,1E0,6.0070795E-4,1.091732E-2,4.5315027E-3,-1.2409765E-2,-2.6927633E-2,3.7917804E-2,-1.4316044E-3,2.1604057E-2,-4.7443602E-2,-3.912386E-3,-6.742355E-2,-5.6049027E-3,-2.3406759E-2,2.6292542E-2,-1.7041797E-2,2.0284964E-2,4.8700295E-2,1.1911593E-2],"split_indices":[4,0,11,13,13,9,14,7,11,13,9,4,14,0,4,0,0,0,0,0,0,0,0,0,0,0,0,0,0,0,0],"split_type":[0,0,0,0,0,0,0,0,0,0,0,0,0,0,0,0,0,0,0,0,0,0,0,0,0,0,0,0,0,0,0],"sum_hessian":[1.6894028E3,1.6036016E3,8.5801216E1,8.8424475E2,7.193568E2,4.7705425E1,3.809579E1,8.428348E2,4.140998E1,6.8466003E2,3.4696804E1,6.6479554E0,4.1057472E1,2.6138754E1,1.1957035E1,7.8041864E2,6.2416122E1,1.1234088E1,3.0175894E1,6.416989E2,4.296107E1,1.6976955E1,1.771985E1,5.412094E0,1.235861E0,3.881584E1,2.2416303E0,1.6682919E1,9.455837E0,6.22175E0,5.735285E0],"tree_param":{"num_deleted":"0","num_feature":"18","num_nodes":"31","size_leaf_vector":"1"}},{"base_weights":[1.1767007E-3,1.0610561E-2,-2.8419366E-1,-7.2161085E-3,2.6376033E-1,-9.422193E-1,-5.842336E-2,1.0889062E-2,-3.6871916E-1,6.1167413E-1,5.944601E-2,1.2235698E-1,-1.2835878E0,1.9899765E-1,-4.082094E-1,7.4830744E-4,-3.25595E-2,-7.7665146E-3,-3.1526607E-2,2.2081368E-2,4.8425227E-2,-1.8187389E-2,1.0945327E-2,-2.7384529E-2,4.0570423E-2,-9.458299E-3,-7.054581E-2,3.6247298E-2,-9.904855E-3,-3.205503E-2,2.800018E-2],"categories":[],"categories_nodes":[],"categories_segments":[],"categories_sizes":[],"default_left":[0,0,0,0,0,0,0,0,0,0,0,0,0,0,0,0,0,0,0,0,0,0,0,0,0,0,0,0,0,0,0],"id":22,"left_children":[1,3,5,7,9,11,13,15,17,19,21,23,25,27,29,-1,-1,-1,-1,-1,-1,-1,-1,-1,-1,-1,-1,-1,-1,-1,-1],"loss_changes":[4.540991E0,7.369796E0,7.9639287E0,9.993273E0,7.600455E0,5.1440315E0,3.795877E0,3.9356976E0,3.9704208E0,1.9776106E0,4.7219667E0,2.4042468E0,1.1931839E0,5.24735E0,4.376599E0,0E0,0E0,0E0,0E0,0E0,0E0,0E0,0E0,0E0,0E0,0E0,0E0,0E0,0E0,0E0,0E0],"parents":[2147483647,0,0,1,1,2,2,3,3,4,4,5,5,6,6,7,7,8,8,9,9,10,10,11,11,12,12,13,13,14,14],"right_children":[2,4,6,8,10,12,14,16,18,20,22,24,26,28,30,-1,-1,-1,-1,-1,-1,-1,-1,-1,-1,-1,-1,-1,-1,-1,-1],"split_conditions":[9.5202286E1,8.9557884E1,3.059292E-3,8.635963E1,-2.5881904E-1,1.5962548E-3,6.822499E-3,7.488346E1,7.849407E-4,5.293028E-3,2.5881904E-1,9.590148E1,9.554995E1,6.659919E-4,8.660254E-1,7.4830744E-4,-3.25595E-2,-7.7665146E-3,-3.1526607E-2,2.2081368E-2,4.8425227E-2,-1.8187389E-2,1.0945327E-2,-2.7384529E-2,4.0570423E-2,-9.458299E-3,-7.054581E-2,3.6247298E-2,-9.904855E-3,-3.205503E-2,2.800018E-2],"split_indices":[13,13,4,13,14,4,4,7,6,4,14,13,13,6,14,0,0,0,0,0,0,0,0,0,0,0,0,0,0,0,0],"split_type":[0,0,0,0,0,0,0,0,0,0,0,0,0,0,0,0,0,0,0,0,0,0,0,0,0,0,0,0,0,0,0],"sum_hessian":[1.6846362E3,1.6316592E3,5.2977066E1,1.5252251E3,1.0643403E2,1.2722618E1,4.0254448E1,1.4534042E3,7.182101E1,3.864098E1,6.779305E1,3.2448728E0,9.477746E0,2.3437199E1,1.681725E1,1.4454802E3,7.923882E0,4.0447685E1,3.1373323E1,2.7685265E1,1.0955716E1,1.8202951E1,4.95901E1,1.7491333E0,1.4957395E0,1.2468008E0,8.230945E0,9.727539E0,1.370966E1,1.3828769E1,2.98848E0],"tree_param":{"num_deleted":"0","num_feature":"18","num_nodes":"31","size_leaf_vector":"1"}},{"base_weights":[-8.702546E-3,4.7411807E-2,-7.0557885E-2,6.03006E-2,-5.9623533E-1,-8.7219596E-1,-5.99872E-2,5.0496813E-2,6.041936E-1,-1.2122412E0,-1.552062E-1,1.091778E-2,-1.115758E0,-4.4059746E-2,-6.126928E-1,3.1674267E-3,-1.8869286E-2,-3.2959454E-2,3.8085863E-2,-7.527846E-2,-1.477166E-2,3.497738E-2,-2.5245426E-2,-8.336064E-3,-6.258537E-2,-1.5444438E-3,-2.7017927E-2,1.4260414E-2,-5.4109763E-2],"categories":[],"categories_nodes":[],"categories_segments":[],"categories_sizes":[],"default_left":[0,0,0,0,0,0,0,0,0,0,0,0,0,0,0,0,0,0,0,0,0,0,0,0,0,0,0,0,0],"id":23,"left_children":[1,3,5,7,9,11,13,15,17,19,21,-1,23,25,27,-1,-1,-1,-1,-1,-1,-1,-1,-1,-1,-1,-1,-1,-1],"loss_changes":[5.912451E0,7.446128E0,6.813165E0,4.6437745E0,4.6008315E0,3.0248075E0,7.0219355E0,4.76507E0,3.5729113E0,1.4936018E0,3.7666247E0,0E0,9.16729E-1,5.0778313E0,9.731034E0,0E0,0E0,0E0,0E0,0E0,0E0,0E0,0E0,0E0,0E0,0E0,0E0,0E0,0E0],"parents":[2147483647,0,0,1,1,2,2,3,3,4,4,5,5,6,6,7,7,8,8,9,9,10,10,12,12,13,13,14,14],"right_children":[2,4,6,8,10,12,14,16,18,20,22,-1,24,26,28,-1,-1,-1,-1,-1,-1,-1,-1,-1,-1,-1,-1,-1,-1],"split_conditions":[5.3280844E-5,2.8257514E-3,3.8434402E-4,5.8835708E-3,3.696801E-3,1.2141677E-4,5.307702E-3,6.709527E-3,8.922708E-5,1.169608E-3,8.139389E1,1.091778E-2,-4.2619728E-4,9.6216095E1,-7.0710677E-1,3.1674267E-3,-1.8869286E-2,-3.2959454E-2,3.8085863E-2,-7.527846E-2,-1.477166E-2,3.497738E-2,-2.5245426E-2,-8.336064E-3,-6.258537E-2,-1.5444438E-3,-2.7017927E-2,1.4260414E-2,-5.4109763E-2],"split_indices":[0,8,6,3,3,8,2,4,2,5,13,0,2,13,14,0,0,0,0,0,0,0,0,0,0,0,0,0,0],"split_type":[0,0,0,0,0,0,0,0,0,0,0,0,0,0,0,0,0,0,0,0,0,0,0,0,0,0,0,0,0],"sum_hessian":[1.7014353E3,8.9224023E2,8.091951E2,8.7561273E2,1.6627504E1,9.470625E0,7.997245E2,8.6118256E2,1.4430153E1,6.207933E0,1.0419572E1,1.7478955E0,7.722729E0,7.7837366E2,2.1350864E1,8.3689777E2,2.4284796E1,1.2466866E0,1.3183467E1,4.216651E0,1.991282E0,2.7347636E0,7.684808E0,1.2466252E0,6.4761043E0,7.592858E2,1.9087833E1,7.465667E0,1.3885199E1],"tree_param":{"num_deleted":"0","num_feature":"18","num_nodes":"29","size_leaf_vector":"1"}},{"base_weights":[7.6003256E-3,7.2311044E-2,-4.79292E-2,-8.619047E-2,1.3501723E-1,8.671824E-1,-5.771617E-2,-5.7500447E-3,-4.3041536E-1,3.2609358E-1,7.336673E-2,1.1627103E0,-3.1818043E-2,-3.3889347E-1,-3.072036E-2,5.586615E-3,-1.5151602E-2,-3.213027E-2,1.6839601E-2,-8.250882E-3,1.9432431E-2,1.6311916E-3,2.8790945E-2,1.4860063E-2,7.622093E-2,1.2920666E-2,-2.3045048E-2,1.1671024E-3,-8.731897E-3],"categories":[],"categories_nodes":[],"categories_segments":[],"categories_sizes":[],"default_left":[0,0,0,0,0,0,0,0,0,0,0,0,0,0,0,0,0,0,0,0,0,0,0,0,0,0,0,0,0],"id":24,"left_children":[1,3,5,7,9,11,13,15,17,19,21,23,-1,25,27,-1,-1,-1,-1,-1,-1,-1,-1,-1,-1,-1,-1,-1,-1],"loss_changes":[6.0621457E0,7.7547936E0,8.182363E0,6.129489E0,6.5564985E0,5.0369663E0,6.816142E0,6.3385653E0,7.0430827E0,4.2415895E0,8.653576E0,2.1878757E0,0E0,5.85314E0,6.3970246E0,0E0,0E0,0E0,0E0,0E0,0E0,0E0,0E0,0E0,0E0,0E0,0E0,0E0,0E0],"parents":[2147483647,0,0,1,1,2,2,3,3,4,4,5,5,6,6,7,7,8,8,9,9,10,10,11,11,13,13,14,14],"right_children":[2,4,6,8,10,12,14,16,18,20,22,24,-1,26,28,-1,-1,-1,-1,-1,-1,-1,-1,-1,-1,-1,-1,-1,-1],"split_conditions":[5.0061905E1,-4.501494E-3,-2.34472E-3,-5.0070896E-3,1.6471397E1,7.991767E-3,5.164115E1,1.4213906E-3,3.229329E-1,5.759618E0,4.9312508E1,5.2168724E1,-3.1818043E-2,3.8571647E-1,1.1975009E-3,5.586615E-3,-1.5151602E-2,-3.213027E-2,1.6839601E-2,-8.250882E-3,1.9432431E-2,1.6311916E-3,2.8790945E-2,1.4860063E-2,7.622093E-2,1.2920666E-2,-2.3045048E-2,1.1671024E-3,-8.731897E-3],"split_indices":[7,4,1,4,13,4,7,6,10,13,7,13,0,10,1,0,0,0,0,0,0,0,0,0,0,0,0,0,0],"split_type":[0,0,0,0,0,0,0,0,0,0,0,0,0,0,0,0,0,0,0,0,0,0,0,0,0,0,0,0,0],"sum_hessian":[1.6850785E3,7.7806586E2,9.0701263E2,2.2045372E2,5.576121E2,8.670688E0,8.98342E2,1.7951933E2,4.093439E1,1.3497826E2,4.2263388E2,7.43583E0,1.234858E0,7.768221E1,8.206598E2,1.2911769E2,5.0401634E1,3.2193027E1,8.741364E0,1.5065227E1,1.19913025E2,3.9191885E2,3.0715033E1,2.7285395E0,4.7072906E0,1.2986544E1,6.469567E1,5.9717114E2,2.234886E2],"tree_param":{"num_deleted":"0","num_feature":"18","num_nodes":"29","size_leaf_vector":"1"}},{"base_weights":[8.318293E-3,5.954817E-2,-8.662298E-2,4.085187E-2,2.6322877E-1,2.2786644E-1,-1.4153524E-1,7.269951E-2,-2.0950566E-1,-8.8757384E-1,3.186197E-1,-6.5771244E-2,6.654827E-1,5.4258335E-1,-1.5501152E-1,4.8773354E-3,-4.999625E-3,6.7433375E-3,-2.8111393E-2,1.3018559E-2,-7.04345E-2,1.0901676E-2,3.944554E-2,8.597857E-5,-4.0576383E-2,1.4561586E-2,6.041158E-2,5.700099E-2,-4.4571873E-2,-2.3999603E-2,-6.019011E-3],"categories":[],"categories_nodes":[],"categories_segments":[],"categories_sizes":[],"default_left":[0,0,0,0,0,0,0,0,0,0,0,0,0,0,0,0,0,0,0,0,0,0,0,0,0,0,0,0,0,0,0],"id":25,"left_children":[1,3,5,7,9,11,13,15,17,19,21,23,25,27,29,-1,-1,-1,-1,-1,-1,-1,-1,-1,-1,-1,-1,-1,-1,-1,-1],"loss_changes":[8.221895E0,4.169997E0,1.0264162E1,8.042314E0,6.154839E0,1.1410675E1,4.7401896E0,3.8452892E0,1.3907566E1,3.055422E0,4.02036E0,2.7116277E0,6.8814955E0,9.565224E0,5.5250587E0,0E0,0E0,0E0,0E0,0E0,0E0,0E0,0E0,0E0,0E0,0E0,0E0,0E0,0E0,0E0,0E0],"parents":[2147483647,0,0,1,1,2,2,3,3,4,4,5,5,6,6,7,7,8,8,9,9,10,10,11,11,12,12,13,13,14,14],"right_children":[2,4,6,8,10,12,14,16,18,20,22,24,26,28,30,-1,-1,-1,-1,-1,-1,-1,-1,-1,-1,-1,-1,-1,-1,-1,-1],"split_conditions":[1.8311287E-3,8.5081434E-1,-6.732061E-4,1.2226172E-3,3.663042E-4,-2.8623213E-4,2.9639345E-1,1.8514972E-3,1.5509648E-4,1.1959648E-3,1.1796571E-3,8.639688E-3,-2.1260385E-4,9.659258E-1,-4.3386998E-4,4.8773354E-3,-4.999625E-3,6.7433375E-3,-2.8111393E-2,1.3018559E-2,-7.04345E-2,1.0901676E-2,3.944554E-2,8.597857E-5,-4.0576383E-2,1.4561586E-2,6.041158E-2,5.700099E-2,-4.4571873E-2,-2.3999603E-2,-6.019011E-3],"split_indices":[4,10,1,2,2,0,10,11,0,11,0,4,2,14,3,0,0,0,0,0,0,0,0,0,0,0,0,0,0,0,0],"split_type":[0,0,0,0,0,0,0,0,0,0,0,0,0,0,0,0,0,0,0,0,0,0,0,0,0,0,0,0,0,0,0],"sum_hessian":[1.6883553E3,1.0968649E3,5.914905E2,1.0057457E3,9.11191E1,8.745798E1,5.0403247E2,8.928741E2,1.1287167E2,3.4944537E0,8.762465E1,5.2847412E1,3.4610565E1,8.978529E0,4.9505396E2,7.8094556E2,1.1192853E2,5.7424343E1,5.544733E1,1.2472651E0,2.2471886E0,7.339129E1,1.4233362E1,4.9376537E1,3.470873E0,2.1394579E1,1.3215985E1,6.4827347E0,2.495794E0,4.6436188E1,4.4861777E2],"tree_param":{"num_deleted":"0","num_feature":"18","num_nodes":"31","size_leaf_vector":"1"}},{"base_weights":[2.100023E-3,1.633059E-1,-1.418488E-2,-8.295058E-3,6.1113334E-1,-3.5641424E-3,-2.826465E-1,1.7198181E-1,-2.3299517E-1,-1.19734734E-1,7.5534683E-1,-7.585413E-1,1.3014021E-3,-6.693485E-1,-5.121072E-2,2.8375853E-2,-2.6628652E-3,-2.9206637E-2,7.413357E-3,-3.905905E-2,2.8402606E-2,-1.9504378E-2,4.1688487E-2,1.8242707E-2,-5.0743252E-2,3.2169256E-2,-1.4772189E-4,-4.816798E-2,8.906819E-3,5.3574283E-2,-8.446984E-3],"categories":[],"categories_nodes":[],"categories_segments":[],"categories_sizes":[],"default_left":[0,0,0,0,0,0,0,0,0,0,0,0,0,0,0,0,0,0,0,0,0,0,0,0,0,0,0,0,0,0,0],"id":26,"left_children":[1,3,5,7,9,11,13,15,17,19,21,23,25,27,29,-1,-1,-1,-1,-1,-1,-1,-1,-1,-1,-1,-1,-1,-1,-1,-1],"loss_changes":[4.441854E0,1.1934921E1,4.3810067E0,4.6264358E0,4.624775E0,5.435358E0,5.1989684E0,5.6781197E0,6.890856E0,4.0617695E0,3.5650787E0,3.0985756E0,4.021345E0,5.606097E0,5.15919E0,0E0,0E0,0E0,0E0,0E0,0E0,0E0,0E0,0E0,0E0,0E0,0E0,0E0,0E0,0E0,0E0],"parents":[2147483647,0,0,1,1,2,2,3,3,4,4,5,5,6,6,7,7,8,8,9,9,10,10,11,11,12,12,13,13,14,14],"right_children":[2,4,6,8,10,12,14,16,18,20,22,24,26,28,30,-1,-1,-1,-1,-1,-1,-1,-1,-1,-1,-1,-1,-1,-1,-1,-1],"split_conditions":[-3.6437763E-3,-4.1516125E-3,2.351444E-3,1.1067494E-3,-2.1867855E-3,-3.6529347E-3,-2.5881904E-1,-1.2692674E-3,1.6607031E-3,9.737487E-4,2.4223696E-4,-4.7913687E-3,-4.210172E-3,5.179459E-4,-1.8202254E-3,2.8375853E-2,-2.6628652E-3,-2.9206637E-2,7.413357E-3,-3.905905E-2,2.8402606E-2,-1.9504378E-2,4.1688487E-2,1.8242707E-2,-5.0743252E-2,3.2169256E-2,-1.4772189E-4,-4.816798E-2,8.906819E-3,5.3574283E-2,-8.446984E-3],"split_indices":[3,3,9,5,1,1,14,1,5,5,5,2,2,0,1,0,0,0,0,0,0,0,0,0,0,0,0,0,0,0,0],"split_type":[0,0,0,0,0,0,0,0,0,0,0,0,0,0,0,0,0,0,0,0,0,0,0,0,0,0,0,0,0,0,0],"sum_hessian":[1.6901093E3,1.5424039E2,1.5358689E3,1.12220566E2,4.2019814E1,1.4783948E3,5.7474197E1,6.239538E1,4.9825188E1,6.952841E0,3.506697E1,8.474806E0,1.4699199E3,2.0810368E1,3.666383E1,2.2087898E1,4.030748E1,2.5660294E1,2.4164896E1,3.4750693E0,3.4777713E0,1.9923818E0,3.307459E1,1.4957851E0,6.979021E0,8.689882E0,1.46123E3,1.5348803E1,5.461565E0,2.710875E0,3.3952957E1],"tree_param":{"num_deleted":"0","num_feature":"18","num_nodes":"31","size_leaf_vector":"1"}},{"base_weights":[1.0668875E-2,3.9483833E-1,5.8912956E-3,6.280591E-1,-2.558145E-1,-3.8875887E-1,1.1140892E-2,8.9435583E-1,-5.581763E-1,-8.4059125E-1,3.288303E-2,-1.1110572E0,-3.7061848E-2,2.6773912E-1,3.6216618E-3,-1.3858887E-2,6.321486E-2,-5.5710882E-2,1.231468E-2,-1.1329653E-3,-6.390371E-2,7.00896E-3,-6.970248E-2,3.541996E-2,-2.073222E-2,-9.635061E-3,2.2516306E-2,-2.6051143E-2,3.7576267E-4],"categories":[],"categories_nodes":[],"categories_segments":[],"categories_sizes":[],"default_left":[0,0,0,0,0,0,0,0,0,0,0,0,0,0,0,0,0,0,0,0,0,0,0,0,0,0,0,0,0],"id":27,"left_children":[1,3,5,7,9,11,13,15,17,19,-1,21,23,25,27,-1,-1,-1,-1,-1,-1,-1,-1,-1,-1,-1,-1,-1,-1],"loss_changes":[3.1332338E0,3.3427E0,3.5023017E0,5.466864E0,3.8880422E0,5.596282E0,3.2157955E0,6.0830374E0,1.8394982E0,1.490269E0,0E0,2.7564297E0,4.7858872E0,4.075984E0,3.3147397E0,0E0,0E0,0E0,0E0,0E0,0E0,0E0,0E0,0E0,0E0,0E0,0E0,0E0,0E0],"parents":[2147483647,0,0,1,1,2,2,3,3,4,4,5,5,6,6,7,7,8,8,9,9,11,11,12,12,13,13,14,14],"right_children":[2,4,6,8,10,12,14,16,18,20,-1,22,24,26,28,-1,-1,-1,-1,-1,-1,-1,-1,-1,-1,-1,-1,-1,-1],"split_conditions":[-3.3072405E-3,8.660254E-1,-2.6248028E-3,9.718444E-4,3.499706E-1,-6.868248E-4,-4.210172E-3,-1.0982215E-3,3.4320175E1,-5.0849845E-5,3.288303E-2,3.304625E0,9.947283E-4,-4.4158865E-3,-3.6529347E-3,-1.3858887E-2,6.321486E-2,-5.5710882E-2,1.231468E-2,-1.1329653E-3,-6.390371E-2,7.00896E-3,-6.970248E-2,3.541996E-2,-2.073222E-2,-9.635061E-3,2.2516306E-2,-2.6051143E-2,3.7576267E-4],"split_indices":[9,15,9,0,10,1,2,0,7,0,0,13,6,1,1,0,0,0,0,0,0,0,0,0,0,0,0,0,0],"split_type":[0,0,0,0,0,0,0,0,0,0,0,0,0,0,0,0,0,0,0,0,0,0,0,0,0,0,0,0,0],"sum_hessian":[1.7073795E3,1.9969507E1,1.68741E3,1.4725873E1,5.2436347E0,2.1192093E1,1.6662179E3,1.2227083E1,2.4987895E0,3.245658E0,1.9979767E0,6.2326493E0,1.4959443E1,4.6450764E1,1.6197672E3,2.9945781E0,9.232505E0,1.2498635E0,1.2489262E0,1.4975624E0,1.7480956E0,1.242713E0,4.9899364E0,4.7349973E0,1.0224446E1,1.3173921E1,3.327684E1,1.0953954E1,1.6088132E3],"tree_param":{"num_deleted":"0","num_feature":"18","num_nodes":"29","size_leaf_vector":"1"}},{"base_weights":[-4.342837E-3,7.2128447E-3,-2.5786543E-1,1.1171038E-2,-6.057051E-1,-5.7799184E-1,-2.1201259E-2,2.598485E-1,2.4493802E-3,-9.245142E-1,-1.06520034E-1,-7.642731E-1,3.85689E-2,-5.273044E-1,2.7063486E-1,-1.7324641E-2,2.2423841E-2,-2.550544E-3,2.4006504E-3,1.3101927E-2,-6.379487E-2,4.241791E-2,-3.625702E-2,-1.7473184E-2,-6.160739E-2,7.203162E-2,-4.1403517E-2,-4.8285156E-2,1.914262E-2,4.524264E-2,2.943671E-3],"categories":[],"categories_nodes":[],"categories_segments":[],"categories_sizes":[],"default_left":[0,0,0,0,0,0,0,0,0,0,0,0,0,0,0,0,0,0,0,0,0,0,0,0,0,0,0,0,0,0,0],"id":28,"left_children":[1,3,5,7,9,11,13,15,17,19,21,23,25,27,29,-1,-1,-1,-1,-1,-1,-1,-1,-1,-1,-1,-1,-1,-1,-1,-1],"loss_changes":[4.9385934E0,3.91906E0,5.555291E0,3.4766302E0,1.5511365E0,3.6126318E0,6.5365014E0,6.367551E0,3.7778597E0,2.9174042E0,3.669208E0,4.2286425E0,1.114526E1,6.8224087E0,3.7230065E0,0E0,0E0,0E0,0E0,0E0,0E0,0E0,0E0,0E0,0E0,0E0,0E0,0E0,0E0,0E0,0E0],"parents":[2147483647,0,0,1,1,2,2,3,3,4,4,5,5,6,6,7,7,8,8,9,9,10,10,11,11,12,12,13,13,14,14],"right_children":[2,4,6,8,10,12,14,16,18,20,22,24,26,28,30,-1,-1,-1,-1,-1,-1,-1,-1,-1,-1,-1,-1,-1,-1,-1,-1],"split_conditions":[3.7255741E-3,9.761705E1,-5E-1,8.5259014E-4,8.660254E-1,2.0420589E-3,4.441248E-3,1.8180878E-4,5.5627216E-4,-8.660254E-1,2.7756832E-4,1.7386307E-3,4.9749543E-3,1.0573927E-3,1.5913273E-3,-1.7324641E-2,2.2423841E-2,-2.550544E-3,2.4006504E-3,1.3101927E-2,-6.379487E-2,4.241791E-2,-3.625702E-2,-1.7473184E-2,-6.160739E-2,7.203162E-2,-4.1403517E-2,-4.8285156E-2,1.914262E-2,4.524264E-2,2.943671E-3],"split_indices":[2,13,15,11,15,11,2,5,5,14,0,11,2,5,11,0,0,0,0,0,0,0,0,0,0,0,0,0,0,0,0],"split_type":[0,0,0,0,0,0,0,0,0,0,0,0,0,0,0,0,0,0,0,0,0,0,0,0,0,0,0,0,0,0,0],"sum_hessian":[1.6841069E3,1.61162E3,7.248686E1,1.6022545E3,9.365506E0,3.0197557E1,4.2289303E1,5.3314823E1,1.5489397E3,5.1953816E0,4.1701245E0,2.3006914E1,7.1906447E0,1.5171678E1,2.7117626E1,1.2451821E1,4.0863003E1,7.1265497E2,8.362847E2,1.24512E0,3.9502616E0,1.4934783E0,2.6766462E0,1.3120991E1,9.885923E0,2.493805E0,4.69684E0,1.0198363E1,4.9733143E0,5.968675E0,2.1148952E1],"tree_param":{"num_deleted":"0","num_feature":"18","num_nodes":"31","size_leaf_vector":"1"}},{"base_weights":[-9.728036E-3,1.2996647E-1,-3.326521E-2,4.004964E-1,2.8125664E-2,-6.0872865E-1,-2.7815152E-2,2.3809555E-1,9.122314E-1,-4.788634E-2,4.756324E-1,-8.366074E-1,3.6514398E-2,6.259379E-1,-3.262094E-2,1.9689867E-2,-2.08191E-2,6.7340456E-2,2.184847E-2,-5.5600334E-2,4.6940764E-5,6.1095692E-2,7.5643784E-3,-5.323447E-2,3.1260315E-2,1.5432305E-4,4.6870288E-2,-3.0586565E-2,-1.2537643E-3],"categories":[],"categories_nodes":[],"categories_segments":[],"categories_sizes":[],"default_left":[0,0,0,0,0,0,0,0,0,0,0,0,0,0,0,0,0,0,0,0,0,0,0,0,0,0,0,0,0],"id":29,"left_children":[1,3,5,7,9,11,13,15,17,19,21,23,-1,25,27,-1,-1,-1,-1,-1,-1,-1,-1,-1,-1,-1,-1,-1,-1],"loss_changes":[5.5409985E0,6.683985E0,4.505261E0,5.299959E0,6.064889E0,4.724069E0,4.5113177E0,5.437191E0,2.6416512E0,7.9370084E0,6.079896E0,4.6617336E0,0E0,2.0303073E0,6.189394E0,0E0,0E0,0E0,0E0,0E0,0E0,0E0,0E0,0E0,0E0,0E0,0E0,0E0,0E0],"parents":[2147483647,0,0,1,1,2,2,3,3,4,4,5,5,6,6,7,7,8,8,9,9,10,10,11,11,13,13,14,14],"right_children":[2,4,6,8,10,12,14,16,18,20,22,24,-1,26,28,-1,-1,-1,-1,-1,-1,-1,-1,-1,-1,-1,-1,-1,-1],"split_conditions":[1.6471397E1,2.0388456E1,-1.0298705E-2,2.709236E-4,-1.6772295E-3,5.2131496E1,-2.8238962E-3,2.0637622E-1,5.179459E-4,2.1440912E1,2.4720285E1,5.848502E1,3.6514398E-2,3.692741E1,-4.488619E-3,1.9689867E-2,-2.08191E-2,6.7340456E-2,2.184847E-2,-5.5600334E-2,4.6940764E-5,6.1095692E-2,7.5643784E-3,-5.323447E-2,3.1260315E-2,1.5432305E-4,4.6870288E-2,-3.0586565E-2,-1.2537643E-3],"split_indices":[13,12,4,0,3,12,8,10,0,12,12,13,0,12,3,0,0,0,0,0,0,0,0,0,0,0,0,0,0],"split_type":[0,0,0,0,0,0,0,0,0,0,0,0,0,0,0,0,0,0,0,0,0,0,0,0,0,0,0,0,0],"sum_hessian":[1.6828965E3,2.4201306E2,1.4408834E3,6.538685E1,1.7662622E2,1.24796915E1,1.4284037E3,5.0747295E1,1.4639555E1,1.5174442E2,2.4881807E1,1.0985369E1,1.494323E0,9.480511E0,1.4189232E3,4.131634E1,9.430954E0,6.689176E0,7.950379E0,5.7017736E0,1.4604263E2,6.6995525E0,1.8182255E1,9.737694E0,1.2476751E0,3.4971225E0,5.9833884E0,1.7220518E1,1.4017026E3],"tree_param":{"num_deleted":"0","num_feature":"18","num_nodes":"29","size_leaf_vector":"1"}},{"base_weights":[9.658173E-3,-3.5895444E-2,5.0300974E-2,3.0145624E-1,-6.0678706E-2,6.4366287E-1,4.1091554E-2,-9.327652E-1,3.959719E-1,2.9052114E-1,-8.4229246E-2,1.1360566E-1,1.3084933E0,-2.1857512E-1,5.7821073E-2,7.1337223E-3,-7.133569E-2,5.3139847E-2,1.1450627E-2,3.598622E-2,-5.801385E-3,-1.8171687E-2,-2.347324E-3,2.5128925E-2,-4.578994E-2,1.1125795E-2,7.737545E-2,1.5471447E-3,-4.5206707E-2,9.12395E-3,3.4596593E-4],"categories":[],"categories_nodes":[],"categories_segments":[],"categories_sizes":[],"default_left":[0,0,0,0,0,0,0,0,0,0,0,0,0,0,0,0,0,0,0,0,0,0,0,0,0,0,0,0,0,0,0],"id":30,"left_children":[1,3,5,7,9,11,13,15,17,19,21,23,25,27,29,-1,-1,-1,-1,-1,-1,-1,-1,-1,-1,-1,-1,-1,-1,-1,-1],"loss_changes":[3.1612573E0,6.750474E0,4.904054E0,6.8172436E0,6.235503E0,4.6868744E0,3.8769498E0,2.4504519E0,5.5508337E0,8.357338E0,7.3167453E0,3.9557676E0,1.2109613E0,9.273993E0,5.3066044E0,0E0,0E0,0E0,0E0,0E0,0E0,0E0,0E0,0E0,0E0,0E0,0E0,0E0,0E0,0E0,0E0],"parents":[2147483647,0,0,1,1,2,2,3,3,4,4,5,5,6,6,7,7,8,8,9,9,10,10,11,11,12,12,13,13,14,14],"right_children":[2,4,6,8,10,12,14,16,18,20,22,24,26,28,30,-1,-1,-1,-1,-1,-1,-1,-1,-1,-1,-1,-1,-1,-1,-1,-1],"split_conditions":[5.720153E-4,-8.660254E-1,5.7959225E-4,3.3449368E1,1.2060022E1,1.7007785E-3,-1.6988537E-3,1.3543153E-3,4.294653E1,7.0710677E-1,1.5140752E1,1.7094186E-3,-2.5881904E-1,-1.8867416E-3,-3.4915737E-4,7.1337223E-3,-7.133569E-2,5.3139847E-2,1.1450627E-2,3.598622E-2,-5.801385E-3,-1.8171687E-2,-2.347324E-3,2.5128925E-2,-4.578994E-2,1.1125795E-2,7.737545E-2,1.5471447E-3,-4.5206707E-2,9.12395E-3,3.4596593E-4],"split_indices":[5,15,5,7,12,3,0,11,7,14,12,11,14,0,0,0,0,0,0,0,0,0,0,0,0,0,0,0,0,0,0],"split_type":[0,0,0,0,0,0,0,0,0,0,0,0,0,0,0,0,0,0,0,0,0,0,0,0,0,0,0,0,0,0,0],"sum_hessian":[1.7054958E3,8.042199E2,9.0127594E2,5.427402E1,7.4994586E2,1.2721771E1,8.8855414E2,3.2297554E0,5.1044266E1,4.6416656E1,7.0352924E2,7.7298117E0,4.9919596E0,5.305152E1,8.355026E2,1.2403605E0,1.9893949E0,9.146826E0,4.1897438E1,2.2204508E1,2.4212149E1,8.184647E1,6.2168274E2,5.981433E0,1.7483789E0,1.2488278E0,3.7431316E0,3.9595203E1,1.3456319E1,2.4149606E2,5.940066E2],"tree_param":{"num_deleted":"0","num_feature":"18","num_nodes":"31","size_leaf_vector":"1"}},{"base_weights":[1.1577295E-2,2.4614356E-2,-1.9627103E-1,1.5811248E-2,3.3840823E-1,-6.844387E-1,3.6676913E-2,-2.344273E-1,2.3580916E-2,-3.244436E-2,3.8274077E-1,1.5455066E-1,-8.58061E-1,1.1210797E0,-1.0787507E-1,-1.1902854E-3,-3.6625434E-2,2.2705665E-3,-3.9924434E-3,1.3791707E-2,5.0938524E-2,-3.4021717E-2,3.7785508E-2,-5.143392E-2,-1.4553445E-2,7.5867176E-2,1.1707071E-2,-1.6161023E-2,1.8609924E-2],"categories":[],"categories_nodes":[],"categories_segments":[],"categories_sizes":[],"default_left":[0,0,0,0,0,0,0,0,0,0,0,0,0,0,0,0,0,0,0,0,0,0,0,0,0,0,0,0,0],"id":31,"left_children":[1,3,5,7,9,11,13,15,17,-1,19,21,23,25,27,-1,-1,-1,-1,-1,-1,-1,-1,-1,-1,-1,-1,-1,-1],"loss_changes":[4.611525E0,4.4160957E0,1.1448252E1,3.0346532E0,2.1579537E0,4.8668947E0,1.0929214E1,4.9140487E0,3.4175181E0,0E0,2.6008396E0,3.736755E0,2.3203354E0,2.5259905E0,6.5044513E0,0E0,0E0,0E0,0E0,0E0,0E0,0E0,0E0,0E0,0E0,0E0,0E0,0E0,0E0],"parents":[2147483647,0,0,1,1,2,2,3,3,4,4,5,5,6,6,7,7,8,8,10,10,11,11,12,12,13,13,14,14],"right_children":[2,4,6,8,10,12,14,16,18,-1,20,22,24,26,28,-1,-1,-1,-1,-1,-1,-1,-1,-1,-1,-1,-1,-1,-1],"split_conditions":[6.9322106E-3,7.1971535E1,9.24971E-4,-3.2410584E-3,-2.8529347E-4,-3.656166E-4,9.7573985E-4,-3.2954365E-3,2.13407E-3,-3.244436E-2,8.714084E-4,-6.0517096E-4,1.8142195E-3,2.351444E-3,6.647091E-4,-1.1902854E-3,-3.6625434E-2,2.2705665E-3,-3.9924434E-3,1.3791707E-2,5.0938524E-2,-3.4021717E-2,3.7785508E-2,-5.143392E-2,-1.4553445E-2,7.5867176E-2,1.1707071E-2,-1.6161023E-2,1.8609924E-2],"split_indices":[4,7,6,1,1,0,6,3,3,0,6,0,1,9,0,0,0,0,0,0,0,0,0,0,0,0,0,0,0],"split_type":[0,0,0,0,0,0,0,0,0,0,0,0,0,0,0,0,0,0,0,0,0,0,0,0,0,0,0,0,0],"sum_hessian":[1.6990555E3,1.5996038E3,9.945184E1,1.5569751E3,4.2628674E1,3.150065E1,6.7951195E1,4.6008312E1,1.5109668E3,1.2458785E0,4.1382793E1,5.419933E0,2.6080717E1,7.197947E0,6.0753242E1,3.307136E1,1.2936953E1,1.2480979E3,2.6286887E2,3.6655296E1,4.7274985E0,2.213544E0,3.2063887E0,1.9422031E1,6.6586866E0,4.4838843E0,2.7140627E0,4.216578E1,1.8587467E1],"tree_param":{"num_deleted":"0","num_feature":"18","num_nodes":"29","size_leaf_vector":"1"}},{"base_weights":[1.2371208E-2,4.2205438E-2,-8.215961E-2,-1.4058714E-2,1.0334002E-1,-6.136345E-1,-4.682695E-2,-1.1810695E-1,8.801315E-2,6.252923E-1,8.9739196E-2,5.351004E-1,-7.929884E-1,-1.3816422E-1,1.7620276E-1,-3.1064923E-3,-2.1949515E-2,-6.3233934E-3,1.1822806E-2,-2.5219325E-2,4.9862813E-2,5.6153233E-3,-8.165658E-3,-9.614783E-3,4.675404E-2,-1.9332493E-2,-6.381077E-2,-8.517695E-3,2.3365503E-2,1.3201538E-2,-2.1649078E-2],"categories":[],"categories_nodes":[],"categories_segments":[],"categories_sizes":[],"default_left":[0,0,0,0,0,0,0,0,0,0,0,0,0,0,0,0,0,0,0,0,0,0,0,0,0,0,0,0,0,0,0],"id":32,"left_children":[1,3,5,7,9,11,13,15,17,19,21,23,25,27,29,-1,-1,-1,-1,-1,-1,-1,-1,-1,-1,-1,-1,-1,-1,-1,-1],"loss_changes":[4.7580214E0,4.4114585E0,7.572102E0,7.1103716E0,4.3067293E0,5.605755E0,7.7778344E0,5.926868E0,1.0792469E1,6.9909043E0,3.4455214E0,1.3416568E0,3.8568687E0,5.3534255E0,6.054532E0,0E0,0E0,0E0,0E0,0E0,0E0,0E0,0E0,0E0,0E0,0E0,0E0,0E0,0E0,0E0,0E0],"parents":[2147483647,0,0,1,1,2,2,3,3,4,4,5,5,6,6,7,7,8,8,9,9,10,10,11,11,12,12,13,13,14,14],"right_children":[2,4,6,8,10,12,14,16,18,20,22,24,26,28,30,-1,-1,-1,-1,-1,-1,-1,-1,-1,-1,-1,-1,-1,-1,-1,-1],"split_conditions":[1.267929E-3,5.671354E-4,3.3243943E-4,-1.687831E-4,5.7959225E-4,1.5559621E1,8.9557884E1,6.791249E1,1.2246469E-16,6.010923E-4,1.5414626E-3,7.363E-4,9.102051E1,2.750758E-3,7.242522E-3,-3.1064923E-3,-2.1949515E-2,-6.3233934E-3,1.1822806E-2,-2.5219325E-2,4.9862813E-2,5.6153233E-3,-8.165658E-3,-9.614783E-3,4.675404E-2,-1.9332493E-2,-6.381077E-2,-8.517695E-3,2.3365503E-2,1.3201538E-2,-2.1649078E-2],"split_indices":[2,5,5,2,5,12,13,13,14,6,6,6,13,11,3,0,0,0,0,0,0,0,0,0,0,0,0,0,0,0,0],"split_type":[0,0,0,0,0,0,0,0,0,0,0,0,0,0,0,0,0,0,0,0,0,0,0,0,0,0,0,0,0,0,0],"sum_hessian":[1.68486E3,1.2810956E3,4.037644E2,6.675227E2,6.135729E2,2.4148878E1,3.796155E2,3.304833E2,3.370394E2,1.444004E1,5.991329E2,2.9933605E0,2.1155518E1,2.6959067E2,1.1002485E2,2.824112E2,4.8072132E1,1.379162E2,1.9912318E2,3.4886806E0,1.0951359E1,5.505875E2,4.854534E1,1.2462298E0,1.7471308E0,1.2469901E1,8.685617E0,2.5666394E2,1.2926737E1,9.6656204E1,1.3368644E1],"tree_param":{"num_deleted":"0","num_feature":"18","num_nodes":"31","size_leaf_vector":"1"}},{"base_weights":[-1.8296612E-2,1.2381634E-2,-1.2979878E-1,3.7661975E-3,5.477026E-1,-3.4929588E-1,-5.8048256E-2,-4.4167726E-3,5.54562E-1,7.320944E-1,-4.167608E-2,2.3330957E-2,-4.9874625E-1,5.7858133E-1,-9.8525E-2,-8.8714267E-4,1.1766211E-2,5.9878457E-2,-4.7821025E-3,1.5201914E-2,5.1287007E-2,-2.995786E-2,2.3131657E-2,-3.161263E-2,-1.7700486E-3,-7.816372E-3,6.1498877E-2,-1.328511E-3,-1.7452639E-2],"categories":[],"categories_nodes":[],"categories_segments":[],"categories_sizes":[],"default_left":[0,0,0,0,0,0,0,0,0,0,0,0,0,0,0,0,0,0,0,0,0,0,0,0,0,0,0,0,0],"id":33,"left_children":[1,3,5,7,9,11,13,15,17,19,-1,21,23,25,27,-1,-1,-1,-1,-1,-1,-1,-1,-1,-1,-1,-1,-1,-1],"loss_changes":[5.8052483E0,6.138663E0,5.746521E0,5.9130197E0,5.97955E0,5.024129E0,7.1990547E0,4.135613E0,8.144024E0,2.0929136E0,0E0,7.5843782E0,3.9543943E0,8.193484E0,4.703728E0,0E0,0E0,0E0,0E0,0E0,0E0,0E0,0E0,0E0,0E0,0E0,0E0,0E0,0E0],"parents":[2147483647,0,0,1,1,2,2,3,3,4,4,5,5,6,6,7,7,8,8,9,9,11,11,12,12,13,13,14,14],"right_children":[2,4,6,8,10,12,14,16,18,20,-1,22,24,26,28,-1,-1,-1,-1,-1,-1,-1,-1,-1,-1,-1,-1,-1,-1],"split_conditions":[8.188151E-1,4.805347E-3,7.818235E1,8.0713683E-1,7.382648E1,8.117539E-4,7.977685E1,2.2500695E-3,4.8964465E-4,7.4628156E-1,-4.167608E-2,-5.955475E-4,1.1800153E-3,7.423044E-4,6.425462E-3,-8.8714267E-4,1.1766211E-2,5.9878457E-2,-4.7821025E-3,1.5201914E-2,5.1287007E-2,-2.995786E-2,2.3131657E-2,-3.161263E-2,-1.7700486E-3,-7.816372E-3,6.1498877E-2,-1.328511E-3,-1.7452639E-2],"split_indices":[10,3,13,10,7,4,13,11,5,10,0,4,9,5,4,0,0,0,0,0,0,0,0,0,0,0,0,0,0],"split_type":[0,0,0,0,0,0,0,0,0,0,0,0,0,0,0,0,0,0,0,0,0,0,0,0,0,0,0,0,0],"sum_hessian":[1.6956283E3,1.33046E3,3.651683E2,1.3103778E3,2.0082138E1,8.9008354E1,2.7615994E2,1.2921725E3,1.820535E1,1.8131563E1,1.950575E0,2.5721193E1,6.3287163E1,1.5713857E1,2.604461E2,1.2250061E3,6.716637E1,8.730072E0,9.475279E0,8.205522E0,9.926042E0,1.0491262E1,1.5229931E1,4.8847813E1,1.4439347E1,7.7407317E0,7.9731255E0,2.0319263E2,5.725347E1],"tree_param":{"num_deleted":"0","num_feature":"18","num_nodes":"29","size_leaf_vector":"1"}},{"base_weights":[1.6504653E-2,2.9518625E-3,2.4563643E-1,-8.7940514E-2,3.1074803E-2,3.9328855E-1,-1.0848039E-1,-2.491786E-1,2.9281059E-3,6.46015E-2,-9.252059E-2,4.843458E-1,-1.5488651E-1,4.6112594E-1,-4.1864553E-1,-1.0233504E-2,-5.501532E-2,-3.753829E-2,1.5940147E-3,6.9515393E-3,-3.9172312E-4,-2.3274966E-2,-2.2664843E-5,-2.1576544E-2,2.7595093E-2,2.6142523E-2,-3.8819727E-2,5.481947E-3,5.6579024E-2,-3.3499338E-2,3.0554373E-2],"categories":[],"categories_nodes":[],"categories_segments":[],"categories_sizes":[],"default_left":[0,0,0,0,0,0,0,0,0,0,0,0,0,0,0,0,0,0,0,0,0,0,0,0,0,0,0,0,0,0,0],"id":34,"left_children":[1,3,5,7,9,11,13,15,17,19,21,23,25,27,29,-1,-1,-1,-1,-1,-1,-1,-1,-1,-1,-1,-1,-1,-1,-1,-1],"loss_changes":[5.212313E0,4.056749E0,4.943761E0,5.495369E0,5.028013E0,3.3878593E0,5.204686E0,4.895892E0,5.279303E0,5.144108E0,8.894251E0,3.7746658E0,4.7073636E0,2.3448238E0,5.2984843E0,0E0,0E0,0E0,0E0,0E0,0E0,0E0,0E0,0E0,0E0,0E0,0E0,0E0,0E0,0E0,0E0],"parents":[2147483647,0,0,1,1,2,2,3,3,4,4,5,5,6,6,7,7,8,8,9,9,10,10,11,11,12,12,13,13,14,14],"right_children":[2,4,6,8,10,12,14,16,18,20,22,24,26,28,30,-1,-1,-1,-1,-1,-1,-1,-1,-1,-1,-1,-1,-1,-1,-1,-1],"split_conditions":[2.2500695E-3,1.7545994E1,1.6999958E-3,6.478759E-4,9.132271E-4,3.0952475E-3,6.64851E-1,6.356663E-4,-7.31875E-2,1.3047294E-5,9.818261E-4,5.5627216E-4,1E0,1.4799013E-3,3.9086006E1,-1.0233504E-2,-5.501532E-2,-3.753829E-2,1.5940147E-3,6.9515393E-3,-3.9172312E-4,-2.3274966E-2,-2.2664843E-5,-2.1576544E-2,2.7595093E-2,2.6142523E-2,-3.8819727E-2,5.481947E-3,5.6579024E-2,-3.3499338E-2,3.0554373E-2],"split_indices":[11,12,1,6,5,11,10,6,10,1,5,5,16,2,12,0,0,0,0,0,0,0,0,0,0,0,0,0,0,0,0],"split_type":[0,0,0,0,0,0,0,0,0,0,0,0,0,0,0,0,0,0,0,0,0,0,0,0,0,0,0,0,0,0,0],"sum_hessian":[1.6777146E3,1.5849784E3,9.273614E1,3.7402274E2,1.2109557E3,6.536924E1,2.73669E1,1.3418375E2,2.39839E2,9.529375E2,2.5801816E2,5.615739E1,9.21185E0,9.476664E0,1.7890236E1,1.2869432E2,5.489421E0,7.950017E0,2.3188899E2,4.6954846E2,4.8338907E2,5.027804E1,2.0774013E2,3.4875782E0,5.266981E1,4.4825234E0,4.7293267E0,6.9806E0,2.496063E0,1.4661066E1,3.2291706E0],"tree_param":{"num_deleted":"0","num_feature":"18","num_nodes":"31","size_leaf_vector":"1"}},{"base_weights":[-1.1530556E-2,-5.8233486E-3,-3.5609016E-1,-2.9853892E-1,3.00182E-3,5.34237E-1,-5.734272E-1,5.9359616E-1,-4.4803765E-1,4.2634714E-1,-5.872537E-3,-1.2649031E-2,9.19508E-1,-8.7295926E-1,-1.11851946E-1,-2.3177385E-2,4.676978E-2,-1.5170014E-3,-5.5438787E-2,-3.8877603E-2,2.483568E-2,-6.57524E-4,1.7331677E-2,6.016853E-2,6.5788846E-3,-5.8879866E-3,-5.4837544E-2,4.2214766E-2,-2.0548185E-2],"categories":[],"categories_nodes":[],"categories_segments":[],"categories_sizes":[],"default_left":[0,0,0,0,0,0,0,0,0,0,0,0,0,0,0,0,0,0,0,0,0,0,0,0,0,0,0,0,0],"id":35,"left_children":[1,3,5,7,9,11,13,15,17,19,21,-1,23,25,27,-1,-1,-1,-1,-1,-1,-1,-1,-1,-1,-1,-1,-1,-1],"loss_changes":[3.3463378E0,4.3305054E0,5.6717024E0,6.809497E0,6.1186156E0,2.0396972E0,3.0504003E0,3.133346E0,1.1720802E1,3.2189727E0,4.0978985E0,0E0,7.8466487E-1,2.1797743E0,3.237774E0,0E0,0E0,0E0,0E0,0E0,0E0,0E0,0E0,0E0,0E0,0E0,0E0,0E0,0E0],"parents":[2147483647,0,0,1,1,2,2,3,3,4,4,5,5,6,6,7,7,8,8,9,9,10,10,12,12,13,13,14,14],"right_children":[2,4,6,8,10,12,14,16,18,20,22,-1,24,26,28,-1,-1,-1,-1,-1,-1,-1,-1,-1,-1,-1,-1,-1,-1],"split_conditions":[5.4570988E1,-8.829953E-3,-2.8238962E-3,1.6722725E-3,-4.210172E-3,-6.2927376E-3,9.4682246E-4,2.9779373E1,-6.2927376E-3,-8.939493E-3,4.944008E1,-1.2649031E-2,4.4117038E-4,-7.0710677E-1,-1.4373328E-3,-2.3177385E-2,4.676978E-2,-1.5170014E-3,-5.5438787E-2,-3.8877603E-2,2.483568E-2,-6.57524E-4,1.7331677E-2,6.016853E-2,6.5788846E-3,-5.8879866E-3,-5.4837544E-2,4.2214766E-2,-2.0548185E-2],"split_indices":[12,4,8,11,2,3,6,12,3,2,12,0,2,14,3,0,0,0,0,0,0,0,0,0,0,0,0,0,0],"split_type":[0,0,0,0,0,0,0,0,0,0,0,0,0,0,0,0,0,0,0,0,0,0,0,0,0,0,0,0,0],"sum_hessian":[1.70175E3,1.6750222E3,2.6727785E1,4.8061962E1,1.6269602E3,4.9582157E0,2.176957E1,6.4716644E0,4.1590298E1,3.2438953E1,1.5945214E3,1.7420614E0,3.2161546E0,1.2661697E1,9.107872E0,1.4941727E0,4.9774914E0,2.612244E1,1.5467857E1,1.2363424E0,3.120261E1,1.5632095E3,3.1311783E1,1.976749E0,1.2394056E0,3.24327E0,9.418427E0,1.7359666E0,7.3719053E0],"tree_param":{"num_deleted":"0","num_feature":"18","num_nodes":"29","size_leaf_vector":"1"}},{"base_weights":[2.1067185E-2,3.550661E-2,-1.574962E-1,2.7944142E-2,4.6348253E-1,-6.247332E-1,-5.7779647E-2,3.3124357E-2,-3.9721307E-1,6.081124E-1,-3.9505128E-2,-2.2442846E-1,-1.052087E0,-3.4748286E-1,5.588423E-2,-3.1782102E-3,2.7806994E-3,-2.0959917E-3,-4.9655344E-2,3.97108E-2,-1.5045026E-2,4.0421046E-2,-2.7757565E-2,-6.1692882E-2,-4.2094835E-3,-4.172578E-2,2.467424E-3,6.3745454E-2,3.123653E-4],"categories":[],"categories_nodes":[],"categories_segments":[],"categories_sizes":[],"default_left":[0,0,0,0,0,0,0,0,0,0,0,0,0,0,0,0,0,0,0,0,0,0,0,0,0,0,0,0,0],"id":36,"left_children":[1,3,5,7,9,11,13,15,17,19,-1,21,23,25,27,-1,-1,-1,-1,-1,-1,-1,-1,-1,-1,-1,-1,-1,-1],"loss_changes":[4.363189E0,5.0504565E0,5.8635626E0,3.401217E0,5.393871E0,3.556408E0,3.4919791E0,3.3103895E0,3.8952265E0,4.444889E0,0E0,4.793107E0,1.7348537E0,5.8112407E0,4.6271024E0,0E0,0E0,0E0,0E0,0E0,0E0,0E0,0E0,0E0,0E0,0E0,0E0,0E0,0E0],"parents":[2147483647,0,0,1,1,2,2,3,3,4,4,5,5,6,6,7,7,8,8,9,9,11,11,12,12,13,13,14,14],"right_children":[2,4,6,8,10,12,14,16,18,20,-1,22,24,26,28,-1,-1,-1,-1,-1,-1,-1,-1,-1,-1,-1,-1,-1,-1],"split_conditions":[1.4213906E-3,1.694858E-3,1.691228E-3,1.214212E0,5E-1,5.752608E-4,-6.521943E-4,5.548673E-4,7.535139E-4,6.835471E1,-3.9505128E-2,-1.4550693E-3,1.0573927E-3,-1.2256089E-3,-5.90672E-4,-3.1782102E-3,2.7806994E-3,-2.0959917E-3,-4.9655344E-2,3.97108E-2,-1.5045026E-2,4.0421046E-2,-2.7757565E-2,-6.1692882E-2,-4.2094835E-3,-4.172578E-2,2.467424E-3,6.3745454E-2,3.123653E-4],"split_indices":[6,5,11,10,15,5,0,6,6,7,0,2,5,9,0,0,0,0,0,0,0,0,0,0,0,0,0,0,0],"split_type":[0,0,0,0,0,0,0,0,0,0,0,0,0,0,0,0,0,0,0,0,0,0,0,0,0,0,0,0,0],"sum_hessian":[1.6890703E3,1.5634445E3,1.2562587E2,1.5373444E3,2.610006E1,2.1169216E1,1.0445666E2,1.5197495E3,1.75949E1,2.3861937E1,2.238122E0,1.171803E1,9.451186E0,2.885493E1,7.560172E1,2.8644107E2,1.2333085E3,1.169329E1,5.9016104E0,1.9911676E1,3.950261E0,2.4917798E0,9.22625E0,7.72555E0,1.7256362E0,1.2459898E1,1.6395033E1,1.9921503E0,7.360957E1],"tree_param":{"num_deleted":"0","num_feature":"18","num_nodes":"29","size_leaf_vector":"1"}},{"base_weights":[-2.7289877E-3,8.097151E-2,-3.2115288E-2,5.283814E-2,6.258884E-1,-5.5269694E-1,-2.353917E-2,-5.805873E-1,8.016634E-2,-4.6058506E-1,8.6190605E-1,-1.5372618E-1,-1.1765174E0,3.7792602E-1,-3.3285663E-2,-1.1642081E-2,-7.007437E-2,1.0821743E-2,9.045289E-4,-5.7186175E-2,1.3197553E-2,5.2780963E-2,-2.9775148E-2,-4.7553282E-2,1.5742164E-2,-6.585256E-2,-1.2404334E-2,4.3796357E-2,7.1613523E-3,-1.2294659E-2,-6.000376E-4],"categories":[],"categories_nodes":[],"categories_segments":[],"categories_sizes":[],"default_left":[0,0,0,0,0,0,0,0,0,0,0,0,0,0,0,0,0,0,0,0,0,0,0,0,0,0,0,0,0,0,0],"id":37,"left_children":[1,3,5,7,9,11,13,15,17,19,21,23,25,27,29,-1,-1,-1,-1,-1,-1,-1,-1,-1,-1,-1,-1,-1,-1,-1,-1],"loss_changes":[4.148637E0,6.6862698E0,5.560194E0,7.2801585E0,5.8911552E0,4.84344E0,4.822022E0,4.642005E0,3.3921332E0,2.517068E0,5.6963673E0,5.329273E0,6.810932E-1,3.2890482E0,5.431602E0,0E0,0E0,0E0,0E0,0E0,0E0,0E0,0E0,0E0,0E0,0E0,0E0,0E0,0E0,0E0,0E0],"parents":[2147483647,0,0,1,1,2,2,3,3,4,4,5,5,6,6,7,7,8,8,9,9,10,10,11,11,12,12,13,13,14,14],"right_children":[2,4,6,8,10,12,14,16,18,20,22,24,26,28,30,-1,-1,-1,-1,-1,-1,-1,-1,-1,-1,-1,-1,-1,-1,-1,-1],"split_conditions":[4.249454E1,5.4438225E1,4.294653E1,-4.4158865E-3,-9.26839E-3,2.4331404E1,1.4316777E1,-4.7913687E-3,-3.6437763E-3,1.0607274E-4,6.1283936E-4,-1.5748481E-3,6.4731133E-4,-8.7069886E-5,3.159897E-1,-1.1642081E-2,-7.007437E-2,1.0821743E-2,9.045289E-4,-5.7186175E-2,1.3197553E-2,5.2780963E-2,-2.9775148E-2,-4.7553282E-2,1.5742164E-2,-6.585256E-2,-1.2404334E-2,4.3796357E-2,7.1613523E-3,-1.2294659E-2,-6.000376E-4],"split_indices":[7,13,7,1,4,12,13,2,3,2,1,2,1,4,10,0,0,0,0,0,0,0,0,0,0,0,0,0,0,0,0],"split_type":[0,0,0,0,0,0,0,0,0,0,0,0,0,0,0,0,0,0,0,0,0,0,0,0,0,0,0,0,0,0,0],"sum_hessian":[1.6846221E3,4.3730322E2,1.2473188E3,4.1687735E2,2.0425886E1,1.9187151E1,1.2281317E3,1.6404371E1,4.0047296E2,3.4754884E0,1.6950397E1,1.246284E1,6.7243104E0,2.8213686E1,1.199918E3,1.2424715E1,3.9796562E0,1.2455769E2,2.7591528E2,1.4910617E0,1.9844267E0,1.5205085E1,1.7453127E0,4.231908E0,8.230932E0,5.476735E0,1.247575E0,8.16227E0,2.0051416E1,1.0823583E2,1.0916821E3],"tree_param":{"num_deleted":"0","num_feature":"18","num_nodes":"31","size_leaf_vector":"1"}},{"base_weights":[-3.3582104E-3,-1.5838573E-2,2.1209402E-1,-7.969528E-4,-2.6826668E-1,5.320774E-2,6.07336E-1,-2.7605252E-2,1.0620148E-1,4.202577E-2,-5.3968954E-1,2.9255325E-1,-4.784371E-1,9.2023474E-1,-1.01801336E-1,1.2672298E-4,-1.4810306E-2,3.1852808E-2,3.8099163E-3,-2.145815E-3,6.4602636E-2,-3.1551935E-2,1.4111537E-2,-2.2874732E-2,1.989117E-2,-4.066063E-2,-2.8965136E-3,5.3851534E-2,-1.8993951E-2,-4.4546008E-2,1.0644834E-2],"categories":[],"categories_nodes":[],"categories_segments":[],"categories_sizes":[],"default_left":[0,0,0,0,0,0,0,0,0,0,0,0,0,0,0,0,0,0,0,0,0,0,0,0,0,0,0,0,0,0,0],"id":38,"left_children":[1,3,5,7,9,11,13,15,17,19,21,23,25,27,29,-1,-1,-1,-1,-1,-1,-1,-1,-1,-1,-1,-1,-1,-1,-1,-1],"loss_changes":[4.5242186E0,6.0375195E0,5.7531815E0,4.310592E0,7.5538893E0,8.641062E0,5.9337797E0,9.728844E0,4.746875E0,4.5841784E0,3.7648354E0,3.8684309E0,2.9259586E0,4.152216E0,2.414332E0,0E0,0E0,0E0,0E0,0E0,0E0,0E0,0E0,0E0,0E0,0E0,0E0,0E0,0E0,0E0,0E0],"parents":[2147483647,0,0,1,1,2,2,3,3,4,4,5,5,6,6,7,7,8,8,9,9,10,10,11,11,12,12,13,13,14,14],"right_children":[2,4,6,8,10,12,14,16,18,20,22,24,26,28,30,-1,-1,-1,-1,-1,-1,-1,-1,-1,-1,-1,-1,-1,-1,-1,-1],"split_conditions":[2.2500695E-3,3.1584369E-3,3.737906E1,7.8773544E1,1.6656751E-3,3.1673857E1,1.0033635E-3,7.232765E1,5.125941E1,1.6467926E-3,2.3466945E-3,1.1804365E-3,-3.3759495E-4,5.8824146E1,3.5204464E1,1.2672298E-4,-1.4810306E-2,3.1852808E-2,3.8099163E-3,-2.145815E-3,6.4602636E-2,-3.1551935E-2,1.4111537E-2,-2.2874732E-2,1.989117E-2,-4.066063E-2,-2.8965136E-3,5.3851534E-2,-1.8993951E-2,-4.4546008E-2,1.0644834E-2],"split_indices":[11,2,12,13,11,12,0,13,7,11,0,6,1,12,7,0,0,0,0,0,0,0,0,0,0,0,0,0,0,0,0],"split_type":[0,0,0,0,0,0,0,0,0,0,0,0,0,0,0,0,0,0,0,0,0,0,0,0,0,0,0,0,0,0,0],"sum_hessian":[1.6802908E3,1.5891628E3,9.112792E1,1.5007402E3,8.842256E1,6.580792E1,2.5320002E1,1.2006589E3,3.0008133E2,4.1651478E1,4.6771088E1,4.5688683E1,2.0119238E1,1.7361675E1,7.9583254E0,1.080416E3,1.2024295E2,1.497052E1,2.851108E2,3.990548E1,1.7459974E0,4.230185E1,4.4692364E0,5.211431E0,4.0477253E1,1.0681531E1,9.437708E0,1.5646294E1,1.715382E0,1.7468903E0,6.211435E0],"tree_param":{"num_deleted":"0","num_feature":"18","num_nodes":"31","size_leaf_vector":"1"}},{"base_weights":[-1.12510845E-2,2.805777E-2,-5.928286E-2,3.5224043E-2,-8.789762E-1,-4.1040713E-1,-4.33904E-2,-6.765138E-2,9.938354E-2,-1.061226E-2,-1.1361185E0,-7.0206815E-1,6.645042E-2,5.7391203E-3,-1.4939302E-1,-2.5380129E-2,-1.4539227E-3,1.1602426E-2,1.7529341E-3,-9.897939E-3,-6.9779895E-2,-5.590951E-2,-6.9270493E-3,2.6320836E-2,-5.1743925E-2,-1.5220861E-3,2.6632918E-2,-1.6564524E-2,-2.3951565E-3],"categories":[],"categories_nodes":[],"categories_segments":[],"categories_sizes":[],"default_left":[0,0,0,0,0,0,0,0,0,0,0,0,0,0,0,0,0,0,0,0,0,0,0,0,0,0,0,0,0],"id":39,"left_children":[1,3,5,7,9,11,13,15,17,-1,19,21,23,25,27,-1,-1,-1,-1,-1,-1,-1,-1,-1,-1,-1,-1,-1,-1],"loss_changes":[3.145885E0,5.988201E0,4.1663322E0,6.01489E0,9.97169E-1,4.545925E0,3.7425222E0,5.9288263E0,4.779516E0,0E0,9.3668604E-1,4.5723715E0,7.226862E0,9.393871E0,4.1852636E0,0E0,0E0,0E0,0E0,0E0,0E0,0E0,0E0,0E0,0E0,0E0,0E0,0E0,0E0],"parents":[2147483647,0,0,1,1,2,2,3,3,4,4,5,5,6,6,7,7,8,8,10,10,11,11,12,12,13,13,14,14],"right_children":[2,4,6,8,10,12,14,16,18,-1,20,22,24,26,28,-1,-1,-1,-1,-1,-1,-1,-1,-1,-1,-1,-1,-1,-1],"split_conditions":[1.4688387E-3,1.4414652E-3,1.4895772E-3,5.918155E-4,-8.6464296E-4,8.916207E-4,1.2452187E-3,-4.139827E-3,1.1959648E-3,-1.061226E-2,1.3158479E-3,1E0,1.4859065E-3,9.1971346E-4,-5E-1,-2.5380129E-2,-1.4539227E-3,1.1602426E-2,1.7529341E-3,-9.897939E-3,-6.9779895E-2,-5.590951E-2,-6.9270493E-3,2.6320836E-2,-5.1743925E-2,-1.5220861E-3,2.6632918E-2,-1.6564524E-2,-2.3951565E-3],"split_indices":[11,6,11,6,2,4,2,4,11,0,11,17,11,2,15,0,0,0,0,0,0,0,0,0,0,0,0,0,0],"split_type":[0,0,0,0,0,0,0,0,0,0,0,0,0,0,0,0,0,0,0,0,0,0,0,0,0,0,0,0,0],"sum_hessian":[1.6643062E3,9.154909E2,7.488152E2,9.092681E2,6.2227592E0,3.1350073E1,7.1746515E2,3.492365E2,5.600316E2,2.2400496E0,3.9827096E0,1.915934E1,1.2190734E1,4.9089407E2,2.2657108E2,2.717114E1,3.2206537E2,1.8202072E2,3.780109E2,1.24484E0,2.7378695E0,1.045491E1,8.704429E0,8.967504E0,3.2232306E0,4.6023434E2,3.0659708E1,8.03313E1,1.4623978E2],"tree_param":{"num_deleted":"0","num_feature":"18","num_nodes":"29","size_leaf_vector":"1"}},{"base_weights":[4.214478E-3,4.9943082E-2,-5.041928E-2,8.0588005E-2,-2.528199E-1,-4.4425708E-1,-2.8957102E-2,5.633959E-2,3.8862792E-1,1.2008744E-1,-4.032737E-1,-5.4290008E-2,-1.0057063E0,-1.6657855E-2,-5.911228E-1,3.3526362E-3,-3.502023E-2,4.574276E-3,2.7551977E-2,3.269325E-2,-2.0664783E-2,-3.547484E-2,-4.160233E-3,-6.206579E-2,1.1867893E-2,-7.363725E-2,-3.8502936E-3,3.7289947E-2,-1.2610351E-3,1.798709E-2,-4.1067626E-2],"categories":[],"categories_nodes":[],"categories_segments":[],"categories_sizes":[],"default_left":[0,0,0,0,0,0,0,0,0,0,0,0,0,0,0,0,0,0,0,0,0,0,0,0,0,0,0,0,0,0,0],"id":40,"left_children":[1,3,5,7,9,11,13,15,17,19,21,23,25,27,29,-1,-1,-1,-1,-1,-1,-1,-1,-1,-1,-1,-1,-1,-1,-1,-1],"loss_changes":[4.211175E0,8.533398E0,6.479222E0,6.207341E0,4.7936034E0,8.620604E0,5.0336146E0,6.3240523E0,2.8783407E0,7.411904E0,5.8699427E0,8.755274E0,6.905966E0,4.685894E0,3.707984E0,0E0,0E0,0E0,0E0,0E0,0E0,0E0,0E0,0E0,0E0,0E0,0E0,0E0,0E0,0E0,0E0],"parents":[2147483647,0,0,1,1,2,2,3,3,4,4,5,5,6,6,7,7,8,8,9,9,10,10,11,11,12,12,13,13,14,14],"right_children":[2,4,6,8,10,12,14,16,18,20,22,24,26,28,30,-1,-1,-1,-1,-1,-1,-1,-1,-1,-1,-1,-1,-1,-1,-1,-1],"split_conditions":[7.9191916E-5,4.2697323E1,1.12905E-4,3.737906E1,-5E-1,1.5962548E-3,2.0777027E-3,2.351444E-3,3.0732024E-1,4.0566805E-1,4.8737698E1,-1.4617468E-3,3.2212368E1,1.1662019E-4,-1.3341353E-3,3.3526362E-3,-3.502023E-2,4.574276E-3,2.7551977E-2,3.269325E-2,-2.0664783E-2,-3.547484E-2,-4.160233E-3,-6.206579E-2,1.1867893E-2,-7.363725E-2,-3.8502936E-3,3.7289947E-2,-1.2610351E-3,1.798709E-2,-4.1067626E-2],"split_indices":[0,12,0,12,14,4,5,9,10,10,12,9,12,0,9,0,0,0,0,0,0,0,0,0,0,0,0,0,0,0,0],"split_type":[0,0,0,0,0,0,0,0,0,0,0,0,0,0,0,0,0,0,0,0,0,0,0,0,0,0,0,0,0,0,0],"sum_hessian":[1.6835912E3,9.1653485E2,7.6705634E2,8.329587E2,8.3576195E1,3.862245E1,7.2843384E2,7.7327094E2,5.9687756E1,2.408418E1,5.949202E1,2.3439041E1,1.5183413E1,7.1384576E2,1.45881195E1,7.633753E2,9.895611E0,2.1646814E1,3.804094E1,1.192474E1,1.215944E1,2.9781828E1,2.971019E1,3.9807823E0,1.9458258E1,9.712989E0,5.470424E0,6.971695E0,7.06874E2,2.7339952E0,1.1854124E1],"tree_param":{"num_deleted":"0","num_feature":"18","num_nodes":"31","size_leaf_vector":"1"}},{"base_weights":[-1.4825648E-2,2.9478744E-2,-6.741814E-2,7.7119E-2,-1.2547494E-1,-2.9459453E-1,-2.1173846E-2,-7.8405604E-2,1.4734413E-1,-1.7335282E-1,3.1694463E-1,-6.91835E-2,-2.585273E-1,-8.017474E-2,1.2921692E-1,6.6620684E-3,-1.6437665E-2,6.244379E-3,3.6395315E-2,-1.151794E-3,-1.7064357E-2,2.4011482E-2,-3.0035114E-2,-3.633452E-2,-8.783264E-3,-2.1140024E-3,-3.575575E-2,1.3448665E-2,-3.3445884E-3],"categories":[],"categories_nodes":[],"categories_segments":[],"categories_sizes":[],"default_left":[0,0,0,0,0,0,0,0,0,0,0,0,0,0,0,0,0,0,0,0,0,0,0,0,0,0,0,0,0],"id":41,"left_children":[1,3,5,7,9,11,13,15,17,19,21,-1,23,25,27,-1,-1,-1,-1,-1,-1,-1,-1,-1,-1,-1,-1,-1,-1],"loss_changes":[3.9500039E0,6.803697E0,8.135879E0,7.7063966E0,4.6472487E0,4.788126E0,5.733753E0,1.1690978E1,6.2417E0,4.9468284E0,3.51364E0,0E0,4.8391924E0,1.1131327E1,5.0097713E0,0E0,0E0,0E0,0E0,0E0,0E0,0E0,0E0,0E0,0E0,0E0,0E0,0E0,0E0],"parents":[2147483647,0,0,1,1,2,2,3,3,4,4,5,5,6,6,7,7,8,8,9,9,10,10,12,12,13,13,14,14],"right_children":[2,4,6,8,10,12,14,16,18,20,22,-1,24,26,28,-1,-1,-1,-1,-1,-1,-1,-1,-1,-1,-1,-1,-1,-1],"split_conditions":[7.9191916E-5,9.386464E-4,1.8793279E-4,1.7897047E1,9.281368E1,3.8434402E-4,7.507569E-4,5E-1,9.1325294E1,7.232765E1,4.7939487E1,-6.91835E-2,-4.139827E-3,9.15383E1,8.113427E1,6.6620684E-3,-1.6437665E-2,6.244379E-3,3.6395315E-2,-1.151794E-3,-1.7064357E-2,2.4011482E-2,-3.0035114E-2,-3.633452E-2,-8.783264E-3,-2.1140024E-3,-3.575575E-2,1.3448665E-2,-3.3445884E-3],"split_indices":[0,9,0,12,13,6,9,14,13,13,12,0,4,13,13,0,0,0,0,0,0,0,0,0,0,0,0,0,0],"split_type":[0,0,0,0,0,0,0,0,0,0,0,0,0,0,0,0,0,0,0,0,0,0,0,0,0,0,0,0,0],"sum_hessian":[1.6933707E3,9.1934534E2,7.740253E2,7.035441E2,2.158012E2,1.3000444E2,6.4402094E2,2.1881883E2,4.847253E2,1.9527684E2,2.0524347E1,2.9696636E0,1.2703478E2,4.628886E2,1.811323E2,1.1882799E2,9.999085E1,4.678439E2,1.6881409E1,1.0364343E2,9.163341E1,1.7828617E1,2.69573E0,1.7934816E1,1.0909997E2,4.3782483E2,2.50638E1,1.0554463E2,7.558766E1],"tree_param":{"num_deleted":"0","num_feature":"18","num_nodes":"29","size_leaf_vector":"1"}},{"base_weights":[-1.0222114E-2,1.2554255E-1,-3.3005E-2,1.5440108E-1,-4.1017953E-1,-9.005229E-1,-2.8462388E-2,4.167532E-2,3.2917377E-1,-6.1647654E-1,3.4223907E-2,-1.121369E0,-5.1725644E-4,8.23349E-1,-3.37891E-2,3.4340054E-3,-6.7379504E-2,2.8412288E-2,6.451198E-3,-3.4873027E-3,-5.401818E-2,-1.0833002E-2,-6.5714516E-2,7.2305694E-2,-2.1704163E-2,-3.6561705E-2,-1.313816E-3],"categories":[],"categories_nodes":[],"categories_segments":[],"categories_sizes":[],"default_left":[0,0,0,0,0,0,0,0,0,0,0,0,0,0,0,0,0,0,0,0,0,0,0,0,0,0,0],"id":42,"left_children":[1,3,5,7,9,11,13,15,17,19,-1,21,-1,23,25,-1,-1,-1,-1,-1,-1,-1,-1,-1,-1,-1,-1],"loss_changes":[5.2123747E0,3.8072896E0,5.6595516E0,4.5277753E0,3.2790768E0,1.4593401E0,6.5442095E0,5.392846E0,4.2446184E0,2.7580495E0,0E0,7.599578E-1,0E0,7.6477065E0,7.464201E0,0E0,0E0,0E0,0E0,0E0,0E0,0E0,0E0,0E0,0E0,0E0,0E0],"parents":[2147483647,0,0,1,1,2,2,3,3,4,4,5,5,6,6,7,7,8,8,9,9,11,11,13,13,14,14],"right_children":[2,4,6,8,10,12,14,16,18,20,-1,22,-1,24,26,-1,-1,-1,-1,-1,-1,-1,-1,-1,-1,-1,-1],"split_conditions":[1.6471397E1,1.047978E-3,-7.264117E-3,-4.0711183E-4,4.4524593E1,3.9086006E1,-5.9651067E-3,-5.140892E-4,-3.340433E-4,7.5860396E-2,3.4223907E-2,2.9634907E1,-5.1725644E-4,1.5324613E-4,-4.488619E-3,3.4340054E-3,-6.7379504E-2,2.8412288E-2,6.451198E-3,-3.4873027E-3,-5.401818E-2,-1.0833002E-2,-6.5714516E-2,7.2305694E-2,-2.1704163E-2,-3.6561705E-2,-1.313816E-3],"split_indices":[13,9,3,9,12,12,3,3,8,10,0,12,0,2,3,0,0,0,0,0,0,0,0,0,0,0,0],"split_type":[0,0,0,0,0,0,0,0,0,0,0,0,0,0,0,0,0,0,0,0,0,0,0,0,0,0,0],"sum_hessian":[1.6828164E3,2.4116835E2,1.4416481E3,2.2951645E2,1.1651907E1,6.4821944E0,1.4351659E3,1.4027783E2,8.9238625E1,1.0171784E1,1.4801229E0,4.9855947E0,1.4965999E0,7.9645143E0,1.4272014E3,1.385355E2,1.7423139E0,3.9827255E1,4.941137E1,5.197013E0,4.974772E0,1.2494272E0,3.7361674E0,5.2261305E0,2.7383835E0,1.4183151E1,1.4130182E3],"tree_param":{"num_deleted":"0","num_feature":"18","num_nodes":"27","size_leaf_vector":"1"}},{"base_weights":[2.9250698E-3,-3.6200392E-1,1.6170982E-2,-1.099716E0,-2.1762827E-1,1.8317507E-1,-5.5008437E-3,-3.104244E-1,-1.3379911E0,5.425017E-1,-3.299994E-1,2.1530148E-1,-7.491135E-1,-5.701793E-1,2.3862796E-3,8.8879755E-3,-3.2988213E-2,-7.65382E-2,-1.2578179E-2,-7.7364664E-3,4.811948E-2,1.938757E-2,-2.220249E-2,8.799037E-3,6.977763E-2,-6.846168E-2,5.156004E-2,-8.197968E-3,-5.4958165E-2,4.352807E-4,-3.1803545E-2],"categories":[],"categories_nodes":[],"categories_segments":[],"categories_sizes":[],"default_left":[0,0,0,0,0,0,0,0,0,0,0,0,0,0,0,0,0,0,0,0,0,0,0,0,0,0,0,0,0,0,0],"id":43,"left_children":[1,3,5,7,9,11,13,15,17,19,21,23,25,27,29,-1,-1,-1,-1,-1,-1,-1,-1,-1,-1,-1,-1,-1,-1,-1,-1],"loss_changes":[8.177326E0,6.071604E0,5.908499E0,1.3621979E0,4.518341E0,5.777448E0,6.4401264E0,7.131115E-1,1.0721169E0,2.1751177E0,3.8461022E0,8.202658E0,8.554428E0,4.100051E0,5.762125E0,0E0,0E0,0E0,0E0,0E0,0E0,0E0,0E0,0E0,0E0,0E0,0E0,0E0,0E0,0E0,0E0],"parents":[2147483647,0,0,1,1,2,2,3,3,4,4,5,5,6,6,7,7,8,8,9,9,10,10,11,11,12,12,13,13,14,14],"right_children":[2,4,6,8,10,12,14,16,18,20,22,24,26,28,30,-1,-1,-1,-1,-1,-1,-1,-1,-1,-1,-1,-1,-1,-1,-1,-1],"split_conditions":[-2.896132E-3,1.7469847E1,-1.2692674E-3,-2.2567254E-3,7.821887E-4,2.258686E-3,-1.1730108E-3,-5.0637834E-3,-2.0327107E-3,-1.2298948E-3,2.0114616E1,4.0320707E-3,5.8835708E-3,-9.831606E-4,8.328155E-3,8.8879755E-3,-3.2988213E-2,-7.65382E-2,-1.2578179E-2,-7.7364664E-3,4.811948E-2,1.938757E-2,-2.220249E-2,8.799037E-3,6.977763E-2,-6.846168E-2,5.156004E-2,-8.197968E-3,-5.4958165E-2,4.352807E-4,-3.1803545E-2],"split_indices":[1,12,1,0,6,2,1,3,3,0,12,3,3,2,3,0,0,0,0,0,0,0,0,0,0,0,0,0,0,0,0],"split_type":[0,0,0,0,0,0,0,0,0,0,0,0,0,0,0,0,0,0,0,0,0,0,0,0,0,0,0,0,0,0,0],"sum_hessian":[1.68948E3,5.8253326E1,1.6312267E3,8.451566E0,4.980176E1,1.8651112E2,1.4447155E3,2.4937534E0,5.9578123E0,5.92108E0,4.388068E1,1.8104155E2,5.4695816E0,1.8918982E1,1.4257965E3,1.2450367E0,1.2487167E0,4.7126274E0,1.2451849E0,2.4628966E0,3.4581835E0,5.687547E0,3.8193134E1,1.7631656E2,4.724983E0,4.2278414E0,1.2417406E0,1.1442191E1,7.47679E0,1.4127992E3,1.299727E1],"tree_param":{"num_deleted":"0","num_feature":"18","num_nodes":"31","size_leaf_vector":"1"}},{"base_weights":[1.8059815E-3,4.6939865E-1,-5.8844434E-3,7.4394804E-1,-4.3951783E-1,-1.4497504E-1,1.2301539E-2,3.5700768E-1,1.1725124E0,-8.874278E-1,2.6022235E-1,-6.22784E-1,-8.3088964E-2,2.5836733E-1,-8.740885E-3,5.3703573E-2,-2.7980257E-2,7.0235334E-2,-3.1406519E-3,9.418136E-3,-6.808609E-2,-1.3088102E-2,3.3328038E-2,-2.0841897E-2,-7.547285E-2,3.0327472E-3,-1.51701495E-2,1.9119108E-3,2.6352022E-2,-9.492744E-4,9.242053E-3],"categories":[],"categories_nodes":[],"categories_segments":[],"categories_sizes":[],"default_left":[0,0,0,0,0,0,0,0,0,0,0,0,0,0,0,0,0,0,0,0,0,0,0,0,0,0,0,0,0,0,0],"id":44,"left_children":[1,3,5,7,9,11,13,15,17,19,21,23,25,27,29,-1,-1,-1,-1,-1,-1,-1,-1,-1,-1,-1,-1,-1,-1,-1,-1],"loss_changes":[6.070268E0,7.143008E0,4.203245E0,3.1216774E0,2.413951E0,5.629747E0,7.61286E0,8.920177E0,2.868206E0,2.5390632E0,9.1506666E-1,3.3659372E0,5.44202E0,6.8300724E0,2.690747E0,0E0,0E0,0E0,0E0,0E0,0E0,0E0,0E0,0E0,0E0,0E0,0E0,0E0,0E0,0E0,0E0],"parents":[2147483647,0,0,1,1,2,2,3,3,4,4,5,5,6,6,7,7,8,8,9,9,10,10,11,11,12,12,13,13,14,14],"right_children":[2,4,6,8,10,12,14,16,18,20,22,24,26,28,30,-1,-1,-1,-1,-1,-1,-1,-1,-1,-1,-1,-1,-1,-1,-1,-1],"split_conditions":[-2.2567254E-3,8.811535E-4,-7.6156814E-4,-3.0636187E-3,-1.2404394E-3,4.772978E-4,-5.171948E-4,-4.7913687E-3,2.4931817E-3,-3.911568E-3,1.801285E-3,4.6072842E-4,1.6759506E-3,1.5314053E-3,2.2500695E-3,5.3703573E-2,-2.7980257E-2,7.0235334E-2,-3.1406519E-3,9.418136E-3,-6.808609E-2,-1.3088102E-2,3.3328038E-2,-2.0841897E-2,-7.547285E-2,3.0327472E-3,-1.51701495E-2,1.9119108E-3,2.6352022E-2,-9.492744E-4,9.242053E-3],"split_indices":[0,9,0,1,2,5,0,2,11,1,11,5,11,11,11,0,0,0,0,0,0,0,0,0,0,0,0,0,0,0,0],"split_type":[0,0,0,0,0,0,0,0,0,0,0,0,0,0,0,0,0,0,0,0,0,0,0,0,0,0,0,0,0,0,0],"sum_hessian":[1.6862996E3,2.631411E1,1.6599855E3,2.0348959E1,5.9651523E0,1.9113893E2,1.4688464E3,1.1657088E1,8.69187E0,3.4735055E0,2.491647E0,2.0878347E1,1.7026059E2,1.1482525E2,1.3540212E3,6.444102E0,5.212987E0,7.201203E0,1.4906671E0,1.2472827E0,2.2262225E0,1.246364E0,1.2452829E0,1.8136034E1,2.7423124E0,1.0347379E2,6.67868E1,6.374227E1,5.1082973E1,1.2868229E3,6.719838E1],"tree_param":{"num_deleted":"0","num_feature":"18","num_nodes":"31","size_leaf_vector":"1"}},{"base_weights":[-1.0240354E-2,-2.3662029E-3,-2.5404647E-1,-1.8871553E-2,1.627202E-1,7.338493E-1,-3.283368E-1,6.955564E-4,-2.493906E-1,3.5183686E-1,-5.433724E-2,6.2348545E-2,-1.0952379E-2,-9.000921E-1,-1.282541E-1,-4.2906334E-3,1.5821991E-3,-1.7634397E-2,2.1239592E-2,4.297348E-2,1.31079955E-2,-1.5238689E-2,1.95674E-2,-5.6966197E-2,3.6044836E-2,3.4483444E-2,-1.7528469E-2],"categories":[],"categories_nodes":[],"categories_segments":[],"categories_sizes":[],"default_left":[0,0,0,0,0,0,0,0,0,0,0,0,0,0,0,0,0,0,0,0,0,0,0,0,0,0,0],"id":45,"left_children":[1,3,5,7,9,11,13,15,17,19,21,-1,-1,23,25,-1,-1,-1,-1,-1,-1,-1,-1,-1,-1,-1,-1],"loss_changes":[3.229035E0,4.4463716E0,4.1030684E0,6.6910152E0,6.107574E0,2.223905E0,5.562622E0,3.6660533E0,8.232609E0,3.3890123E0,7.9240346E0,0E0,0E0,5.746463E0,7.139517E0,0E0,0E0,0E0,0E0,0E0,0E0,0E0,0E0,0E0,0E0,0E0,0E0],"parents":[2147483647,0,0,1,1,2,2,3,3,4,4,5,5,6,6,7,7,8,8,9,9,10,10,13,13,14,14],"right_children":[2,4,6,8,10,12,14,16,18,20,22,-1,-1,24,26,-1,-1,-1,-1,-1,-1,-1,-1,-1,-1,-1,-1],"split_conditions":[3.066019E-3,8.9557884E1,-5.120664E-3,6.4455086E1,9.34791E1,2.618187E-3,-1.4956133E-5,-1.2617714E-3,1.8910043E-3,5.2373216E-4,4.9105613E-3,6.2348545E-2,-1.0952379E-2,6.4455086E1,7.494124E1,-4.2906334E-3,1.5821991E-3,-1.7634397E-2,2.1239592E-2,4.297348E-2,1.31079955E-2,-1.5238689E-2,1.95674E-2,-5.6966197E-2,3.6044836E-2,3.4483444E-2,-1.7528469E-2],"split_indices":[1,13,4,7,13,11,8,2,11,6,3,0,0,7,13,0,0,0,0,0,0,0,0,0,0,0,0],"split_type":[0,0,0,0,0,0,0,0,0,0,0,0,0,0,0,0,0,0,0,0,0,0,0,0,0,0,0],"sum_hessian":[1.6813071E3,1.6296833E3,5.1623802E1,1.4823623E3,1.47321E2,2.9896739E0,4.863413E1,1.3672991E3,1.1506324E2,7.839579E1,6.892521E1,1.7426635E0,1.2470104E0,1.1700432E1,3.6933697E1,3.597999E2,1.00749915E3,1.0018924E2,1.4873997E1,1.0481169E1,6.791463E1,4.433112E1,2.4594086E1,1.04546385E1,1.2457933E0,7.444036E0,2.948966E1],"tree_param":{"num_deleted":"0","num_feature":"18","num_nodes":"27","size_leaf_vector":"1"}},{"base_weights":[1.8863559E-2,9.82573E-4,1.4163469E-1,7.370346E-3,-4.6840394E-1,-3.4872305E-2,2.9639715E-1,3.4609246E-3,7.9378724E-1,5.5354316E-2,-6.5675163E-1,3.150766E-1,-2.4205808E-1,7.701054E-1,2.11751E-1,-6.1597227E-4,7.781786E-3,7.296986E-2,-1.2226298E-3,-4.1866723E-2,5.850088E-4,2.37926E-2,-2.3407338E-2,-1.8940873E-2,2.0058382E-2,4.765955E-2,-2.6262878E-2,-7.016723E-3,1.9151624E-2],"categories":[],"categories_nodes":[],"categories_segments":[],"categories_sizes":[],"default_left":[0,0,0,0,0,0,0,0,0,0,0,0,0,0,0,0,0,0,0,0,0,0,0,0,0,0,0,0,0],"id":46,"left_children":[1,3,5,7,9,11,13,15,17,-1,19,21,23,25,27,-1,-1,-1,-1,-1,-1,-1,-1,-1,-1,-1,-1,-1,-1],"loss_changes":[3.7043018E0,4.422838E0,5.8702826E0,4.4709926E0,6.6039534E0,7.4074655E0,4.424309E0,3.4813848E0,3.953535E0,0E0,2.2209353E0,5.012428E0,5.7886753E0,4.5240183E0,5.9902973E0,0E0,0E0,0E0,0E0,0E0,0E0,0E0,0E0,0E0,0E0,0E0,0E0,0E0,0E0],"parents":[2147483647,0,0,