{"learner":{"attributes":{"best_iteration":"3","best_score":"0.6904483830745","scikit_learn":"{\"_estimator_type\": \"classifier\"}"},"feature_names":["log_return_1h","log_return_3h","log_return_6h","log_return_12h","log_return_24h","vol_6h","vol_24h","rsi_14","macd_line","macd_signal","bbp_20","atr_14","adx_14","stoch_k","hour_sin","hour_cos","london_session","ny_session"],"feature_types":["float","float","float","float","float","float","float","float","float","float","float","float","float","float","float","float","int","int"],"gradient_booster":{"model":{"cats":{"enc":[],"feature_segments":[],"sorted_idx":[]},"gbtree_model_param":{"num_parallel_tree":"1","num_trees":"34"},"iteration_indptr":[0,1,2,3,4,5,6,7,8,9,10,11,12,13,14,15,16,17,18,19,20,21,22,23,24,25,26,27,28,29,30,31,32,33,34],"tree_info":[0,0,0,0,0,0,0,0,0,0,0,0,0,0,0,0,0,0,0,0,0,0,0,0,0,0,0,0,0,0,0,0,0,0],"trees":[{"base_weights":[-5.725855E-3,3.1177732E-1,-5.3965967E-2,5.590369E-1,5.4381337E-2,-1.3548997E-1,6.568664E-2,4.513472E-1,9.861257E-1,-5.723428E-1,2.0178755E-1,1.1258256E-1,-1.735964E-1,1.793003E-1,-5.821564E-2,-7.041517E-3,2.7281975E-2,6.498161E-2,1.3725372E-2,-4.342173E-2,-3.6270977E-3,3.261283E-2,1.04359E-3,2.9738126E-2,7.111674E-4,-3.2082226E-2,-7.7860253E-3,2.286396E-2,6.367261E-3,-1.1705677E-2,3.8050015E-3],"categories":[],"categories_nodes":[],"categories_segments":[],"categories_sizes":[],"default_left":[0,0,0,0,0,0,0,0,0,0,0,0,0,0,0,0,0,0,0,0,0,0,0,0,0,0,0,0,0,0,0],"id":0,"left_children":[1,3,5,7,9,11,13,15,17,19,21,23,25,27,29,-1,-1,-1,-1,-1,-1,-1,-1,-1,-1,-1,-1,-1,-1,-1,-1],"loss_changes":[2.5682793E1,1.4045557E1,1.4207156E1,4.738224E0,1.0228733E1,8.206317E0,8.323113E0,5.2053947E0,4.517956E0,3.0603504E0,7.2693777E0,5.4894695E0,6.1844635E0,4.3942556E0,6.709188E0,0E0,0E0,0E0,0E0,0E0,0E0,0E0,0E0,0E0,0E0,0E0,0E0,0E0,0E0,0E0,0E0],"parents":[2147483647,0,0,1,1,2,2,3,3,4,4,5,5,6,6,7,7,8,8,9,9,10,10,11,11,12,12,13,13,14,14],"right_children":[2,4,6,8,10,12,14,16,18,20,22,24,26,28,30,-1,-1,-1,-1,-1,-1,-1,-1,-1,-1,-1,-1,-1,-1,-1,-1],"split_conditions":[1.5115211E1,-1.0874504E-4,6.818671E-4,1.5845197E-3,8.484595E-4,1.4259331E1,1E0,-1.5087338E-3,1.5245213E-3,-1.6084833E-3,2.0781403E1,-4.1880913E-4,1.7615503E1,-1.0007452E-3,4.8642376E1,-7.041517E-3,2.7281975E-2,6.498161E-2,1.3725372E-2,-4.342173E-2,-3.6270977E-3,3.261283E-2,1.04359E-3,2.9738126E-2,7.111674E-4,-3.2082226E-2,-7.7860253E-3,2.286396E-2,6.367261E-3,-1.1705677E-2,3.8050015E-3],"split_indices":[13,0,5,11,11,12,16,8,5,3,12,0,13,8,13,0,0,0,0,0,0,0,0,0,0,0,0,0,0,0,0],"split_type":[0,0,0,0,0,0,0,0,0,0,0,0,0,0,0,0,0,0,0,0,0,0,0,0,0,0,0,0,0,0,0],"sum_hessian":[1.6747192E3,2.2016837E2,1.4545509E3,1.1169759E2,1.0847077E2,8.6503577E2,5.895151E2,9.0847374E1,2.0850216E1,2.0105566E1,8.8365204E1,1.1492441E2,7.501114E2,3.0729248E2,2.8222256E2,1.2410843E1,7.843653E1,1.3900145E1,6.9500723E0,1.2162626E1,7.9429398E0,2.457347E1,6.3791737E1,1.8616264E1,9.630814E1,2.6310987E1,7.238004E2,4.7161205E1,2.601313E2,1.2187448E2,1.603481E2],"tree_param":{"num_deleted":"0","num_feature":"18","num_nodes":"31","size_leaf_vector":"1"}},{"base_weights":[-7.858425E-3,2.1097133E-1,-5.88583E-2,9.648174E-2,4.3866265E-1,4.0431818E-1,-7.7522546E-2,-6.651313E-2,3.7540096E-1,5.794443E-1,-1.91945E-2,1.0251036E0,1.4309815E-1,3.5534136E-2,-1.405921E-1,1.0467059E-3,-2.5623232E-2,4.7935504E-3,5.4675598E-2,3.0981964E-2,-4.033202E-2,1.7836595E-2,-2.0767123E-2,6.5191485E-2,-6.0055624E-3,-3.287652E-2,1.8963328E-2,6.928426E-3,-4.99822E-3,-1.0960783E-2,2.128362E-4],"categories":[],"categories_nodes":[],"categories_segments":[],"categories_sizes":[],"default_left":[0,0,0,0,0,0,0,0,0,0,0,0,0,0,0,0,0,0,0,0,0,0,0,0,0,0,0,0,0,0,0],"id":1,"left_children":[1,3,5,7,9,11,13,15,17,19,21,23,25,27,29,-1,-1,-1,-1,-1,-1,-1,-1,-1,-1,-1,-1,-1,-1,-1,-1],"loss_changes":[1.8901047E1,8.302419E0,1.1903946E1,9.766999E0,6.8967247E0,8.506084E0,9.424412E0,5.318237E0,1.5790854E1,5.0535088E0,4.0334826E0,5.149191E0,7.570318E0,6.6291995E0,9.6603565E0,0E0,0E0,0E0,0E0,0E0,0E0,0E0,0E0,0E0,0E0,0E0,0E0,0E0,0E0,0E0,0E0],"parents":[2147483647,0,0,1,1,2,2,3,3,4,4,5,5,6,6,7,7,8,8,9,9,10,10,11,11,12,12,13,13,14,14],"right_children":[2,4,6,8,10,12,14,16,18,20,22,24,26,28,30,-1,-1,-1,-1,-1,-1,-1,-1,-1,-1,-1,-1,-1,-1,-1,-1],"split_conditions":[-1.5097045E-3,2.5881904E-1,-9.659258E-1,-2.2872165E-3,7.0710677E-1,1.8219662E1,-1.093991E-4,7.0172E-4,2.930849E1,6.600169E-1,-2.158944E-3,2.0919478E-4,5.357381E-4,3.0948204E-4,1.3065876E-3,1.0467059E-3,-2.5623232E-2,4.7935504E-3,5.4675598E-2,3.0981964E-2,-4.033202E-2,1.7836595E-2,-2.0767123E-2,6.5191485E-2,-6.0055624E-3,-3.287652E-2,1.8963328E-2,6.928426E-3,-4.99822E-3,-1.0960783E-2,2.128362E-4],"split_indices":[2,15,15,2,14,12,0,9,12,10,3,9,6,9,11,0,0,0,0,0,0,0,0,0,0,0,0,0,0,0,0],"split_type":[0,0,0,0,0,0,0,0,0,0,0,0,0,0,0,0,0,0,0,0,0,0,0,0,0,0,0,0,0,0,0],"sum_hessian":[1.6914855E3,3.191109E2,1.3723746E3,2.1328763E2,1.0582327E2,5.2358963E1,1.3200156E3,1.3509962E2,7.818801E1,8.073375E1,2.5089525E1,1.4640869E1,3.7718094E1,4.7284454E2,8.471711E2,1.13747734E2,2.1351892E1,5.7096344E1,2.1091667E1,7.899591E1,1.7378395E0,1.29243765E1,1.2165148E1,1.1663633E1,2.9772358E0,8.1852665E0,2.9532825E1,2.685863E2,2.0425826E2,5.487808E2,2.9839026E2],"tree_param":{"num_deleted":"0","num_feature":"18","num_nodes":"31","size_leaf_vector":"1"}},{"base_weights":[-6.3586715E-3,2.0580073E-1,-5.664212E-2,3.3363265E-1,1.5872832E-2,-1.0846904E-1,7.922782E-2,2.37587E-1,5.782342E-1,-1.0035117E0,7.2720565E-2,-1.4644748E-2,-2.3638453E-1,1.0326956E-1,-9.4566E-1,1.4859489E-2,-1.5574306E-2,4.837125E-2,1.7741792E-2,-6.258433E-3,-5.8611047E-2,-4.5289155E-3,2.5886232E-2,8.3895255E-4,-3.0709505E-2,-9.464621E-3,-3.9994318E-2,1.0332922E-2,-4.0431167E-3,-5.7496395E-2,-4.0731872E-3],"categories":[],"categories_nodes":[],"categories_segments":[],"categories_sizes":[],"default_left":[0,0,0,0,0,0,0,0,0,0,0,0,0,0,0,0,0,0,0,0,0,0,0,0,0,0,0,0,0,0,0],"id":2,"left_children":[1,3,5,7,9,11,13,15,17,19,21,23,25,27,29,-1,-1,-1,-1,-1,-1,-1,-1,-1,-1,-1,-1,-1,-1,-1,-1],"loss_changes":[1.7903965E1,7.801793E0,9.56152E0,4.376753E0,7.6302147E0,1.17874975E1,9.3418255E0,4.6634455E0,4.3064327E0,8.840437E-1,9.090824E0,1.0707922E1,1.0878111E1,7.0123153E0,1.4416523E0,0E0,0E0,0E0,0E0,0E0,0E0,0E0,0E0,0E0,0E0,0E0,0E0,0E0,0E0,0E0,0E0],"parents":[2147483647,0,0,1,1,2,2,3,3,4,4,5,5,6,6,7,7,8,8,9,9,10,10,11,11,12,12,13,13,14,14],"right_children":[2,4,6,8,10,12,14,16,18,20,22,24,26,28,30,-1,-1,-1,-1,-1,-1,-1,-1,-1,-1,-1,-1,-1,-1,-1,-1],"split_conditions":[-1.5097045E-3,-2.0738554E-3,1.4175385E-3,-2.2872165E-3,-6.2093204E-3,5E-1,3.6245312E-3,-2.4178664E-3,-1.0190269E-3,1.6428251E1,3.0080603E1,1.3610541E-3,1.3078111E-3,2.10062E-3,8.660254E-1,1.4859489E-2,-1.5574306E-2,4.837125E-2,1.7741792E-2,-6.258433E-3,-5.8611047E-2,-4.5289155E-3,2.5886232E-2,8.3895255E-4,-3.0709505E-2,-9.464621E-3,-3.9994318E-2,1.0332922E-2,-4.0431167E-3,-5.7496395E-2,-4.0731872E-3],"split_indices":[2,3,11,2,4,15,11,3,8,12,12,11,9,2,15,0,0,0,0,0,0,0,0,0,0,0,0,0,0,0,0],"split_type":[0,0,0,0,0,0,0,0,0,0,0,0,0,0,0,0,0,0,0,0,0,0,0,0,0,0,0,0,0,0,0],"sum_hessian":[1.6761775E3,3.2055917E2,1.3556183E3,1.9114885E2,1.2941032E2,9.814505E2,3.741678E2,1.3866985E2,5.2479008E1,5.9559813E0,1.2345434E2,5.6681433E2,4.146362E2,3.664704E2,7.6973968E0,1.2550484E2,1.3165008E1,1.7923426E1,3.455558E1,1.240346E0,4.7156353E0,9.0895676E1,3.2558662E1,5.3950916E2,2.7305126E1,3.8389023E2,3.0745968E1,2.3461388E2,1.3185652E2,5.958394E0,1.7390031E0],"tree_param":{"num_deleted":"0","num_feature":"18","num_nodes":"31","size_leaf_vector":"1"}},{"base_weights":[-1.667982E-3,-7.453027E-2,1.6578372E-1,5.3919997E-2,-1.7992821E-1,4.3091717E-1,8.4301166E-2,2.407058E-1,-1.4864225E-3,7.787459E-2,-2.4397074E-1,3.2326415E-1,9.711338E-1,-5.2946126E-1,1.0707157E-1,3.2144945E-2,5.4769195E-3,1.7813303E-2,-2.7678402E-3,-1.0393472E-2,1.6579546E-2,-2.8276337E-2,-9.812157E-3,3.3381876E-2,8.051054E-3,7.458054E-2,2.8894419E-2,-3.638391E-3,-5.9529036E-2,1.7302966E-2,3.0400811E-3],"categories":[],"categories_nodes":[],"categories_segments":[],"categories_sizes":[],"default_left":[0,0,0,0,0,0,0,0,0,0,0,0,0,0,0,0,0,0,0,0,0,0,0,0,0,0,0,0,0,0,0],"id":3,"left_children":[1,3,5,7,9,11,13,15,17,19,21,23,25,27,29,-1,-1,-1,-1,-1,-1,-1,-1,-1,-1,-1,-1,-1,-1,-1,-1],"loss_changes":[2.052715E1,1.5880839E1,1.0983935E1,5.476502E0,1.06543865E1,6.6457767E0,5.527242E0,6.315938E0,7.9036674E0,9.416631E0,7.811617E0,5.551606E0,3.1059513E0,4.1919556E0,4.16179E0,0E0,0E0,0E0,0E0,0E0,0E0,0E0,0E0,0E0,0E0,0E0,0E0,0E0,0E0,0E0,0E0],"parents":[2147483647,0,0,1,1,2,2,3,3,4,4,5,5,6,6,7,7,8,8,9,9,10,10,11,11,12,12,13,13,14,14],"right_children":[2,4,6,8,10,12,14,16,18,20,22,24,26,28,30,-1,-1,-1,-1,-1,-1,-1,-1,-1,-1,-1,-1,-1,-1,-1,-1],"split_conditions":[1.425929E-3,-1.0488626E-4,4.1032555E1,3.2068655E-4,4.257395E1,-2.158944E-3,-3.462699E-3,2.3221949E-1,-9.3073084E-4,-9.442372E-4,-9.3114213E-4,-6.4738933E-3,-1.4718708E-3,2.5450534E-1,-1.253633E-3,3.2144945E-2,5.4769195E-3,1.7813303E-2,-2.7678402E-3,-1.0393472E-2,1.6579546E-2,-2.8276337E-2,-9.812157E-3,3.3381876E-2,8.051054E-3,7.458054E-2,2.8894419E-2,-3.638391E-3,-5.9529036E-2,1.7302966E-2,3.0400811E-3],"split_indices":[11,0,7,5,7,3,3,10,8,8,3,3,3,10,3,0,0,0,0,0,0,0,0,0,0,0,0,0,0,0,0],"split_type":[0,0,0,0,0,0,0,0,0,0,0,0,0,0,0,0,0,0,0,0,0,0,0,0,0,0,0,0,0,0,0],"sum_hessian":[1.6804143E3,1.1713057E3,5.0910858E2,5.281404E2,6.431653E2,1.1867321E2,3.9043536E2,1.2005781E2,4.0808258E2,1.2793752E2,5.152278E2,1.0028672E2,1.8386494E1,1.3170856E1,3.7726453E2,2.8565935E1,9.1491875E1,5.2672413E1,3.554102E2,6.025593E1,6.7681595E1,6.5187805E1,4.5003998E2,3.111907E1,6.916765E1,6.711053E0,1.167544E1,8.446312E0,4.724544E0,6.014288E1,3.1712164E2],"tree_param":{"num_deleted":"0","num_feature":"18","num_nodes":"31","size_leaf_vector":"1"}},{"base_weights":[-2.5354763E-3,2.1878764E-1,-5.3633276E-2,2.6972327E-1,-4.480104E-1,-1.088184E-1,6.1874658E-2,-4.1637158E-1,3.196281E-1,-1.0690846E0,-2.0352556E-1,1.03152886E-1,-1.5524156E-1,9.474343E-3,3.8074565E-1,4.877435E-2,-2.9939184E-2,-1.4396879E-2,1.8271107E-2,4.753332E-3,-7.282772E-2,2.6845352E-3,-4.3447215E-2,2.5413979E-2,-1.6120559E-3,-8.248538E-3,2.165433E-2,6.092304E-3,-6.599314E-3,-6.53886E-3,2.7343614E-2],"categories":[],"categories_nodes":[],"categories_segments":[],"categories_sizes":[],"default_left":[0,0,0,0,0,0,0,0,0,0,0,0,0,0,0,0,0,0,0,0,0,0,0,0,0,0,0,0,0,0,0],"id":4,"left_children":[1,3,5,7,9,11,13,15,17,19,21,23,25,27,29,-1,-1,-1,-1,-1,-1,-1,-1,-1,-1,-1,-1,-1,-1,-1,-1],"loss_changes":[1.9078026E1,1.0867796E1,8.742722E0,1.0219765E1,3.2492323E0,9.145694E0,7.410479E0,5.765849E0,7.7616005E0,2.9413671E0,3.062042E0,9.192278E0,4.430197E0,6.0903244E0,5.391114E0,0E0,0E0,0E0,0E0,0E0,0E0,0E0,0E0,0E0,0E0,0E0,0E0,0E0,0E0,0E0,0E0],"parents":[2147483647,0,0,1,1,2,2,3,3,4,4,5,5,6,6,7,7,8,8,9,9,10,10,11,11,12,12,13,13,14,14],"right_children":[2,4,6,8,10,12,14,16,18,20,22,24,26,28,30,-1,-1,-1,-1,-1,-1,-1,-1,-1,-1,-1,-1,-1,-1,-1,-1],"split_conditions":[2.0288391E1,-8.069967E-4,1.4006706E-3,4.001413E0,-7.4134226E-4,-4.3023768E-4,8.660254E-1,-1.4259279E-1,2.4263031E-4,1.0620863E1,1.2423635E-3,-4.10924E-4,1.3528153E-3,6.320286E-4,-5.532212E-4,4.877435E-2,-2.9939184E-2,-1.4396879E-2,1.8271107E-2,4.753332E-3,-7.282772E-2,2.6845352E-3,-4.3447215E-2,2.5413979E-2,-1.6120559E-3,-8.248538E-3,2.165433E-2,6.092304E-3,-6.599314E-3,-6.53886E-3,2.7343614E-2],"split_indices":[13,3,11,13,3,0,14,10,5,13,11,9,5,1,0,0,0,0,0,0,0,0,0,0,0,0,0,0,0,0,0],"split_type":[0,0,0,0,0,0,0,0,0,0,0,0,0,0,0,0,0,0,0,0,0,0,0,0,0,0,0,0,0,0,0],"sum_hessian":[1.6849213E3,3.1542395E2,1.3694973E3,2.9359238E2,2.183156E1,9.267775E2,4.4271976E2,1.940926E1,2.741831E2,5.2138395E0,1.661772E1,1.6628537E2,7.604922E2,3.8111975E2,6.159999E1,1.7451943E0,1.7664066E1,1.8846897E1,2.5533623E2,1.4904464E0,3.723393E0,1.2647982E1,3.9697385E0,4.0962646E1,1.2532272E2,7.4882837E2,1.1663794E1,2.1247508E2,1.6864467E2,1.5153481E1,4.644651E1],"tree_param":{"num_deleted":"0","num_feature":"18","num_nodes":"31","size_leaf_vector":"1"}},{"base_weights":[-6.8440447E-3,-9.224758E-2,1.0794032E-1,6.0396767E-1,-1.12902135E-1,1.9928248E-1,1.9049917E-3,8.2041967E-1,-9.11832E-1,5.251061E-1,-1.2249855E-1,2.6280016E-1,-2.0322825E-1,3.4200445E-1,-4.538805E-2,5.3316332E-2,-5.031578E-3,-5.981025E-2,-7.917604E-3,-4.833288E-3,5.11837E-2,-4.097962E-3,-1.3943426E-2,-5.500195E-2,1.3608249E-2,5.983875E-2,-1.2974148E-2,-7.939826E-3,2.9581351E-2,7.5384113E-4,-1.488179E-2],"categories":[],"categories_nodes":[],"categories_segments":[],"categories_sizes":[],"default_left":[0,0,0,0,0,0,0,0,0,0,0,0,0,0,0,0,0,0,0,0,0,0,0,0,0,0,0,0,0,0,0],"id":5,"left_children":[1,3,5,7,9,11,13,15,17,19,21,23,25,27,29,-1,-1,-1,-1,-1,-1,-1,-1,-1,-1,-1,-1,-1,-1,-1,-1],"loss_changes":[1.6595896E1,1.4026311E1,6.995116E0,9.975615E0,5.841218E0,9.97339E0,5.407938E0,5.8005333E0,6.6505575E-1,4.4918365E0,5.874858E0,4.5820427E0,4.5198965E0,5.2251205E0,4.5071154E0,0E0,0E0,0E0,0E0,0E0,0E0,0E0,0E0,0E0,0E0,0E0,0E0,0E0,0E0,0E0,0E0],"parents":[2147483647,0,0,1,1,2,2,3,3,4,4,5,5,6,6,7,7,8,8,9,9,10,10,11,11,12,12,13,13,14,14],"right_children":[2,4,6,8,10,12,14,16,18,20,22,24,26,28,30,-1,-1,-1,-1,-1,-1,-1,-1,-1,-1,-1,-1,-1,-1,-1,-1],"split_conditions":[6.666974E-4,-2.5241724E-3,1E0,6.297484E-4,-1.9428963E-3,3.8177254E1,-2.5540544E-3,-1.9544018E-3,2.5068535E1,4.732988E1,6.8091607E-4,9.521227E0,8.666085E-4,-4.2979727E-3,1.3936468E-3,5.3316332E-2,-5.031578E-3,-5.981025E-2,-7.917604E-3,-4.833288E-3,5.11837E-2,-4.097962E-3,-1.3943426E-2,-5.500195E-2,1.3608249E-2,5.983875E-2,-1.2974148E-2,-7.939826E-3,2.9581351E-2,7.5384113E-4,-1.488179E-2],"split_indices":[5,2,16,5,8,12,1,3,12,12,1,12,11,2,5,0,0,0,0,0,0,0,0,0,0,0,0,0,0,0,0],"split_type":[0,0,0,0,0,0,0,0,0,0,0,0,0,0,0,0,0,0,0,0,0,0,0,0,0,0,0,0,0,0,0],"sum_hessian":[1.6909264E3,9.6966125E2,7.2126514E2,2.7124315E1,9.425369E2,3.8700638E2,3.342588E2,2.413645E1,2.987864E0,1.3170797E1,9.2936615E2,3.3455887E2,5.2447514E1,4.00457E1,2.942131E2,1.8925814E1,5.210637E0,1.7426074E0,1.2452567E0,6.2199335E0,6.950864E0,7.392403E2,1.9012582E2,1.4884144E0,3.3307043E2,1.2428426E0,5.1204674E1,1.3441925E1,2.6603775E1,2.3808365E2,5.6129448E1],"tree_param":{"num_deleted":"0","num_feature":"18","num_nodes":"31","size_leaf_vector":"1"}},{"base_weights":[1.0567296E-2,2.634413E-1,-2.3906685E-2,1.363009E-1,5.7629526E-1,3.8302314E-1,-4.224986E-2,-8.137548E-1,2.1448328E-1,3.3450735E-1,1.0646192E0,7.9674983E-1,2.074792E-1,-1.9729947E-1,-8.195197E-3,-6.707865E-2,-1.3148996E-2,5.9860214E-3,4.6204716E-2,2.4099557E-2,-4.3517545E-2,1.082291E-2,7.233215E-2,5.3956922E-2,-3.7221428E-2,6.765454E-2,4.8458297E-3,-4.5264717E-3,-1.9218074E-2,2.3863558E-2,-1.6088188E-3],"categories":[],"categories_nodes":[],"categories_segments":[],"categories_sizes":[],"default_left":[0,0,0,0,0,0,0,0,0,0,0,0,0,0,0,0,0,0,0,0,0,0,0,0,0,0,0,0,0,0,0],"id":6,"left_children":[1,3,5,7,9,11,13,15,17,19,21,23,25,27,29,-1,-1,-1,-1,-1,-1,-1,-1,-1,-1,-1,-1,-1,-1,-1,-1],"loss_changes":[1.463491E1,7.9326134E0,1.1045968E1,1.090891E1,6.4787617E0,4.4708195E0,7.4688635E0,2.9022546E0,8.921681E0,7.558599E0,5.749998E0,8.926236E0,5.716882E0,5.053094E0,1.3532681E1,0E0,0E0,0E0,0E0,0E0,0E0,0E0,0E0,0E0,0E0,0E0,0E0,0E0,0E0,0E0,0E0],"parents":[2147483647,0,0,1,1,2,2,3,3,4,4,5,5,6,6,7,7,8,8,9,9,10,10,11,11,12,12,13,13,14,14],"right_children":[2,4,6,8,10,12,14,16,18,20,22,24,26,28,30,-1,-1,-1,-1,-1,-1,-1,-1,-1,-1,-1,-1,-1,-1,-1,-1],"split_conditions":[1.4042174E1,1.432013E-3,-9.659258E-1,-7.832434E-3,3.08096E1,1.7808056E1,5.165146E-4,1.2867892E-3,1.31697645E1,1.0290902E-4,-2.5540544E-3,1.1132275E-3,-2.5540544E-3,3.216031E-4,5.4841756E-4,-6.707865E-2,-1.3148996E-2,5.9860214E-3,4.6204716E-2,2.4099557E-2,-4.3517545E-2,1.082291E-2,7.233215E-2,5.3956922E-2,-3.7221428E-2,6.765454E-2,4.8458297E-3,-4.5264717E-3,-1.9218074E-2,2.3863558E-2,-1.6088188E-3],"split_indices":[13,11,15,4,12,12,6,11,13,1,1,6,1,1,6,0,0,0,0,0,0,0,0,0,0,0,0,0,0,0,0],"split_type":[0,0,0,0,0,0,0,0,0,0,0,0,0,0,0,0,0,0,0,0,0,0,0,0,0,0,0,0,0,0,0],"sum_hessian":[1.67706E3,2.0040498E2,1.476655E3,1.4351694E2,5.6888035E1,6.2834602E1,1.4138204E3,1.0196979E1,1.3331996E2,3.917567E1,1.7712366E1,1.7664257E1,4.5170345E1,2.5374326E2,1.1600771E3,4.47383E0,5.723149E0,1.1864464E2,1.4675326E1,3.543778E1,3.7378922E0,5.986927E0,1.1725439E1,1.5182228E1,2.4820278E0,2.9865465E0,4.21838E1,1.6248506E2,9.1258194E1,5.371844E1,1.1063588E3],"tree_param":{"num_deleted":"0","num_feature":"18","num_nodes":"31","size_leaf_vector":"1"}},{"base_weights":[-9.865018E-3,2.6531726E-1,-5.0533265E-2,1.4692351E-1,5.5863416E-1,-2.5387207E-1,-2.4912575E-2,-4.508111E-1,2.2496961E-1,1.0640129E-1,7.1942735E-1,-8.866872E-2,-5.5744624E-1,-5.2090023E-2,1.6574141E-1,2.026098E-2,-3.4846123E-2,1.592414E-2,-7.7672163E-3,-3.923545E-2,1.8236768E-2,4.1004878E-2,-4.281194E-3,-1.674584E-2,2.0162601E-2,-3.1817317E-2,3.3766296E-2,2.7895754E-3,-5.2867075E-3,-4.115938E-4,2.189934E-2],"categories":[],"categories_nodes":[],"categories_segments":[],"categories_sizes":[],"default_left":[0,0,0,0,0,0,0,0,0,0,0,0,0,0,0,0,0,0,0,0,0,0,0,0,0,0,0,0,0,0,0],"id":7,"left_children":[1,3,5,7,9,11,13,15,17,19,21,23,25,27,29,-1,-1,-1,-1,-1,-1,-1,-1,-1,-1,-1,-1,-1,-1,-1,-1],"loss_changes":[1.889635E1,7.468033E0,7.6565514E0,7.3906174E0,4.443756E0,8.199723E0,6.7829485E0,4.15432E0,4.988363E0,4.3099008E0,3.7727547E0,1.3182132E1,6.049515E0,6.6325493E0,7.740706E0,0E0,0E0,0E0,0E0,0E0,0E0,0E0,0E0,0E0,0E0,0E0,0E0,0E0,0E0,0E0,0E0],"parents":[2147483647,0,0,1,1,2,2,3,3,4,4,5,5,6,6,7,7,8,8,9,9,10,10,11,11,12,12,13,13,14,14],"right_children":[2,4,6,8,10,12,14,16,18,20,22,24,26,28,30,-1,-1,-1,-1,-1,-1,-1,-1,-1,-1,-1,-1,-1,-1,-1,-1],"split_conditions":[1.5115211E1,1.432013E-3,4.7536026E-4,-6.6852416E-3,9.5914525E-4,3.216031E-4,9.659258E-1,8.0276845E-4,-1.0560342E-4,-1.0407127E-3,2.4694134E-1,6.615908E1,9.6314095E1,-5E-1,2.6674862E1,2.026098E-2,-3.4846123E-2,1.592414E-2,-7.7672163E-3,-3.923545E-2,1.8236768E-2,4.1004878E-2,-4.281194E-3,-1.674584E-2,2.0162601E-2,-3.1817317E-2,3.3766296E-2,2.7895754E-3,-5.2867075E-3,-4.115938E-4,2.189934E-2],"split_indices":[13,11,6,4,6,1,14,6,1,9,10,13,13,14,12,0,0,0,0,0,0,0,0,0,0,0,0,0,0,0,0],"split_type":[0,0,0,0,0,0,0,0,0,0,0,0,0,0,0,0,0,0,0,0,0,0,0,0,0,0,0,0,0,0,0],"sum_hessian":[1.6863057E3,2.1641391E2,1.4698918E3,1.5525005E2,6.1163868E1,1.6348477E2,1.306407E3,1.7378265E1,1.3787178E2,1.647879E1,4.4685078E1,1.0670734E2,5.6777443E1,1.144051E3,1.62356E2,3.7362523E0,1.3642014E1,1.1079228E2,2.7079494E1,3.2456186E0,1.3233171E1,3.970175E1,4.983324E0,7.132319E1,3.5384144E1,5.3816856E1,2.9605877E0,3.7993634E2,7.641147E2,9.964775E1,6.2708256E1],"tree_param":{"num_deleted":"0","num_feature":"18","num_nodes":"31","size_leaf_vector":"1"}},{"base_weights":[1.8990309E-3,-8.76518E-2,1.3074912E-1,2.275064E-1,-1.1963871E-1,2.6759433E-2,2.406278E-1,-2.5325048E-1,3.910186E-1,-1.960648E-2,-2.0984143E-1,5.330031E-2,-5.463327E-1,-5.194971E-1,2.695066E-1,1.40299E-2,-4.1118048E-2,1.54859945E-2,6.1914053E-2,1.6301355E-3,-1.8431498E-2,-3.5813883E-2,-9.241012E-3,1.5104535E-3,3.6748677E-2,1.3272043E-3,-5.9935935E-2,-4.1937392E-2,3.995305E-2,1.4226697E-2,-4.6918686E-2],"categories":[],"categories_nodes":[],"categories_segments":[],"categories_sizes":[],"default_left":[0,0,0,0,0,0,0,0,0,0,0,0,0,0,0,0,0,0,0,0,0,0,0,0,0,0,0,0,0,0,0],"id":8,"left_children":[1,3,5,7,9,11,13,15,17,19,21,23,25,27,29,-1,-1,-1,-1,-1,-1,-1,-1,-1,-1,-1,-1,-1,-1,-1,-1],"loss_changes":[1.9499704E1,1.0078246E1,7.9110727E0,7.3479333E0,8.1692505E0,5.461149E0,7.5331917E0,7.525551E0,4.383319E0,7.858702E0,5.9019585E0,5.3647423E0,5.972733E0,6.0031786E0,6.1684685E0,0E0,0E0,0E0,0E0,0E0,0E0,0E0,0E0,0E0,0E0,0E0,0E0,0E0,0E0,0E0,0E0],"parents":[2147483647,0,0,1,1,2,2,3,3,4,4,5,5,6,6,7,7,8,8,9,9,10,10,11,11,12,12,13,13,14,14],"right_children":[2,4,6,8,10,12,14,16,18,20,22,24,26,28,30,-1,-1,-1,-1,-1,-1,-1,-1,-1,-1,-1,-1,-1,-1,-1,-1],"split_conditions":[6.818671E-4,-8.660254E-1,-2.5881904E-1,4.7536026E-4,-2.015096E-5,2.1118517E-3,5.9102895E-4,7.931424E-4,1.137412E-3,6.704474E-1,-1.2124989E-3,1.8613174E-3,-7.0710677E-1,1.9533755E-3,9.718609E1,1.40299E-2,-4.1118048E-2,1.54859945E-2,6.1914053E-2,1.6301355E-3,-1.8431498E-2,-3.5813883E-2,-9.241012E-3,1.5104535E-3,3.6748677E-2,1.3272043E-3,-5.9935935E-2,-4.1937392E-2,3.995305E-2,1.4226697E-2,-4.6918686E-2],"split_indices":[5,15,15,6,8,6,6,11,6,10,4,6,15,4,13,0,0,0,0,0,0,0,0,0,0,0,0,0,0,0,0],"split_type":[0,0,0,0,0,0,0,0,0,0,0,0,0,0,0,0,0,0,0,0,0,0,0,0,0,0,0,0,0,0,0],"sum_hessian":[1.687956E3,9.9603284E2,6.9192316E2,9.1214005E1,9.0481885E2,3.5612674E2,3.3579645E2,2.3010363E1,6.820364E1,4.2961047E2,4.7520837E2,3.4123074E2,1.4895985E1,1.1668867E1,3.241276E2,1.2134586E1,1.0875776E1,6.3478176E1,4.725469E0,3.7449734E2,5.5113148E1,2.107229E1,4.5413608E2,3.310606E2,1.0170147E1,8.442086E0,6.453899E0,9.687265E0,1.9816016E0,3.208997E2,3.2279067E0],"tree_param":{"num_deleted":"0","num_feature":"18","num_nodes":"31","size_leaf_vector":"1"}},{"base_weights":[3.50256E-3,2.0693702E-1,-2.739218E-2,5.6289423E-2,3.954966E-1,4.8896473E-2,-8.82004E-2,-7.856855E-1,1.3988161E-1,-6.970069E-2,4.7836903E-1,3.6700204E-1,2.0387245E-2,-5.4435767E-3,-2.2770238E-1,-6.614798E-2,-2.2061566E-2,1.4555335E-2,-8.657384E-3,-2.5530292E-2,1.8312993E-2,4.557025E-2,1.5820405E-2,2.483492E-2,-4.607671E-2,-9.348098E-3,3.4712784E-3,-2.9037256E-2,1.5860129E-3,4.7797854E-3,-1.9807655E-2],"categories":[],"categories_nodes":[],"categories_segments":[],"categories_sizes":[],"default_left":[0,0,0,0,0,0,0,0,0,0,0,0,0,0,0,0,0,0,0,0,0,0,0,0,0,0,0,0,0,0,0],"id":9,"left_children":[1,3,5,7,9,11,13,15,17,19,21,23,25,27,29,-1,-1,-1,-1,-1,-1,-1,-1,-1,-1,-1,-1,-1,-1,-1,-1],"loss_changes":[1.0569894E1,6.276086E0,6.777789E0,8.86686E0,3.8232422E0,5.871635E0,9.382948E0,1.5238085E0,5.4484124E0,3.212028E0,5.5727043E0,9.358725E0,6.0732193E0,1.0948446E1,1.6519424E1,0E0,0E0,0E0,0E0,0E0,0E0,0E0,0E0,0E0,0E0,0E0,0E0,0E0,0E0,0E0,0E0],"parents":[2147483647,0,0,1,1,2,2,3,3,4,4,5,5,6,6,7,7,8,8,9,9,10,10,11,11,12,12,13,13,14,14],"right_children":[2,4,6,8,10,12,14,16,18,20,22,24,26,28,30,-1,-1,-1,-1,-1,-1,-1,-1,-1,-1,-1,-1,-1,-1,-1,-1],"split_conditions":[1.5115211E1,1.2867892E-3,-1.04021376E-4,-6.6852416E-3,-3.538667E-3,-1.0397861E-3,5E-1,4.001413E0,7.0710677E-1,1.193846E-3,-1.814883E-3,4.257395E1,4.215351E1,-1.2021752E-3,-3.2214733E-4,-6.614798E-2,-2.2061566E-2,1.4555335E-2,-8.657384E-3,-2.5530292E-2,1.8312993E-2,4.557025E-2,1.5820405E-2,2.483492E-2,-4.607671E-2,-9.348098E-3,3.4712784E-3,-2.9037256E-2,1.5860129E-3,4.7797854E-3,-1.9807655E-2],"split_indices":[13,11,0,4,1,8,15,13,15,6,1,7,7,1,9,0,0,0,0,0,0,0,0,0,0,0,0,0,0,0,0],"split_type":[0,0,0,0,0,0,0,0,0,0,0,0,0,0,0,0,0,0,0,0,0,0,0,0,0,0,0,0,0,0,0],"sum_hessian":[1.6798486E3,2.2072559E2,1.459123E3,1.2341948E2,9.73061E1,6.472692E2,8.118539E2,1.0388022E1,1.13031456E2,1.47374735E1,8.256863E1,5.2261623E1,5.9500757E2,5.1021677E2,3.016371E2,2.948405E0,7.4396176E0,7.6260086E1,3.677137E1,7.242058E0,7.495416E0,2.1215986E1,6.135264E1,4.804066E1,4.220961E0,1.1326702E2,4.8174057E2,3.0071955E1,4.801448E2,1.0347527E2,1.9816182E2],"tree_param":{"num_deleted":"0","num_feature":"18","num_nodes":"31","size_leaf_vector":"1"}},{"base_weights":[7.140137E-3,1.06432065E-1,-6.2464286E-2,4.05857E-1,5.397101E-2,-3.0309564E-1,-2.8020378E-2,-1.8416406E-1,4.8752415E-1,3.1564828E-2,6.195926E-1,-1.3595115E-1,-5.9030724E-1,3.620852E-1,-4.3075383E-2,3.3061083E-2,-2.6277602E-2,3.822532E-2,1.2266084E-2,2.5382216E-4,2.5432656E-2,4.806071E-2,-1.3728566E-2,-1.47329E-2,8.713548E-3,-4.6059057E-2,-1.1111077E-2,5.795473E-2,9.978883E-3,-4.7372E-3,3.1403606E-3],"categories":[],"categories_nodes":[],"categories_segments":[],"categories_sizes":[],"default_left":[0,0,0,0,0,0,0,0,0,0,0,0,0,0,0,0,0,0,0,0,0,0,0,0,0,0,0,0,0,0,0],"id":10,"left_children":[1,3,5,7,9,11,13,15,17,19,21,23,25,27,29,-1,-1,-1,-1,-1,-1,-1,-1,-1,-1,-1,-1,-1,-1,-1,-1],"loss_changes":[1.1552189E1,1.079837E1,8.1366825E0,5.030777E0,7.423424E0,5.822179E0,5.0709996E0,4.155154E0,5.873522E0,7.1497006E0,7.0832663E0,3.9418983E0,5.2674913E0,3.9251404E0,4.545024E0,0E0,0E0,0E0,0E0,0E0,0E0,0E0,0E0,0E0,0E0,0E0,0E0,0E0,0E0,0E0,0E0],"parents":[2147483647,0,0,1,1,2,2,3,3,4,4,5,5,6,6,7,7,8,8,9,9,10,10,11,11,12,12,13,13,14,14],"right_children":[2,4,6,8,10,12,14,16,18,20,22,24,26,28,30,-1,-1,-1,-1,-1,-1,-1,-1,-1,-1,-1,-1,-1,-1,-1,-1],"split_conditions":[-1.093991E-4,1.4042174E1,4.7821883E-4,4.001413E0,9.481477E-1,3.265252E-4,-9.659258E-1,3.1737733E-4,-8.901147E-4,-1.1425003E-4,1.0315897E0,7.0710677E-1,2.2451948E-4,8.871759E-4,1.4216839E-3,3.3061083E-2,-2.6277602E-2,3.822532E-2,1.2266084E-2,2.5382216E-4,2.5432656E-2,4.806071E-2,-1.3728566E-2,-1.47329E-2,8.713548E-3,-4.6059057E-2,-1.1111077E-2,5.795473E-2,9.978883E-3,-4.7372E-3,3.1403606E-3],"split_indices":[0,13,6,13,10,1,15,5,8,0,10,15,8,11,11,0,0,0,0,0,0,0,0,0,0,0,0,0,0,0,0],"split_type":[0,0,0,0,0,0,0,0,0,0,0,0,0,0,0,0,0,0,0,0,0,0,0,0,0,0,0,0,0,0,0],"sum_hessian":[1.6695656E3,6.8783203E2,9.817335E2,1.01541405E2,5.862906E2,1.2195239E2,8.597811E2,1.2193305E1,8.93481E1,5.649662E2,2.1324415E1,7.8020966E1,4.3931427E1,3.109132E1,8.2868976E2,3.2380342E0,8.955271E0,4.0675365E1,4.8672733E1,5.362062E2,2.8760025E1,1.5375217E1,5.949198E0,5.1648315E1,2.6372648E1,2.2343828E1,2.1587597E1,4.2271132E0,2.6864206E1,5.569932E2,2.7169653E2],"tree_param":{"num_deleted":"0","num_feature":"18","num_nodes":"31","size_leaf_vector":"1"}},{"base_weights":[6.144821E-3,9.778167E-2,-5.8697924E-2,3.278155E-1,5.7632662E-2,-3.2670426E-1,-1.2855147E-2,3.8185835E-1,-6.117253E-1,8.526282E-2,-2.4024066E-1,-4.1764355E-1,1.02766335E-1,-2.117318E-1,2.4819847E-2,7.99675E-3,3.126686E-2,-3.3145843E-3,-6.156645E-2,-3.6521424E-3,8.104577E-3,-2.193944E-2,1.7937163E-2,5.755897E-3,-2.6759563E-2,-1.3030072E-2,4.8052292E-2,-1.2279719E-2,3.3753935E-2,1.5359545E-2,-6.7990884E-4],"categories":[],"categories_nodes":[],"categories_segments":[],"categories_sizes":[],"default_left":[0,0,0,0,0,0,0,0,0,0,0,0,0,0,0,0,0,0,0,0,0,0,0,0,0,0,0,0,0,0,0],"id":11,"left_children":[1,3,5,7,9,11,13,15,17,19,21,23,25,27,29,-1,-1,-1,-1,-1,-1,-1,-1,-1,-1,-1,-1,-1,-1,-1,-1],"loss_changes":[9.964901E0,6.3990517E0,1.2062708E1,5.466007E0,4.899901E0,5.644247E0,6.2971272E0,5.1985626E0,1.9425097E0,6.6193733E0,6.1735306E0,7.4860706E0,8.316782E0,4.185197E0,7.6726027E0,0E0,0E0,0E0,0E0,0E0,0E0,0E0,0E0,0E0,0E0,0E0,0E0,0E0,0E0,0E0,0E0],"parents":[2147483647,0,0,1,1,2,2,3,3,4,4,5,5,6,6,7,7,8,8,9,9,10,10,11,11,12,12,13,13,14,14],"right_children":[2,4,6,8,10,12,14,16,18,20,22,24,26,28,30,-1,-1,-1,-1,-1,-1,-1,-1,-1,-1,-1,-1,-1,-1,-1,-1],"split_conditions":[-1.0897859E-4,1.4042174E1,2.763061E-4,-1.1372402E-4,8.8254166E1,3.207152E-4,5.2582065E-4,-1.4076201E-3,-8.176376E-4,-9.886369E-4,9.413924E1,-1.0304494E-4,7.604675E-4,9.6314095E1,3.693631E-4,7.99675E-3,3.126686E-2,-3.3145843E-3,-6.156645E-2,-3.6521424E-3,8.104577E-3,-2.193944E-2,1.7937163E-2,5.755897E-3,-2.6759563E-2,-1.3030072E-2,4.8052292E-2,-1.2279719E-2,3.3753935E-2,1.5359545E-2,-6.7990884E-4],"split_indices":[0,13,5,1,13,0,6,1,9,2,13,0,6,13,5,0,0,0,0,0,0,0,0,0,0,0,0,0,0,0,0],"split_type":[0,0,0,0,0,0,0,0,0,0,0,0,0,0,0,0,0,0,0,0,0,0,0,0,0,0,0,0,0,0,0],"sum_hessian":[1.6750662E3,6.9391125E2,9.8115497E2,1.02050095E2,5.9186115E2,1.4241878E2,8.387362E2,9.7060684E1,4.989408E0,5.4227454E2,4.958659E1,1.1755446E2,2.4864315E1,1.3284763E2,7.058886E2,5.1644875E1,4.541581E1,3.2422576E0,1.7471504E0,1.7720097E2,3.6507358E2,3.7442715E1,1.2143875E1,2.1252485E1,9.630198E1,1.7957893E1,6.906423E0,1.2865793E2,4.1897016E0,8.370008E1,6.221885E2],"tree_param":{"num_deleted":"0","num_feature":"18","num_nodes":"31","size_leaf_vector":"1"}},{"base_weights":[1.8936126E-2,2.3153593E-1,-1.3123599E-2,3.6108106E-1,4.2436104E-2,-6.952241E-2,7.4142106E-2,4.0049413E-1,-5.665291E-1,-1.7813775E-1,3.1069478E-1,5.416436E-1,-8.971231E-2,1.5069574E0,5.5919833E-2,4.65537E-3,2.5186097E-2,1.3039209E-2,-4.2702433E-2,-2.3071645E-2,1.7012691E-2,2.3067566E-2,-2.4872279E-2,-1.3749132E-2,4.8703607E-2,3.4480616E-2,-4.9586105E-3,8.5070916E-2,1.5953269E-2,-4.1020648E-3,1.0278175E-2],"categories":[],"categories_nodes":[],"categories_segments":[],"categories_sizes":[],"default_left":[0,0,0,0,0,0,0,0,0,0,0,0,0,0,0,0,0,0,0,0,0,0,0,0,0,0,0,0,0,0,0],"id":12,"left_children":[1,3,5,7,9,11,13,15,17,19,21,23,25,27,29,-1,-1,-1,-1,-1,-1,-1,-1,-1,-1,-1,-1,-1,-1,-1,-1],"loss_changes":[1.1466421E1,5.3848267E0,7.2027197E0,5.0048313E0,5.4253225E0,1.101619E1,1.49178E1,3.9495144E0,1.5882335E0,7.564349E0,5.2596455E0,1.0355305E1,6.4179106E0,1.1150627E0,1.175176E1,0E0,0E0,0E0,0E0,0E0,0E0,0E0,0E0,0E0,0E0,0E0,0E0,0E0,0E0,0E0,0E0],"parents":[2147483647,0,0,1,1,2,2,3,3,4,4,5,5,6,6,7,7,8,8,9,9,10,10,11,11,12,12,13,13,14,14],"right_children":[2,4,6,8,10,12,14,16,18,20,22,24,26,28,30,-1,-1,-1,-1,-1,-1,-1,-1,-1,-1,-1,-1,-1,-1,-1,-1],"split_conditions":[1.5115211E1,5E-1,7.028767E-4,3.3198646E-3,8.3442277E-4,-9.659258E-1,4.879947E-4,-6.034513E-3,9.7386347E-4,-1.9903323E-3,-2.1807407E-3,-1.3360695E-4,-2.1993301E-3,9.1111326E-1,-2.5881904E-1,4.65537E-3,2.5186097E-2,1.3039209E-2,-4.2702433E-2,-2.3071645E-2,1.7012691E-2,2.3067566E-2,-2.4872279E-2,-1.3749132E-2,4.8703607E-2,3.4480616E-2,-4.9586105E-3,8.5070916E-2,1.5953269E-2,-4.1020648E-3,1.0278175E-2],"split_indices":[13,15,5,4,6,15,6,4,9,3,3,9,9,10,15,0,0,0,0,0,0,0,0,0,0,0,0,0,0,0,0],"split_type":[0,0,0,0,0,0,0,0,0,0,0,0,0,0,0,0,0,0,0,0,0,0,0,0,0,0,0,0,0,0,0],"sum_hessian":[1.6808612E3,2.1944159E2,1.4614197E3,1.2968785E2,8.975373E1,8.878292E2,5.7359045E2,1.2494724E2,4.7406077E0,4.9438892E1,4.031484E1,2.7565628E1,8.602636E2,6.1772246E0,5.674132E2,3.1889685E1,9.3057556E1,1.2466019E0,3.4940057E0,3.2039528E1,1.7399364E1,3.4341827E1,5.9730105E0,9.6694E0,1.7896229E1,9.454865E0,8.508087E2,4.936764E0,1.2404606E0,2.9546585E2,2.7194736E2],"tree_param":{"num_deleted":"0","num_feature":"18","num_nodes":"31","size_leaf_vector":"1"}},{"base_weights":[-1.8928789E-3,1.1277805E-1,-5.5952262E-2,5.5694953E-2,3.92595E-1,-2.198325E-1,-2.2413373E-2,2.2939065E-2,6.7308015E-1,1.3871609E-1,6.4535785E-1,-7.956874E-2,-4.9531198E-1,-6.542813E-3,-4.4887096E-1,-1.3428822E-2,4.088267E-3,3.1147476E-3,5.0799515E-2,3.101596E-2,-5.3670905E-3,4.0454514E-2,-7.0499363E-3,8.523296E-3,-1.4495355E-2,-2.7694926E-2,3.5355713E-2,-1.0491534E-3,2.044212E-2,3.1483933E-2,-3.376993E-2],"categories":[],"categories_nodes":[],"categories_segments":[],"categories_sizes":[],"default_left":[0,0,0,0,0,0,0,0,0,0,0,0,0,0,0,0,0,0,0,0,0,0,0,0,0,0,0,0,0,0,0],"id":13,"left_children":[1,3,5,7,9,11,13,15,17,19,21,23,25,27,29,-1,-1,-1,-1,-1,-1,-1,-1,-1,-1,-1,-1,-1,-1,-1,-1],"loss_changes":[1.0445305E1,8.601181E0,6.2890224E0,9.075835E0,5.769699E0,7.4731627E0,6.4381924E0,7.3605537E0,4.673156E0,5.615608E0,5.969702E0,6.887505E0,4.9991264E0,5.5183177E0,8.7642975E0,0E0,0E0,0E0,0E0,0E0,0E0,0E0,0E0,0E0,0E0,0E0,0E0,0E0,0E0,0E0,0E0],"parents":[2147483647,0,0,1,1,2,2,3,3,4,4,5,5,6,6,7,7,8,8,9,9,10,10,11,11,12,12,13,13,14,14],"right_children":[2,4,6,8,10,12,14,16,18,20,22,24,26,28,30,-1,-1,-1,-1,-1,-1,-1,-1,-1,-1,-1,-1,-1,-1,-1,-1],"split_conditions":[4.437284E1,-5.0735747E-5,-7.6018396E-4,4.788612E1,-2.1795272E-3,1E0,4.788612E1,1.8581701E1,-2.5881904E-1,1.0620863E1,-9.739934E-4,-4.3309317E-4,4.1998844E1,4.3298786E1,-7.0710677E-1,-1.3428822E-2,4.088267E-3,3.1147476E-3,5.0799515E-2,3.101596E-2,-5.3670905E-3,4.0454514E-2,-7.0499363E-3,8.523296E-3,-1.4495355E-2,-2.7694926E-2,3.5355713E-2,-1.0491534E-3,2.044212E-2,3.1483933E-2,-3.376993E-2],"split_indices":[7,9,3,12,2,16,12,12,15,13,3,2,12,12,14,0,0,0,0,0,0,0,0,0,0,0,0,0,0,0,0],"split_type":[0,0,0,0,0,0,0,0,0,0,0,0,0,0,0,0,0,0,0,0,0,0,0,0,0,0,0,0,0,0,0],"sum_hessian":[1.6829697E3,5.388575E2,1.1441123E3,4.4855133E2,9.030614E1,1.9342584E2,9.506864E2,4.2693698E2,2.1614342E1,4.58263E1,4.447984E1,1.2902171E2,6.4404144E1,9.1755505E2,3.3131344E1,7.108875E1,3.558482E2,8.196519E0,1.3417824E1,1.4981787E1,3.0844513E1,3.6790535E1,7.6893067E0,5.9034924E1,6.9986786E1,6.1926224E1,2.4779184E0,8.8764685E2,2.9908245E1,5.441834E0,2.768951E1],"tree_param":{"num_deleted":"0","num_feature":"18","num_nodes":"31","size_leaf_vector":"1"}},{"base_weights":[-7.2496445E-3,2.2185406E-1,-3.878893E-2,-6.408727E-2,3.6255383E-1,-8.96857E-2,3.416985E-2,1.8975519E-1,-4.8091117E-1,8.611912E-1,2.8902438E-1,-4.5624156E-2,-2.4050471E-1,-3.7889566E-2,1.8856946E-1,-5.732258E-2,1.5817126E-2,-4.3415236E-3,-4.1946273E-2,5.3639263E-2,-1.911971E-2,3.9547803E-3,2.4873229E-2,-1.3627274E-3,-2.4720665E-2,-1.5658267E-2,7.298811E-3,-5.317684E-3,1.3246434E-2,1.8938301E-2,-1.3849488E-3],"categories":[],"categories_nodes":[],"categories_segments":[],"categories_sizes":[],"default_left":[0,0,0,0,0,0,0,0,0,0,0,0,0,0,0,0,0,0,0,0,0,0,0,0,0,0,0,0,0,0,0],"id":14,"left_children":[1,3,5,7,9,11,13,15,17,19,21,23,25,27,29,-1,-1,-1,-1,-1,-1,-1,-1,-1,-1,-1,-1,-1,-1,-1,-1],"loss_changes":[1.2275327E1,8.293798E0,5.5473557E0,7.354359E0,4.808159E0,5.8354793E0,6.8415728E0,7.7002754E0,3.6327043E0,4.94143E0,5.286297E0,5.609845E0,5.6250668E0,8.72838E0,8.057489E0,0E0,0E0,0E0,0E0,0E0,0E0,0E0,0E0,0E0,0E0,0E0,0E0,0E0,0E0,0E0,0E0],"parents":[2147483647,0,0,1,1,2,2,3,3,4,4,5,5,6,6,7,7,8,8,9,9,10,10,11,11,12,12,13,13,14,14],"right_children":[2,4,6,8,10,12,14,16,18,20,22,24,26,28,30,-1,-1,-1,-1,-1,-1,-1,-1,-1,-1,-1,-1,-1,-1,-1,-1],"split_conditions":[1.4042174E1,1.0730609E-3,6.818671E-4,-3.2558176E-4,6.8388385E-4,6.8091607E-4,6.123234E-17,-5.256559E-3,8.1301515E-4,-2.0586116E-4,1.4216839E-3,6.6028367E-4,9.659258E-1,9.531709E-1,5.4254288E1,-5.732258E-2,1.5817126E-2,-4.3415236E-3,-4.1946273E-2,5.3639263E-2,-1.911971E-2,3.9547803E-3,2.4873229E-2,-1.3627274E-3,-2.4720665E-2,-1.5658267E-2,7.298811E-3,-5.317684E-3,1.3246434E-2,1.8938301E-2,-1.3849488E-3],"split_indices":[13,11,5,1,6,1,15,4,11,1,11,5,14,10,7,0,0,0,0,0,0,0,0,0,0,0,0,0,0,0,0],"split_type":[0,0,0,0,0,0,0,0,0,0,0,0,0,0,0,0,0,0,0,0,0,0,0,0,0,0,0,0,0,0,0],"sum_hessian":[1.6966359E3,2.045724E2,1.4920634E3,6.764445E1,1.3692796E2,8.78785E2,6.1327844E2,4.2380074E1,2.5264372E1,1.6220053E1,1.2070791E2,6.81104E2,1.9768098E2,4.1864728E2,1.9463113E2,2.9702861E0,3.940979E1,1.2617889E1,1.2646482E1,1.3978909E1,2.2411435E0,6.082649E1,5.988142E1,6.5534064E2,2.576334E1,1.66557E2,3.1123978E1,3.4197827E2,7.666901E1,1.0315789E2,9.147324E1],"tree_param":{"num_deleted":"0","num_feature":"18","num_nodes":"31","size_leaf_vector":"1"}},{"base_weights":[4.2488594E-3,1.1939016E-1,-4.3360375E-2,8.334709E-2,4.8195434E-1,-2.9926471E-2,-6.336616E-1,4.00889E-2,4.4249362E-1,-1.315521E-1,7.557493E-1,-3.9446518E-2,5.9652466E-1,5.886535E-1,-8.1572497E-1,7.102483E-3,-7.2603473E-3,-5.1222225E-3,3.0305488E-2,4.0267404E-2,-3.7492413E-2,7.215627E-2,2.2512611E-2,7.720358E-3,-3.34811E-3,5.012418E-2,-7.828994E-3,4.926535E-2,-7.90357E-3,-4.803196E-2,6.517291E-3],"categories":[],"categories_nodes":[],"categories_segments":[],"categories_sizes":[],"default_left":[0,0,0,0,0,0,0,0,0,0,0,0,0,0,0,0,0,0,0,0,0,0,0,0,0,0,0,0,0,0,0],"id":15,"left_children":[1,3,5,7,9,11,13,15,17,19,21,23,25,27,29,-1,-1,-1,-1,-1,-1,-1,-1,-1,-1,-1,-1,-1,-1,-1,-1],"loss_changes":[9.171425E0,6.355429E0,9.367958E0,6.917034E0,7.497838E0,6.9321995E0,6.3306456E0,7.568015E0,4.3315067E0,8.97025E0,5.776409E0,6.1019053E0,5.477535E0,1.3372641E0,3.3197117E0,0E0,0E0,0E0,0E0,0E0,0E0,0E0,0E0,0E0,0E0,0E0,0E0,0E0,0E0,0E0,0E0],"parents":[2147483647,0,0,1,1,2,2,3,3,4,4,5,5,6,6,7,7,8,8,9,9,10,10,11,11,12,12,13,13,14,14],"right_children":[2,4,6,8,10,12,14,16,18,20,22,24,26,28,30,-1,-1,-1,-1,-1,-1,-1,-1,-1,-1,-1,-1,-1,-1,-1,-1],"split_conditions":[4.331827E1,-1.3542056E-4,2.1118517E-3,3.5033545E-1,-7.5338796E-2,1.8613174E-3,-8.660254E-1,3.7959625E1,-2.5881904E-1,-1.4417261E-3,1.6907478E1,-8.660254E-1,3.0186146E1,5.151431E-4,8.894134E-1,7.102483E-3,-7.2603473E-3,-5.1222225E-3,3.0305488E-2,4.0267404E-2,-3.7492413E-2,7.215627E-2,2.2512611E-2,7.720358E-3,-3.34811E-3,5.012418E-2,-7.828994E-3,4.926535E-2,-7.90357E-3,-4.803196E-2,6.517291E-3],"split_indices":[7,8,6,10,10,6,14,7,14,0,12,15,12,0,10,0,0,0,0,0,0,0,0,0,0,0,0,0,0,0,0],"split_type":[0,0,0,0,0,0,0,0,0,0,0,0,0,0,0,0,0,0,0,0,0,0,0,0,0,0,0,0,0,0,0],"sum_hessian":[1.6711271E3,4.884119E2,1.1827152E3,4.4536716E2,4.3044754E1,1.1574255E3,2.5289654E1,3.9848267E2,4.68845E1,1.3442646E1,2.9602108E1,1.1410227E3,1.6402851E1,2.9890294E0,2.2300625E1,2.571931E2,1.4128952E2,1.091269E1,3.597181E1,5.224089E0,8.218557E0,7.9624753E0,2.1639633E1,1.4125316E2,9.9976953E2,1.0442639E1,5.960211E0,1.7434303E0,1.2455992E0,1.9325106E1,2.9755187E0],"tree_param":{"num_deleted":"0","num_feature":"18","num_nodes":"31","size_leaf_vector":"1"}},{"base_weights":[-1.4198377E-2,1.3032386E-1,-6.6543564E-2,3.372672E-1,5.2916024E-2,-1.2476062E-1,3.256781E-2,4.237855E-1,-9.658911E-2,-3.9669302E-1,1.0675381E-1,-4.1121304E-2,-2.0599397E-1,1.7006597E-2,6.637716E-1,1.717289E-2,5.185881E-2,-2.4519373E-2,4.0330667E-2,1.9809369E-2,-3.2256942E-2,2.657619E-3,2.4752103E-2,7.837198E-3,-8.51063E-3,1.4203313E-2,-1.2182883E-2,3.2867633E-3,-8.641554E-3,1.1896654E-2,5.635766E-2],"categories":[],"categories_nodes":[],"categories_segments":[],"categories_sizes":[],"default_left":[0,0,0,0,0,0,0,0,0,0,0,0,0,0,0,0,0,0,0,0,0,0,0,0,0,0,0,0,0,0,0],"id":16,"left_children":[1,3,5,7,9,11,13,15,17,19,21,23,25,27,29,-1,-1,-1,-1,-1,-1,-1,-1,-1,-1,-1,-1,-1,-1,-1,-1],"loss_changes":[1.268216E1,7.123061E0,7.1039753E0,4.589079E0,7.924062E0,5.259658E0,4.468847E0,4.630438E0,7.8504634E0,7.156532E0,6.042248E0,9.816658E0,7.3247585E0,4.1386814E0,1.892127E0,0E0,0E0,0E0,0E0,0E0,0E0,0E0,0E0,0E0,0E0,0E0,0E0,0E0,0E0,0E0,0E0],"parents":[2147483647,0,0,1,1,2,2,3,3,4,4,5,5,6,6,7,7,8,8,9,9,10,10,11,11,12,12,13,13,14,14],"right_children":[2,4,6,8,10,12,14,16,18,20,22,24,26,28,30,-1,-1,-1,-1,-1,-1,-1,-1,-1,-1,-1,-1,-1,-1,-1,-1],"split_conditions":[-6.4356276E-4,1.4042174E1,6.666974E-4,3.223215E-4,1.7615503E1,5E-1,1E0,1.0489726E-4,1.2212832E1,-2.5540544E-3,4.782111E-3,3.964908E-4,-4.3499144E-4,1.371097E-3,7.2129635E-4,1.717289E-2,5.185881E-2,-2.4519373E-2,4.0330667E-2,1.9809369E-2,-3.2256942E-2,2.657619E-3,2.4752103E-2,7.837198E-3,-8.51063E-3,1.4203313E-2,-1.2182883E-2,3.2867633E-3,-8.641554E-3,1.1896654E-2,5.635766E-2],"split_indices":[1,13,5,0,13,15,15,0,13,1,4,5,0,5,8,0,0,0,0,0,0,0,0,0,0,0,0,0,0,0,0],"split_type":[0,0,0,0,0,0,0,0,0,0,0,0,0,0,0,0,0,0,0,0,0,0,0,0,0,0,0,0,0,0,0],"sum_hessian":[1.6742698E3,4.4477643E2,1.2294933E3,1.2016591E2,3.246105E2,7.743745E2,4.5511887E2,1.0020628E2,1.9959621E1,3.4032307E1,2.9057822E2,3.8227917E2,3.920953E2,4.451709E2,9.947958E0,8.998241E1,1.0223882E1,1.421772E1,5.7419014E0,7.9777517E0,2.6054556E1,2.5632993E2,3.4248295E1,1.5084958E2,2.314296E2,2.751694E1,3.6457837E2,3.5476218E2,9.040874E1,5.972666E0,3.9752924E0],"tree_param":{"num_deleted":"0","num_feature":"18","num_nodes":"31","size_leaf_vector":"1"}},{"base_weights":[-7.530304E-5,8.487763E-2,-7.2551064E-2,3.7874788E-1,5.485349E-2,-3.1836206E-1,-3.385823E-2,-7.7304685E-1,4.3166804E-1,2.881328E-1,2.145529E-2,-4.8194563E-1,3.0702433E-2,1.0731857E-1,-7.390075E-2,-5.2374817E-2,-7.6032407E-3,1.8017074E-2,6.123784E-2,5.8183647E-3,2.6976654E-2,1.133671E-2,-8.6089637E-4,2.547071E-2,-2.8868595E-2,-2.7427046E-2,1.3839069E-2,6.9972808E-3,-2.9420642E-2,-2.5692089E-2,-8.750369E-4],"categories":[],"categories_nodes":[],"categories_segments":[],"categories_sizes":[],"default_left":[0,0,0,0,0,0,0,0,0,0,0,0,0,0,0,0,0,0,0,0,0,0,0,0,0,0,0,0,0,0,0],"id":17,"left_children":[1,3,5,7,9,11,13,15,17,19,21,23,25,27,29,-1,-1,-1,-1,-1,-1,-1,-1,-1,-1,-1,-1,-1,-1,-1,-1],"loss_changes":[1.027454E1,6.757615E0,8.554024E0,4.664114E0,5.43358E0,7.0011587E0,4.4125433E0,4.3365693E-1,3.4373226E0,3.709629E0,4.861178E0,8.1809635E0,5.850783E0,3.9996428E0,1.5066755E1,0E0,0E0,0E0,0E0,0E0,0E0,0E0,0E0,0E0,0E0,0E0,0E0,0E0,0E0,0E0,0E0],"parents":[2147483647,0,0,1,1,2,2,3,3,4,4,5,5,6,6,7,7,8,8,9,9,10,10,11,11,12,12,13,13,14,14],"right_children":[2,4,6,8,10,12,14,16,18,20,22,24,26,28,30,-1,-1,-1,-1,-1,-1,-1,-1,-1,-1,-1,-1,-1,-1,-1,-1],"split_conditions":[-1.0304494E-4,1.0247659E1,2.805343E-4,1.6999389E-4,7.931424E-4,5.418618E-4,2.4490273E1,8.5962296E-4,9.456817E-4,1E0,1.5692464E1,5.995468E-4,1.1371109E-4,2.666889E-3,-1.1878366E-3,-5.2374817E-2,-7.6032407E-3,1.8017074E-2,6.123784E-2,5.8183647E-3,2.6976654E-2,1.133671E-2,-8.6089637E-4,2.547071E-2,-2.8868595E-2,-2.7427046E-2,1.3839069E-2,6.9972808E-3,-2.9420642E-2,-2.5692089E-2,-8.750369E-4],"split_indices":[0,13,5,5,11,2,13,11,4,16,12,11,0,4,3,0,0,0,0,0,0,0,0,0,0,0,0,0,0,0,0],"split_type":[0,0,0,0,0,0,0,0,0,0,0,0,0,0,0,0,0,0,0,0,0,0,0,0,0,0,0,0,0,0,0],"sum_hessian":[1.6667499E3,7.6724615E2,8.995037E2,7.004499E1,6.972012E2,1.21350494E2,7.781532E2,2.479146E0,6.756585E1,8.6360985E1,6.1084015E2,8.236892E1,3.8981575E1,1.715708E2,6.065824E2,1.242966E0,1.2361801E0,6.332505E1,4.2407956E0,5.217564E1,3.4185345E1,9.6064316E1,5.147759E2,6.8515496E0,7.551737E1,1.1256309E1,2.7725266E1,1.646483E2,6.9225E0,6.8005295E1,5.385771E2],"tree_param":{"num_deleted":"0","num_feature":"18","num_nodes":"31","size_leaf_vector":"1"}},{"base_weights":[6.074061E-3,1.711936E-1,-1.9511312E-2,1.9804919E-1,-1.0695914E0,-2.9397357E-2,4.007414E-1,1.3472302E-1,6.8655926E-1,-1.4056154E-2,-6.623307E-2,1.05806276E-1,-5.8655646E-2,7.778133E-1,-3.5453394E-2,1.6633494E-2,-7.151618E-4,4.6019416E-2,-1.4024146E-2,2.7847972E-3,3.341366E-2,7.7663297E-3,-3.8948145E-3,2.4385687E-2,7.489773E-2,8.548039E-3,-5.7374388E-2],"categories":[],"categories_nodes":[],"categories_segments":[],"categories_sizes":[],"default_left":[0,0,0,0,0,0,0,0,0,0,0,0,0,0,0,0,0,0,0,0,0,0,0,0,0,0,0],"id":18,"left_children":[1,3,5,7,9,11,13,15,17,-1,-1,19,21,23,25,-1,-1,-1,-1,-1,-1,-1,-1,-1,-1,-1,-1],"loss_changes":[7.147564E0,7.775311E0,6.098745E0,6.8066273E0,6.2613153E-1,5.672374E0,5.577242E0,5.865332E0,5.989953E0,0E0,0E0,7.155073E0,4.8628583E0,3.0592556E0,4.0066733E0,0E0,0E0,0E0,0E0,0E0,0E0,0E0,0E0,0E0,0E0,0E0,0E0],"parents":[2147483647,0,0,1,1,2,2,3,3,4,4,5,5,6,6,7,7,8,8,11,11,12,12,13,13,14,14],"right_children":[2,4,6,8,10,12,14,16,18,-1,-1,20,22,24,26,-1,-1,-1,-1,-1,-1,-1,-1,-1,-1,-1,-1],"split_conditions":[-1.0190269E-3,2.712859E-3,7.927604E-3,-1.1001399E-3,3.3261543E1,1.5532516E1,3.55348E1,-1.6920863E-3,4.3419527E-4,-1.4056154E-2,-6.623307E-2,2.1971783E-3,-1.814883E-3,3.1814947E1,6.7522405E-3,1.6633494E-2,-7.151618E-4,4.6019416E-2,-1.4024146E-2,2.7847972E-3,3.341366E-2,7.7663297E-3,-3.8948145E-3,2.4385687E-2,7.489773E-2,8.548039E-3,-5.7374388E-2],"split_indices":[8,1,3,8,12,12,12,8,2,0,0,3,1,12,1,0,0,0,0,0,0,0,0,0,0,0,0],"split_type":[0,0,0,0,0,0,0,0,0,0,0,0,0,0,0,0,0,0,0,0,0,0,0,0,0,0,0],"sum_hessian":[1.6900828E3,2.2598155E2,1.4641012E3,2.220166E2,3.964949E0,1.4313599E3,3.274133E1,1.976684E2,2.4348207E1,1.4829665E0,2.4819825E0,2.5417793E2,1.1771819E3,1.7140722E1,1.5600608E1,8.437005E1,1.1329834E2,1.9646069E1,4.70214E0,2.3439467E2,1.9783264E1,9.6532776E1,1.0806492E3,1.3414224E1,3.7264986E0,1.3871975E1,1.7286325E0],"tree_param":{"num_deleted":"0","num_feature":"18","num_nodes":"27","size_leaf_vector":"1"}},{"base_weights":[7.4110827E-3,1.8792774E-1,-1.9946493E-2,2.880545E-1,-6.0341343E-2,4.28094E-2,-6.9127366E-2,3.9551634E-1,1.9269945E-2,7.409307E-1,-1.5931052E-1,2.7333647E-2,7.632735E-1,-2.2972114E-1,-2.9200684E-2,4.913756E-2,1.6978158E-2,2.0331886E-2,-1.13724E-2,-3.5711467E-2,6.2102206E-2,-2.0294083E-2,1.5319074E-2,3.131402E-4,1.8393004E-2,7.068468E-2,4.8532053E-3,2.4162035E-3,-2.4179958E-2,6.062165E-2,-2.1468787E-3],"categories":[],"categories_nodes":[],"categories_segments":[],"categories_sizes":[],"default_left":[0,0,0,0,0,0,0,0,0,0,0,0,0,0,0,0,0,0,0,0,0,0,0,0,0,0,0,0,0,0,0],"id":19,"left_children":[1,3,5,7,9,11,13,15,17,19,21,23,25,27,29,-1,-1,-1,-1,-1,-1,-1,-1,-1,-1,-1,-1,-1,-1,-1,-1],"loss_changes":[8.254927E0,5.485782E0,4.483794E0,4.5252695E0,5.197147E0,7.09809E0,5.21468E0,3.348322E0,4.4766917E0,6.150614E0,6.7647653E0,4.490058E0,5.664586E0,1.1458699E1,1.1195212E1,0E0,0E0,0E0,0E0,0E0,0E0,0E0,0E0,0E0,0E0,0E0,0E0,0E0,0E0,0E0,0E0],"parents":[2147483647,0,0,1,1,2,2,3,3,4,4,5,5,6,6,7,7,8,8,9,9,10,10,11,11,12,12,13,13,14,14],"right_children":[2,4,6,8,10,12,14,16,18,20,22,24,26,28,30,-1,-1,-1,-1,-1,-1,-1,-1,-1,-1,-1,-1,-1,-1,-1,-1],"split_conditions":[1.5115211E1,-3.2558176E-4,-1.04021376E-4,-2.2758287E-3,-6.4738933E-3,-1.0552388E-4,-9.3114213E-4,1.6592796E1,2.5881904E-1,1.2824226E-3,4.0364883E1,9.0017474E-1,-6.861637E-4,2.6200516E1,3.6992493E1,4.913756E-2,1.6978158E-2,2.0331886E-2,-1.13724E-2,-3.5711467E-2,6.2102206E-2,-2.0294083E-2,1.5319074E-2,3.131402E-4,1.8393004E-2,7.068468E-2,4.8532053E-3,2.4162035E-3,-2.4179958E-2,6.062165E-2,-2.1468787E-3],"split_indices":[13,1,0,3,3,0,3,12,14,11,7,10,4,13,7,0,0,0,0,0,0,0,0,0,0,0,0,0,0,0,0],"split_type":[0,0,0,0,0,0,0,0,0,0,0,0,0,0,0,0,0,0,0,0,0,0,0,0,0,0,0,0,0,0,0],"sum_hessian":[1.6697869E3,2.1898218E2,1.4508047E3,1.5593388E2,6.304829E1,6.3748676E2,8.1331793E2,1.11059906E2,4.487398E1,6.218196E0,5.6830093E1,6.250974E2,1.2389317E1,1.6099747E2,6.5232043E2,8.220547E0,1.02839355E2,1.7207922E1,2.7666061E1,1.4838955E0,4.7343006E0,3.7240635E1,1.958946E1,5.896311E2,3.5466362E1,5.7012205E0,6.688096E0,7.722781E1,8.376965E1,6.183161E0,6.4613727E2],"tree_param":{"num_deleted":"0","num_feature":"18","num_nodes":"31","size_leaf_vector":"1"}},{"base_weights":[5.8071665E-3,2.091958E-1,-2.4018373E-2,2.624023E-1,-2.4776372E-1,4.7943538E-1,-3.921089E-2,-5.984297E-1,2.814285E-1,4.6442714E-2,-3.8899854E-1,-2.8292856E-1,7.033389E-1,-9.8412514E-2,6.729469E-2,8.2199194E-4,-5.4844715E-2,3.9140377E-2,1.2195319E-2,-5.8725633E-2,-5.3677727E-3,1.4681329E-2,-5.220894E-2,5.705133E-2,2.0293815E-2,-3.1556946E-3,-1.4457959E-2,-4.8154304E-3,6.5416703E-3],"categories":[],"categories_nodes":[],"categories_segments":[],"categories_sizes":[],"default_left":[0,0,0,0,0,0,0,0,0,0,0,0,0,0,0,0,0,0,0,0,0,0,0,0,0,0,0,0,0],"id":20,"left_children":[1,3,5,7,9,11,13,15,17,-1,19,21,23,25,27,-1,-1,-1,-1,-1,-1,-1,-1,-1,-1,-1,-1,-1,-1],"loss_changes":[1.0144566E1,5.2648363E0,1.117539E1,3.313857E0,4.1534033E0,7.5051937E0,8.940089E0,1.3888882E0,3.3567114E0,0E0,4.537198E0,4.884436E0,3.8818092E0,6.115883E0,5.2806025E0,0E0,0E0,0E0,0E0,0E0,0E0,0E0,0E0,0E0,0E0,0E0,0E0,0E0,0E0],"parents":[2147483647,0,0,1,1,2,2,3,3,4,4,5,5,6,6,7,7,8,8,10,10,11,11,12,12,13,13,14,14],"right_children":[2,4,6,8,10,12,14,16,18,-1,20,22,24,26,28,-1,-1,-1,-1,-1,-1,-1,-1,-1,-1,-1,-1,-1,-1],"split_conditions":[-8.660254E-1,1.4475243E-3,-2.0522985E-3,2.49685E-4,-1.0622932E-2,-2.5881904E-1,7.028767E-4,1.0298235E-4,1.2671862E1,4.6442714E-2,-3.7713344E-3,1.554783E-3,4.2516403E1,3.4433483E1,-5E-1,8.2199194E-4,-5.4844715E-2,3.9140377E-2,1.2195319E-2,-5.8725633E-2,-5.3677727E-3,1.4681329E-2,-5.220894E-2,5.705133E-2,2.0293815E-2,-3.1556946E-3,-1.4457959E-2,-4.8154304E-3,6.5416703E-3],"split_indices":[15,5,9,5,4,15,5,0,12,0,4,5,12,12,15,0,0,0,0,0,0,0,0,0,0,0,0,0,0],"split_type":[0,0,0,0,0,0,0,0,0,0,0,0,0,0,0,0,0,0,0,0,0,0,0,0,0,0,0,0,0],"sum_hessian":[1.6704883E3,2.1286806E2,1.4576202E3,1.9104886E2,2.1819195E1,4.1802425E1,1.4158179E3,3.472748E0,1.8757611E2,1.7407181E0,2.0078476E1,9.430185E0,3.2372242E1,9.100424E2,5.0577536E2,1.987783E0,1.484965E0,1.1677402E1,1.7589871E2,4.4624114E0,1.5616064E1,5.715596E0,3.7145896E0,1.1951252E1,2.042099E1,7.690557E2,1.4098672E2,1.413369E2,3.6443848E2],"tree_param":{"num_deleted":"0","num_feature":"18","num_nodes":"29","size_leaf_vector":"1"}},{"base_weights":[-9.771781E-4,1.0037866E0,-5.3241593E-3,1.2251367E-2,1.1209913E0,1.4929396E-1,-2.8077865E-2,6.4996265E-2,1.2302242E-2,5.3603098E-2,4.9302673E-1,1.8709E-1,-4.2379554E-2,-1.680264E-2,8.406046E-3,8.599415E-4,3.8872868E-2,3.1905703E-3,4.4619136E-2,-2.6380567E-2,-1.6776988E-3],"categories":[],"categories_nodes":[],"categories_segments":[],"categories_sizes":[],"default_left":[0,0,0,0,0,0,0,0,0,0,0,0,0,0,0,0,0,0,0,0,0],"id":21,"left_children":[1,3,5,-1,7,9,11,-1,-1,13,15,17,19,-1,-1,-1,-1,-1,-1,-1,-1],"loss_changes":[7.3251524E0,3.6781216E-1,5.8783336E0,0E0,6.16097E-1,7.0239387E0,4.4894295E0,0E0,0E0,7.588469E0,6.287451E0,7.8509483E0,5.8337355E0,0E0,0E0,0E0,0E0,0E0,0E0,0E0,0E0],"parents":[2147483647,0,0,1,1,2,2,4,4,5,5,6,6,9,9,10,10,11,11,12,12],"right_children":[2,4,6,-1,8,10,12,-1,-1,14,16,18,20,-1,-1,-1,-1,-1,-1,-1,-1],"split_conditions":[-3.3874172E-3,1.3946967E-3,1.5115211E1,1.2251367E-2,3.9519557E-1,4.1032555E1,-1.3110549E-3,6.4996265E-2,1.2302242E-2,3.781693E-4,-1.7185841E-3,9.659258E-1,-4.5298054E-3,-1.680264E-2,8.406046E-3,8.599415E-4,3.8872868E-2,3.1905703E-3,4.4619136E-2,-2.6380567E-2,-1.6776988E-3],"split_indices":[9,11,13,0,10,7,9,0,0,5,2,14,3,0,0,0,0,0,0,0,0],"split_type":[0,0,0,0,0,0,0,0,0,0,0,0,0,0,0,0,0,0,0,0,0],"sum_hessian":[1.6748995E3,6.2246065E0,1.6686749E3,1.2463826E0,4.9782243E0,2.1334843E2,1.4553265E3,3.7297406E0,1.2484834E0,1.6779294E2,4.5555485E1,8.995021E1,1.3653762E3,3.7673023E1,1.3011992E2,1.7440126E1,2.811536E1,7.749524E1,1.2454972E1,2.3340305E1,1.342036E3],"tree_param":{"num_deleted":"0","num_feature":"18","num_nodes":"21","size_leaf_vector":"1"}},{"base_weights":[1.85169E-2,-1.4312327E-1,3.7961017E-2,-1.0248588E-2,-4.3978152E-1,1.5062717E-2,1.9331953E-1,-6.033427E-1,4.898939E-2,-6.7596745E-1,5.7922732E-2,5.498337E-2,-8.1979655E-2,1.3240976E-3,4.7798136E-1,2.2248207E-2,-4.0288337E-2,5.8853246E-2,1.944868E-5,-1.8253434E-2,-5.161773E-2,-2.181763E-2,2.0497471E-2,1.8395405E-3,2.1497814E-2,-5.5577606E-3,2.4632221E-2,7.0352233E-3,-1.961161E-2,3.863727E-2,8.110783E-3],"categories":[],"categories_nodes":[],"categories_segments":[],"categories_sizes":[],"default_left":[0,0,0,0,0,0,0,0,0,0,0,0,0,0,0,0,0,0,0,0,0,0,0,0,0,0,0,0,0,0,0],"id":22,"left_children":[1,3,5,7,9,11,13,15,17,19,21,23,25,27,29,-1,-1,-1,-1,-1,-1,-1,-1,-1,-1,-1,-1,-1,-1,-1,-1],"loss_changes":[5.2574663E0,7.0766325E0,5.3062615E0,4.424545E0,6.5687933E0,5.047618E0,1.0472445E1,2.7850204E0,6.285685E0,3.8057938E0,3.4496553E0,6.2803006E0,6.422658E0,6.387682E0,7.058588E0,0E0,0E0,0E0,0E0,0E0,0E0,0E0,0E0,0E0,0E0,0E0,0E0,0E0,0E0,0E0,0E0],"parents":[2147483647,0,0,1,1,2,2,3,3,4,4,5,5,6,6,7,7,8,8,9,9,10,10,11,11,12,12,13,13,14,14],"right_children":[2,4,6,8,10,12,14,16,18,20,22,24,26,28,30,-1,-1,-1,-1,-1,-1,-1,-1,-1,-1,-1,-1,-1,-1,-1,-1],"split_conditions":[4.7536026E-4,3.2443771E-4,9.659258E-1,-4.139383E-2,8.664205E1,5E-1,2.6674862E1,3.662802E-4,8.050463E0,4.288012E-4,9.481477E-1,4.5530075E1,2.0310406E-3,6.320286E-4,9.02818E-4,2.2248207E-2,-4.0288337E-2,5.8853246E-2,1.944868E-5,-1.8253434E-2,-5.161773E-2,-2.181763E-2,2.0497471E-2,1.8395405E-3,2.1497814E-2,-5.5577606E-3,2.4632221E-2,7.0352233E-3,-1.961161E-2,3.863727E-2,8.110783E-3],"split_indices":[6,1,14,10,13,14,12,6,13,6,10,12,8,1,6,0,0,0,0,0,0,0,0,0,0,0,0,0,0,0,0],"split_type":[0,0,0,0,0,0,0,0,0,0,0,0,0,0,0,0,0,0,0,0,0,0,0,0,0,0,0,0,0,0,0],"sum_hessian":[1.6700521E3,1.7864062E2,1.4914115E3,1.24093216E2,5.454741E1,1.3007856E3,1.906259E2,1.0434755E1,1.1365846E2,3.674966E1,1.7797749E1,9.2195233E2,3.7883328E2,1.1444262E2,7.618329E1,1.4948897E0,8.939866E0,3.7354245E0,1.09923035E2,2.0708607E1,1.6041052E1,7.303488E0,1.0494261E1,8.8033905E2,4.1613293E1,3.6129565E2,1.7537611E1,8.498658E1,2.9456038E1,3.8653465E1,3.7529823E1],"tree_param":{"num_deleted":"0","num_feature":"18","num_nodes":"31","size_leaf_vector":"1"}},{"base_weights":[3.6704796E-3,-4.633803E-2,8.365695E-2,5.424748E-1,-6.592503E-2,-3.577435E-2,1.6394989E-1,6.501149E-1,-3.3422314E-2,9.1937554E-1,-7.340538E-2,5.1170528E-2,-5.0914917E-2,-7.0501167E-1,1.7875384E-1,4.830865E-2,7.844268E-3,-1.9780368E-2,7.6178804E-2,-9.6186664E-4,-9.128226E-3,5.929582E-4,-1.3830035E-2,2.9655254E-2,-5.5436384E-2,6.886748E-3,2.0925596E-2],"categories":[],"categories_nodes":[],"categories_segments":[],"categories_sizes":[],"default_left":[0,0,0,0,0,0,0,0,0,0,0,0,0,0,0,0,0,0,0,0,0,0,0,0,0,0,0],"id":23,"left_children":[1,3,5,7,9,11,13,15,-1,17,19,-1,21,23,25,-1,-1,-1,-1,-1,-1,-1,-1,-1,-1,-1,-1],"loss_changes":[6.7551665E0,1.2020556E1,6.2357135E0,4.80937E0,7.486547E0,4.253617E0,5.1257677E0,4.732525E0,0E0,6.6874657E0,5.909098E0,0E0,3.6761928E0,4.175522E0,3.7084904E0,0E0,0E0,0E0,0E0,0E0,0E0,0E0,0E0,0E0,0E0,0E0,0E0],"parents":[2147483647,0,0,1,1,2,2,3,3,4,4,5,5,6,6,7,7,9,9,10,10,12,12,13,13,14,14],"right_children":[2,4,6,8,10,12,14,16,-1,18,20,-1,22,24,26,-1,-1,-1,-1,-1,-1,-1,-1,-1,-1,-1,-1],"split_conditions":[7.107318E-4,-9.659258E-1,-5E-1,9.1387146E1,-6.4738933E-3,4.879947E-4,4.001413E0,5.945113E-4,-3.3422314E-2,4.6672326E-4,5.050682E-4,5.1170528E-2,5E-1,-1.2503859E-2,8.692626E1,4.830865E-2,7.844268E-3,-1.9780368E-2,7.6178804E-2,-9.6186664E-4,-9.128226E-3,5.929582E-4,-1.3830035E-2,2.9655254E-2,-5.5436384E-2,6.886748E-3,2.0925596E-2],"split_indices":[5,15,15,13,3,6,13,5,0,5,5,0,14,3,13,0,0,0,0,0,0,0,0,0,0,0,0],"split_type":[0,0,0,0,0,0,0,0,0,0,0,0,0,0,0,0,0,0,0,0,0,0,0,0,0,0,0],"sum_hessian":[1.6868207E3,1.0381669E3,6.4865375E2,3.2563602E1,1.00560333E3,2.6099402E2,3.8765973E2,3.0330605E1,2.2329974E0,6.658435E0,9.989449E2,2.7396986E0,2.5825433E2,5.712702E0,3.8194705E2,1.7900938E1,1.24296665E1,2.204908E0,4.453527E0,6.6842737E2,3.3051752E2,2.0279478E2,5.5459545E1,1.2439063E0,4.4687953E0,3.274926E2,5.4454426E1],"tree_param":{"num_deleted":"0","num_feature":"18","num_nodes":"27","size_leaf_vector":"1"}},{"base_weights":[9.740779E-3,1.7886049E-1,-7.460863E-3,-6.685219E-2,4.1244432E-1,2.489784E-1,-1.8771086E-2,-5.0309575E-1,7.34544E-2,3.4989044E-1,1.276437E0,-4.6444455E-1,3.2656097E-1,1.2752116E-1,-3.9296594E-2,-3.3672047E-3,-4.3801486E-2,2.2469355E-2,-9.4841365E-3,4.3677714E-2,1.2236053E-2,7.3417164E-2,2.4732942E-2,6.655473E-3,-6.275665E-2,3.2937255E-2,3.0331956E-3,-1.1413291E-3,1.8984498E-2,-3.8482964E-2,-1.5696053E-3],"categories":[],"categories_nodes":[],"categories_segments":[],"categories_sizes":[],"default_left":[0,0,0,0,0,0,0,0,0,0,0,0,0,0,0,0,0,0,0,0,0,0,0,0,0,0,0,0,0,0,0],"id":24,"left_children":[1,3,5,7,9,11,13,15,17,19,21,23,25,27,29,-1,-1,-1,-1,-1,-1,-1,-1,-1,-1,-1,-1,-1,-1,-1,-1],"loss_changes":[4.865577E0,8.8897705E0,4.4093404E0,4.6955485E0,3.8391018E0,3.7062268E0,4.375258E0,2.9716616E0,5.868371E0,3.934431E0,2.0206451E-2,3.3381872E0,5.1279426E0,6.806988E0,7.3488064E0,0E0,0E0,0E0,0E0,0E0,0E0,0E0,0E0,0E0,0E0,0E0,0E0,0E0,0E0,0E0,0E0],"parents":[2147483647,0,0,1,1,2,2,3,3,4,4,5,5,6,6,7,7,8,8,9,9,10,10,11,11,12,12,13,13,14,14],"right_children":[2,4,6,8,10,12,14,16,18,20,22,24,26,28,30,-1,-1,-1,-1,-1,-1,-1,-1,-1,-1,-1,-1,-1,-1,-1,-1],"split_conditions":[-1.814883E-3,2.5615096E-2,-9.659258E-1,-6.6852416E-3,-1.8490867E-3,-1.0590714E-3,3.7770065E1,9.13469E0,-3.7713344E-3,-8.660254E-1,3.373835E-4,-1.0927488E-3,5.020011E-1,3.4761715E1,-1.6814003E-3,-3.3672047E-3,-4.3801486E-2,2.2469355E-2,-9.4841365E-3,4.3677714E-2,1.2236053E-2,7.3417164E-2,2.4732942E-2,6.655473E-3,-6.275665E-2,3.2937255E-2,3.0331956E-3,-1.1413291E-3,1.8984498E-2,-3.8482964E-2,-1.5696053E-3],"split_indices":[1,10,15,4,1,0,7,13,4,14,8,1,10,7,1,0,0,0,0,0,0,0,0,0,0,0,0,0,0,0,0],"split_type":[0,0,0,0,0,0,0,0,0,0,0,0,0,0,0,0,0,0,0,0,0,0,0,0,0,0,0,0,0,0,0],"sum_hessian":[1.6710571E3,1.5340845E2,1.5176487E3,7.511105E1,7.829739E1,6.322058E1,1.4544281E3,1.7649439E1,5.7461613E1,7.432143E1,3.975971E0,5.7116585E0,5.7508923E1,1.7831364E2,1.2761145E3,8.683664E0,8.9657755E0,2.3368393E1,3.4093224E1,1.1207986E1,6.3113438E1,2.487215E0,1.488756E0,3.7268138E0,1.9848446E0,2.4910675E1,3.2598244E1,1.12279816E2,6.603383E1,1.2631308E1,1.2634832E3],"tree_param":{"num_deleted":"0","num_feature":"18","num_nodes":"31","size_leaf_vector":"1"}},{"base_weights":[1.2264199E-3,5.6088787E-2,-6.459965E-2,9.781226E-2,-5.1822703E-2,3.1355445E-3,-1.8445352E-1,8.4924735E-2,8.219622E-1,-1.6407356E-1,1.4617404E-1,-1.4864689E-1,8.410912E-2,1.0694692E0,-2.0557961E-1,3.7427407E-3,4.4412624E-2,5.0602254E-2,-1.3556848E-2,-5.879264E-3,-5.4497685E-2,-2.791338E-2,1.24052735E-2,-1.4351809E-2,5.879995E-3,3.5543483E-2,1.8661674E-3,6.602829E-2,1.0200653E-2,3.4168597E-2,-1.1470548E-2],"categories":[],"categories_nodes":[],"categories_segments":[],"categories_sizes":[],"default_left":[0,0,0,0,0,0,0,0,0,0,0,0,0,0,0,0,0,0,0,0,0,0,0,0,0,0,0,0,0,0,0],"id":25,"left_children":[1,3,5,7,9,11,13,15,17,19,21,23,25,27,29,-1,-1,-1,-1,-1,-1,-1,-1,-1,-1,-1,-1,-1,-1,-1,-1],"loss_changes":[6.0533466E0,4.1212816E0,6.1864853E0,6.086362E0,5.7040954E0,6.007964E0,7.508725E0,5.185415E0,2.6470575E0,6.9124413E0,6.8161087E0,6.300051E0,9.320309E0,7.563381E-1,5.9070024E0,0E0,0E0,0E0,0E0,0E0,0E0,0E0,0E0,0E0,0E0,0E0,0E0,0E0,0E0,0E0,0E0],"parents":[2147483647,0,0,1,1,2,2,3,3,4,4,5,5,6,6,7,7,8,8,9,9,10,10,11,11,12,12,13,13,14,14],"right_children":[2,4,6,8,10,12,14,16,18,20,22,24,26,28,30,-1,-1,-1,-1,-1,-1,-1,-1,-1,-1,-1,-1,-1,-1,-1,-1],"split_conditions":[1.0398271E-4,6.532223E-1,5E-1,1.8901569E-3,8.311906E-1,-3.037229E-4,-3.264669E-3,8.206162E-3,2.819766E-3,1.7579452E-3,1.2663119E-3,6.426103E-4,-3.133976E-4,1.2246469E-16,6.1608246E-4,3.7427407E-3,4.4412624E-2,5.0602254E-2,-1.3556848E-2,-5.879264E-3,-5.4497685E-2,-2.791338E-2,1.24052735E-2,-1.4351809E-2,5.879995E-3,3.5543483E-2,1.8661674E-3,6.602829E-2,1.0200653E-2,3.4168597E-2,-1.1470548E-2],"split_indices":[0,10,15,2,10,9,8,4,11,1,3,3,8,14,11,0,0,0,0,0,0,0,0,0,0,0,0,0,0,0,0],"split_type":[0,0,0,0,0,0,0,0,0,0,0,0,0,0,0,0,0,0,0,0,0,0,0,0,0,0,0,0,0,0,0],"sum_hessian":[1.6741862E3,9.132178E2,7.609684E2,6.5864813E2,2.5456963E2,4.8681796E2,2.741504E2,6.4822906E2,1.0419105E1,1.62573E2,9.1996635E1,1.6906854E2,3.1774942E2,3.7201552E0,2.7043024E2,6.4128357E2,6.945475E0,8.938848E0,1.480257E0,1.558736E2,6.6993904E0,1.1063132E1,8.09335E1,1.1119415E2,5.7874386E1,2.1085512E1,2.966639E2,2.4759438E0,1.2442116E0,6.3379583E0,2.640923E2],"tree_param":{"num_deleted":"0","num_feature":"18","num_nodes":"31","size_leaf_vector":"1"}},{"base_weights":[-1.0009199E-2,2.9674995E-1,-2.3334607E-2,-7.39443E-1,4.4494915E-1,-1.8442547E-1,7.0182197E-3,-2.3892298E-1,-6.679164E-2,8.9255506E-1,1.3976102E-1,-5.0467145E-2,-3.728503E-1,3.5277405E-1,-9.803578E-3,1.7929105E-2,-5.6566853E-2,6.91635E-2,2.2482777E-2,-5.097425E-3,4.198122E-2,8.1404357E-4,-4.255301E-2,-2.7103556E-2,9.532005E-6,9.456653E-3,5.8092352E-2,-2.5356386E-3,4.476957E-3],"categories":[],"categories_nodes":[],"categories_segments":[],"categories_sizes":[],"default_left":[0,0,0,0,0,0,0,0,0,0,0,0,0,0,0,0,0,0,0,0,0,0,0,0,0,0,0,0,0],"id":26,"left_children":[1,3,5,7,9,11,13,15,-1,17,19,21,23,25,27,-1,-1,-1,-1,-1,-1,-1,-1,-1,-1,-1,-1,-1,-1],"loss_changes":[6.861268E0,1.1060091E1,7.8634405E0,2.403091E0,8.312059E0,6.416938E0,7.878484E0,3.6989355E0,0E0,4.7794285E0,6.4983068E0,8.039225E0,6.6782675E0,8.10073E0,5.25579E0,0E0,0E0,0E0,0E0,0E0,0E0,0E0,0E0,0E0,0E0,0E0,0E0,0E0,0E0],"parents":[2147483647,0,0,1,1,2,2,3,3,4,4,5,5,6,6,7,7,9,9,10,10,11,11,12,12,13,13,14,14],"right_children":[2,4,6,8,10,12,14,16,-1,18,20,22,24,26,28,-1,-1,-1,-1,-1,-1,-1,-1,-1,-1,-1,-1,-1,-1],"split_conditions":[1.925594E-4,-1.7291302E-3,5.165146E-4,-2.4178664E-3,-1.0824754E-4,2.1389306E-4,5.4841756E-4,1.6220547E-4,-6.679164E-2,5.047219E-4,8.660254E-1,1.8221668E-3,8.716716E-4,2.394996E-3,1.5599428E-3,1.7929105E-2,-5.6566853E-2,6.91635E-2,2.2482777E-2,-5.097425E-3,4.198122E-2,8.1404357E-4,-4.255301E-2,-2.7103556E-2,9.532005E-6,9.456653E-3,5.8092352E-2,-2.5356386E-3,4.476957E-3],"split_indices":[5,3,6,3,2,1,6,5,0,6,14,3,1,3,11,0,0,0,0,0,0,0,0,0,0,0,0,0,0],"split_type":[0,0,0,0,0,0,0,0,0,0,0,0,0,0,0,0,0,0,0,0,0,0,0,0,0,0,0,0,0],"sum_hessian":[1.6758252E3,6.888064E1,1.6069446E3,8.119617E0,6.0761024E1,2.5397147E2,1.3529731E3,5.17615E0,2.9434671E0,2.3852709E1,3.6908314E1,1.4918094E2,1.04790535E2,6.1844654E1,1.2911284E3,3.4586446E0,1.7175051E0,1.0308304E1,1.3544404E1,2.8068665E1,8.839651E0,1.3860468E2,1.0576253E1,7.177738E1,3.301315E1,5.2466652E1,9.378002E0,9.148741E2,3.7625436E2],"tree_param":{"num_deleted":"0","num_feature":"18","num_nodes":"29","size_leaf_vector":"1"}},{"base_weights":[-1.4351753E-3,9.2486694E-2,-4.0067166E-2,1.4560758E-1,-1.4741205E-1,-4.7543142E-2,5.0283426E-1,-5.6397337E-1,1.702563E-1,-9.1487056E-1,-3.6874026E-2,-3.5483398E-2,-4.172889E-1,-5.377395E-2,7.312111E-1,-3.6613462E-3,-5.6038804E-2,2.9667845E-2,6.4707585E-3,1.534638E-2,-5.4779865E-2,4.7563575E-3,-2.6261976E-2,-3.2260453E-3,7.698796E-3,-3.2163832E-2,1.871005E-2,5.5421174E-2,-1.1149421E-3],"categories":[],"categories_nodes":[],"categories_segments":[],"categories_sizes":[],"default_left":[0,0,0,0,0,0,0,0,0,0,0,0,0,0,0,0,0,0,0,0,0,0,0,0,0,0,0,0,0],"id":27,"left_children":[1,3,5,7,9,11,13,15,17,19,21,23,25,-1,27,-1,-1,-1,-1,-1,-1,-1,-1,-1,-1,-1,-1,-1,-1],"loss_changes":[6.1506343E0,6.317368E0,4.8987417E0,7.1792707E0,7.606433E0,5.272171E0,6.698168E0,3.6962771E0,6.699608E0,2.8306646E0,5.191963E0,6.3328257E0,6.922821E0,0E0,4.2663684E0,0E0,0E0,0E0,0E0,0E0,0E0,0E0,0E0,0E0,0E0,0E0,0E0,0E0,0E0],"parents":[2147483647,0,0,1,1,2,2,3,3,4,4,5,5,6,6,7,7,8,8,9,9,10,10,11,11,12,12,14,14],"right_children":[2,4,6,8,10,12,14,16,18,20,22,24,26,-1,28,-1,-1,-1,-1,-1,-1,-1,-1,-1,-1,-1,-1,-1,-1],"split_conditions":[-4.627695E-4,6.3005264E-4,4.787791E-3,4.001413E0,5.791272E-4,7.469546E1,6.973318E1,1.1215537E-3,8.7434845E0,-8.660254E-1,2.1562683E-3,9.0017474E-1,2.6950163E-3,-5.377395E-2,6.7522405E-3,-3.6613462E-3,-5.6038804E-2,2.9667845E-2,6.4707585E-3,1.534638E-2,-5.4779865E-2,4.7563575E-3,-2.6261976E-2,-3.2260453E-3,7.698796E-3,-3.2163832E-2,1.871005E-2,5.5421174E-2,-1.1149421E-3],"split_indices":[9,0,1,13,6,7,13,6,13,14,2,10,9,0,1,0,0,0,0,0,0,0,0,0,0,0,0,0,0],"split_type":[0,0,0,0,0,0,0,0,0,0,0,0,0,0,0,0,0,0,0,0,0,0,0,0,0,0,0,0,0],"sum_hessian":[1.6931207E3,4.9304312E2,1.2000775E3,4.039822E2,8.9060905E1,1.1846765E3,1.5401058E1,1.2827495E1,3.9115472E2,1.0296492E1,7.876441E1,1.1483186E3,3.6357956E1,1.47792E0,1.3923138E1,7.4196167E0,5.407878E0,3.324273E1,3.57912E2,1.236805E0,9.059687E0,6.263886E1,1.6125555E1,9.962826E2,1.5203593E2,2.8428307E1,7.9296484E0,8.964456E0,4.958682E0],"tree_param":{"num_deleted":"0","num_feature":"18","num_nodes":"29","size_leaf_vector":"1"}},{"base_weights":[-2.7334248E-3,6.983885E-4,-8.3029056E-1,2.5208986E-1,-1.0523694E-2,-6.787481E-2,-1.010033E-2,7.4100643E-1,5.7821397E-2,3.4678683E-1,-1.7605405E-2,3.3882536E-2,-3.165344E-2,4.5176405E-2,-4.883335E-2,-1.737418E-3,5.5645026E-2,3.1653184E-2,-2.5152955E-2,-2.795777E-3,3.4504856E-3],"categories":[],"categories_nodes":[],"categories_segments":[],"categories_sizes":[],"default_left":[0,0,0,0,0,0,0,0,0,0,0,0,0,0,0,0,0,0,0,0,0],"id":28,"left_children":[1,3,5,7,9,-1,11,13,15,17,19,-1,-1,-1,-1,-1,-1,-1,-1,-1,-1],"loss_changes":[4.7462463E0,4.7001114E0,2.9706511E0,6.719181E0,4.041796E0,0E0,2.0176733E0,6.510215E0,5.120722E0,7.87123E0,5.196427E0,0E0,0E0,0E0,0E0,0E0,0E0,0E0,0E0,0E0,0E0],"parents":[2147483647,0,0,1,1,2,2,3,3,4,4,6,6,7,7,8,8,9,9,10,10],"right_children":[2,4,6,8,10,-1,12,14,16,18,20,-1,-1,-1,-1,-1,-1,-1,-1,-1,-1],"split_conditions":[3.892417E-3,-9.659258E-1,-1.1348319E-4,5.945113E-4,1.0339882E1,-6.787481E-2,-1.6615931E-3,1.052532E-3,1.8910306E-3,1.0837747E-3,1.425929E-3,3.3882536E-2,-3.165344E-2,4.5176405E-2,-4.883335E-2,-1.737418E-3,5.5645026E-2,3.1653184E-2,-2.5152955E-2,-2.795777E-3,3.4504856E-3],"split_indices":[11,15,0,5,12,0,2,0,5,3,11,0,0,0,0,0,0,0,0,0,0],"split_type":[0,0,0,0,0,0,0,0,0,0,0,0,0,0,0,0,0,0,0,0,0],"sum_hessian":[1.6699967E3,1.664095E3,5.901713E0,7.019342E1,1.5939016E3,3.1937318E0,2.707981E0,1.9159714E1,5.1033707E1,3.0044125E1,1.5638574E3,1.2453501E0,1.462631E0,1.7936583E1,1.2231301E0,4.7806374E1,3.227335E0,2.2664505E1,7.3796206E0,1.0845237E3,4.7933374E2],"tree_param":{"num_deleted":"0","num_feature":"18","num_nodes":"21","size_leaf_vector":"1"}},{"base_weights":[2.8213825E-2,9.4092645E-2,-4.0302508E-2,-3.764499E-2,1.5057303E-1,-1.1525079E-1,8.257719E-2,5.860712E-1,-8.733418E-2,7.6368876E-2,2.8574494E-1,-6.319095E-2,-4.8609722E-1,6.8901E-1,4.2880677E-2,1.30503075E-2,7.003046E-2,1.22331595E-2,-8.351354E-3,4.8666894E-3,-3.3112787E-2,1.9588275E-2,-2.1034384E-3,7.016384E-3,-7.2225602E-3,-1.9419903E-2,-6.5917104E-2,9.410924E-3,5.330902E-2,-5.103102E-4,1.8846242E-2],"categories":[],"categories_nodes":[],"categories_segments":[],"categories_sizes":[],"default_left":[0,0,0,0,0,0,0,0,0,0,0,0,0,0,0,0,0,0,0,0,0,0,0,0,0,0,0,0,0,0,0],"id":29,"left_children":[1,3,5,7,9,11,13,15,17,19,21,23,25,27,29,-1,-1,-1,-1,-1,-1,-1,-1,-1,-1,-1,-1,-1,-1,-1,-1],"loss_changes":[7.5392365E0,6.340572E0,7.552521E0,7.99402E0,5.9573555E0,9.79916E0,7.454324E0,4.6759567E0,6.3443503E0,6.045002E0,7.3463287E0,7.4231396E0,4.572073E0,3.39439E0,5.196984E0,0E0,0E0,0E0,0E0,0E0,0E0,0E0,0E0,0E0,0E0,0E0,0E0,0E0,0E0,0E0,0E0],"parents":[2147483647,0,0,1,1,2,2,3,3,4,4,5,5,6,6,7,7,8,8,9,9,10,10,11,11,12,12,13,13,14,14],"right_children":[2,4,6,8,10,12,14,16,18,20,22,24,26,28,30,-1,-1,-1,-1,-1,-1,-1,-1,-1,-1,-1,-1,-1,-1,-1,-1],"split_conditions":[5.692743E-5,-5E-1,2.1971783E-3,3.5733898E-4,6.7539536E-4,1.6566324E-3,2.3616187E-3,3.3699386E-4,1.4669987E1,5.541629E1,6.5230014E-4,-5E-1,4.296459E1,7.9445714E-1,8.660254E-1,1.30503075E-2,7.003046E-2,1.22331595E-2,-8.351354E-3,4.8666894E-3,-3.3112787E-2,1.9588275E-2,-2.1034384E-3,7.016384E-3,-7.2225602E-3,-1.9419903E-2,-6.5917104E-2,9.410924E-3,5.330902E-2,-5.103102E-4,1.8846242E-2],"split_indices":[8,15,3,5,5,3,3,5,13,7,0,15,12,10,14,0,0,0,0,0,0,0,0,0,0,0,0,0,0,0,0],"split_type":[0,0,0,0,0,0,0,0,0,0,0,0,0,0,0,0,0,0,0,0,0,0,0,0,0,0,0,0,0,0,0],"sum_hessian":[1.6684329E3,8.503977E2,8.180352E2,2.5528706E2,5.9511066E2,5.0815637E2,3.098788E2,1.8040583E1,2.3724648E2,3.852101E2,2.0990051E2,4.4662854E2,6.1527813E1,1.8033224E1,2.918456E2,1.38384E1,4.202182E0,4.5524246E1,1.9172223E2,3.7542245E2,9.787664E0,1.5845753E2,5.144298E1,1.2723583E2,3.1939273E2,5.6376347E1,5.1514645E0,8.391008E0,9.642216E0,2.5266162E2,3.918398E1],"tree_param":{"num_deleted":"0","num_feature":"18","num_nodes":"31","size_leaf_vector":"1"}},{"base_weights":[6.3111065E-3,7.706628E-2,-5.340159E-2,3.0552687E-2,2.6409277E-1,3.1679976E-3,-1.4393084E-1,7.447563E-2,-1.7427959E-1,3.4410083E-1,-3.8980103E-1,-5.624254E-2,1.4137255E-1,3.5961367E-2,-3.0299485E-1,2.8118787E-3,3.4528766E-2,-4.3789046E-3,-4.3967698E-2,4.010663E-2,1.35380095E-2,1.8789792E-2,-3.133939E-2,7.071147E-3,-6.466172E-3,-3.162667E-2,9.256673E-3,-4.730266E-3,1.49841355E-2,-4.2134248E-2,-1.1252749E-2],"categories":[],"categories_nodes":[],"categories_segments":[],"categories_sizes":[],"default_left":[0,0,0,0,0,0,0,0,0,0,0,0,0,0,0,0,0,0,0,0,0,0,0,0,0,0,0,0,0,0,0],"id":30,"left_children":[1,3,5,7,9,11,13,15,17,19,21,23,25,27,29,-1,-1,-1,-1,-1,-1,-1,-1,-1,-1,-1,-1,-1,-1,-1,-1],"loss_changes":[7.1525187E0,6.7319293E0,4.7025385E0,5.60539E0,8.200308E0,4.6556196E0,1.0115114E1,5.7203226E0,6.6507883E0,4.415285E0,3.3702414E0,5.7471786E0,5.889989E0,5.765035E0,7.697809E0,0E0,0E0,0E0,0E0,0E0,0E0,0E0,0E0,0E0,0E0,0E0,0E0,0E0,0E0,0E0,0E0],"parents":[2147483647,0,0,1,1,2,2,3,3,4,4,5,5,6,6,7,7,8,8,9,9,10,10,11,11,12,12,13,13,14,14],"right_children":[2,4,6,8,10,12,14,16,18,20,22,24,26,28,30,-1,-1,-1,-1,-1,-1,-1,-1,-1,-1,-1,-1,-1,-1,-1,-1],"split_conditions":[-1.0304494E-4,1.6125555E-3,5E-1,1.6302184E-3,2.819766E-3,2.7019766E-3,5.0885567E1,-1.0552388E-4,1.5098182E-3,-1.5925114E-3,1.4159073E-3,2.5174736E1,-9.856906E-4,5.808548E-4,-7.0710677E-1,2.8118787E-3,3.4528766E-2,-4.3789046E-3,-4.3967698E-2,4.010663E-2,1.35380095E-2,1.8789792E-2,-3.133939E-2,7.071147E-3,-6.466172E-3,-3.162667E-2,9.256673E-3,-4.730266E-3,1.49841355E-2,-4.2134248E-2,-1.1252749E-2],"split_indices":[0,11,15,3,11,4,7,0,11,8,5,13,3,5,14,0,0,0,0,0,0,0,0,0,0,0,0,0,0,0,0],"split_type":[0,0,0,0,0,0,0,0,0,0,0,0,0,0,0,0,0,0,0,0,0,0,0,0,0,0,0,0,0,0,0],"sum_hessian":[1.6909369E3,7.737771E2,9.171598E2,6.205975E2,1.5317958E2,5.650429E2,3.521169E2,5.1154205E2,1.0905546E2,1.3690247E2,1.627712E1,3.9558447E2,1.6945842E2,1.6560318E2,1.8651373E2,4.9789444E2,1.3647613E1,9.811471E1,1.0940744E1,1.7523914E1,1.1937855E2,3.7090695E0,1.256805E1,1.0652525E2,2.890592E2,8.349221E0,1.6110919E2,1.1119335E2,5.440983E1,2.2298319E1,1.6421542E2],"tree_param":{"num_deleted":"0","num_feature":"18","num_nodes":"31","size_leaf_vector":"1"}},{"base_weights":[2.1554317E-2,-2.1613957E-2,7.9879455E-2,-9.885868E-3,-4.8876587E-1,1.3766868E-1,-7.21263E-2,-9.6787316E-1,-4.3321797E-3,2.1124527E-2,-8.71487E-1,1.17365636E-1,5.683406E-1,5.3790593E-1,-1.1378255E-1,-1.0087667E-2,-6.716204E-2,3.8220134E-2,-5.64928E-4,6.7303024E-2,-1.6052948E-2,-1.2749064E-2,-6.4331695E-2,4.0737996E-3,1.874407E-2,3.687464E-2,-2.1437956E-2,-1.2464594E-2,5.520935E-2,3.6278937E-2,-7.1575767E-3],"categories":[],"categories_nodes":[],"categories_segments":[],"categories_sizes":[],"default_left":[0,0,0,0,0,0,0,0,0,0,0,0,0,0,0,0,0,0,0,0,0,0,0,0,0,0,0,0,0,0,0],"id":31,"left_children":[1,3,5,7,9,11,13,15,17,19,21,23,25,27,29,-1,-1,-1,-1,-1,-1,-1,-1,-1,-1,-1,-1,-1,-1,-1,-1],"loss_changes":[4.244618E0,5.3052063E0,6.3079524E0,5.031432E0,4.646419E0,4.4785395E0,5.0964723E0,1.2965379E0,5.0534935E0,5.4848905E0,3.1452618E0,4.5690327E0,4.219381E0,5.999159E0,4.696574E0,0E0,0E0,0E0,0E0,0E0,0E0,0E0,0E0,0E0,0E0,0E0,0E0,0E0,0E0,0E0,0E0],"parents":[2147483647,0,0,1,1,2,2,3,3,4,4,5,5,6,6,7,7,8,8,9,9,10,10,11,11,12,12,13,13,14,14],"right_children":[2,4,6,8,10,12,14,16,18,20,22,24,26,28,30,-1,-1,-1,-1,-1,-1,-1,-1,-1,-1,-1,-1,-1,-1,-1,-1],"split_conditions":[1.2867892E-3,1.2680356E-3,1.2253063E-3,-9.282177E-3,-2.3322267E-4,1.1704686E-3,-1.1620079E-2,-4.94086E-3,-1.9495967E-3,6.971935E-4,4.8284134E1,1.8707754E-3,2.712859E-3,-2.741824E-3,1.3186816E-3,-1.0087667E-2,-6.716204E-2,3.8220134E-2,-5.64928E-4,6.7303024E-2,-1.6052948E-2,-1.2749064E-2,-6.4331695E-2,4.0737996E-3,1.874407E-2,3.687464E-2,-2.1437956E-2,-1.2464594E-2,5.520935E-2,3.6278937E-2,-7.1575767E-3],"split_indices":[11,11,5,4,0,5,4,3,0,6,7,11,1,9,11,0,0,0,0,0,0,0,0,0,0,0,0,0,0,0,0],"split_type":[0,0,0,0,0,0,0,0,0,0,0,0,0,0,0,0,0,0,0,0,0,0,0,0,0,0,0,0,0,0,0],"sum_hessian":[1.6841611E3,9.6819727E2,7.159639E2,9.454816E2,2.2715641E1,5.188159E2,1.97148E2,4.450865E0,9.4103076E2,1.0144787E1,1.2570855E1,4.966739E2,2.2142036E1,1.1840313E1,1.8530768E2,1.9692128E0,2.4816523E0,7.4747095E0,9.335561E2,1.4800986E0,8.664688E0,5.7081995E0,6.862656E0,4.370756E2,5.9598293E1,1.9153172E1,2.988863E0,5.1880636E0,6.6522493E0,5.4632473E0,1.7984442E2],"tree_param":{"num_deleted":"0","num_feature":"18","num_nodes":"31","size_leaf_vector":"1"}},{"base_weights":[7.938386E-3,1.0992487E-1,-4.018864E-2,-3.894972E-1,1.312964E-1,-1.9888638E-1,-3.6374242E-3,9.171976E-1,-6.198243E-1,5.431207E-1,1.0870268E-1,7.260482E-1,-2.2798301E-1,4.8680106E-1,-1.4610953E-2,5.6090456E-2,1.8240657E-2,2.976348E-2,-3.958435E-2,5.113199E-2,7.834027E-3,-1.96E-2,6.628712E-3,1.0417037E-2,5.143423E-2,-5.5537846E-2,-1.0109601E-2,-7.107684E-3,5.6453366E-2,-3.612939E-3,3.2502338E-3],"categories":[],"categories_nodes":[],"categories_segments":[],"categories_sizes":[],"default_left":[0,0,0,0,0,0,0,0,0,0,0,0,0,0,0,0,0,0,0,0,0,0,0,0,0,0,0,0,0,0,0],"id":32,"left_children":[1,3,5,7,9,11,13,15,17,19,21,23,25,27,29,-1,-1,-1,-1,-1,-1,-1,-1,-1,-1,-1,-1,-1,-1,-1,-1],"loss_changes":[8.206141E0,5.7720237E0,6.588723E0,7.2642407E0,4.7304907E0,5.888282E0,4.9818263E0,1.3132334E-2,4.545591E0,4.754313E0,5.899458E0,8.3922625E-1,4.4864674E0,8.344177E0,4.1587734E0,0E0,0E0,0E0,0E0,0E0,0E0,0E0,0E0,0E0,0E0,0E0,0E0,0E0,0E0,0E0,0E0],"parents":[2147483647,0,0,1,1,2,2,3,3,4,4,5,5,6,6,7,7,8,8,9,9,10,10,11,11,12,12,13,13,14,14],"right_children":[2,4,6,8,10,12,14,16,18,20,22,24,26,28,30,-1,-1,-1,-1,-1,-1,-1,-1,-1,-1,-1,-1,-1,-1,-1,-1],"split_conditions":[4.437284E1,4.001413E0,-6.3509267E-4,1.9439995E1,7.0218125E-4,8.451236E0,-5.201841E-4,1.1801315E-3,-7.0710677E-1,-9.739934E-4,2.2016375E-4,1.079301E-3,-4.5298054E-3,7.0710677E-1,1.2824226E-3,5.6090456E-2,1.8240657E-2,2.976348E-2,-3.958435E-2,5.113199E-2,7.834027E-3,-1.96E-2,6.628712E-3,1.0417037E-2,5.143423E-2,-5.5537846E-2,-1.0109601E-2,-7.107684E-3,5.6453366E-2,-3.612939E-3,3.2502338E-3],"split_indices":[7,13,3,12,11,13,3,11,15,3,5,11,3,14,11,0,0,0,0,0,0,0,0,0,0,0,0,0,0,0,0],"split_type":[0,0,0,0,0,0,0,0,0,0,0,0,0,0,0,0,0,0,0,0,0,0,0,0,0,0,0,0,0,0,0],"sum_hessian":[1.6699886E3,5.349938E2,1.1349949E3,2.1247402E1,5.1374634E2,2.1164317E2,9.2335175E2,2.7370996E0,1.8510302E1,2.5521303E1,4.8822507E2,5.7242913E0,2.0591888E2,1.9258812E1,9.040929E2,1.2450618E0,1.4920379E0,1.9883994E0,1.6521902E1,1.0654378E1,1.4866926E1,2.1515669E1,4.6670938E2,2.7346537E0,2.9896376E0,4.651171E0,2.012677E2,1.0123651E1,9.13516E0,5.244461E2,3.7964682E2],"tree_param":{"num_deleted":"0","num_feature":"18","num_nodes":"31","size_leaf_vector":"1"}},{"base_weights":[1.3823036E-2,1.7486401E-1,-1.013173E-2,4.6366337E-1,5.6652267E-2,3.1501332E-1,-2.0563865E-2,3.4752488E-3,6.051919E-1,2.5353558E-2,1.0504904E0,-3.261336E-1,4.96368E-1,1.35275265E-2,-9.9203244E-2,-1.3938288E-2,4.977951E-2,3.4433987E-2,-2.1706052E-2,5.433563E-3,-1.9513948E-2,7.243624E-2,5.4260446E-3,1.5229282E-2,-6.8447664E-2,-2.7025158E-2,2.9874224E-2,-3.3951813E-4,2.1500343E-2,-3.9921016E-2,-3.9810534E-3],"categories":[],"categories_nodes":[],"categories_segments":[],"categories_sizes":[],"default_left":[0,0,0,0,0,0,0,0,0,0,0,0,0,0,0,0,0,0,0,0,0,0,0,0,0,0,0,0,0,0,0],"id":33,"left_children":[1,3,5,7,9,11,13,15,17,19,21,23,25,27,29,-1,-1,-1,-1,-1,-1,-1,-1,-1,-1,-1,-1,-1,-1,-1,-1],"loss_changes":[6.49015E0,7.410841E0,4.9759836E0,4.109627E0,4.816966E0,5.464787E0,3.8095393E0,4.7171187E0,4.4879284E0,5.305551E0,1.6168966E0,7.4279013E0,4.0918217E0,8.39539E0,5.8198647E0,0E0,0E0,0E0,0E0,0E0,0E0,0E0,0E0,0E0,0E0,0E0,0E0,0E0,0E0,0E0,0E0],"parents":[2147483647,0,0,1,1,2,2,3,3,4,4,5,5,6,6,7,7,8,8,9,9,10,10,11,11,12,12,13,13,14,14],"right_children":[2,4,6,8,10,12,14,16,18,20,22,24,26,28,30,-1,-1,-1,-1,-1,-1,-1,-1,-1,-1,-1,-1,-1,-1,-1,-1],"split_conditions":[-8.660254E-1,5.645506E-4,-1.9338721E-3,1.7197945E1,8.705137E-3,-2.5881904E-1,5.668999E-4,4.900967E-4,1.0906332E0,3.0659847E-3,1.1346142E-2,1.554783E-3,1.0898219E-3,6.3720013E1,5.8796455E-4,-1.3938288E-2,4.977951E-2,3.4433987E-2,-2.1706052E-2,5.433563E-3,-1.9513948E-2,7.243624E-2,5.4260446E-3,1.5229282E-2,-6.8447664E-2,-2.7025158E-2,2.9874224E-2,-3.3951813E-4,2.1500343E-2,-3.9921016E-2,-3.9810534E-3],"split_indices":[15,5,9,12,3,15,9,5,10,3,4,5,11,7,9,0,0,0,0,0,0,0,0,0,0,0,0,0,0,0,0],"split_type":[0,0,0,0,0,0,0,0,0,0,0,0,0,0,0,0,0,0,0,0,0,0,0,0,0,0,0,0,0,0,0],"sum_hessian":[1.6809297E3,2.1684483E2,1.464085E3,6.213136E1,1.5471347E2,4.4606583E1,1.4194784E3,1.4854773E1,4.7276585E1,1.5098407E2,3.729395E0,9.659353E0,3.494723E1,9.9078546E2,4.286929E2,1.2124549E1,2.730224E0,4.4073536E1,3.2030494E0,1.2638706E2,2.4597013E1,2.2431068E0,1.4862881E0,6.4600816E0,3.199272E0,2.7191463E0,3.2228085E1,9.456364E2,4.5149048E1,1.0595308E1,4.180976E2],"tree_param":{"num_deleted":"0","num_feature":"18","num_nodes":"31","size_leaf_vector":"1"}}]},"name":"gbtree"},"learner_model_param":{"base_score":"[4.5777306E-1]","boost_from_average":"1","num_class":"0","num_feature":"18","num_target":"1"},"objective":{"name":"binary:logistic","reg_loss_param":{"scale_pos_weight":"1"}}},"version":[3,2,0]}