{"learner":{"attributes":{"best_iteration":"0","best_score":"0.6905136234365326","scikit_learn":"{\"_estimator_type\": \"classifier\"}"},"feature_names":["log_return_1h","log_return_3h","log_return_6h","log_return_12h","log_return_24h","vol_6h","vol_24h","rsi_14","macd_line","macd_signal","bbp_20","atr_14","adx_14","stoch_k","hour_sin","hour_cos","london_session","ny_session"],"feature_types":["float","float","float","float","float","float","float","float","float","float","float","float","float","float","float","float","int","int"],"gradient_booster":{"model":{"cats":{"enc":[],"feature_segments":[],"sorted_idx":[]},"gbtree_model_param":{"num_parallel_tree":"1","num_trees":"31"},"iteration_indptr":[0,1,2,3,4,5,6,7,8,9,10,11,12,13,14,15,16,17,18,19,20,21,22,23,24,25,26,27,28,29,30,31],"tree_info":[0,0,0,0,0,0,0,0,0,0,0,0,0,0,0,0,0,0,0,0,0,0,0,0,0,0,0,0,0,0,0],"trees":[{"base_weights":[8.007613E-3,3.2460076E-1,-3.9528582E-2,2.0499393E-1,5.911921E-1,-1.2352457E-1,8.127253E-2,2.3978631E-1,-7.754493E-1,8.3693033E-1,2.6350898E-1,-1.0237133E-1,-4.5293096E-1,4.4027784E-1,4.225332E-2,2.0769654E-2,3.0187217E-3,-5.856846E-2,1.5864722E-2,6.737895E-2,2.8698063E-2,1.4110837E-3,4.1099023E-2,-2.644199E-2,-4.2846496E-3,2.6908183E-2,-2.734002E-2,2.9079843E-2,-1.4424366E-2,8.115819E-3,-4.2843567E-3],"categories":[],"categories_nodes":[],"categories_segments":[],"categories_sizes":[],"default_left":[0,0,0,0,0,0,0,0,0,0,0,0,0,0,0,0,0,0,0,0,0,0,0,0,0,0,0,0,0,0,0],"id":0,"left_children":[1,3,5,7,9,11,13,15,17,19,21,23,25,27,29,-1,-1,-1,-1,-1,-1,-1,-1,-1,-1,-1,-1,-1,-1,-1,-1],"loss_changes":[2.5239353E1,6.859808E0,1.4806992E1,5.393507E0,5.196663E0,5.9501486E0,8.368164E0,4.6438847E0,2.7373042E0,4.327276E0,3.9569051E0,5.71562E0,5.0981846E0,6.2015133E0,8.326037E0,0E0,0E0,0E0,0E0,0E0,0E0,0E0,0E0,0E0,0E0,0E0,0E0,0E0,0E0,0E0,0E0],"parents":[2147483647,0,0,1,1,2,2,3,3,4,4,5,5,6,6,7,7,8,8,9,9,10,10,11,11,12,12,13,13,14,14],"right_children":[2,4,6,8,10,12,14,16,18,20,22,24,26,28,30,-1,-1,-1,-1,-1,-1,-1,-1,-1,-1,-1,-1,-1,-1,-1,-1],"split_conditions":[1.5115211E1,1.4215882E-3,6.781854E-4,1.2103751E-3,1.0625874E1,9.330286E1,2.1666447E1,-1.0892847E-4,2.9203001E1,8.545503E-4,1.3756773E1,1.7615503E1,-3.2104074E-4,1.8521969E-3,1E0,2.0769654E-2,3.0187217E-3,-5.856846E-2,1.5864722E-2,6.737895E-2,2.8698063E-2,1.4110837E-3,4.1099023E-2,-2.644199E-2,-4.2846496E-3,2.6908183E-2,-2.734002E-2,2.9079843E-2,-1.4424366E-2,8.115819E-3,-4.2843567E-3],"split_indices":[13,11,5,5,13,13,13,0,12,5,13,13,0,11,16,0,0,0,0,0,0,0,0,0,0,0,0,0,0,0,0],"split_type":[0,0,0,0,0,0,0,0,0,0,0,0,0,0,0,0,0,0,0,0,0,0,0,0,0,0,0,0,0,0,0],"sum_hessian":[1.6752216E3,2.1793518E2,1.4572864E3,1.5166104E2,6.627414E1,8.5957806E2,5.977083E2,1.4719313E2,4.4679193E0,3.6984444E1,2.9289694E1,8.0894165E2,5.063642E1,5.7586517E1,5.401218E2,7.372067E1,7.347245E1,3.2268307E0,1.2410887E0,1.1169799E1,2.5814646E1,2.1346725E1,7.942968E0,2.9289694E1,7.796519E2,3.971484E0,4.6664936E1,4.8402462E1,9.184056E0,2.785003E2,2.616215E2],"tree_param":{"num_deleted":"0","num_feature":"18","num_nodes":"31","size_leaf_vector":"1"}},{"base_weights":[-1.7864516E-2,2.736768E-1,-5.7254557E-2,1.7580241E-1,6.648154E-1,-1.3728583E-1,5.7316087E-2,-1.5554878E-1,3.0561194E-1,7.844415E-1,-2.3380834E-1,-1.2176341E-1,-8.1989163E-1,1.907597E-2,4.2318287E-1,4.8995214E-3,-2.5748624E-2,5.635893E-2,1.2281322E-2,2.5357012E-2,6.538453E-2,-3.1699568E-2,2.4994623E-2,1.8318279E-2,-6.969865E-3,-5.1832803E-2,6.664717E-3,-5.5438865E-2,1.4842643E-3,3.0893346E-2,1.9563516E-3],"categories":[],"categories_nodes":[],"categories_segments":[],"categories_sizes":[],"default_left":[0,0,0,0,0,0,0,0,0,0,0,0,0,0,0,0,0,0,0,0,0,0,0,0,0,0,0,0,0,0,0],"id":1,"left_children":[1,3,5,7,9,11,13,15,17,19,21,23,25,27,29,-1,-1,-1,-1,-1,-1,-1,-1,-1,-1,-1,-1,-1,-1,-1,-1],"loss_changes":[1.9458666E1,7.6045513E0,1.3691856E1,7.045114E0,4.4843693E0,9.212978E0,8.588657E0,4.283951E0,5.500494E0,4.4933796E0,1.9232234E0,7.4584017E0,4.1399107E0,6.702127E0,4.319787E0,0E0,0E0,0E0,0E0,0E0,0E0,0E0,0E0,0E0,0E0,0E0,0E0,0E0,0E0,0E0,0E0],"parents":[2147483647,0,0,1,1,2,2,3,3,4,4,5,5,6,6,7,7,8,8,9,9,10,10,11,11,12,12,13,13,14,14],"right_children":[2,4,6,8,10,12,14,16,18,20,22,24,26,28,30,-1,-1,-1,-1,-1,-1,-1,-1,-1,-1,-1,-1,-1,-1,-1,-1],"split_conditions":[9.158937E-2,3.0955212E1,1.2946704E-3,-1.0410062E-1,4.5240868E-4,1.2096668E-3,9.659258E-1,-2.8092833E-3,7.3971495E-4,-2.3542368E-3,4.1195686E1,-9.659258E-1,3.2227978E-4,9.944757E0,1.3827098E-3,4.8995214E-3,-2.5748624E-2,5.635893E-2,1.2281322E-2,2.5357012E-2,6.538453E-2,-3.1699568E-2,2.4994623E-2,1.8318279E-2,-6.969865E-3,-5.1832803E-2,6.664717E-3,-5.5438865E-2,1.4842643E-3,3.0893346E-2,1.9563516E-3],"split_indices":[10,12,11,10,8,6,14,3,11,2,12,15,0,12,2,0,0,0,0,0,0,0,0,0,0,0,0,0,0,0,0],"split_type":[0,0,0,0,0,0,0,0,0,0,0,0,0,0,0,0,0,0,0,0,0,0,0,0,0,0,0,0,0,0,0],"sum_hessian":[1.6920767E3,2.0069624E2,1.4913805E3,1.6168689E2,3.900936E1,8.77924E2,6.134564E2,4.5456516E1,1.1623037E2,3.4538597E1,4.4707637E0,8.5955615E2,1.8367886E1,5.563584E2,5.709802E1,2.708089E1,1.8375626E1,6.698351E0,1.0953202E2,2.3861933E1,1.0676665E1,2.9808276E0,1.489936E0,2.9279696E1,8.302765E2,1.4893402E1,3.4744828E0,4.2200894E0,5.521383E2,3.7486645E1,1.9611376E1],"tree_param":{"num_deleted":"0","num_feature":"18","num_nodes":"31","size_leaf_vector":"1"}},{"base_weights":[-8.907472E-3,1.4107722E-1,-7.763645E-2,1.2166633E-1,1.2516876E0,-1.5293895E-1,3.0048307E-2,4.3837345E-1,6.254753E-2,5.75164E-1,7.880376E-2,-4.2373706E-2,-2.3716335E-1,4.7810905E-2,-7.841208E-1,2.9166305E-2,-5.0190664E-3,-1.5252112E-2,4.7954395E-3,-6.613576E-3,4.4381414E-2,-2.2192633E-2,1.1680116E-3,1.4572352E-2,-1.331797E-2,1.763544E-2,1.0994333E-3,1.5566078E-2,-4.8550755E-2],"categories":[],"categories_nodes":[],"categories_segments":[],"categories_sizes":[],"default_left":[0,0,0,0,0,0,0,0,0,0,0,0,0,0,0,0,0,0,0,0,0,0,0,0,0,0,0,0,0],"id":2,"left_children":[1,3,5,7,9,11,13,15,17,19,-1,21,23,25,27,-1,-1,-1,-1,-1,-1,-1,-1,-1,-1,-1,-1,-1,-1],"loss_changes":[1.7302551E1,1.1219059E1,9.337706E0,9.699831E0,1.0583029E0,6.298913E0,6.8992906E0,6.4276457E0,5.4124403E0,1.1068776E0,0E0,7.7733274E0,6.0091763E0,3.6555474E0,2.3881226E0,0E0,0E0,0E0,0E0,0E0,0E0,0E0,0E0,0E0,0E0,0E0,0E0,0E0,0E0],"parents":[2147483647,0,0,1,1,2,2,3,3,4,4,5,5,6,6,7,7,8,8,9,9,11,11,12,12,13,13,14,14],"right_children":[2,4,6,8,10,12,14,16,18,20,-1,22,24,26,28,-1,-1,-1,-1,-1,-1,-1,-1,-1,-1,-1,-1,-1,-1],"split_conditions":[4.437284E1,1.142859E-3,1.3031842E-3,-4.94086E-3,3.7187198E-4,-1.8369701E-16,3.6245312E-3,1.04757804E-4,-6.9463444E-3,1.9960718E1,7.880376E-2,-7.6018396E-4,-1.2478799E-3,-1.814883E-3,-4.5653833E-3,2.9166305E-2,-5.0190664E-3,-1.5252112E-2,4.7954395E-3,-6.613576E-3,4.4381414E-2,-2.2192633E-2,1.1680116E-3,1.4572352E-2,-1.331797E-2,1.763544E-2,1.0994333E-3,1.5566078E-2,-4.8550755E-2],"split_indices":[7,4,11,3,9,15,11,1,4,12,0,3,2,1,1,0,0,0,0,0,0,0,0,0,0,0,0,0,0],"split_type":[0,0,0,0,0,0,0,0,0,0,0,0,0,0,0,0,0,0,0,0,0,0,0,0,0,0,0,0,0],"sum_hessian":[1.676445E3,5.264783E2,1.1499667E3,5.185252E2,7.95307E0,6.764877E2,4.7347894E2,8.05568E1,4.379684E2,3.4762607E0,4.4768095E0,2.9315405E2,3.8333365E2,4.6429086E2,9.188084E0,6.3412785E1,1.7144018E1,3.576372E1,4.0220468E2,1.2416905E0,2.2345703E0,4.043564E1,2.5271841E2,1.9593851E1,3.637398E2,3.526288E1,4.2902798E2,1.2420863E0,7.9459977E0],"tree_param":{"num_deleted":"0","num_feature":"18","num_nodes":"29","size_leaf_vector":"1"}},{"base_weights":[6.6620773E-3,1.529225E-1,-6.0986076E-2,7.979801E-2,4.148714E-1,-1.4618552E-1,8.590816E-2,6.0063176E-2,1.0845383E0,1.6130134E-1,7.078495E-1,6.3205844E-1,-1.7029269E-1,-6.958933E-2,1.8935356E-1,3.289446E-2,1.5934164E-3,7.355028E-2,-1.7667172E-2,1.2211539E-2,-5.693675E-2,4.11177E-2,-8.690078E-3,5.5670347E-2,1.750688E-2,-1.9450024E-3,-1.2604239E-2,-4.5167763E-2,-1.0196147E-3,1.7988113E-3,1.8282687E-2],"categories":[],"categories_nodes":[],"categories_segments":[],"categories_sizes":[],"default_left":[0,0,0,0,0,0,0,0,0,0,0,0,0,0,0,0,0,0,0,0,0,0,0,0,0,0,0,0,0,0,0],"id":3,"left_children":[1,3,5,7,9,11,13,15,17,19,21,23,25,27,29,-1,-1,-1,-1,-1,-1,-1,-1,-1,-1,-1,-1,-1,-1,-1,-1],"loss_changes":[1.6651083E1,1.0161169E1,1.4414678E1,8.209161E0,8.496582E0,1.3778913E1,6.818363E0,6.8951626E0,4.9541483E0,7.1162696E0,5.541851E0,2.6100445E0,7.5945873E0,6.9441667E0,6.8638287E0,0E0,0E0,0E0,0E0,0E0,0E0,0E0,0E0,0E0,0E0,0E0,0E0,0E0,0E0,0E0,0E0],"parents":[2147483647,0,0,1,1,2,2,3,3,4,4,5,5,6,6,7,7,8,8,9,9,10,10,11,11,12,12,13,13,14,14],"right_children":[2,4,6,8,10,12,14,16,18,20,22,24,26,28,30,-1,-1,-1,-1,-1,-1,-1,-1,-1,-1,-1,-1,-1,-1,-1,-1],"split_conditions":[4.437284E1,1.5439967E-3,7.1098417E-4,8.6934376E-4,6.123234E-17,-9.659258E-1,-5E-1,-5.8746636E-3,2.4352747E-3,4.4047302E1,2.1062836E-3,-1.1021968E-4,-1.0399794E-4,-1.9909278E-3,2.2012547E-3,3.289446E-2,1.5934164E-3,7.355028E-2,-1.7667172E-2,1.2211539E-2,-5.693675E-2,4.11177E-2,-8.690078E-3,5.5670347E-2,1.750688E-2,-1.9450024E-3,-1.2604239E-2,-4.5167763E-2,-1.0196147E-3,1.7988113E-3,1.8282687E-2],"split_indices":[7,11,5,4,15,15,15,3,4,7,5,0,0,3,3,0,0,0,0,0,0,0,0,0,0,0,0,0,0,0,0],"split_type":[0,0,0,0,0,0,0,0,0,0,0,0,0,0,0,0,0,0,0,0,0,0,0,0,0,0,0,0,0,0,0],"sum_hessian":[1.6809629E3,5.3120245E2,1.1497605E3,4.1629584E2,1.1490665E2,7.276971E2,4.220634E2,4.0931595E2,6.979892E0,6.242709E1,5.2479557E1,2.110643E1,7.0659064E2,1.6874133E2,2.5332204E2,1.7428984E1,3.9188696E2,5.4831266E0,1.4967651E0,5.944709E1,2.98E0,4.6506744E1,5.9728136E0,6.7064877E0,1.4399943E1,2.7166217E2,4.3492847E2,8.434573E0,1.6030676E2,1.3611179E2,1.1721024E2],"tree_param":{"num_deleted":"0","num_feature":"18","num_nodes":"31","size_leaf_vector":"1"}},{"base_weights":[5.3243856E-3,3.0106926E-1,-3.8776353E-2,1.660638E-1,6.229652E-1,-8.840413E-2,8.5158944E-2,-4.366523E-1,3.1998417E-1,-4.7144148E-1,7.129629E-1,-6.733266E-2,-3.5864288E-1,2.2125028E-1,-8.52963E-2,-3.3088569E-3,-4.2935308E-2,9.772377E-3,3.9682347E-2,-4.73331E-2,3.5530066E-3,3.9115332E-2,-2.1800152E-3,-3.821142E-3,4.0080037E-2,-1.4371163E-2,-7.138641E-2,2.9319411E-2,6.8865404E-3,-3.503632E-2,-2.158221E-3],"categories":[],"categories_nodes":[],"categories_segments":[],"categories_sizes":[],"default_left":[0,0,0,0,0,0,0,0,0,0,0,0,0,0,0,0,0,0,0,0,0,0,0,0,0,0,0,0,0,0,0],"id":4,"left_children":[1,3,5,7,9,11,13,15,17,19,21,23,25,27,29,-1,-1,-1,-1,-1,-1,-1,-1,-1,-1,-1,-1,-1,-1,-1,-1],"loss_changes":[2.2005445E1,9.411226E0,9.038907E0,1.4575862E1,6.672184E0,5.949195E0,9.770322E0,4.9589887E0,7.1908894E0,1.4826518E0,3.1734505E0,7.75744E0,5.3493547E0,7.056038E0,4.827426E0,0E0,0E0,0E0,0E0,0E0,0E0,0E0,0E0,0E0,0E0,0E0,0E0,0E0,0E0,0E0,0E0],"parents":[2147483647,0,0,1,1,2,2,3,3,4,4,5,5,6,6,7,7,8,8,9,9,10,10,11,11,12,12,13,13,14,14],"right_children":[2,4,6,8,10,12,14,16,18,20,22,24,26,28,30,-1,-1,-1,-1,-1,-1,-1,-1,-1,-1,-1,-1,-1,-1,-1,-1],"split_conditions":[1.5115211E1,1.4315483E-3,8.4669207E-4,-1.2928781E-3,-2.2828314E-3,9.152995E-4,1.2251491E-3,-3.4492655E-4,1.31697645E1,8.04212E0,4.447326E1,2.2611835E-3,7.468612E1,-8.660254E-1,-2.0332127E-3,-3.3088569E-3,-4.2935308E-2,9.772377E-3,3.9682347E-2,-4.73331E-2,3.5530066E-3,3.9115332E-2,-2.1800152E-3,-3.821142E-3,4.0080037E-2,-1.4371163E-2,-7.138641E-2,2.9319411E-2,6.8865404E-3,-3.503632E-2,-2.158221E-3],"split_indices":[13,11,5,8,0,0,5,1,13,13,7,9,7,14,8,0,0,0,0,0,0,0,0,0,0,0,0,0,0,0,0],"split_type":[0,0,0,0,0,0,0,0,0,0,0,0,0,0,0,0,0,0,0,0,0,0,0,0,0,0,0,0,0,0,0],"sum_hessian":[1.685307E3,2.1794106E2,1.467366E3,1.546117E2,6.3329357E1,1.0479993E3,4.193667E2,3.1078539E1,1.2353316E2,4.4900656E0,5.883929E1,9.7335266E2,7.464656E1,2.3302316E2,1.8634352E2,1.7166626E1,1.3911914E1,9.893385E1,2.459931E1,1.9963284E0,2.493737E0,5.3867935E1,4.9713573E0,9.6417816E2,9.174518E0,7.117399E1,3.4725726E0,4.2257416E1,1.9076575E2,1.0937994E1,1.7540553E2],"tree_param":{"num_deleted":"0","num_feature":"18","num_nodes":"31","size_leaf_vector":"1"}},{"base_weights":[1.0258201E-2,1.0800614E-1,-7.643243E-2,1.0338532E0,9.879342E-2,-3.2409546E-1,-2.6385684E-2,-9.86555E-3,1.3014137E0,1.8455385E-1,2.3483017E-2,1.0081727E-1,-4.1133827E-1,2.7509862E-1,-6.141779E-2,8.177828E-2,1.2471793E-2,5.7963748E-3,2.5969816E-2,-1.467245E-2,3.448372E-3,-1.257233E-2,3.6969014E-2,1.7256334E-2,-2.2849193E-2,4.8518344E-3,5.3723317E-2,1.6835704E-2,-4.5711068E-3],"categories":[],"categories_nodes":[],"categories_segments":[],"categories_sizes":[],"default_left":[0,0,0,0,0,0,0,0,0,0,0,0,0,0,0,0,0,0,0,0,0,0,0,0,0,0,0,0,0],"id":5,"left_children":[1,3,5,7,9,11,13,-1,15,17,19,21,23,25,27,-1,-1,-1,-1,-1,-1,-1,-1,-1,-1,-1,-1,-1,-1],"loss_changes":[1.43488245E1,6.6861544E0,1.11154995E1,2.8049526E0,5.0923066E0,5.6310997E0,7.913816E0,0E0,1.8720608E0,8.41479E0,6.0935235E0,6.144251E0,4.4840717E0,1.1000817E1,8.042509E0,0E0,0E0,0E0,0E0,0E0,0E0,0E0,0E0,0E0,0E0,0E0,0E0,0E0,0E0],"parents":[2147483647,0,0,1,1,2,2,3,3,4,4,5,5,6,6,8,8,9,9,10,10,11,11,12,12,13,13,14,14],"right_children":[2,4,6,8,10,12,14,-1,16,18,20,22,24,26,28,-1,-1,-1,-1,-1,-1,-1,-1,-1,-1,-1,-1,-1,-1],"split_conditions":[0E0,-3.264669E-3,5.165146E-4,1.9148125E1,4.437284E1,2.0957687E-4,5.891196E-4,-9.86555E-3,2.7938929E1,-1.6493467E-4,4.626533E1,4.514811E-4,-1.6335294E-3,1.8188367E-3,-1.5925114E-3,8.177828E-2,1.2471793E-2,5.7963748E-3,2.5969816E-2,-1.467245E-2,3.448372E-3,-1.257233E-2,3.6969014E-2,1.7256334E-2,-2.2849193E-2,4.8518344E-3,5.3723317E-2,1.6835704E-2,-4.5711068E-3],"split_indices":[1,8,6,7,7,5,6,0,7,8,7,6,3,2,8,0,0,0,0,0,0,0,0,0,0,0,0,0,0],"split_type":[0,0,0,0,0,0,0,0,0,0,0,0,0,0,0,0,0,0,0,0,0,0,0,0,0,0,0,0,0],"sum_hessian":[1.6913362E3,7.948537E2,8.964824E2,6.735534E0,7.8811816E2,1.4978339E2,7.4669904E2,1.2493373E0,5.4861965E0,3.6781488E2,4.2030328E2,2.5488245E1,1.24295135E2,7.7019646E1,6.696794E2,3.7426295E0,1.7435673E0,3.0637018E2,6.1444717E1,5.2065212E1,3.6823807E2,1.6817234E1,8.671012E0,6.6998835E0,1.1759525E2,6.3905796E1,1.3113845E1,4.6215626E1,6.2346375E2],"tree_param":{"num_deleted":"0","num_feature":"18","num_nodes":"29","size_leaf_vector":"1"}},{"base_weights":[1.023026E-2,2.671994E-1,-2.8742995E-2,1.4381565E-1,5.587984E-1,-8.4603265E-2,9.390913E-2,-2.7196166E-1,2.4151032E-1,6.607337E-1,-2.2939378E-1,-1.3768337E-3,-2.1551967E-1,3.6650693E-1,5.1901776E-2,-5.215917E-2,1.2617236E-3,5.6256894E-3,3.6825493E-2,6.143569E-3,4.0628348E-2,-5.5999406E-2,2.0921344E-2,-5.3621302E-3,4.7374056E-3,-7.5184926E-3,-2.3897763E-2,4.8134942E-4,3.631166E-2,-9.917091E-3,6.7912303E-3],"categories":[],"categories_nodes":[],"categories_segments":[],"categories_sizes":[],"default_left":[0,0,0,0,0,0,0,0,0,0,0,0,0,0,0,0,0,0,0,0,0,0,0,0,0,0,0,0,0,0,0],"id":6,"left_children":[1,3,5,7,9,11,13,15,17,19,21,23,25,27,29,-1,-1,-1,-1,-1,-1,-1,-1,-1,-1,-1,-1,-1,-1,-1,-1],"loss_changes":[1.6818897E1,7.876567E0,1.00004015E1,6.4327025E0,5.4067974E0,1.0923763E1,5.2124906E0,6.9698005E0,8.05555E0,4.6511097E0,5.2184696E0,6.2579083E0,6.590294E0,7.8031187E0,8.364815E0,0E0,0E0,0E0,0E0,0E0,0E0,0E0,0E0,0E0,0E0,0E0,0E0,0E0,0E0,0E0,0E0],"parents":[2147483647,0,0,1,1,2,2,3,3,4,4,5,5,6,6,7,7,8,8,9,9,10,10,11,11,12,12,13,13,14,14],"right_children":[2,4,6,8,10,12,14,16,18,20,22,24,26,28,30,-1,-1,-1,-1,-1,-1,-1,-1,-1,-1,-1,-1,-1,-1,-1,-1],"split_conditions":[1.5115211E1,1.4315483E-3,1.416916E-3,-1.335653E-3,1.04757804E-4,5E-1,1.5532516E1,5.1881876E0,1.31697645E1,-8.660254E-1,1.2096668E-3,5.230851E1,3.3589504E1,4.6781506E1,2.1723593E1,-5.215917E-2,1.2617236E-3,5.6256894E-3,3.6825493E-2,6.143569E-3,4.0628348E-2,-5.5999406E-2,2.0921344E-2,-5.3621302E-3,4.7374056E-3,-7.5184926E-3,-2.3897763E-2,4.8134942E-4,3.631166E-2,-9.917091E-3,6.7912303E-3],"split_indices":[13,11,11,8,1,15,12,13,13,14,6,13,12,13,12,0,0,0,0,0,0,0,0,0,0,0,0,0,0,0,0],"split_type":[0,0,0,0,0,0,0,0,0,0,0,0,0,0,0,0,0,0,0,0,0,0,0,0,0,0,0,0,0,0,0],"sum_hessian":[1.6776163E3,2.201575E2,1.4574587E3,1.5574893E2,6.440858E1,1.00160254E3,4.5585626E2,2.9293856E1,1.2645507E2,5.7175846E1,7.2327313E0,6.129483E2,3.886542E2,5.983632E1,3.9601996E2,7.4502993E0,2.1843555E1,1.0128704E2,2.5168032E1,1.2985292E1,4.4190556E1,2.7387574E0,4.4939737E0,2.9163965E2,3.2130865E2,3.1261923E2,7.603496E1,3.0552412E1,2.9283907E1,9.911438E1,2.9690558E2],"tree_param":{"num_deleted":"0","num_feature":"18","num_nodes":"31","size_leaf_vector":"1"}},{"base_weights":[6.800742E-3,1.07040435E-1,-6.283092E-2,4.3161196E-1,5.0902657E-2,-1.3282058E-1,1.017003E-1,3.5790685E-1,1.2826355E0,2.925699E-1,1.3691234E-2,-1.591668E-1,1.8180363E-1,-5.457325E-2,1.11357726E-1,8.519943E-3,3.262983E-2,7.937431E-2,-8.481502E-3,1.3518248E-3,3.9558895E-2,-2.894795E-2,1.9827283E-3,-8.599329E-3,4.819481E-2,3.7972555E-2,1.0018959E-3,2.6510138E-2,3.8028334E-3],"categories":[],"categories_nodes":[],"categories_segments":[],"categories_sizes":[],"default_left":[0,0,0,0,0,0,0,0,0,0,0,0,0,0,0,0,0,0,0,0,0,0,0,0,0,0,0,0,0],"id":7,"left_children":[1,3,5,7,9,11,13,15,17,19,21,23,25,-1,27,-1,-1,-1,-1,-1,-1,-1,-1,-1,-1,-1,-1,-1,-1],"loss_changes":[1.1788909E1,1.2592344E1,1.1491231E1,5.935774E0,5.3139215E0,5.8288307E0,3.5556521E0,5.14989E0,3.695485E0,1.0419016E1,7.924244E0,9.468882E0,5.0803704E0,0E0,4.344205E0,0E0,0E0,0E0,0E0,0E0,0E0,0E0,0E0,0E0,0E0,0E0,0E0,0E0,0E0],"parents":[2147483647,0,0,1,1,2,2,3,3,4,4,5,5,6,6,7,7,8,8,9,9,10,10,11,11,12,12,14,14],"right_children":[2,4,6,8,10,12,14,16,18,20,22,24,26,-1,28,-1,-1,-1,-1,-1,-1,-1,-1,-1,-1,-1,-1,-1,-1],"split_conditions":[-1.0934992E-4,1.4046119E1,1.4215882E-3,1.3506962E1,-1.814883E-3,1.7307211E-3,9.944757E0,1E0,1.9053677E-4,4.4716595E1,1.7615503E1,1.1566765E0,5.8980297E1,-5.457325E-2,1.4259662E1,8.519943E-3,3.262983E-2,7.937431E-2,-8.481502E-3,1.3518248E-3,3.9558895E-2,-2.894795E-2,1.9827283E-3,-8.599329E-3,4.819481E-2,3.7972555E-2,1.0018959E-3,2.6510138E-2,3.8028334E-3],"split_indices":[0,13,11,13,1,1,12,17,9,13,13,10,13,0,12,0,0,0,0,0,0,0,0,0,0,0,0,0,0],"split_type":[0,0,0,0,0,0,0,0,0,0,0,0,0,0,0,0,0,0,0,0,0,0,0,0,0,0,0,0,0],"sum_hessian":[1.6870267E3,6.9130585E2,9.957208E2,1.00950775E2,5.903551E2,6.986963E2,2.9702454E2,9.4211876E1,6.738902E0,7.785678E1,5.124983E2,6.451651E2,5.353119E1,1.4854107E0,2.9553912E2,5.8541046E1,3.567083E1,5.4927807E0,1.2461215E0,5.149002E1,2.6366758E1,2.0615725E1,4.9188257E2,6.3872095E2,6.4441433E0,1.0903005E1,4.2628185E1,2.18827E1,2.7365643E2],"tree_param":{"num_deleted":"0","num_feature":"18","num_nodes":"29","size_leaf_vector":"1"}},{"base_weights":[7.615562E-3,2.4039952E-1,-2.720695E-2,-2.7236062E-1,3.1014755E-1,-6.5475754E-2,9.547117E-2,-4.67837E-1,5.849278E-2,6.43675E-1,2.0394489E-1,-4.430066E-2,-2.4937655E-1,-3.0109668E-1,1.3510247E-1,3.884755E-2,-2.916499E-2,3.465367E-2,-3.177667E-2,-2.3396308E-2,1.5642213E-2,-2.4726146E-3,5.945477E-2,-5.19354E-2,-7.0206965E-3,6.5915748E-3,-4.0431056E-2,1.7200757E-2,1.3691883E-3],"categories":[],"categories_nodes":[],"categories_segments":[],"categories_sizes":[],"default_left":[0,0,0,0,0,0,0,0,0,0,0,0,0,0,0,0,0,0,0,0,0,0,0,0,0,0,0,0,0],"id":8,"left_children":[1,3,5,7,9,11,13,15,-1,17,19,21,23,25,27,-1,-1,-1,-1,-1,-1,-1,-1,-1,-1,-1,-1,-1,-1],"loss_changes":[1.3702464E1,7.9511013E0,6.910431E0,8.122416E0,6.7436695E0,4.3563547E0,5.5427094E0,3.95681E0,0E0,3.3733006E0,1.1024559E1,6.4569645E0,9.795633E0,7.163308E0,7.168467E0,0E0,0E0,0E0,0E0,0E0,0E0,0E0,0E0,0E0,0E0,0E0,0E0,0E0,0E0],"parents":[2147483647,0,0,1,1,2,2,3,3,4,4,5,5,6,6,7,7,9,9,10,10,11,11,12,12,13,13,14,14],"right_children":[2,4,6,8,10,12,14,16,-1,18,20,22,24,26,28,-1,-1,-1,-1,-1,-1,-1,-1,-1,-1,-1,-1,-1,-1],"split_conditions":[1.5115211E1,4.6380277E0,1.5370044E-3,-2.3814348E-4,-4.784202E-3,1.1333317E-3,-4.011168E-3,-3.264669E-3,5.849278E-2,-9.779963E-4,-1.2928781E-3,6.9157756E-3,3.2486195E1,1.554783E-3,-2.6416283E-5,3.884755E-2,-2.916499E-2,3.465367E-2,-3.177667E-2,-2.3396308E-2,1.5642213E-2,-2.4726146E-3,5.945477E-2,-5.19354E-2,-7.0206965E-3,6.5915748E-3,-4.0431056E-2,1.7200757E-2,1.3691883E-3],"split_indices":[13,13,11,8,3,9,3,8,0,4,8,3,13,5,9,0,0,0,0,0,0,0,0,0,0,0,0,0,0],"split_type":[0,0,0,0,0,0,0,0,0,0,0,0,0,0,0,0,0,0,0,0,0,0,0,0,0,0,0,0,0],"sum_hessian":[1.6885779E3,2.1895938E2,1.4696185E3,2.5869802E1,1.9308957E2,1.1205386E3,3.4907996E2,2.337693E1,2.492871E0,4.541229E1,1.4767729E2,1.0059502E3,1.1458837E2,3.111658E1,3.1796338E2,1.4980158E0,2.1878916E1,4.4164997E1,1.2472903E0,2.013772E1,1.27539566E2,1.0027219E3,3.2282476E0,1.2864501E1,1.0172387E2,1.7191847E1,1.3924732E1,1.0742558E2,2.105378E2],"tree_param":{"num_deleted":"0","num_feature":"18","num_nodes":"29","size_leaf_vector":"1"}},{"base_weights":[-2.855642E-3,-1.7283149E-1,3.4972083E-2,-9.608891E-3,-4.065077E-1,4.8030686E-1,1.9521615E-2,7.478123E-2,-4.4324884E-1,-7.217009E-1,-1.9349664E-1,2.6645535E-1,1.3123097E0,6.2883295E-2,-1.3849768E-1,6.903119E-3,-2.0622713E-2,3.847712E-2,-2.7901122E-2,-3.8575415E-2,2.7692428E-2,-2.5401045E-2,5.5192257E-3,2.4042351E-2,-4.0339064E-2,7.11692E-2,1.660298E-2,1.37096485E-2,1.3143736E-3,-1.8503927E-2,9.255037E-4],"categories":[],"categories_nodes":[],"categories_segments":[],"categories_sizes":[],"default_left":[0,0,0,0,0,0,0,0,0,0,0,0,0,0,0,0,0,0,0,0,0,0,0,0,0,0,0,0,0,0,0],"id":9,"left_children":[1,3,5,7,9,11,13,15,17,19,21,23,25,27,29,-1,-1,-1,-1,-1,-1,-1,-1,-1,-1,-1,-1,-1,-1,-1,-1],"loss_changes":[1.0818852E1,1.1678485E1,9.460973E0,6.669847E0,8.315731E0,7.854206E0,9.130544E0,4.7641125E0,4.5619206E0,3.6306267E0,7.3693533E0,9.116585E0,5.2614594E-1,8.076199E0,1.0440837E1,0E0,0E0,0E0,0E0,0E0,0E0,0E0,0E0,0E0,0E0,0E0,0E0,0E0,0E0,0E0,0E0],"parents":[2147483647,0,0,1,1,2,2,3,3,4,4,5,5,6,6,7,7,8,8,9,9,10,10,11,11,12,12,13,13,14,14],"right_children":[2,4,6,8,10,12,14,16,18,20,22,24,26,28,30,-1,-1,-1,-1,-1,-1,-1,-1,-1,-1,-1,-1,-1,-1,-1,-1],"split_conditions":[5.2582065E-4,2.1389306E-4,5.4841756E-4,2.17129E-4,-1.3798602E-5,2.666889E-3,8.927662E-4,7.936433E1,-3.889348E-3,1E0,2.1534822E-4,4.9620616E-4,7.736166E1,1.4046119E1,1.3719574E-3,6.903119E-3,-2.0622713E-2,3.847712E-2,-2.7901122E-2,-3.8575415E-2,2.7692428E-2,-2.5401045E-2,5.5192257E-3,2.4042351E-2,-4.0339064E-2,7.11692E-2,1.660298E-2,1.37096485E-2,1.3143736E-3,-1.8503927E-2,9.255037E-4],"split_indices":[6,1,6,0,8,4,9,13,4,15,0,9,7,13,8,0,0,0,0,0,0,0,0,0,0,0,0,0,0,0,0],"split_type":[0,0,0,0,0,0,0,0,0,0,0,0,0,0,0,0,0,0,0,0,0,0,0,0,0,0,0,0,0,0,0],"sum_hessian":[1.6806713E3,3.0529294E2,1.3753783E3,1.8035573E2,1.2493719E2,4.5108604E1,1.3302697E3,1.5166747E2,2.8688265E1,4.9420868E1,7.551632E1,3.69353E1,8.173303E0,1.0443063E3,2.859634E2,1.3486777E2,1.6799704E1,1.9870113E0,2.6701254E1,4.794392E1,1.4769485E0,3.6778217E1,3.8738106E1,3.1245592E1,5.6897087E0,6.935378E0,1.2379243E0,1.5320213E2,8.911041E2,1.1499411E2,1.709693E2],"tree_param":{"num_deleted":"0","num_feature":"18","num_nodes":"31","size_leaf_vector":"1"}},{"base_weights":[7.152814E-3,2.3389795E-1,-2.301832E-2,1.7271085E-1,9.910044E-1,1.3502243E-1,-5.4499693E-2,2.921233E-1,-2.1058032E-1,1.3227824E0,2.0657396E-1,-1.952169E-2,3.1733757E-1,-1.2147157E-1,3.394098E-2,-1.1114215E-2,1.8472658E-2,3.644434E-4,-3.822371E-2,2.1347E-3,7.717847E-2,-3.141071E-2,4.308487E-2,4.1930177E-3,-2.0214893E-2,8.174975E-3,3.8456425E-2,1.6453418E-4,-1.0279325E-2,-6.6902004E-3,7.8141885E-3],"categories":[],"categories_nodes":[],"categories_segments":[],"categories_sizes":[],"default_left":[0,0,0,0,0,0,0,0,0,0,0,0,0,0,0,0,0,0,0,0,0,0,0,0,0,0,0,0,0,0,0],"id":10,"left_children":[1,3,5,7,9,11,13,15,17,19,21,23,25,27,29,-1,-1,-1,-1,-1,-1,-1,-1,-1,-1,-1,-1,-1,-1,-1,-1],"loss_changes":[1.1439756E1,8.925836E0,7.3511415E0,8.432804E0,3.4933147E0,6.9225154E0,7.298732E0,5.6461353E0,5.3186255E0,2.7563229E0,3.5420172E0,5.3561645E0,7.705455E0,7.357918E0,1.09285555E1,0E0,0E0,0E0,0E0,0E0,0E0,0E0,0E0,0E0,0E0,0E0,0E0,0E0,0E0,0E0,0E0],"parents":[2147483647,0,0,1,1,2,2,3,3,4,4,5,5,6,6,7,7,8,8,9,9,10,10,11,11,12,12,13,13,14,14],"right_children":[2,4,6,8,10,12,14,16,18,20,22,24,26,28,30,-1,-1,-1,-1,-1,-1,-1,-1,-1,-1,-1,-1,-1,-1,-1,-1],"split_conditions":[1.4046119E1,1.3506962E1,1.5532516E1,-2.2141819E-4,1.266673E-3,5.7177547E1,6.781854E-4,4.001413E0,1.1775311E1,7.66824E-4,7.026512E-4,4.5603202E-4,8.694144E-4,4.9387833E1,-5E-1,-1.1114215E-2,1.8472658E-2,3.644434E-4,-3.822371E-2,2.1347E-3,7.717847E-2,-3.141071E-2,4.308487E-2,4.1930177E-3,-2.0214893E-2,8.174975E-3,3.8456425E-2,1.6453418E-4,-1.0279325E-2,-6.6902004E-3,7.8141885E-3],"split_indices":[13,13,12,1,11,13,5,13,13,11,5,0,6,7,15,0,0,0,0,0,0,0,0,0,0,0,0,0,0,0,0],"split_type":[0,0,0,0,0,0,0,0,0,0,0,0,0,0,0,0,0,0,0,0,0,0,0,0,0,0,0,0,0,0,0],"sum_hessian":[1.670409E3,1.9537262E2,1.4750364E3,1.819001E2,1.347251E1,2.4447083E2,1.2305656E3,1.3887283E2,4.302728E1,8.985683E0,4.486827E0,1.327959E2,1.1167493E2,7.0006586E2,5.304997E2,1.790332E1,1.2096951E2,3.1588905E1,1.1438373E1,1.4973948E0,7.4882884E0,1.9909468E0,2.4958801E0,1.0528883E2,2.7507055E1,8.432391E1,2.7351011E1,2.8230374E2,4.177621E2,2.2369559E2,3.0680414E2],"tree_param":{"num_deleted":"0","num_feature":"18","num_nodes":"31","size_leaf_vector":"1"}},{"base_weights":[-9.615052E-3,2.1583953E-1,-4.0055916E-2,4.0315247E-1,2.2694468E-2,-8.648388E-2,6.289076E-2,3.3902833E-1,6.629028E-2,-5.575196E-1,1.4421152E-1,-3.6268984E-3,-1.5209594E-1,1.4420038E-1,-1.677686E-1,1.2889142E-2,4.7260415E-2,-4.1071087E-2,2.2898868E-2,-4.113171E-2,1.0000885E-2,-9.791433E-3,2.924019E-3,1.0670277E-2,-9.728156E-3,1.1166465E-2,-3.6879063E-3,-1.663508E-2,1.1159267E-2],"categories":[],"categories_nodes":[],"categories_segments":[],"categories_sizes":[],"default_left":[0,0,0,0,0,0,0,0,0,0,0,0,0,0,0,0,0,0,0,0,0,0,0,0,0,0,0,0,0],"id":11,"left_children":[1,3,5,7,9,11,13,15,-1,17,19,21,23,25,27,-1,-1,-1,-1,-1,-1,-1,-1,-1,-1,-1,-1,-1,-1],"loss_changes":[1.1515552E1,7.2123775E0,7.069898E0,5.5423355E0,7.08401E0,5.5395107E0,8.650993E0,4.486086E0,0E0,5.0410914E0,4.6389375E0,5.3995605E0,8.868641E0,5.891252E0,7.8344307E0,0E0,0E0,0E0,0E0,0E0,0E0,0E0,0E0,0E0,0E0,0E0,0E0,0E0,0E0],"parents":[2147483647,0,0,1,1,2,2,3,3,4,4,5,5,6,6,7,7,9,9,10,10,11,11,12,12,13,13,14,14],"right_children":[2,4,6,8,10,12,14,16,-1,18,20,22,24,26,28,-1,-1,-1,-1,-1,-1,-1,-1,-1,-1,-1,-1,-1,-1],"split_conditions":[1.4046119E1,-1.087183E-4,1.416916E-3,1.5578757E-3,8.445407E-4,-1.0399794E-4,1.3917724E-3,-2.1144842E-4,6.629028E-2,9.659258E-1,2.3796689E-4,-8.4503775E-4,-8.660254E-1,2.0601787E-3,4.9717827E-3,1.2889142E-2,4.7260415E-2,-4.1071087E-2,2.2898868E-2,-4.113171E-2,1.0000885E-2,-9.791433E-3,2.924019E-3,1.0670277E-2,-9.728156E-3,1.1166465E-2,-3.6879063E-3,-1.663508E-2,1.1159267E-2],"split_indices":[13,0,11,6,11,0,5,0,0,14,5,1,14,2,3,0,0,0,0,0,0,0,0,0,0,0,0,0,0],"split_type":[0,0,0,0,0,0,0,0,0,0,0,0,0,0,0,0,0,0,0,0,0,0,0,0,0,0,0,0,0],"sum_hessian":[1.6756505E3,1.9860786E2,1.4770426E3,1.002742E2,9.833367E1,1.018065E3,4.5897763E2,9.503663E1,5.237571E0,1.6406874E1,8.1926796E1,4.503739E2,5.676911E2,3.3962976E2,1.1934788E2,8.506124E1,9.975385E0,1.31743145E1,3.232559E0,3.7209086E0,7.820589E1,1.09464355E2,3.4090955E2,5.867437E1,5.0901672E2,2.4915166E2,9.047809E1,8.404187E1,3.5306015E1],"tree_param":{"num_deleted":"0","num_feature":"18","num_nodes":"29","size_leaf_vector":"1"}},{"base_weights":[-1.8477427E-2,1.5428174E-1,-6.3934386E-2,1.977149E-1,-4.3035638E-1,1.8578988E-2,-1.2695907E-1,-3.1311736E-1,2.4660014E-1,3.7246576E-1,-8.034379E-1,1.0846492E-1,-9.383551E-2,-3.8453826E-1,-8.341974E-2,1.9727586E-2,-3.0003274E-2,-1.6279496E-2,1.4264451E-2,3.875939E-2,-3.125174E-2,-5.2308913E-2,5.710184E-3,3.5298143E-3,2.634089E-2,4.2464565E-2,-6.267597E-3,5.768829E-3,-2.8158618E-2,-2.141642E-2,-2.3679317E-3],"categories":[],"categories_nodes":[],"categories_segments":[],"categories_sizes":[],"default_left":[0,0,0,0,0,0,0,0,0,0,0,0,0,0,0,0,0,0,0,0,0,0,0,0,0,0,0,0,0,0,0],"id":12,"left_children":[1,3,5,7,9,11,13,15,17,19,21,23,25,27,29,-1,-1,-1,-1,-1,-1,-1,-1,-1,-1,-1,-1,-1,-1,-1,-1],"loss_changes":[1.3220673E1,8.990888E0,6.931953E0,8.246976E0,7.657945E0,5.8496947E0,8.441881E0,6.128462E0,6.7150803E0,3.8903172E0,3.926321E0,5.0577326E0,7.754861E0,9.796835E0,8.034751E0,0E0,0E0,0E0,0E0,0E0,0E0,0E0,0E0,0E0,0E0,0E0,0E0,0E0,0E0,0E0,0E0],"parents":[2147483647,0,0,1,1,2,2,3,3,4,4,5,5,6,6,7,7,8,8,9,9,10,10,11,11,12,12,13,13,14,14],"right_children":[2,4,6,8,10,12,14,16,18,20,22,24,26,28,30,-1,-1,-1,-1,-1,-1,-1,-1,-1,-1,-1,-1,-1,-1,-1,-1],"split_conditions":[2.2109182E1,9.521095E-4,-1.0399794E-4,2.4222682E-4,1.0625874E1,3.1013892E-4,-9.739934E-4,-2.1550531E-4,4.001413E0,1.0933797E-4,8.660254E-1,2.0134912E-4,-9.659258E-1,-1.0714146E-3,-7.02433E-4,1.9727586E-2,-3.0003274E-2,-1.6279496E-2,1.4264451E-2,3.875939E-2,-3.125174E-2,-5.2308913E-2,5.710184E-3,3.5298143E-3,2.634089E-2,4.2464565E-2,-6.267597E-3,5.768829E-3,-2.8158618E-2,-2.141642E-2,-2.3679317E-3],"split_indices":[13,9,0,5,13,9,3,0,13,0,15,9,15,2,2,0,0,0,0,0,0,0,0,0,0,0,0,0,0,0,0],"split_type":[0,0,0,0,0,0,0,0,0,0,0,0,0,0,0,0,0,0,0,0,0,0,0,0,0,0,0,0,0,0,0],"sum_hessian":[1.68124E3,3.4972314E2,1.3315168E3,3.2615472E2,2.356844E1,5.769135E2,7.546033E2,2.8013987E1,2.9814072E2,7.478134E0,1.6090305E1,3.205994E2,2.5631415E2,1.07977165E2,6.466261E2,7.973879E0,2.0040108E1,1.8412533E1,2.7972818E2,5.486096E0,1.9920382E0,1.2613603E1,3.4767022E0,2.9505978E2,2.553959E1,7.449218E0,2.4886491E2,2.8519178E1,7.9457985E1,6.0177437E1,5.8644867E2],"tree_param":{"num_deleted":"0","num_feature":"18","num_nodes":"31","size_leaf_vector":"1"}},{"base_weights":[4.989647E-3,2.5699657E-1,-2.8816178E-2,4.321983E-1,7.795311E-2,4.456106E-2,-8.677586E-2,3.7180376E-1,1.1894356E0,4.255654E-1,-1.910196E-1,1.2494461E-1,-6.738958E-2,-6.5877616E-1,-6.850848E-2,4.57254E-2,1.3233842E-2,7.70274E-2,-1.1664782E-2,3.346182E-4,3.1018555E-2,-2.005509E-2,2.346842E-2,4.8056752E-3,2.8186187E-2,-1.6497856E-2,6.685644E-4,1.2048296E-2,-3.8838696E-2,9.7620245E-3,-5.519849E-3],"categories":[],"categories_nodes":[],"categories_segments":[],"categories_sizes":[],"default_left":[0,0,0,0,0,0,0,0,0,0,0,0,0,0,0,0,0,0,0,0,0,0,0,0,0,0,0,0,0,0,0],"id":13,"left_children":[1,3,5,7,9,11,13,15,17,19,21,23,25,27,29,-1,-1,-1,-1,-1,-1,-1,-1,-1,-1,-1,-1,-1,-1,-1,-1],"loss_changes":[1.4356216E1,6.218586E0,6.323516E0,4.1547775E0,9.412145E0,5.915541E0,8.633078E0,5.2548323E0,3.8412333E0,3.5734901E0,8.089661E0,4.783726E0,5.835666E0,2.9036818E0,8.925697E0,0E0,0E0,0E0,0E0,0E0,0E0,0E0,0E0,0E0,0E0,0E0,0E0,0E0,0E0,0E0,0E0],"parents":[2147483647,0,0,1,1,2,2,3,3,4,4,5,5,6,6,7,7,8,8,9,9,10,10,11,11,12,12,13,13,14,14],"right_children":[2,4,6,8,10,12,14,16,18,20,22,24,26,28,30,-1,-1,-1,-1,-1,-1,-1,-1,-1,-1,-1,-1,-1,-1,-1,-1],"split_conditions":[1.4046119E1,-1.0892847E-4,-1.0399794E-4,1.3506962E1,-3.3877676E-3,3.1013892E-4,-3.7299527E-3,-1.8701561E-3,4.0364883E1,1.1556339E-4,1E0,2.3063012E-4,9.484418E-4,-2.9183005E-3,4.3667953E1,4.57254E-2,1.3233842E-2,7.70274E-2,-1.1664782E-2,3.346182E-4,3.1018555E-2,-2.005509E-2,2.346842E-2,4.8056752E-3,2.8186187E-2,-1.6497856E-2,6.685644E-4,1.2048296E-2,-3.8838696E-2,9.7620245E-3,-5.519849E-3],"split_indices":[13,0,0,13,3,9,3,8,7,0,16,9,4,8,7,0,0,0,0,0,0,0,0,0,0,0,0,0,0,0,0],"split_type":[0,0,0,0,0,0,0,0,0,0,0,0,0,0,0,0,0,0,0,0,0,0,0,0,0,0,0,0,0,0,0],"sum_hessian":[1.6832705E3,1.9831572E2,1.4849548E3,9.9518585E1,9.879713E1,6.5542053E2,8.295343E2,9.354849E1,5.97009E0,4.2844276E1,5.5952854E1,3.8142853E2,2.7399197E2,2.4586998E1,8.049473E2,1.4179347E1,7.936915E1,4.7219586E0,1.2481313E0,1.3928798E1,2.891548E1,4.2746876E1,1.3205979E1,3.5905496E2,2.2373575E1,6.3725094E1,2.1026688E2,2.729814E0,2.1857183E1,1.09818596E2,6.951287E2],"tree_param":{"num_deleted":"0","num_feature":"18","num_nodes":"31","size_leaf_vector":"1"}},{"base_weights":[4.3887366E-3,1.4431928E-1,-3.747622E-2,3.5637032E-2,4.1295484E-1,3.214156E-1,-5.4219898E-2,-6.257077E-1,7.4586146E-2,5.713462E-1,-1.6102301E-2,1.3006125E-1,8.8163495E-1,-8.260431E-1,-4.6444446E-2,-4.9698815E-2,2.1913825E-2,6.359706E-4,2.3672601E-2,1.6097356E-2,4.725564E-2,2.8834555E-2,-1.6496662E-2,3.8797874E-2,-2.9177254E-3,-3.64809E-2,5.5956732E-2,-6.1011504E-2,1.1236983E-2,1.5048565E-2,-3.0488875E-3],"categories":[],"categories_nodes":[],"categories_segments":[],"categories_sizes":[],"default_left":[0,0,0,0,0,0,0,0,0,0,0,0,0,0,0,0,0,0,0,0,0,0,0,0,0,0,0,0,0,0,0],"id":14,"left_children":[1,3,5,7,9,11,13,15,17,19,21,23,25,27,29,-1,-1,-1,-1,-1,-1,-1,-1,-1,-1,-1,-1,-1,-1,-1,-1],"loss_changes":[9.952707E0,1.1407767E1,7.8761063E0,7.2498302E0,7.66115E0,6.1498833E0,7.465288E0,6.571542E0,6.532749E0,7.364233E0,6.019099E0,5.4890623E0,6.44392E0,5.4149E0,6.2738442E0,0E0,0E0,0E0,0E0,0E0,0E0,0E0,0E0,0E0,0E0,0E0,0E0,0E0,0E0,0E0,0E0],"parents":[2147483647,0,0,1,1,2,2,3,3,4,4,5,5,6,6,7,7,8,8,9,9,10,10,11,11,12,12,13,13,14,14],"right_children":[2,4,6,8,10,12,14,16,18,20,22,24,26,28,30,-1,-1,-1,-1,-1,-1,-1,-1,-1,-1,-1,-1,-1,-1,-1,-1],"split_conditions":[4.0871883E1,1.4644612E-3,-1.814883E-3,-8.212332E-3,1.554783E-3,6.165065E1,-1.6814003E-3,2.3828264E-1,9.659258E-1,1.6213073E-1,1.2512746E1,1.335774E-3,7.410397E-4,2.5881904E-1,-9.659258E-1,-4.9698815E-2,2.1913825E-2,6.359706E-4,2.3672601E-2,1.6097356E-2,4.725564E-2,2.8834555E-2,-1.6496662E-2,3.8797874E-2,-2.9177254E-3,-3.64809E-2,5.5956732E-2,-6.1011504E-2,1.1236983E-2,1.5048565E-2,-3.0488875E-3],"split_indices":[7,11,1,4,5,13,1,10,14,10,13,11,5,15,15,0,0,0,0,0,0,0,0,0,0,0,0,0,0,0,0],"split_type":[0,0,0,0,0,0,0,0,0,0,0,0,0,0,0,0,0,0,0,0,0,0,0,0,0,0,0,0,0,0,0],"sum_hessian":[1.6970168E3,3.9023563E2,1.3067812E3,2.7863895E2,1.1159668E2,5.7437737E1,1.2493435E3,1.46595335E1,2.639794E2,8.12651E1,3.0331575E1,4.3732254E1,1.3705483E1,1.1410926E1,1.2379326E3,1.09390745E1,3.7204592E0,2.2942584E2,3.4553574E1,4.985816E1,3.1406944E1,1.0209439E1,2.0122137E1,9.171994E0,3.4560257E1,1.4944836E0,1.22109995E1,8.180764E0,3.2301614E0,4.89152E1,1.1890173E3],"tree_param":{"num_deleted":"0","num_feature":"18","num_nodes":"31","size_leaf_vector":"1"}},{"base_weights":[-4.7061493E-4,7.027906E-2,-6.4529605E-2,6.2140577E-2,1.0562953E0,-2.9749182E-1,-1.4515043E-2,6.6575724E-1,5.3210385E-2,-6.6148634E-3,7.601927E-2,-4.258265E-1,-1.0130916E-1,2.145253E-1,-5.9971835E-2,4.483145E-3,5.886376E-2,1.178173E-2,1.2488092E-3,-1.5872212E-2,-4.611699E-2,2.897278E-2,-1.1742271E-2,7.268993E-4,3.3282932E-2,-1.6447574E-2,-3.8744992E-4],"categories":[],"categories_nodes":[],"categories_segments":[],"categories_sizes":[],"default_left":[0,0,0,0,0,0,0,0,0,0,0,0,0,0,0,0,0,0,0,0,0,0,0,0,0,0,0],"id":15,"left_children":[1,3,5,7,9,11,13,15,17,-1,-1,19,21,23,25,-1,-1,-1,-1,-1,-1,-1,-1,-1,-1,-1,-1],"loss_changes":[7.585321E0,6.3164225E0,1.0229936E1,4.222228E0,3.758016E0,3.8641958E0,7.5525055E0,3.2621584E0,4.008638E0,0E0,0E0,4.739208E0,5.8346553E0,1.0829559E1,8.496204E0,0E0,0E0,0E0,0E0,0E0,0E0,0E0,0E0,0E0,0E0,0E0,0E0],"parents":[2147483647,0,0,1,1,2,2,3,3,4,4,5,5,6,6,7,7,8,8,11,11,12,12,13,13,14,14],"right_children":[2,4,6,8,10,12,14,16,18,-1,-1,20,22,24,26,-1,-1,-1,-1,-1,-1,-1,-1,-1,-1,-1,-1],"split_conditions":[0E0,-1.04019564E-4,5.165146E-4,-2.9183005E-3,-5.1508046E-4,8.0388933E-1,6.2546815E-4,-1.608966E-3,-8.660254E-1,-6.6148634E-3,7.601927E-2,1.8586057E-3,8.4254545E-1,8.1919456E-1,7.0863386E-4,4.483145E-3,5.886376E-2,1.178173E-2,1.2488092E-3,-1.5872212E-2,-4.611699E-2,2.897278E-2,-1.1742271E-2,7.268993E-4,3.3282932E-2,-1.6447574E-2,-3.8744992E-4],"split_indices":[1,1,6,8,2,10,6,1,15,0,0,4,10,10,6,0,0,0,0,0,0,0,0,0,0,0,0],"split_type":[0,0,0,0,0,0,0,0,0,0,0,0,0,0,0,0,0,0,0,0,0,0,0,0,0,0,0],"sum_hessian":[1.6716678E3,7.943045E2,8.7736334E2,7.888564E2,5.4481215E0,1.541945E2,7.231688E2,1.0428286E1,7.784281E2,1.730648E0,3.7174737E0,9.2508606E1,6.1685894E1,1.1914101E2,6.0402783E2,5.457309E0,4.9709773E0,1.0334691E2,6.7508124E2,7.7278984E1,1.5229626E1,9.568187E0,5.211771E1,8.326284E1,3.587817E1,9.734457E1,5.0668326E2],"tree_param":{"num_deleted":"0","num_feature":"18","num_nodes":"27","size_leaf_vector":"1"}},{"base_weights":[-2.856072E-3,1.7348523E-1,-2.9292053E-2,9.8199844E-1,1.3933992E-1,2.900768E-1,-4.342166E-2,3.672926E-1,6.605073E-2,-6.685892E-1,1.8154478E-1,3.7738785E-2,5.392641E-1,-6.8267874E-2,1.1730538E-1,3.5761263E-2,-1.4907922E-2,-6.0147336E-3,-7.3841885E-2,-9.353339E-3,1.202773E-2,2.2501936E-2,-2.456302E-2,5.59789E-2,1.3198845E-2,-5.6641846E-4,-9.976941E-3,4.068401E-2,2.7831635E-3],"categories":[],"categories_nodes":[],"categories_segments":[],"categories_sizes":[],"default_left":[0,0,0,0,0,0,0,0,0,0,0,0,0,0,0,0,0,0,0,0,0,0,0,0,0,0,0,0,0],"id":16,"left_children":[1,3,5,7,9,11,13,15,-1,17,19,21,23,25,27,-1,-1,-1,-1,-1,-1,-1,-1,-1,-1,-1,-1,-1,-1],"loss_changes":[7.817571E0,5.898781E0,6.5929947E0,1.3265047E0,7.313887E0,3.8726878E0,5.588185E0,1.2494485E0,0E0,4.557626E0,4.422481E0,7.164969E0,4.6688776E0,9.048426E0,8.001398E0,0E0,0E0,0E0,0E0,0E0,0E0,0E0,0E0,0E0,0E0,0E0,0E0,0E0,0E0],"parents":[2147483647,0,0,1,1,2,2,3,3,4,4,5,5,6,6,7,7,9,9,10,10,11,11,12,12,13,13,14,14],"right_children":[2,4,6,8,10,12,14,16,-1,18,20,22,24,26,28,-1,-1,-1,-1,-1,-1,-1,-1,-1,-1,-1,-1,-1,-1],"split_conditions":[1.5115211E1,-3.264669E-3,-9.659258E-1,1.1574356E-3,-9.961851E-3,3.260354E-4,9.659258E-1,9.0366165E-4,6.605073E-2,9.13735E0,5.1881876E0,-1.5724642E-3,2.6703576E-4,5E-1,-1.0190269E-3,3.5761263E-2,-1.4907922E-2,-6.0147336E-3,-7.3841885E-2,-9.353339E-3,1.202773E-2,2.2501936E-2,-2.456302E-2,5.59789E-2,1.3198845E-2,-5.6641846E-4,-9.976941E-3,4.068401E-2,2.7831635E-3],"split_indices":[13,8,15,5,4,4,14,5,0,13,13,4,8,14,8,0,0,0,0,0,0,0,0,0,0,0,0,0,0],"split_type":[0,0,0,0,0,0,0,0,0,0,0,0,0,0,0,0,0,0,0,0,0,0,0,0,0,0,0,0,0],"sum_hessian":[1.6748688E3,2.1762668E2,1.4572421E3,7.6935987E0,2.0993307E2,6.0912758E1,1.3963293E3,3.4753966E0,4.218202E0,9.685309E0,2.0024776E2,3.0837149E1,3.007561E1,1.2098744E3,1.8645485E2,2.2330458E0,1.2423509E0,6.4551435E0,3.2301657E0,2.7333828E1,1.7291394E2,1.7414005E1,1.3423145E1,8.689959E0,2.138565E1,8.4460754E2,3.6526688E2,1.4170442E1,1.7228441E2],"tree_param":{"num_deleted":"0","num_feature":"18","num_nodes":"29","size_leaf_vector":"1"}},{"base_weights":[-1.3515038E-2,1.2652428E-1,-4.787727E-2,6.850794E-2,1.0995612E-1,5.7772994E-2,-8.855718E-2,1.6181964E-2,2.5573733E-1,2.1316987E-1,-5.867656E-2,-1.3861023E-1,7.3789015E-2,7.8884205E-3,-8.516881E-3,2.3005396E-2,-4.240539E-3,1.2112851E-2,-5.3649813E-2,-5.1042894E-3,5.5894326E-2,-2.2536054E-2,-5.5246637E-3,6.653608E-3,-2.3973135E-2],"categories":[],"categories_nodes":[],"categories_segments":[],"categories_sizes":[],"default_left":[0,0,0,0,0,0,0,0,0,0,0,0,0,0,0,0,0,0,0,0,0,0,0,0,0],"id":17,"left_children":[1,3,5,-1,7,9,11,13,15,17,19,21,23,-1,-1,-1,-1,-1,-1,-1,-1,-1,-1,-1,-1],"loss_changes":[8.033333E0,6.6272755E0,5.765111E0,0E0,4.4485226E0,6.7655993E0,7.876303E0,5.289583E0,8.908109E0,6.248478E0,1.104945E1,6.4463406E0,7.567196E0,0E0,0E0,0E0,0E0,0E0,0E0,0E0,0E0,0E0,0E0,0E0,0E0],"parents":[2147483647,0,0,1,1,2,2,4,4,5,5,6,6,7,7,8,8,9,9,10,10,11,11,12,12],"right_children":[2,4,6,-1,8,10,12,14,16,18,20,22,24,-1,-1,-1,-1,-1,-1,-1,-1,-1,-1,-1,-1],"split_conditions":[-1.4425084E-3,1.0991114E1,-2.2177855E-4,6.850794E-2,2.7781294E1,1.1274444E-3,1.4527059E-3,-2.0728065E-3,3.5794178E1,4.138276E-3,9.330286E1,-8.944351E-4,1.7560443E-3,7.8884205E-3,-8.516881E-3,2.3005396E-2,-4.240539E-3,1.2112851E-2,-5.3649813E-2,-5.1042894E-3,5.5894326E-2,-2.2536054E-2,-5.5246637E-3,6.653608E-3,-2.3973135E-2],"split_indices":[2,12,0,0,12,11,11,3,12,3,13,2,5,0,0,0,0,0,0,0,0,0,0,0,0],"split_type":[0,0,0,0,0,0,0,0,0,0,0,0,0,0,0,0,0,0,0,0,0,0,0,0,0],"sum_hessian":[1.6671564E3,3.2795038E2,1.339206E3,3.2375283E0,3.2471286E2,3.7218353E2,9.6702246E2,1.9827983E2,1.2643303E2,1.5907468E2,2.1310884E2,7.3925006E2,2.2777243E2,1.1280445E2,8.547538E1,7.879519E1,4.763784E1,1.563504E2,2.72428E0,2.0640672E2,6.7021294E0,5.985065E1,6.793994E2,2.0641383E2,2.1358599E1],"tree_param":{"num_deleted":"0","num_feature":"18","num_nodes":"25","size_leaf_vector":"1"}},{"base_weights":[6.5880553E-3,7.7013195E-2,-5.2954853E-2,5.889665E-2,6.5255064E-1,-1.12095386E-1,4.684123E-2,1.0846539E-1,-1.6418464E-1,1.2993718E0,2.4243346E-1,6.8822193E-1,-1.2734134E-1,-5.7568824E-1,8.6585395E-2,4.3017385E-3,2.591098E-2,1.7049665E-2,-1.5142216E-2,1.696911E-2,7.410968E-2,-9.988146E-3,5.8099892E-2,-2.767211E-2,5.348146E-2,-9.052395E-3,4.3245326E-3,-8.847222E-3,-4.695371E-2,5.8777478E-2,3.640867E-3],"categories":[],"categories_nodes":[],"categories_segments":[],"categories_sizes":[],"default_left":[0,0,0,0,0,0,0,0,0,0,0,0,0,0,0,0,0,0,0,0,0,0,0,0,0,0,0,0,0,0,0],"id":18,"left_children":[1,3,5,7,9,11,13,15,17,19,21,23,25,27,29,-1,-1,-1,-1,-1,-1,-1,-1,-1,-1,-1,-1,-1,-1,-1,-1],"loss_changes":[7.098303E0,8.047272E0,5.4192433E0,8.343391E0,5.936407E0,7.119133E0,8.512565E0,5.6229E0,9.719411E0,1.0615807E0,6.5963497E0,5.7676916E0,6.5196934E0,2.8270106E0,4.747856E0,0E0,0E0,0E0,0E0,0E0,0E0,0E0,0E0,0E0,0E0,0E0,0E0,0E0,0E0,0E0,0E0],"parents":[2147483647,0,0,1,1,2,2,3,3,4,4,5,5,6,6,7,7,8,8,9,9,10,10,11,11,12,12,13,13,14,14],"right_children":[2,4,6,8,10,12,14,16,18,20,22,24,26,28,30,-1,-1,-1,-1,-1,-1,-1,-1,-1,-1,-1,-1,-1,-1,-1,-1],"split_conditions":[-1.0304494E-4,9.4797045E-1,1E0,6.9916856E-1,1.4785165E-3,-6.4738933E-3,4.2415326E-4,2.2012547E-3,-3.4258166E-5,4.835229E-4,6.62284E-3,-1.2503859E-2,9.659258E-1,7.5246584E-1,4.371808E-4,4.3017385E-3,2.591098E-2,1.7049665E-2,-1.5142216E-2,1.696911E-2,7.410968E-2,-9.988146E-3,5.8099892E-2,-2.767211E-2,5.348146E-2,-9.052395E-3,4.3245326E-3,-8.847222E-3,-4.695371E-2,5.8777478E-2,3.640867E-3],"split_indices":[0,10,17,10,1,3,6,3,9,6,3,3,14,10,6,0,0,0,0,0,0,0,0,0,0,0,0,0,0,0,0],"split_type":[0,0,0,0,0,0,0,0,0,0,0,0,0,0,0,0,0,0,0,0,0,0,0,0,0,0,0,0,0,0,0],"sum_hessian":[1.6907928E3,7.744769E2,9.16316E2,7.519109E2,2.2566029E1,5.752761E2,3.4103983E2,6.156312E2,1.362797E2,7.914806E0,1.4651223E1,9.928917E0,5.653472E2,1.9657127E1,3.213827E2,5.848268E2,3.0804424E1,2.903553E1,1.0724416E2,1.7231214E0,6.1916842E0,1.0422201E1,4.229022E0,2.2272131E0,7.7017035E0,4.5198013E2,1.13367096E2,1.0081556E1,9.575571E0,2.9590447E0,3.1842365E2],"tree_param":{"num_deleted":"0","num_feature":"18","num_nodes":"31","size_leaf_vector":"1"}},{"base_weights":[5.4323357E-3,2.8558114E-1,-1.0641627E-2,3.8343912E-1,-2.6109743E-1,-5.8782328E-2,9.277111E-2,4.804727E-1,-3.264466E-1,-9.669843E-1,3.1142244E-1,-6.341428E-1,-4.4654462E-2,9.2424536E-1,8.1378214E-2,-2.9670322E-2,2.6079252E-2,3.288992E-2,-3.729188E-2,-7.5710486E-3,-6.1169337E-2,-2.9856017E-2,3.3530723E-2,-3.832974E-2,4.580985E-2,3.3218406E-2,-3.0868107E-3,6.0446966E-2,-9.178621E-3,4.84631E-3,-2.3847634E-2],"categories":[],"categories_nodes":[],"categories_segments":[],"categories_sizes":[],"default_left":[0,0,0,0,0,0,0,0,0,0,0,0,0,0,0,0,0,0,0,0,0,0,0,0,0,0,0,0,0,0,0],"id":19,"left_children":[1,3,5,7,9,11,13,15,17,19,21,23,25,27,29,-1,-1,-1,-1,-1,-1,-1,-1,-1,-1,-1,-1,-1,-1,-1,-1],"loss_changes":[7.52859E0,4.9533505E0,7.878597E0,5.4850264E0,6.108002E0,8.748417E0,4.687195E0,3.3317442E0,4.575968E0,1.2112975E0,3.236412E0,6.0005674E0,1.2817654E1,2.3346896E0,4.361006E0,0E0,0E0,0E0,0E0,0E0,0E0,0E0,0E0,0E0,0E0,0E0,0E0,0E0,0E0,0E0,0E0],"parents":[2147483647,0,0,1,1,2,2,3,3,4,4,5,5,6,6,7,7,8,8,9,9,10,10,11,11,12,12,13,13,14,14],"right_children":[2,4,6,8,10,12,14,16,18,20,22,24,26,28,30,-1,-1,-1,-1,-1,-1,-1,-1,-1,-1,-1,-1,-1,-1,-1,-1],"split_conditions":[1.249738E1,9.659258E-1,1.416916E-3,2.2825175E-3,9.594103E-4,-6.6852416E-3,-3.3874172E-3,-4.8471658E-4,1.842768E-5,-7.348002E-4,2.5872555E-1,3.7216344E-1,2.9060614E1,1.3412057E-3,3.6245312E-3,-2.9670322E-2,2.6079252E-2,3.288992E-2,-3.729188E-2,-7.5710486E-3,-6.1169337E-2,-2.9856017E-2,3.3530723E-2,-3.832974E-2,4.580985E-2,3.3218406E-2,-3.0868107E-3,6.0446966E-2,-9.178621E-3,4.84631E-3,-2.3847634E-2],"split_indices":[12,14,11,4,11,4,9,9,9,1,10,10,7,1,11,0,0,0,0,0,0,0,0,0,0,0,0,0,0,0,0],"split_type":[0,0,0,0,0,0,0,0,0,0,0,0,0,0,0,0,0,0,0,0,0,0,0,0,0,0,0,0,0,0,0],"sum_hessian":[1.670193E3,8.972002E1,1.5804729E3,7.635137E1,1.3368646E1,1.0787328E3,5.0174014E2,6.745428E1,8.897093E0,5.6784363E0,7.6902094E0,2.4801468E1,1.0539313E3,5.698908E0,4.9604123E2,1.9918616E0,6.546242E1,2.4885037E0,6.408589E0,1.7386643E0,3.939772E0,1.991216E0,5.698993E0,2.3315094E1,1.4863737E0,2.3902496E1,1.0300288E3,4.4611692E0,1.2377388E0,4.834061E2,1.2635138E1],"tree_param":{"num_deleted":"0","num_feature":"18","num_nodes":"31","size_leaf_vector":"1"}},{"base_weights":[6.1195698E-3,-4.5302853E-2,8.203963E-2,2.8539196E-1,-8.016549E-2,1.6120161E-1,-8.509698E-3,2.3637955E-1,1.2275996E0,-6.407637E-2,-5.037912E-1,2.3590614E-1,-5.882463E-2,2.1886492E-2,-4.407603E-1,1.5799232E-2,-1.7599769E-2,7.5267486E-2,1.4041269E-2,3.428719E-2,-3.708535E-3,3.2831628E-2,-2.8492067E-2,9.699289E-3,3.5939157E-2,2.4107879E-3,-3.4596656E-2,1.9218388E-4,3.725968E-2,-2.8638283E-2,3.19821E-2],"categories":[],"categories_nodes":[],"categories_segments":[],"categories_sizes":[],"default_left":[0,0,0,0,0,0,0,0,0,0,0,0,0,0,0,0,0,0,0,0,0,0,0,0,0,0,0,0,0,0,0],"id":20,"left_children":[1,3,5,7,9,11,13,15,17,19,21,23,25,27,29,-1,-1,-1,-1,-1,-1,-1,-1,-1,-1,-1,-1,-1,-1,-1,-1],"loss_changes":[6.5316715E0,1.1523452E1,4.843964E0,4.113232E0,6.1236486E0,5.939477E0,4.1624727E0,4.414528E0,7.5441074E-1,6.645583E0,2.895979E0,5.3124084E0,6.279993E0,3.863483E0,3.3347745E0,0E0,0E0,0E0,0E0,0E0,0E0,0E0,0E0,0E0,0E0,0E0,0E0,0E0,0E0,0E0,0E0],"parents":[2147483647,0,0,1,1,2,2,3,3,4,4,5,5,6,6,7,7,8,8,9,9,10,10,11,11,12,12,13,13,14,14],"right_children":[2,4,6,8,10,12,14,16,18,20,22,24,26,28,30,-1,-1,-1,-1,-1,-1,-1,-1,-1,-1,-1,-1,-1,-1,-1,-1],"split_conditions":[6.816729E-4,-8.660254E-1,1E0,5.2716658E-3,6.5948494E-4,5.459983E-4,2.1062836E-3,9.596106E-4,8.0908544E-4,-8.212332E-3,-2.1993301E-3,9.1674227E-1,3.782699E1,1.9715393E-3,5.2952793E1,1.5799232E-2,-1.7599769E-2,7.5267486E-2,1.4041269E-2,3.428719E-2,-3.708535E-3,3.2831628E-2,-2.8492067E-2,9.699289E-3,3.5939157E-2,2.4107879E-3,-3.4596656E-2,1.9218388E-4,3.725968E-2,-2.8638283E-2,3.19821E-2],"split_indices":[5,15,16,4,5,0,5,6,0,4,9,10,12,5,12,0,0,0,0,0,0,0,0,0,0,0,0,0,0,0,0],"split_type":[0,0,0,0,0,0,0,0,0,0,0,0,0,0,0,0,0,0,0,0,0,0,0,0,0,0,0,0,0,0,0],"sum_hessian":[1.6711224E3,9.9654364E2,6.7457886E2,9.4353455E1,9.021902E2,3.595047E2,3.1507416E2,9.087702E1,3.476427E0,8.7028827E2,3.1901901E1,2.6832825E2,9.117647E1,2.952606E2,1.9813581E1,8.0454735E1,1.0422292E1,2.2317367E0,1.2446905E0,1.0671367E1,8.596169E2,1.2365053E0,3.0665396E1,2.4818417E2,2.0144066E1,7.8780754E1,1.2395711E1,2.8905542E2,6.2051425E0,1.8075006E1,1.7385752E0],"tree_param":{"num_deleted":"0","num_feature":"18","num_nodes":"31","size_leaf_vector":"1"}},{"base_weights":[4.0476434E-3,1.8315712E-1,-2.29694E-2,-3.4250268E-1,2.3340724E-1,-1.2131286E-1,1.3383957E-2,-7.357242E-1,1.5512072E-1,4.536877E-2,3.2882142E-1,-9.09891E-2,-1.2934711E0,-8.533473E-1,1.9232E-2,1.7987037E-2,-4.5414146E-2,5.091667E-2,-3.2931834E-2,-6.464229E-3,2.570594E-2,3.6324754E-2,1.2426796E-2,-1.2780434E-2,3.3936743E-4,-7.789391E-2,-1.4396539E-3,-1.2567309E-2,-6.713903E-2,2.232052E-2,1.3509019E-4],"categories":[],"categories_nodes":[],"categories_segments":[],"categories_sizes":[],"default_left":[0,0,0,0,0,0,0,0,0,0,0,0,0,0,0,0,0,0,0,0,0,0,0,0,0,0,0,0,0,0,0],"id":21,"left_children":[1,3,5,7,9,11,13,15,17,19,21,23,25,27,29,-1,-1,-1,-1,-1,-1,-1,-1,-1,-1,-1,-1,-1,-1,-1,-1],"loss_changes":[8.118643E0,5.8884964E0,5.214068E0,3.9478846E0,3.596858E0,1.3872303E1,5.4165125E0,2.4284735E0,7.3256803E0,5.709125E0,4.0780764E0,6.194542E0,3.2488308E0,1.7727847E0,7.478333E0,0E0,0E0,0E0,0E0,0E0,0E0,0E0,0E0,0E0,0E0,0E0,0E0,0E0,0E0,0E0,0E0],"parents":[2147483647,0,0,1,1,2,2,3,3,4,4,5,5,6,6,7,7,8,8,9,9,10,10,11,11,12,12,13,13,14,14],"right_children":[2,4,6,8,10,12,14,16,18,20,22,24,26,28,30,-1,-1,-1,-1,-1,-1,-1,-1,-1,-1,-1,-1,-1,-1,-1,-1],"split_conditions":[1.5115211E1,4.001413E0,-8.6236664E-4,-7.4383564E-4,1.0759303E-3,5.812414E-1,1.8364735E1,8.321397E-4,-4.011168E-3,1.2822072E1,6.4559355E0,5.5427727E-4,2.1506883E-3,1.2090426E-3,4.0871883E1,1.7987037E-2,-4.5414146E-2,5.091667E-2,-3.2931834E-2,-6.464229E-3,2.570594E-2,3.6324754E-2,1.2426796E-2,-1.2780434E-2,3.3936743E-4,-7.789391E-2,-1.4396539E-3,-1.2567309E-2,-6.713903E-2,2.232052E-2,1.3509019E-4],"split_indices":[13,13,3,9,11,10,13,11,3,13,13,5,11,11,7,0,0,0,0,0,0,0,0,0,0,0,0,0,0,0,0],"split_type":[0,0,0,0,0,0,0,0,0,0,0,0,0,0,0,0,0,0,0,0,0,0,0,0,0,0,0,0,0,0,0],"sum_hessian":[1.67588E3,2.1890044E2,1.4569796E3,1.8592358E1,2.0030807E2,3.9259384E2,1.0643857E3,1.0118361E1,8.473996E0,6.79232E1,1.3238487E2,3.83744E2,8.849841E0,6.162275E0,1.0582235E3,1.2293376E0,8.889024E0,3.990054E0,4.483942E0,5.00129E1,1.7910303E1,2.0885414E1,1.1149945E2,1.4239275E2,2.4135124E2,7.127791E0,1.7220503E0,3.4420776E0,2.7201974E0,3.845488E1,1.0197686E3],"tree_param":{"num_deleted":"0","num_feature":"18","num_nodes":"31","size_leaf_vector":"1"}},{"base_weights":[1.0756879E-2,9.109147E-2,-4.257202E-2,1.1956084E-1,-1.8896371E-1,-7.4460156E-2,1.3501544E-1,6.1161566E-1,1.0208524E-1,3.0368617E-1,-4.0792364E-1,-4.3274764E-2,-4.3921012E-1,-7.399825E-2,3.3697543E-1,5.467239E-2,1.2876513E-2,-1.9730806E-2,5.9153805E-3,2.3740979E-2,-5.3626455E-2,7.7718846E-3,-2.8981373E-2,-4.616815E-3,6.421423E-3,-2.9792715E-2,1.2354425E-2,1.79573E-2,-1.1328526E-2,5.7284016E-2,1.0501689E-2],"categories":[],"categories_nodes":[],"categories_segments":[],"categories_sizes":[],"default_left":[0,0,0,0,0,0,0,0,0,0,0,0,0,0,0,0,0,0,0,0,0,0,0,0,0,0,0,0,0,0,0],"id":22,"left_children":[1,3,5,7,9,11,13,15,17,19,21,23,25,27,29,-1,-1,-1,-1,-1,-1,-1,-1,-1,-1,-1,-1,-1,-1,-1,-1],"loss_changes":[7.166713E0,5.3436537E0,5.7044196E0,5.152095E0,6.8087406E0,9.6851425E0,6.501535E0,3.2326436E0,4.77506E0,5.135163E0,4.2814226E0,6.6418686E0,7.359274E0,5.1182775E0,7.788395E0,0E0,0E0,0E0,0E0,0E0,0E0,0E0,0E0,0E0,0E0,0E0,0E0,0E0,0E0,0E0,0E0],"parents":[2147483647,0,0,1,1,2,2,3,3,4,4,5,5,6,6,7,7,8,8,9,9,10,10,11,11,12,12,13,13,14,14],"right_children":[2,4,6,8,10,12,14,16,18,20,22,24,26,28,30,-1,-1,-1,-1,-1,-1,-1,-1,-1,-1,-1,-1,-1,-1,-1,-1],"split_conditions":[4.719685E1,7.651552E-4,9.530541E-1,-2.3548745E-3,-1.6920863E-3,6.898095E1,8.783796E1,-5.249957E-3,4.001413E0,2.7080653E-3,2.0393251E1,2.2012547E-3,1.2098015E-2,1.6591041E-3,9.734488E-1,5.467239E-2,1.2876513E-2,-1.9730806E-2,5.9153805E-3,2.3740979E-2,-5.3626455E-2,7.7718846E-3,-2.8981373E-2,-4.616815E-3,6.421423E-3,-2.9792715E-2,1.2354425E-2,1.79573E-2,-1.1328526E-2,5.7284016E-2,1.0501689E-2],"split_indices":[7,1,10,9,8,7,13,3,13,1,12,3,4,3,10,0,0,0,0,0,0,0,0,0,0,0,0,0,0,0,0],"split_type":[0,0,0,0,0,0,0,0,0,0,0,0,0,0,0,0,0,0,0,0,0,0,0,0,0,0,0,0,0,0,0],"sum_hessian":[1.6709363E3,6.663856E2,1.00455066E3,6.0541455E2,6.097111E1,8.521218E2,1.5242882E2,1.9598125E1,5.858164E2,1.8641542E1,4.232957E1,7.8603595E2,6.608587E1,7.5217674E1,7.721114E1,7.417057E0,1.2181069E1,1.7790043E1,5.6802637E2,1.716237E1,1.479172E0,9.909891E0,3.2419678E1,6.117112E2,1.7432478E2,5.3912415E1,1.2173449E1,1.9240633E1,5.597704E1,9.386635E0,6.782451E1],"tree_param":{"num_deleted":"0","num_feature":"18","num_nodes":"31","size_leaf_vector":"1"}},{"base_weights":[-1.7996658E-2,5.244447E-2,-7.6851934E-2,-3.8030483E-2,1.14052266E-1,-3.0915958E-1,-4.0457554E-2,1.7590487E-2,-4.2352298E-1,3.2818455E-2,3.5383576E-1,1.0080453E-1,-5.221037E-1,-3.4315383E-1,-1.3311439E-2,2.0382113E-3,-4.7398232E-2,9.939723E-4,-3.1391498E-2,3.962019E-3,-1.5838282E-2,1.3931445E-2,5.5165716E-2,-4.5245835E-3,4.1530114E-2,-3.2113146E-2,-6.9057397E-3,-2.085719E-2,3.5120934E-2,1.08072935E-2,-2.2351209E-3],"categories":[],"categories_nodes":[],"categories_segments":[],"categories_sizes":[],"default_left":[0,0,0,0,0,0,0,0,0,0,0,0,0,0,0,0,0,0,0,0,0,0,0,0,0,0,0,0,0,0,0],"id":23,"left_children":[1,3,5,7,9,11,13,15,17,19,21,23,25,27,29,-1,-1,-1,-1,-1,-1,-1,-1,-1,-1,-1,-1,-1,-1,-1,-1],"loss_changes":[7.004699E0,4.2920585E0,7.7688775E0,6.7050104E0,8.907144E0,1.0922119E1,6.54321E0,6.1681523E0,3.584148E0,5.593252E0,6.2177267E0,6.134388E0,3.6996613E0,5.363386E0,5.284438E0,0E0,0E0,0E0,0E0,0E0,0E0,0E0,0E0,0E0,0E0,0E0,0E0,0E0,0E0,0E0,0E0],"parents":[2147483647,0,0,1,1,2,2,3,3,4,4,5,5,6,6,7,7,8,8,9,9,10,10,11,11,12,12,13,13,14,14],"right_children":[2,4,6,8,10,12,14,16,18,20,22,24,26,28,30,-1,-1,-1,-1,-1,-1,-1,-1,-1,-1,-1,-1,-1,-1,-1,-1],"split_conditions":[-1.0399794E-4,-2.5881904E-1,2.8018403E-4,1.273367E-3,7.9329894E-4,1.925212E-4,4.7821883E-4,5.253658E-3,-8.660254E-1,8.6945175E1,3.676544E-3,7.708609E-4,3.127022E-4,6.66479E-4,3.6925045E-4,2.0382113E-3,-4.7398232E-2,9.939723E-4,-3.1391498E-2,3.962019E-3,-1.5838282E-2,1.3931445E-2,5.5165716E-2,-4.5245835E-3,4.1530114E-2,-3.2113146E-2,-6.9057397E-3,-2.085719E-2,3.5120934E-2,1.08072935E-2,-2.2351209E-3],"split_indices":[0,15,5,6,5,5,6,3,15,13,2,6,0,5,5,0,0,0,0,0,0,0,0,0,0,0,0,0,0,0,0],"split_type":[0,0,0,0,0,0,0,0,0,0,0,0,0,0,0,0,0,0,0,0,0,0,0,0,0,0,0,0,0,0,0],"sum_hessian":[1.687604E3,7.682411E2,9.193629E2,3.1136484E2,4.5687628E2,1.235081E2,7.958548E2,2.7293817E2,3.8426647E1,3.4211237E2,1.147639E2,4.2401855E1,8.110625E1,6.454101E1,7.3131384E2,2.674764E2,5.461767E0,1.2405653E1,2.6020996E1,3.0269083E2,3.9421547E1,1.05544716E2,9.219186E0,3.4289753E1,8.1121025E0,6.1262997E1,1.984325E1,6.0836918E1,3.7040892E0,8.729941E1,6.440144E2],"tree_param":{"num_deleted":"0","num_feature":"18","num_nodes":"31","size_leaf_vector":"1"}},{"base_weights":[-1.1380112E-2,3.2968092E-1,-2.6414303E-2,4.7955206E-1,-6.359644E-2,1.695102E-1,-4.558248E-2,2.6735514E-1,7.516214E-1,-3.174807E-1,8.432051E-1,3.315872E-2,5.3721696E-1,-4.3109325E-1,-3.464459E-2,4.7571413E-2,6.8176864E-4,4.8366893E-2,-3.6467128E-3,1.5423727E-2,-4.1354053E-2,-4.8353393E-3,7.1137145E-2,6.0509825E-3,-5.1132407E-2,4.078807E-2,1.0637542E-2,4.2977217E-3,-3.2917354E-2,-3.5746988E-2,-1.462376E-3],"categories":[],"categories_nodes":[],"categories_segments":[],"categories_sizes":[],"default_left":[0,0,0,0,0,0,0,0,0,0,0,0,0,0,0,0,0,0,0,0,0,0,0,0,0,0,0,0,0,0,0],"id":24,"left_children":[1,3,5,7,9,11,13,15,17,19,21,23,25,27,29,-1,-1,-1,-1,-1,-1,-1,-1,-1,-1,-1,-1,-1,-1,-1,-1],"loss_changes":[8.583112E0,4.1961083E0,6.026087E0,2.7601519E0,4.960583E0,7.153013E0,6.1435843E0,5.2577558E0,3.9698925E0,5.5668497E0,2.7153273E0,9.901147E0,3.3171396E0,4.7810435E0,5.1975627E0,0E0,0E0,0E0,0E0,0E0,0E0,0E0,0E0,0E0,0E0,0E0,0E0,0E0,0E0,0E0,0E0],"parents":[2147483647,0,0,1,1,2,2,3,3,4,4,5,5,6,6,7,7,8,8,9,9,10,10,11,11,12,12,13,13,14,14],"right_children":[2,4,6,8,10,12,14,16,18,20,22,24,26,28,30,-1,-1,-1,-1,-1,-1,-1,-1,-1,-1,-1,-1,-1,-1,-1,-1],"split_conditions":[-9.659258E-1,6.218759E-4,-1.814883E-3,2.0806285E-4,6.2834234E-3,3.8504494E1,-1.3033521E-3,-4.641321E-3,8.638777E-4,3.961928E-5,8.3111626E1,3.3846874E1,8.476388E-4,-1.8217007E-3,-1.7254963E-3,4.7571413E-2,6.8176864E-4,4.8366893E-2,-3.6467128E-3,1.5423727E-2,-4.1354053E-2,-4.8353393E-3,7.1137145E-2,6.0509825E-3,-5.1132407E-2,4.078807E-2,1.0637542E-2,4.2977217E-3,-3.2917354E-2,-3.5746988E-2,-1.462376E-3],"split_indices":[15,0,1,4,4,13,0,4,1,8,13,13,8,0,1,0,0,0,0,0,0,0,0,0,0,0,0,0,0,0,0],"split_type":[0,0,0,0,0,0,0,0,0,0,0,0,0,0,0,0,0,0,0,0,0,0,0,0,0,0,0,0,0,0,0],"sum_hessian":[1.6712134E3,6.967433E1,1.6015391E3,5.029023E1,1.9384102E1,1.4202362E2,1.4595155E3,2.936784E1,2.092239E1,1.5651828E1,3.7322745E0,1.0440046E2,3.762316E1,3.920777E1,1.4203077E3,7.201476E0,2.2166363E1,1.6446556E1,4.4758344E0,7.201146E0,8.450682E0,1.7413048E0,1.9909698E0,9.719737E1,7.203083E0,1.9429422E1,1.8193739E1,1.2160952E1,2.704682E1,1.0144428E1,1.4101632E3],"tree_param":{"num_deleted":"0","num_feature":"18","num_nodes":"31","size_leaf_vector":"1"}},{"base_weights":[1.4803841E-3,7.008292E-2,-5.5540275E-2,8.281037E-2,-4.5780233E-1,-1.1465215E-1,7.188281E-2,5.6695884E-1,6.3287936E-2,5.132161E-1,-7.8884906E-1,-3.256663E-1,-7.845503E-2,2.4888458E-2,5.518051E-1,1.5199408E-2,6.0785946E-2,-2.3082918E-2,3.936433E-3,5.214103E-2,-1.1530277E-2,-5.4593127E-2,4.569846E-3,-6.7365714E-3,-3.2525044E-2,7.553643E-3,-6.1898916E-3,3.603671E-2,3.4637837E-4,2.7654457E-3,4.558899E-2],"categories":[],"categories_nodes":[],"categories_segments":[],"categories_sizes":[],"default_left":[0,0,0,0,0,0,0,0,0,0,0,0,0,0,0,0,0,0,0,0,0,0,0,0,0,0,0,0,0,0,0],"id":25,"left_children":[1,3,5,7,9,11,13,15,17,19,21,23,25,27,29,-1,-1,-1,-1,-1,-1,-1,-1,-1,-1,-1,-1,-1,-1,-1,-1],"loss_changes":[6.5573916E0,5.1499805E0,6.9036293E0,6.9944563E0,6.212302E0,4.75389E0,6.542979E0,4.527607E0,5.8407936E0,2.2885885E0,3.7985249E0,5.575242E0,5.5911784E0,3.31742E0,4.5751824E0,0E0,0E0,0E0,0E0,0E0,0E0,0E0,0E0,0E0,0E0,0E0,0E0,0E0,0E0,0E0,0E0],"parents":[2147483647,0,0,1,1,2,2,3,3,4,4,5,5,6,6,7,7,8,8,9,9,10,10,11,11,12,12,13,13,14,14],"right_children":[2,4,6,8,10,12,14,16,18,20,22,24,26,28,30,-1,-1,-1,-1,-1,-1,-1,-1,-1,-1,-1,-1,-1,-1,-1,-1],"split_conditions":[-1.0304494E-4,2.819766E-3,1.4113281E-3,-1.8701561E-3,-4.5653833E-3,-8.176376E-4,9.659258E-1,-8.212332E-3,-6.6852416E-3,-4.111973E-3,5E-1,-9.76928E-4,-4.7432235E-4,-3.264669E-3,7.486413E-4,1.5199408E-2,6.0785946E-2,-2.3082918E-2,3.936433E-3,5.214103E-2,-1.1530277E-2,-5.4593127E-2,4.569846E-3,-6.7365714E-3,-3.2525044E-2,7.553643E-3,-6.1898916E-3,3.603671E-2,3.4637837E-4,2.7654457E-3,4.558899E-2],"split_indices":[0,11,11,8,1,9,14,4,4,4,15,9,9,8,3,0,0,0,0,0,0,0,0,0,0,0,0,0,0,0,0],"split_type":[0,0,0,0,0,0,0,0,0,0,0,0,0,0,0,0,0,0,0,0,0,0,0,0,0,0,0,0,0,0,0],"sum_hessian":[1.6743319E3,7.598792E2,9.1445276E2,7.428129E2,1.7066288E1,6.247363E2,2.8971643E2,2.7704756E1,7.1510815E2,4.199152E0,1.2867136E1,9.030407E1,5.3443225E2,2.6483542E2,2.4881021E1,2.0758854E1,6.9459004E0,1.9607363E1,6.955008E2,2.2179701E0,1.9811819E0,9.3932295E0,3.4739063E0,5.7765057E1,3.2539013E1,8.7775536E1,4.466567E2,5.6792784E0,2.5915613E2,1.0942369E1,1.3938652E1],"tree_param":{"num_deleted":"0","num_feature":"18","num_nodes":"31","size_leaf_vector":"1"}},{"base_weights":[-1.0309353E-2,1.1169688E-1,-4.4083096E-2,6.7088746E-2,9.520595E-2,-5.064677E-1,-3.2087263E-2,-9.7429407E-1,1.106132E-1,-2.6036227E-1,-1.1741787E0,-7.8590244E-2,5.1940747E-2,1.2666929E-2,-7.0971295E-2,8.662841E-3,-3.9735823E-3,3.997573E-2,-2.3900865E-2,-6.548979E-2,-9.991742E-3,4.6573088E-2,-4.2768246E-3,7.095825E-2,2.1829568E-3],"categories":[],"categories_nodes":[],"categories_segments":[],"categories_sizes":[],"default_left":[0,0,0,0,0,0,0,0,0,0,0,0,0,0,0,0,0,0,0,0,0,0,0,0,0],"id":26,"left_children":[1,3,5,-1,7,9,11,13,15,17,19,21,23,-1,-1,-1,-1,-1,-1,-1,-1,-1,-1,-1,-1],"loss_changes":[6.9161744E0,7.254331E0,7.2739E0,0E0,6.042798E0,5.1447277E0,5.0141783E0,3.2104678E0,4.2524095E0,6.269415E0,8.8095665E-1,5.8733525E0,5.1169095E0,0E0,0E0,0E0,0E0,0E0,0E0,0E0,0E0,0E0,0E0,0E0,0E0],"parents":[2147483647,0,0,1,1,2,2,4,4,5,5,6,6,7,7,8,8,9,9,10,10,11,11,12,12],"right_children":[2,4,6,-1,8,10,12,14,16,18,20,22,24,-1,-1,-1,-1,-1,-1,-1,-1,-1,-1,-1,-1],"split_conditions":[-1.2938213E-3,1.0991114E1,-1.1685289E-3,6.7088746E-2,1.2849935E1,3.198118E1,6.816729E-4,1.2120246E1,7.0710677E-1,-2.4600262E-3,1.3185637E-3,-2.483957E-3,7.791425E-4,1.2666929E-2,-7.0971295E-2,8.662841E-3,-3.9735823E-3,3.997573E-2,-2.3900865E-2,-6.548979E-2,-9.991742E-3,4.6573088E-2,-4.2768246E-3,7.095825E-2,2.1829568E-3],"split_indices":[2,12,2,0,12,12,5,12,14,3,6,8,11,0,0,0,0,0,0,0,0,0,0,0,0],"split_type":[0,0,0,0,0,0,0,0,0,0,0,0,0,0,0,0,0,0,0,0,0,0,0,0,0],"sum_hessian":[1.6762407E3,3.6291574E2,1.3133251E3,3.7378857E0,3.5917786E2,3.2168182E1,1.2811569E3,4.217E0,3.5496085E2,2.4520378E1,7.6478057E0,8.2477344E2,4.563834E2,1.2368232E0,2.9801767E0,2.6704355E2,8.791732E1,3.7221174E0,2.079826E1,6.4111633E0,1.2366422E0,4.724255E0,8.200492E2,1.7220621E0,4.5466132E2],"tree_param":{"num_deleted":"0","num_feature":"18","num_nodes":"25","size_leaf_vector":"1"}},{"base_weights":[-1.4374553E-2,2.796928E-1,-2.734966E-2,3.858986E-1,-1.9908829E-1,-5.0635464E-2,1.2415163E-1,1.686686E-1,7.47084E-1,-6.5987164E-1,1.884317E-1,1.0206598E-1,-7.102261E-2,-4.8770595E-1,1.9091563E-1,-6.3055656E-3,3.233671E-2,6.835311E-2,2.1416062E-2,4.621751E-3,-6.65177E-2,5.4389257E-2,-1.3717805E-2,1.7880284E-3,4.7106393E-2,-2.570405E-2,-3.0772844E-3,-3.9723396E-2,2.3610543E-3,3.426999E-2,5.8718305E-3],"categories":[],"categories_nodes":[],"categories_segments":[],"categories_sizes":[],"default_left":[0,0,0,0,0,0,0,0,0,0,0,0,0,0,0,0,0,0,0,0,0,0,0,0,0,0,0,0,0,0,0],"id":27,"left_children":[1,3,5,7,9,11,13,15,17,19,21,23,25,27,29,-1,-1,-1,-1,-1,-1,-1,-1,-1,-1,-1,-1,-1,-1,-1,-1],"loss_changes":[6.4711533E0,3.7214112E0,5.733058E0,4.503297E0,2.5657034E0,4.3898106E0,8.939341E0,5.455662E0,3.735981E0,3.3854215E0,3.7132006E0,9.22501E0,5.1855597E0,3.579719E0,7.0398293E0,0E0,0E0,0E0,0E0,0E0,0E0,0E0,0E0,0E0,0E0,0E0,0E0,0E0,0E0,0E0,0E0],"parents":[2147483647,0,0,1,1,2,2,3,3,4,4,5,5,6,6,7,7,8,8,9,9,10,10,11,11,12,12,13,13,14,14],"right_children":[2,4,6,8,10,12,14,16,18,20,22,24,26,28,30,-1,-1,-1,-1,-1,-1,-1,-1,-1,-1,-1,-1,-1,-1,-1,-1],"split_conditions":[-9.659258E-1,1.9807955E-3,9.659258E-1,1.0891661E-4,6.555294E1,1.4046119E1,4.6807996E-4,1.9053677E-4,3.1512332E-4,9.034749E-4,2.575529E-4,1.3506962E1,-8.920261E-2,2.8016977E-4,3.749069E1,-6.3055656E-3,3.233671E-2,6.835311E-2,2.1416062E-2,4.621751E-3,-6.65177E-2,5.4389257E-2,-1.3717805E-2,1.7880284E-3,4.7106393E-2,-2.570405E-2,-3.0772844E-3,-3.9723396E-2,2.3610543E-3,3.426999E-2,5.8718305E-3],"split_indices":[15,2,14,0,7,13,6,9,0,6,9,13,10,9,7,0,0,0,0,0,0,0,0,0,0,0,0,0,0,0,0],"split_type":[0,0,0,0,0,0,0,0,0,0,0,0,0,0,0,0,0,0,0,0,0,0,0,0,0,0,0,0,0,0,0],"sum_hessian":[1.6929874E3,7.067419E1,1.6223132E3,5.8001896E1,1.2672295E1,1.4067596E3,2.1555367E2,3.7134716E1,2.0867178E1,5.467874E0,7.204421E0,1.6522249E2,1.2415371E3,2.0586262E1,1.949674E2,2.3426136E1,1.3708582E1,5.969037E0,1.489814E1,2.9829865E0,2.4848874E0,1.9888692E0,5.2155514E0,1.5410193E2,1.1120573E1,2.4884993E1,1.2166521E3,1.2775035E1,7.8112264E0,2.4146095E1,1.708213E2],"tree_param":{"num_deleted":"0","num_feature":"18","num_nodes":"31","size_leaf_vector":"1"}},{"base_weights":[1.0977106E-2,-3.3042803E-2,1.0724424E-1,-1.7505769E-2,-4.3704522E-1,1.7154345E-1,-7.442089E-2,8.3482575E-1,-2.3281828E-2,-2.883737E-1,-1.1063957E0,2.4381931E-1,-7.561651E-2,-2.881273E-1,1.3938007E-1,-5.73472E-3,6.320987E-2,2.3172472E-3,-4.0773745E-3,-2.1289278E-2,1.8929472E-2,-6.533065E-2,-2.7274317E-3,1.0729703E-2,5.0786555E-2,2.0585785E-2,-1.1447464E-2,-1.8819226E-2,1.4649458E-2,-2.7075088E-2,1.1938182E-2],"categories":[],"categories_nodes":[],"categories_segments":[],"categories_sizes":[],"default_left":[0,0,0,0,0,0,0,0,0,0,0,0,0,0,0,0,0,0,0,0,0,0,0,0,0,0,0,0,0,0,0],"id":28,"left_children":[1,3,5,7,9,11,13,15,17,19,21,23,25,27,29,-1,-1,-1,-1,-1,-1,-1,-1,-1,-1,-1,-1,-1,-1,-1,-1],"loss_changes":[7.0834193E0,7.1934752E0,6.139123E0,5.4633226E0,3.9046955E0,6.94368E0,6.3365164E0,3.190621E0,4.4635153E0,3.4681177E0,1.4790363E0,6.55418E0,6.7057037E0,3.6616073E0,4.836362E0,0E0,0E0,0E0,0E0,0E0,0E0,0E0,0E0,0E0,0E0,0E0,0E0,0E0,0E0,0E0,0E0],"parents":[2147483647,0,0,1,1,2,2,3,3,4,4,5,5,6,6,7,7,8,8,9,9,10,10,11,11,12,12,13,13,14,14],"right_children":[2,4,6,8,10,12,14,16,18,20,22,24,26,28,30,-1,-1,-1,-1,-1,-1,-1,-1,-1,-1,-1,-1,-1,-1,-1,-1],"split_conditions":[1.416916E-3,1.5463976E-3,2.0601787E-3,-2.2828314E-3,5.561316E-4,1.3917724E-3,3.5405273E-3,-4.3956167E-3,-1.0304494E-4,9.2260706E-1,4.2088E1,1.8614084E-3,1.6991829E1,1.0432537E0,7.6874724E-4,-5.73472E-3,6.320987E-2,2.3172472E-3,-4.0773745E-3,-2.1289278E-2,1.8929472E-2,-6.533065E-2,-2.7274317E-3,1.0729703E-2,5.0786555E-2,2.0585785E-2,-1.1447464E-2,-1.8819226E-2,1.4649458E-2,-2.7075088E-2,1.1938182E-2],"split_indices":[11,8,2,0,0,5,2,3,0,10,12,2,13,10,5,0,0,0,0,0,0,0,0,0,0,0,0,0,0,0,0],"split_type":[0,0,0,0,0,0,0,0,0,0,0,0,0,0,0,0,0,0,0,0,0,0,0,0,0,0,0,0,0,0,0],"sum_hessian":[1.6696997E3,1.1462244E3,5.2347534E2,1.1047803E3,4.144407E1,3.8667126E2,1.3680411E2,6.4703155E0,1.09831E3,3.5082592E1,6.361476E0,2.9919308E2,8.747816E1,6.8243324E1,6.856078E1,2.2429948E0,4.2273207E0,5.0046497E2,5.9784503E2,2.9389246E1,5.6933465E0,5.140738E0,1.2207379E0,2.8951E2,9.683095E0,2.0533175E1,6.6944984E1,5.955127E1,8.692054E0,8.166064E0,6.0394722E1],"tree_param":{"num_deleted":"0","num_feature":"18","num_nodes":"31","size_leaf_vector":"1"}},{"base_weights":[5.2207187E-3,2.6164907E-1,-6.403389E-3,8.291652E-1,1.5320922E-2,-4.8957292E-2,8.1505194E-2,1.0538005E0,-5.684802E-2,-6.56222E-2,8.802904E-2,-3.0806644E-2,-4.200209E-1,-5.0336923E-2,2.0382154E-1,5.7000887E-2,-7.204599E-3,4.239881E-2,-1.742796E-3,-2.4710607E-3,2.5994966E-2,5.46025E-2,-2.52583E-2,3.9166518E-2,-4.0363306E-3,1.8305765E-2,3.97289E-3],"categories":[],"categories_nodes":[],"categories_segments":[],"categories_sizes":[],"default_left":[0,0,0,0,0,0,0,0,0,0,0,0,0,0,0,0,0,0,0,0,0,0,0,0,0,0,0],"id":29,"left_children":[1,3,5,7,9,11,13,15,-1,-1,17,19,21,23,25,-1,-1,-1,-1,-1,-1,-1,-1,-1,-1,-1,-1],"loss_changes":[4.977175E0,1.0109768E1,5.9811306E0,1.0869385E1,5.0884476E0,7.2424526E0,8.420876E0,2.2475224E0,0E0,0E0,4.677815E0,1.0564921E1,7.0092583E0,6.442541E0,5.4354315E0,0E0,0E0,0E0,0E0,0E0,0E0,0E0,0E0,0E0,0E0,0E0,0E0],"parents":[2147483647,0,0,1,1,2,2,3,3,4,4,5,5,6,6,7,7,10,10,11,11,12,12,13,13,14,14],"right_children":[2,4,6,8,10,12,14,16,-1,-1,18,20,22,24,26,-1,-1,-1,-1,-1,-1,-1,-1,-1,-1,-1,-1],"split_conditions":[-9.659258E-1,5.945113E-4,7.729758E-4,1.0521836E-3,2.5870989E1,1.6662781E-3,-2.5881904E-1,9.3891975E1,-5.684802E-2,-6.56222E-2,-4.641321E-3,1.3719574E-3,5.1957697E-1,1.2671862E1,-1.0304494E-4,5.7000887E-2,-7.204599E-3,4.239881E-2,-1.742796E-3,-2.4710607E-3,2.5994966E-2,5.46025E-2,-2.52583E-2,3.9166518E-2,-4.0363306E-3,1.8305765E-2,3.97289E-3],"split_indices":[15,5,5,0,7,8,15,13,0,0,4,8,10,12,0,0,0,0,0,0,0,0,0,0,0,0,0],"split_type":[0,0,0,0,0,0,0,0,0,0,0,0,0,0,0,0,0,0,0,0,0,0,0,0,0,0,0],"sum_hessian":[1.6682106E3,7.140929E1,1.5968013E3,2.089746E1,5.051182E1,1.0762595E3,5.205418E2,1.917113E1,1.726332E0,1.7371873E0,4.8774635E1,1.0271017E3,4.9157852E1,2.5079924E2,2.6974255E2,1.7929018E1,1.2421117E0,5.967814E0,4.280682E1,9.943999E2,3.2701736E1,1.9901156E0,4.7167736E1,7.9494414E0,2.428498E2,1.16182E2,1.5356055E2],"tree_param":{"num_deleted":"0","num_feature":"18","num_nodes":"27","size_leaf_vector":"1"}},{"base_weights":[3.046452E-3,-3.7623394E-2,7.1681686E-2,1.8709224E-1,-6.550767E-2,-9.072292E-1,8.5987836E-2,1.0077128E0,1.4385788E-1,1.6568105E-1,-9.1728546E-2,-1.3308297E0,1.7068826E-1,6.6612707E-3,2.512243E-1,4.4132317E-3,6.551689E-2,-2.4959305E-3,1.7088339E-2,2.1581292E-2,-1.460415E-4,-6.4874277E-3,4.0457393E-3,-7.634645E-2,-2.442265E-2,-1.2868362E-2,2.6315883E-2,-1.0859432E-3,4.0404093E-2,2.4957228E-2,3.518844E-3],"categories":[],"categories_nodes":[],"categories_segments":[],"categories_sizes":[],"default_left":[0,0,0,0,0,0,0,0,0,0,0,0,0,0,0,0,0,0,0,0,0,0,0,0,0,0,0,0,0,0,0],"id":30,"left_children":[1,3,5,7,9,11,13,15,17,19,21,23,25,27,29,-1,-1,-1,-1,-1,-1,-1,-1,-1,-1,-1,-1,-1,-1,-1,-1],"loss_changes":[4.7241783E0,6.6715193E0,8.896502E0,4.026512E0,5.7509117E0,4.4081054E0,8.145191E0,1.4753475E0,4.3451777E0,4.338893E0,5.5927095E0,3.587942E-1,6.6361994E-1,9.592072E0,9.002604E0,0E0,0E0,0E0,0E0,0E0,0E0,0E0,0E0,0E0,0E0,0E0,0E0,0E0,0E0,0E0,0E0],"parents":[2147483647,0,0,1,1,2,2,3,3,4,4,5,5,6,6,7,7,8,8,9,9,10,10,11,11,12,12,13,13,14,14],"right_children":[2,4,6,8,10,12,14,16,18,20,22,24,26,28,30,-1,-1,-1,-1,-1,-1,-1,-1,-1,-1,-1,-1,-1,-1,-1,-1],"split_conditions":[7.31411E-4,3.6591015E1,4.6380277E0,-9.659258E-1,-8.660254E-1,1.6196952E-3,6.123234E-17,-3.7299527E-3,-2.1762027E-4,8.871919E-4,9.659258E-1,2.5881904E-1,1.3917724E-3,9.3891975E1,-1.0399794E-4,4.4132317E-3,6.551689E-2,-2.4959305E-3,1.7088339E-2,2.1581292E-2,-1.460415E-4,-6.4874277E-3,4.0457393E-3,-7.634645E-2,-2.442265E-2,-1.2868362E-2,2.6315883E-2,-1.0859432E-3,4.0404093E-2,2.4957228E-2,3.518844E-3],"split_indices":[5,7,13,14,15,11,15,3,0,11,14,14,5,13,0,0,0,0,0,0,0,0,0,0,0,0,0,0,0,0,0],"split_type":[0,0,0,0,0,0,0,0,0,0,0,0,0,0,0,0,0,0,0,0,0,0,0,0,0,0,0,0,0,0,0],"sum_hessian":[1.6904479E3,1.0617557E3,6.2869214E2,1.1657599E2,9.4517975E2,8.156568E0,6.205356E2,4.717934E0,1.11858055E2,9.573839E1,8.4944135E2,5.687041E0,2.469527E0,4.1996124E2,2.005743E2,1.4881712E0,3.2297628E0,5.6896927E1,5.4961124E1,3.654072E1,5.9197666E1,6.963399E2,1.5310149E2,3.953947E0,1.7330939E0,1.2460347E0,1.2234924E0,4.0653772E2,1.3423531E1,8.385671E1,1.1671759E2],"tree_param":{"num_deleted":"0","num_feature":"18","num_nodes":"31","size_leaf_vector":"1"}}]},"name":"gbtree"},"learner_model_param":{"base_score":"[4.57783E-1]","boost_from_average":"1","num_class":"0","num_feature":"18","num_target":"1"},"objective":{"name":"binary:logistic","reg_loss_param":{"scale_pos_weight":"1"}}},"version":[3,2,0]}